window.characterToIndex = {"0":1,"1":2,"2":3,"3":4,"4":5,"5":6,"6":7,"7":8,"8":9,"9":10,"H":11,"i":12,"g":13,"h":14," ":15,"s":16,"p":17,"e":18,"d":19,"a":20,"n":21,"m":22,"u":23,"l":24,"t":25,"c":26,"o":27,"D":28,"r":29,"b":30,"k":31,"w":32,"(":33,"K":34,"W":35,")":36,":":37,"f":38,"y":39,"E":40,"x":41,"S":42,"j":43,",":44,"O":45,"T":46,"v":47,"C":48,"R":49,"-":50,"V":51,"z":52,"q":53,"N":54,"M":55,"A":56,"X":57,".":58,"/":59,"P":60,"I":61,"B":62,"G":63,"F":64,"U":65,"L":66,"\\":67,"'":68,"<":69,">":70,"+":71,"?":72,"Q":73,"Y":74,"â":75,"":76,"¢":77,"J":78,"Z":79,"_":80,"&":81,";":82,"Â":83,"®":84,"*":85,"\"":86,"!":87,"":88,"@":89,"":90,"":91,"":92,"":93,"`":94,"=":95}

window.indexToCharacter = {"1":"0","2":"1","3":"2","4":"3","5":"4","6":"5","7":"6","8":"7","9":"8","10":"9","11":"H","12":"i","13":"g","14":"h","15":" ","16":"s","17":"p","18":"e","19":"d","20":"a","21":"n","22":"m","23":"u","24":"l","25":"t","26":"c","27":"o","28":"D","29":"r","30":"b","31":"k","32":"w","33":"(","34":"K","35":"W","36":")","37":":","38":"f","39":"y","40":"E","41":"x","42":"S","43":"j","44":",","45":"O","46":"T","47":"v","48":"C","49":"R","50":"-","51":"V","52":"z","53":"q","54":"N","55":"M","56":"A","57":"X","58":".","59":"/","60":"P","61":"I","62":"B","63":"G","64":"F","65":"U","66":"L","67":"\\","68":"'","69":"<","70":">","71":"+","72":"?","73":"Q","74":"Y","75":"â","76":"","77":"¢","78":"J","79":"Z","80":"_","81":"&","82":";","83":"Â","84":"®","85":"*","86":"\"","87":"!","88":"","89":"@","90":"","91":"","92":"","93":"","94":"`","95":"="}

window.hidden_sizes = [30,20]

window.model = {"Wil":{"n":96,"d":5,"w":{"0":-0.647394242871122,"1":1.4960154320380858,"2":-1.3424055060352622,"3":0.9854905041006429,"4":-0.8012305201151096,"5":-3.3168018936082584,"6":0.2737983119704116,"7":-1.5129774533075453,"8":-0.06505632102673857,"9":2.078905403284285,"10":-2.9462667951557573,"11":0.07426044148122682,"12":0.791917291521139,"13":3.3550130520117767,"14":-0.00552622361887791,"15":-2.725105893251066,"16":-1.3352864360195846,"17":2.4682269823118337,"18":1.3912541495495623,"19":0.5727446672164651,"20":-1.6571296795412427,"21":2.8230350924746777,"22":-4.58040029147148,"23":1.831150285563797,"24":0.38055865614180695,"25":-2.0029675072277318,"26":-1.7105397160826292,"27":-0.27476444593994803,"28":1.879594739974346,"29":-0.4159092444627476,"30":-2.735445891879879,"31":-0.9060284147247137,"32":0.7884428529128416,"33":0.8235518731203273,"34":-0.179609863943556,"35":-4.440501224987018,"36":-0.7044982714906807,"37":0.2950874405115904,"38":0.48268477851893926,"39":0.2676640170446124,"40":-3.3637168662336516,"41":0.9009080986782814,"42":-2.891491484936065,"43":2.618935616822358,"44":1.4149257254708187,"45":3.376756615032368,"46":7.240310108487122,"47":0.5042769536596811,"48":-0.17365015726815997,"49":-3.037508256329484,"50":-3.4991814176547122,"51":-0.7125498574918624,"52":0.17725546595328778,"53":2.8005846882464627,"54":1.3520452992220036,"55":-0.34582494425924126,"56":-0.22549528475218297,"57":-1.4775850586819779,"58":0.7061561122594001,"59":5.389874674319826,"60":0.557538762554642,"61":-0.5982967471627253,"62":1.409945552247414,"63":1.207943788995339,"64":-3.3758585705457254,"65":4.689866478757323,"66":-0.8346382714815013,"67":0.7424882398756874,"68":-1.983345575519191,"69":1.4776248216646939,"70":4.650446478567539,"71":-0.6506149536328905,"72":1.9004583095922163,"73":-0.07437415704867446,"74":1.8380098650228927,"75":-3.7707352827459792,"76":4.143897306762425,"77":-6.842295144842573,"78":3.880817173402554,"79":-6.711795854300696,"80":1.6796463841001332,"81":0.8917146380497663,"82":1.4540640486819751,"83":-1.3996850994323495,"84":0.37794291479858794,"85":0.7356493481600223,"86":-1.1256946146380726,"87":-0.5355621679359577,"88":-1.5671272996456358,"89":-1.0740943994506145,"90":0.3934857265541699,"91":1.0174139405373666,"92":-0.19462131568961566,"93":-1.204758841976085,"94":2.719615156148711,"95":3.733447505116401,"96":0.20257002376431116,"97":2.26006254677462,"98":-1.7216328791269089,"99":3.943770684735966,"100":0.5051804491302027,"101":2.791900058706826,"102":-1.3171333540670072,"103":-0.8372710271822215,"104":-1.474383272631846,"105":2.0858235823902156,"106":-0.06798810476861299,"107":0.2938731744582556,"108":0.545151390845628,"109":0.663263019377692,"110":2.7592074209584045,"111":-1.3979695080361259,"112":1.6052119394588649,"113":-1.6723694448285822,"114":-1.1007872450964309,"115":1.2469962385059177,"116":1.343457857667137,"117":0.4545978069785872,"118":-0.40634691610181817,"119":-0.7675258070080115,"120":4.61818129853546,"121":0.1899192540392414,"122":5.01844603670523,"123":-1.4644988555797511,"124":-1.7750522629446808,"125":1.1330239238549464,"126":-0.9535092010050898,"127":-0.6613488563071941,"128":-3.948251958657966,"129":-2.207710911551458,"130":1.6887788516689495,"131":-4.040364790950036,"132":0.4208738825062126,"133":0.5730705430632745,"134":-1.607652099647345,"135":-0.5830570751604793,"136":-0.013617067936368368,"137":0.15966220403877596,"138":0.5249964129217369,"139":-3.8458335924698726,"140":-2.772244499013398,"141":1.4003624267065942,"142":0.5200573264431257,"143":2.093892574805704,"144":6.559782446974817,"145":3.2649074548250696,"146":-0.5604729915751729,"147":4.106962200502676,"148":1.6800556343006448,"149":-1.1195292745708352,"150":-1.0527383414812175,"151":-1.049592730685056,"152":2.437533753249138,"153":-2.8386664638010113,"154":-2.1203580901813646,"155":2.5476435525992196,"156":2.0889261951564686,"157":1.0605910906980718,"158":-0.641841979702747,"159":-0.04491807911602874,"160":3.760018900568481,"161":1.7738155876129666,"162":0.5798737593168958,"163":-0.7154841880534692,"164":-3.674707587663272,"165":-3.948735855852655,"166":-3.707427635704368,"167":-12.540566830075361,"168":8.98140513160343,"169":2.8392083724788955,"170":-1.139792141356055,"171":-1.6906059806760183,"172":-1.8098030922264297,"173":0.330604135380751,"174":-0.4708340175245091,"175":4.5778085787265415,"176":-0.7254299479064572,"177":-0.6915289632143607,"178":3.718350646592077,"179":2.1144155630564914,"180":2.612582906108334,"181":4.665707479433778,"182":-3.590281153739351,"183":-5.1013593917099405,"184":1.2762192731153938,"185":7.190071330643552,"186":8.48073681926497,"187":-5.077705598387798,"188":-5.829298581303378,"189":2.5859249146920504,"190":5.704513592975376,"191":4.418150293220716,"192":3.8317396981558933,"193":-5.528994856883708,"194":-3.9282722275577737,"195":3.398541520362478,"196":1.1431760699814373,"197":-0.015069705425380612,"198":1.4116386618369166,"199":2.413008369995317,"200":-2.6482832829192153,"201":-0.2540774772226803,"202":-1.4289159015558637,"203":-0.050766524198423486,"204":1.3858227100766334,"205":3.1082802034637385,"206":-0.5569801685016965,"207":-1.5374383181653193,"208":0.5342889942342745,"209":3.55852714386595,"210":1.118358585967075,"211":0.5784455498074961,"212":0.28916513529768306,"213":1.381535050667171,"214":0.3075685939393342,"215":8.046927800557336,"216":-1.4993442402183403,"217":1.5539061891532744,"218":-1.696970519868347,"219":0.24809848129662945,"220":6.526997401749642,"221":9.625803014918132,"222":0.8159555113900583,"223":-6.874567498806292,"224":-0.08496388184793145,"225":-0.28229267274720515,"226":-0.6888850899467723,"227":-0.4421735878164997,"228":0.3723034990082813,"229":-1.3433640898697166,"230":2.223966530038279,"231":-0.06122845484322486,"232":-3.178539590022596,"233":1.974571146727651,"234":-0.9454554029744445,"235":5.029213819153714,"236":0.18663469925888754,"237":3.5269291308013826,"238":-4.903457171979278,"239":-0.6911609896566647,"240":-0.7247417265802955,"241":-2.4452661946085437,"242":0.08330154601850534,"243":2.142047066441768,"244":0.4411038379956172,"245":-2.0604617943451835,"246":-0.48641444874052386,"247":0.4720678406755726,"248":2.288897472165042,"249":3.275528787045667,"250":-5.629300056449165,"251":2.047763836134538,"252":-4.463342625678399,"253":3.2814664910640343,"254":-3.3534979147962316,"255":-0.2733435386917762,"256":0.6376777510047712,"257":3.0387943054340454,"258":0.19464837293515,"259":4.6401886213462,"260":2.0894112326268552,"261":0.35578409959175383,"262":1.1025328470835996,"263":-0.04148897748108688,"264":-3.1947037778375393,"265":3.0143382080108085,"266":0.9551524360388959,"267":0.2342902322832613,"268":8.32153925684435,"269":-1.1057025631620279,"270":2.820948395293653,"271":-1.1913417104423079,"272":-1.4281320044230223,"273":0.09805149123730551,"274":-0.14704429514453288,"275":0.7199306202521748,"276":0.21129721863441855,"277":0.39994838693438584,"278":1.709376318244372,"279":2.337903041697493,"280":-0.7804370519910883,"281":0.8682942051350144,"282":0.38281586205594853,"283":0.4797123969855392,"284":-0.8397008727287814,"285":-3.6825422174904783,"286":-2.26057791815763,"287":0.16537999549245766,"288":3.3526210604406868,"289":6.469511832298059,"290":-0.36188273074141114,"291":-0.40678838348285734,"292":-1.4766425663682785,"293":0.3338747748457418,"294":0.8071123930563885,"295":-2.6210035824787385,"296":0.08424210568827124,"297":0.5547157992604416,"298":2.380096667753852,"299":-0.032244544606903895,"300":-0.47538042814090203,"301":-2.5697686865950775,"302":-2.8719076358701408,"303":0.6193422540774228,"304":0.6544223542314332,"305":-1.9311222701656148,"306":-2.803813391441098,"307":-2.699230301741479,"308":3.1792752857203777,"309":-0.4013118477747362,"310":1.5015835632144023,"311":4.30735768409601,"312":-5.317163059587905,"313":4.265603652402954,"314":1.321165759625839,"315":-0.9200366837901879,"316":-0.49226978934325805,"317":-0.3745479478214659,"318":-0.932810208334002,"319":0.06610430930481447,"320":-0.8543409559567589,"321":-2.766673844931738,"322":-0.4917715847300541,"323":-0.22359404295061322,"324":2.129652551558237,"325":0.39771154251806384,"326":2.02838745911855,"327":2.272648013402567,"328":1.1651935941926235,"329":0.33528561505217375,"330":-0.6546953049727527,"331":-1.1992643596646384,"332":1.154574246994968,"333":2.885531883146199,"334":2.7135085426508914,"335":-3.658242439236547,"336":1.261479016237463,"337":1.7213307686242176,"338":-1.9500725853744751,"339":-1.0984281978482244,"340":1.119997960986286,"341":1.7871816474680444,"342":2.438027670799299,"343":0.3759383213894379,"344":-1.2549226308264896,"345":-3.0644641604061036,"346":2.274691468534042,"347":-1.9122388556251042,"348":4.234214962843907,"349":-1.0912294207925053,"350":2.2412830151927143,"351":1.914759857531945,"352":-1.548693903067661,"353":3.310642519849053,"354":0.806205926919329,"355":-0.21314869684610793,"356":4.31826031825203,"357":1.6110950989384552,"358":1.8188939923103304,"359":3.3119864390271343,"360":1.3622268621307396,"361":1.1113562603884626,"362":2.432933058421453,"363":-1.9540991944586048,"364":0.9888422879333096,"365":-1.3770655318574039,"366":1.649274213960824,"367":-1.7092047234761316,"368":7.349456522080537,"369":0.9886493745100969,"370":-0.2715636466480587,"371":-2.7324824259275724,"372":-0.7255383966172921,"373":2.580359309138111,"374":1.865584966899812,"375":0.16675300273435179,"376":1.3367388347510583,"377":-1.034188152878375,"378":0.09608591301299427,"379":0.7977825720042697,"380":-0.7789001828459207,"381":0.3401130036569341,"382":-0.6050529200469795,"383":-1.4128293527066589,"384":-3.195650940765318,"385":-1.6996360242254158,"386":2.1520583543993386,"387":1.2537479690307973,"388":1.611529019945275,"389":0.5322106142425428,"390":-0.21116450924326582,"391":-2.4394790320010737,"392":-0.4671421192968367,"393":3.115175534478667,"394":3.906504296881378,"395":-2.5855127624651084,"396":0.7583461288845286,"397":0.12993698909532828,"398":1.3979916783470738,"399":2.158767670665628,"400":1.5950435833043393,"401":0.7561984908938424,"402":-0.6003685548478648,"403":0.7810115246745906,"404":2.3854605774302766,"405":0.8069716494147865,"406":6.091850819812509,"407":-0.6406024943219132,"408":0.7801023134044139,"409":-2.0769954891188873,"410":-0.4341889759887698,"411":1.0641585831444007,"412":0.2561830059011498,"413":2.998859785172755,"414":2.9038601282905527,"415":-0.8403471944533262,"416":2.0726741323089835,"417":-0.4980530026600217,"418":1.04924046422525,"419":-1.9288440728698077,"420":3.8489993618387452,"421":2.5765376592910947,"422":-1.4563391807732726,"423":-0.025924672547638652,"424":4.788008952810343,"425":-1.9094457143622454,"426":4.6870437139399055,"427":-1.659908728581182,"428":2.645450668285226,"429":1.6425856004886863,"430":-1.823113906253617,"431":0.9234054273277451,"432":-5.0714357304517454,"433":2.5683400794275286,"434":0.2481251073283201,"435":3.3048832827770065,"436":2.0148119878310182,"437":1.7222346721083115,"438":-0.7569498279848417,"439":3.3540890482697834,"440":-4.740000337259086,"441":1.022947148515473,"442":-2.0696177040245574,"443":2.174715873007108,"444":-0.22314910811385422,"445":-3.353455702113919,"446":1.4863833700979665,"447":0.8926012608765859,"448":1.7593971735886953,"449":-2.6513311234503676,"450":-2.3744360565558864,"451":0.41581195533274584,"452":2.5762373310465962,"453":2.318583420706683,"454":1.7817389857105534,"455":0.40576769045882244,"456":0.19683378752127187,"457":-0.1683803448469058,"458":-0.4257933904850558,"459":-0.9730266553449449,"460":0.3428940929089382,"461":2.0790637581106153,"462":3.1866452309024966,"463":-3.056651064253114,"464":0.1267337356549616,"465":-0.5566666929228193,"466":-2.6108005167183403,"467":1.2349359166243814,"468":-1.2362471239547947,"469":2.714005562074881,"470":-1.4212620549405408,"471":1.3519792710506908,"472":-0.1165641775681088,"473":-1.0080956974119468,"474":-1.428149432957946,"475":-0.43595471782992734,"476":1.933311888708843,"477":-0.08068004410924035,"478":-1.134600819725738,"479":-2.5784403121866992}},"Wix0":{"n":30,"d":5,"w":{"0":-2.6033042044123103,"1":1.4315788185008813,"2":-2.1748278565586183,"3":1.0989370663291442,"4":0.34587135721217277,"5":-0.5221767569394904,"6":-1.5247555903943806,"7":-0.13234826265900018,"8":1.0807654061081071,"9":2.0867427652856785,"10":-1.085193222346917,"11":3.4264606187564857,"12":-2.092010906358316,"13":-0.0670046911991085,"14":-1.1092709208961506,"15":-2.420688314501782,"16":0.609150186747508,"17":-1.3014597485832609,"18":1.6064968993975106,"19":-2.679291174466826,"20":0.8363449579604034,"21":-0.5037517795709625,"22":-2.206578774644657,"23":-3.7577938113340403,"24":-1.5044545739066775,"25":1.654584442757788,"26":-2.3182717416745877,"27":-0.6119364641331902,"28":1.6351412793391784,"29":1.8281786925064791,"30":-3.031432135647687,"31":-0.050832143591699366,"32":-2.597675463712229,"33":2.576119085989921,"34":-1.2617144713093438,"35":1.868007649466147,"36":-0.5924724935186386,"37":-0.7385558759743,"38":-0.8224422225230446,"39":4.046512020281077,"40":-3.4194149472432205,"41":2.466971007821984,"42":2.7639892856054065,"43":-1.1639268840296049,"44":-1.0893696913489335,"45":1.4034227647410744,"46":2.9678033273243893,"47":0.6815765729512911,"48":-2.679257520600796,"49":3.952684300254746,"50":-0.737862459416851,"51":3.9016794746952725,"52":1.7207230837910006,"53":-0.741930605891124,"54":-2.941120526702192,"55":-0.3195048109830813,"56":2.018051845780701,"57":-1.3618523744084456,"58":1.0201051285779588,"59":0.9539040926590812,"60":-0.17425888444268461,"61":-2.7097155886865543,"62":-3.3492705812395838,"63":-1.694416574804955,"64":2.3301731610918384,"65":0.4613471903270663,"66":2.1490541036770177,"67":-0.9256061689127582,"68":3.4075926565564534,"69":-0.9737346190491696,"70":-1.1363063175992894,"71":-3.330623172354415,"72":-0.7320129309379583,"73":1.8801906892220026,"74":-3.2549653271513335,"75":-1.0015549043243739,"76":0.0013326411762745326,"77":-2.3754734469820455,"78":-1.8045287302506707,"79":1.691846290603951,"80":1.021841725374735,"81":-1.881343483185589,"82":-1.57710536655441,"83":-0.4316241936057158,"84":2.4648970209588423,"85":-0.36306872539045665,"86":-1.3589566936850703,"87":-1.3844431147411573,"88":-1.2900199382219177,"89":0.6561902304514546,"90":-2.3790647676427743,"91":3.116053641483811,"92":-1.9517781507498648,"93":2.2092570583604374,"94":1.9722259858827282,"95":-2.8705172239256598,"96":1.7513437930422775,"97":-2.2519146961801444,"98":0.7804963234340029,"99":3.3611747983155396,"100":1.083033645920344,"101":0.35890686750190404,"102":-1.2874507168294436,"103":-0.022613982525350376,"104":-1.3790129293571032,"105":-3.81328819254124,"106":0.8455452474165617,"107":-1.9450950632640944,"108":-0.6342231315229189,"109":-0.08236827204939019,"110":1.2753022954904523,"111":-1.656295793846483,"112":-3.2553358990595314,"113":-3.2024629916475957,"114":3.125634557864145,"115":2.74699358163245,"116":-1.3154065032963123,"117":3.8042599366909706,"118":1.605703912863076,"119":0.06628784270331736,"120":0.10555715762592684,"121":-0.79666870135686,"122":-0.5570713856252254,"123":-0.16266432726526928,"124":0.4524112780548029,"125":-2.9800652390490856,"126":-1.6721961542164736,"127":-5.311361537014337,"128":0.3900204500617382,"129":3.6085900658278014,"130":-1.68270334407401,"131":2.636897912725837,"132":-0.5676599595537888,"133":5.732215041654642,"134":-0.4492739986989375,"135":-2.5138603063986524,"136":4.319200418500534,"137":0.04086823341596575,"138":-1.7353431520570894,"139":-1.4519935655525111,"140":-1.4471207540398865,"141":-10.534806570040002,"142":-0.7959116603406012,"143":3.365449500967575,"144":1.6967569113194754,"145":1.7336061520960766,"146":-2.025541518720296,"147":-0.03440252137641783,"148":-0.25163379929373536,"149":1.6752809865258458}},"Wih0":{"n":30,"d":30,"w":{"0":3.6743058021827886,"1":-0.1012538831503937,"2":-1.1858449111782616,"3":1.6812094345012623,"4":0.9013632868864175,"5":-1.3145585811113192,"6":1.7039118627844057,"7":-2.7425507064547237,"8":-2.7983914541283914,"9":4.220603979296918,"10":7.194098196770195,"11":-2.5285290968848058,"12":6.0471344649460645,"13":2.1272651951009243,"14":-2.376082408474969,"15":-2.915945826439978,"16":-1.9498993585411621,"17":-1.5826922086385815,"18":1.7359015550682917,"19":0.20863352986091457,"20":-0.8726094052370273,"21":-2.336635658809097,"22":-5.1685707273159265,"23":-1.767222642961499,"24":0.9711994670535489,"25":-0.4160367638086437,"26":-1.8178892094356862,"27":-3.4134233953754234,"28":3.2642713309346916,"29":-5.6904930267126685,"30":8.574378409614425,"31":0.5495579694434461,"32":4.923387587493695,"33":-0.11531202326330961,"34":3.5614714262751295,"35":9.152259368175844,"36":1.7350928541163761,"37":4.0635360838495975,"38":-1.9432691894357867,"39":2.3333821138500417,"40":-0.7894226582280129,"41":-1.5805072074125497,"42":0.5935972708899374,"43":-0.6668547472643107,"44":-4.784052629869582,"45":-3.3753159415281697,"46":0.4504643341327974,"47":-1.5875273940093082,"48":4.156602599400713,"49":8.11600892170507,"50":4.1428449372989835,"51":3.7801586447183912,"52":-0.8868906473415363,"53":-2.509533390331233,"54":0.5921649083049347,"55":6.350239020859983,"56":-2.204374862643472,"57":5.957480887194688,"58":1.207165460390893,"59":-0.5797087634976434,"60":-0.5078146736725293,"61":-2.416723700117045,"62":0.3867156856303356,"63":-2.1338883703858595,"64":-1.3183979683510374,"65":-2.0643310675812105,"66":-0.835113811803963,"67":-2.718713878256144,"68":-1.7763281105986986,"69":-4.447109528201619,"70":3.55017968254674,"71":3.3983778538704406,"72":-0.273814619715818,"73":2.1829802021280162,"74":-2.9519204372293486,"75":0.6411533132897802,"76":5.5714004406751085,"77":-3.8378534166381617,"78":-1.9407788649274142,"79":-0.5760016526102926,"80":-0.044362773267045796,"81":-0.05715989842318648,"82":-1.0273986318285133,"83":-0.4980937496888662,"84":5.123072576159757,"85":-1.6041541646298463,"86":1.3021843393757213,"87":1.7132354904323335,"88":-2.1328922768294154,"89":-2.923249160197774,"90":-1.4348610773015957,"91":4.140297707724423,"92":2.528323846069589,"93":2.463162930585051,"94":7.724361018802433,"95":-9.505682747382519,"96":-4.680353414020929,"97":-0.10207344465453633,"98":1.945081930140914,"99":4.250141394675883,"100":3.1293636231207054,"101":3.209311553344706,"102":-8.822433637239794,"103":-1.3177041753441405,"104":1.3674157888058747,"105":2.431825363940707,"106":-2.345673093285185,"107":0.2692092658744364,"108":-4.322437333871946,"109":4.044058018611338,"110":-1.7266935154612773,"111":2.7933150162335245,"112":-1.8128386418426103,"113":1.301257598257601,"114":-0.48433643299772294,"115":4.335890030615626,"116":3.5688913203631683,"117":-2.9085338665243983,"118":1.5258780766720637,"119":-7.681453643113813,"120":3.221893529875072,"121":3.7776917574579283,"122":1.7994760293671934,"123":2.572814520628591,"124":4.445082681425287,"125":-2.0108863979649505,"126":-4.855884780152984,"127":-2.1719566695153802,"128":2.1026159138117615,"129":1.6400833985544019,"130":2.635334907462415,"131":0.5811038827317732,"132":-1.6451967663479292,"133":5.439276827675471,"134":1.2986992748464339,"135":-0.5837495200021107,"136":-1.5000651342959428,"137":-8.00485602142061,"138":1.7978828126948962,"139":-1.7945821831776876,"140":5.240142673693096,"141":2.0292139170215813,"142":-3.6917082080267805,"143":1.8779979529179944,"144":0.8661022551383556,"145":-2.5308776676060076,"146":-2.0518141457272785,"147":5.995270248023508,"148":5.491705857414207,"149":-2.6486343106112775,"150":-0.996243514492031,"151":7.057807213428617,"152":-1.1994923900804295,"153":-1.9992187266417092,"154":-9.590966494289043,"155":-2.1997128107746953,"156":-0.35856510093130656,"157":2.9454573982097227,"158":-2.6112312566281735,"159":-1.9583861425805422,"160":3.840742732533922,"161":-0.7752075749902837,"162":1.0588229129424198,"163":-4.172362242188485,"164":-0.7258249868089346,"165":2.07336269610158,"166":0.5161562323460681,"167":-2.3538862068818167,"168":-0.9519436117893803,"169":-0.561164812213252,"170":4.059071994309352,"171":1.6095065738521217,"172":-3.386305990696123,"173":-6.094646757377143,"174":0.03134078528952327,"175":-1.7902200996760782,"176":-2.0983297709068305,"177":2.4795762816143707,"178":3.9321498318461523,"179":-0.48622788935816735,"180":3.499449821920314,"181":4.834940582343441,"182":-1.1159964795275872,"183":0.010126629552609017,"184":2.1652136334215224,"185":-2.5410987504772424,"186":1.4559523101054765,"187":-3.120610100415446,"188":1.1296522267692282,"189":7.169572391144312,"190":2.3616441227322498,"191":-6.503992068029435,"192":1.7023520798474596,"193":-1.4092181426906643,"194":-2.5545866387290976,"195":5.359535467566938,"196":-2.959751765740961,"197":7.647101867614248,"198":-0.8002418659531227,"199":-1.3617397388651349,"200":3.893020529709175,"201":1.6036320855214627,"202":-4.9735965358138685,"203":1.0118191238324383,"204":0.1579377598661108,"205":0.11803889191991929,"206":-1.8629264010207227,"207":-3.3576587105843574,"208":-0.8586070081054096,"209":1.9086177300398572,"210":4.869014154717651,"211":2.434535841507878,"212":-0.8041649411365811,"213":-4.773898359578843,"214":-2.222164883094479,"215":-3.590287450469718,"216":-9.653561799437071,"217":-1.425142751676606,"218":0.7746740399527546,"219":1.6554946815763287,"220":-0.22740024956311503,"221":-0.5691735297805569,"222":4.133548469128471,"223":12.625649567909852,"224":3.427881678101952,"225":-8.040164533668959,"226":0.24817445682425063,"227":-5.776431417475458,"228":3.1975857236832463,"229":0.42126387976592095,"230":8.328521222432359,"231":7.62612888403203,"232":5.152899126484263,"233":-3.343693295240631,"234":-5.411981165448578,"235":1.0118796033027704,"236":-3.503321761284317,"237":3.100154599930014,"238":-1.8087787675495461,"239":3.8315993258728533,"240":-2.0069703244953847,"241":-5.0944668594566505,"242":1.8169103315218245,"243":0.33610536422021714,"244":10.252505218034514,"245":-1.4431548778111625,"246":-6.358844800435216,"247":2.5843583616201053,"248":0.649789809062985,"249":-2.0680254332814374,"250":-2.428452301529939,"251":-4.365086661558922,"252":4.401552687019181,"253":1.2752801327970194,"254":2.3428814365814734,"255":-6.802872839288468,"256":-2.2341729858769535,"257":-2.05752304821035,"258":-4.658627519068692,"259":-0.3058695994577923,"260":-1.6096335296938067,"261":5.691474640360993,"262":8.113844971525763,"263":-9.070695082689966,"264":-0.6818350498720993,"265":-0.11474207573877895,"266":-1.594123425002995,"267":-4.522725304865308,"268":3.4915196179403836,"269":-1.3492597815820664,"270":4.114857349026441,"271":-6.917829333548646,"272":3.153752063008971,"273":-5.2211398048805,"274":8.213828784109301,"275":1.895623624870045,"276":0.4179114858981747,"277":0.5248036562534617,"278":2.2034756313699666,"279":0.9779219594283282,"280":3.866645414520962,"281":-2.0812154438227766,"282":-1.4333158836964621,"283":1.0120876849595146,"284":-1.0188509917684723,"285":-7.0364733303671665,"286":6.1902403354609605,"287":-0.47619329568667795,"288":4.57349914360722,"289":3.4945425668983323,"290":4.482101606371888,"291":-4.267541716906984,"292":1.1018346822487552,"293":5.689788480569996,"294":3.7968621195235923,"295":-6.115046918868249,"296":-0.8090641062694294,"297":2.957544822453385,"298":5.649488160130859,"299":-6.351480430594789,"300":-0.48962350169689745,"301":1.1360947875922083,"302":-1.2839737214873908,"303":-1.101702305204328,"304":1.7102159454529144,"305":2.0614059211571703,"306":-1.6518955729525064,"307":-0.3502320407363924,"308":1.999380927213501,"309":3.6970815796587484,"310":5.98126335602411,"311":-7.331629629237615,"312":1.3063410913688835,"313":-2.0789256768852726,"314":-0.14052757633361804,"315":1.0269421337210451,"316":-1.4590040731033869,"317":-4.094717779963356,"318":-1.6313802721269952,"319":-2.932504605903638,"320":1.4033390494179483,"321":1.9311279914893755,"322":3.5800152665470875,"323":-2.2812196402669844,"324":-1.16583550783256,"325":-1.5802825796832456,"326":0.9577867158004677,"327":1.530503522246091,"328":0.28319949692894336,"329":1.6506738354147614,"330":-0.9598642968905398,"331":3.45316000287843,"332":-6.011165039758734,"333":5.837285693542808,"334":2.8656700145124376,"335":-1.0616318763342778,"336":3.3252246537494483,"337":1.3422918196853544,"338":0.634162402201229,"339":-2.919277352775395,"340":3.2364828771531826,"341":-1.5283564842591215,"342":-0.6282026078695206,"343":0.1383791924203645,"344":1.0935085036303256,"345":-1.5074850697077362,"346":2.227261179780658,"347":-3.5707134019496487,"348":1.6943739274209653,"349":0.7562519931854257,"350":-0.5266416368222023,"351":1.201260731579573,"352":3.8259777574094413,"353":2.4574772274503123,"354":-2.0105685461812275,"355":1.3790292171850704,"356":3.9086674086401527,"357":2.0617497327990773,"358":1.0679917900771705,"359":-0.127258620166037,"360":-2.2713953497622175,"361":-1.979191949273997,"362":3.233478669223848,"363":3.9803930758817976,"364":1.485796486443182,"365":3.048730704349002,"366":-2.915372319801523,"367":-1.6238759802014548,"368":-4.133720771104958,"369":10.944964965027259,"370":0.345570135072241,"371":0.3791748268026323,"372":5.035063085813074,"373":2.553194439532842,"374":0.6707208518049852,"375":2.515910638305861,"376":-1.1189488429636663,"377":-1.8336653670902887,"378":5.203642914812311,"379":-1.1454594034225474,"380":1.1695911183448175,"381":1.8774043158145928,"382":3.787449125763409,"383":-1.5380174951138128,"384":0.40171940066815065,"385":-3.1179563665028165,"386":-11.306340020678274,"387":3.8093619758716573,"388":-4.259960489698747,"389":-3.219221788459768,"390":-1.8646130175430589,"391":3.3756981361736096,"392":0.09462227252159677,"393":3.143493888268762,"394":3.388433834223703,"395":-2.776132307517745,"396":-3.3939601616302726,"397":2.212097772911875,"398":1.0188582368914223,"399":-3.848034057346832,"400":3.200474852624971,"401":-3.36236978344992,"402":-2.9567561488600207,"403":-6.585238391415584,"404":5.770848701979146,"405":-2.4232298066566087,"406":2.667723861892092,"407":-0.13614031208860267,"408":1.3982278247126059,"409":-0.48539163914183137,"410":-0.33592554796742546,"411":0.9070623505713318,"412":-0.553156355805554,"413":-2.5588385543667402,"414":0.053565743387079146,"415":-1.2055814727015266,"416":-4.120649945736433,"417":-1.4750244571670719,"418":1.0713761635398646,"419":4.7741428048577745,"420":-12.692424943001658,"421":2.230766940515016,"422":-1.8786135112251794,"423":2.476136106634133,"424":0.30012539874788996,"425":2.2115609717870215,"426":11.663561712066237,"427":-2.4226743271528006,"428":1.2560891061386537,"429":-1.7295789247299012,"430":-3.955647635108463,"431":1.618470959005533,"432":2.901520938928653,"433":1.9390210688615779,"434":-5.158339909706454,"435":-1.1754021023698022,"436":1.1830977395978841,"437":-6.742556411329451,"438":-7.410280177977298,"439":-3.5954010983459357,"440":-1.208509353702289,"441":-2.4938163780362257,"442":-4.968209016506567,"443":14.74827764651197,"444":4.9495480338104425,"445":2.235898673872385,"446":1.8020580185191848,"447":-2.0452103436945785,"448":-5.868916390172696,"449":4.349361067159613,"450":5.931563684878547,"451":-2.60315299761286,"452":1.090694543772611,"453":-0.6717224996744443,"454":-5.571966249307698,"455":-1.4979947864885599,"456":7.4849143031651675,"457":-5.369792869136698,"458":0.46970645215278384,"459":-2.0514875416574956,"460":-2.7974688821948113,"461":2.5945837712196256,"462":-0.2002555277306754,"463":11.726732142523842,"464":3.3301974990736003,"465":-4.4659633395571205,"466":-1.0457060357143093,"467":1.4419184137213987,"468":1.6563625148162537,"469":-7.011236798286497,"470":0.3270961932506119,"471":-4.936582909033134,"472":-0.1980852658304093,"473":-7.567728617469416,"474":-5.868324135703529,"475":1.5333211562334,"476":-5.681280189607422,"477":-2.717637122243106,"478":6.208568971583178,"479":-3.906881854585081,"480":-5.271644090802511,"481":-0.9424742965525937,"482":-2.253375889683651,"483":6.357324581400352,"484":3.730266705362969,"485":2.778203651494152,"486":-2.814323024202636,"487":3.531272023744148,"488":0.2753548466769129,"489":4.671603675029415,"490":2.5934781909445044,"491":-1.785387367148166,"492":-1.3653474597760689,"493":2.2022321435214276,"494":-0.5556520333666755,"495":-1.6164841843857398,"496":3.8743282819050457,"497":-8.12044389586637,"498":3.1483615460395833,"499":0.41542890339399163,"500":2.548070328193792,"501":7.436604729920776,"502":-0.2518603251707544,"503":6.142845895677053,"504":-3.7945717639225536,"505":0.4716966882177442,"506":-1.562854782075169,"507":3.0653822780942543,"508":0.12735911721938759,"509":-0.31206242993883515,"510":5.9364878785448765,"511":-5.800327500672605,"512":-1.6821651168056533,"513":1.2869869094233433,"514":-5.126000829899988,"515":5.298084854695249,"516":-1.8841377721941424,"517":-1.525208134989378,"518":-10.739552042795443,"519":8.094072665399699,"520":1.480524768202095,"521":-4.997678958729561,"522":5.689915731315666,"523":-2.225595602592391,"524":-7.491564209057963,"525":3.562663816282543,"526":6.447153838697582,"527":1.987136251938483,"528":2.526506178431511,"529":3.1751223452312347,"530":2.649838328254673,"531":0.7435629910588654,"532":1.3273244192869922,"533":2.1742200110775274,"534":0.47748404231783936,"535":0.5376982714557543,"536":5.762263077900741,"537":0.13116592211957698,"538":4.118254204511822,"539":-1.4831387933448994,"540":-1.2044737512207628,"541":0.6610959595327499,"542":3.753064006552244,"543":-3.8344953623138602,"544":1.5231634225843587,"545":-0.4772212642817642,"546":-0.8459910500016699,"547":0.7260412667764472,"548":1.3990872983174139,"549":0.697389463391986,"550":-0.562075323590626,"551":1.8545943604744524,"552":-2.107035806607591,"553":-3.1202006960690474,"554":-0.2741790975435061,"555":4.423449873085516,"556":1.2618002760352898,"557":0.8160141510306397,"558":-5.403925792923302,"559":-2.3559989728881607,"560":-4.473979330056948,"561":1.4628696698056487,"562":-0.6332682939403453,"563":-0.8186718751603294,"564":-0.48265571603365925,"565":2.4996582047807174,"566":-1.8740193751721115,"567":-1.3902092659676508,"568":1.7765299265879886,"569":1.8680876419544592,"570":-3.6560888711114026,"571":-0.3129727631397454,"572":-0.7355850269574873,"573":1.640085977928833,"574":2.594114608673064,"575":3.105120043364305,"576":2.0141403889196137,"577":-1.7830198287471781,"578":1.2216676642473783,"579":-1.2050020822057896,"580":-1.1944600186395304,"581":-0.7919268986410593,"582":1.5305920408015266,"583":5.169022845843741,"584":7.127101040278323,"585":0.11447960737168006,"586":-3.308742701359913,"587":2.446436333822375,"588":-4.64047059050072,"589":-0.6724226247277578,"590":1.391903059681325,"591":-7.9580092950478205,"592":9.705073457039045,"593":-5.094607608799909,"594":1.1122309654384661,"595":-1.1158867307409108,"596":-0.6789807090073805,"597":-2.0975296929449,"598":1.7469509086120618,"599":4.256830181031281,"600":1.82665078060597,"601":-0.6217245624724752,"602":5.013466932161315,"603":1.8391261431781563,"604":-3.6037144171646682,"605":8.732562318521179,"606":-2.704877672559179,"607":1.2892552254071443,"608":1.0950586920695722,"609":1.9362599251905774,"610":3.101733547211514,"611":5.200033516534545,"612":-15.046775156380926,"613":-0.30233876340657156,"614":-0.6929399466863255,"615":2.145377206090672,"616":2.5914489718143536,"617":-2.342777423960354,"618":0.5859913468902941,"619":3.5119134776880014,"620":-11.994130176998931,"621":5.444183621990606,"622":5.162656794152476,"623":-9.484270915597703,"624":-1.745625881477687,"625":3.288724816352102,"626":-1.5742613471250153,"627":-0.3795686875555581,"628":-3.548310716838631,"629":0.655827257898947,"630":6.484662450251875,"631":1.8498156344122365,"632":0.5907859027017458,"633":7.015104539881156,"634":1.308490627176628,"635":1.052636020326082,"636":2.8059889117073835,"637":0.6633679968444667,"638":-2.943069259734407,"639":-0.136047499166786,"640":1.253319684426384,"641":0.2547718143802296,"642":1.3995699337314575,"643":3.5637150204263275,"644":-4.103572260931253,"645":4.463019457622367,"646":-2.8016272688499915,"647":-0.3916130605995411,"648":-4.982068527029982,"649":3.5248913078929145,"650":2.7541334860813764,"651":-2.3902460050838767,"652":0.9081659575687429,"653":1.8805485201855234,"654":0.4164000363323256,"655":-0.276706337000814,"656":1.435061875533842,"657":-2.5384498578987786,"658":-4.152527516374809,"659":-4.536449897170016,"660":7.031484011575482,"661":2.6767707769630595,"662":1.323795490156487,"663":1.1755413109369919,"664":-1.5727506962129378,"665":-6.203750982608313,"666":0.47605200770246053,"667":-1.3484703819153179,"668":-0.2691402977947113,"669":-2.8667024967032004,"670":-4.25074669161317,"671":-3.515245899618411,"672":9.297994423861912,"673":8.021028821241677,"674":1.8049774915465862,"675":-2.347758180078529,"676":-1.582348176254643,"677":-0.09269073028188847,"678":-5.057058296537571,"679":-0.25968921635507086,"680":0.8982827674857314,"681":-1.2675278170309232,"682":-2.84442308013292,"683":5.520152173710463,"684":-1.1762076343534207,"685":-1.0990061027198466,"686":2.1295332724123517,"687":-4.851169570413838,"688":5.818682954316289,"689":7.2977615525005275,"690":2.041024963260204,"691":4.3028695807039625,"692":0.38835471169519487,"693":1.796963807912651,"694":-3.8774331759220297,"695":1.516460082313147,"696":-3.4966224613912638,"697":-0.8097459198947985,"698":-3.8874240266635396,"699":5.0684069281495905,"700":5.208970705508517,"701":-3.2976329561098807,"702":6.988706821676811,"703":-1.190765940884228,"704":0.6182811384524841,"705":3.9604272034384818,"706":-4.761933786368244,"707":0.8248861424247601,"708":2.098762080240643,"709":4.81970283036337,"710":4.237140396737679,"711":5.853521616763588,"712":1.8067093631234534,"713":-0.023372376869115197,"714":-4.465260293192049,"715":-0.8927815045041196,"716":1.4321986585148496,"717":0.9377377646103715,"718":-1.2144186585583203,"719":-1.3316812709235644,"720":-4.650079311556469,"721":4.562566267135818,"722":1.752896453693368,"723":-1.9893769276397217,"724":2.742148582516415,"725":5.294170179631062,"726":-1.097020303609645,"727":3.4951772536945236,"728":1.050071182476828,"729":2.009139668498404,"730":-4.438398801577374,"731":-4.756577840460818,"732":0.07936854228927101,"733":-0.7887276819860815,"734":1.1882785521878203,"735":2.528438497897721,"736":1.5936545719534847,"737":2.1487134397823646,"738":5.917321924988121,"739":-1.4354937250036044,"740":2.0340017615050265,"741":-8.335896803654121,"742":0.522135239420194,"743":0.8292165439499861,"744":-4.145954356259534,"745":-4.366761546391504,"746":-1.4109928249115504,"747":1.3310383722323125,"748":-6.351026960360253,"749":1.0302177817985239,"750":0.4167439749755593,"751":6.614557231878468,"752":0.06805544264129681,"753":-0.5259790888468079,"754":-4.480258440207622,"755":1.7557455050639021,"756":-1.4388369228555118,"757":3.394880832869048,"758":-0.22267575439075632,"759":-2.291299827956758,"760":4.108645259318376,"761":-2.503747739410577,"762":0.48125169802248385,"763":-0.03985075115020096,"764":1.7418618780646236,"765":-3.0507391410587603,"766":-2.860983808848251,"767":0.8345936842663769,"768":6.614792110948051,"769":0.31732153725521034,"770":-0.20878633174045985,"771":1.409609322921753,"772":-1.4102156675287325,"773":-2.8788213313119715,"774":-4.09564059904025,"775":-1.9682905663736603,"776":3.0343108365867013,"777":2.3826829530755,"778":0.6986771501407131,"779":-6.404113661557772,"780":2.480345204856379,"781":2.2025707880198593,"782":-1.4736987311658623,"783":-0.14613708535399839,"784":-4.397081135683771,"785":-3.8136178465518324,"786":-1.436192547231553,"787":-1.3333889957180605,"788":1.7861362881235974,"789":-4.000109840142237,"790":-1.7992943195373023,"791":1.6437414579341028,"792":-2.32503020712841,"793":-6.142499155216385,"794":0.3609029621380861,"795":3.918697447134173,"796":-1.9016609534722317,"797":13.003928274635129,"798":1.8721736056976737,"799":1.758323526450432,"800":3.13053778217657,"801":-1.0465292591922746,"802":-3.6209424915298594,"803":-4.528368852729629,"804":-4.613770686642697,"805":2.2260716296071275,"806":-5.3415403242058455,"807":-3.7490550819916506,"808":0.7807331257882939,"809":-2.8602871562205565,"810":11.008776230077299,"811":2.420912359084206,"812":-0.9756559905320025,"813":-0.7031009160250132,"814":-3.033117152604137,"815":-0.9439335360041898,"816":4.798267893722981,"817":-1.8883754274864968,"818":2.111262751017048,"819":1.8092256584731334,"820":-2.0507455265511183,"821":4.395422178836137,"822":1.2852826248704938,"823":-0.5120487570324376,"824":-2.6937681118795074,"825":-0.039203179909582664,"826":3.81547547586845,"827":2.5077682635855396,"828":-1.9189230341548105,"829":-3.5632649669347245,"830":-4.087566668867807,"831":0.9840495104616009,"832":2.154000390386505,"833":-6.171558233020372,"834":6.503459450685291,"835":0.049412542221088186,"836":-8.73074337368888,"837":-2.9669232809659376,"838":-7.926865927554022,"839":0.9939051276927543,"840":3.700339865170581,"841":-2.6450002671847286,"842":0.1672945058506798,"843":-0.2052735683137235,"844":-0.77649349794501,"845":3.4236394677589153,"846":-3.587468807884196,"847":1.6729568812451574,"848":0.40308930957491407,"849":2.5937432992776728,"850":-0.7068644839032426,"851":3.4019849455637847,"852":1.3236476670407276,"853":-0.9325648629793072,"854":-0.40842174768449224,"855":4.900983567088498,"856":0.16024990528446756,"857":3.4170612898461568,"858":0.5344750951257649,"859":1.1966666621308975,"860":0.8287314761422729,"861":13.279212528073543,"862":-2.313047097606707,"863":-1.677960031360163,"864":-2.462988386646569,"865":0.6827857904176531,"866":3.450948843408279,"867":1.0334821589947654,"868":-1.2215728041774432,"869":-3.3869637179789196,"870":8.563302796618522,"871":-1.774769053270342,"872":-2.9351698047048145,"873":1.47957568865282,"874":-2.189965682164705,"875":-2.6770562060240066,"876":0.49827170508794627,"877":0.40261612889104625,"878":-1.9881543396720058,"879":-4.682908485603239,"880":-1.4530477657588319,"881":-1.6267757932678488,"882":-0.0693138875924954,"883":-2.942084634103614,"884":4.248778574788209,"885":4.979850215757933,"886":-0.175479660774951,"887":-1.547986718139116,"888":2.9630671749211617,"889":5.166497036683723,"890":1.7883648451127983,"891":-1.3563575331881592,"892":0.5168035577504274,"893":1.5407292521045104,"894":-0.19044807216439494,"895":0.8339563120047142,"896":1.0422388276340784,"897":3.0170075676974157,"898":5.546197478688219,"899":-3.3476088309044196}},"bi0":{"n":30,"d":1,"w":{"0":-1.0008031030406523,"1":1.988664318203077,"2":3.154933571682467,"3":1.9312880980486333,"4":-1.2820483237320004,"5":-5.734480199082021,"6":0.14671362519005657,"7":2.56590730965872,"8":3.5086680220597453,"9":-0.6651571957435676,"10":0.2766707673386042,"11":1.8359089990492623,"12":-3.0277300438492256,"13":-4.823305955004829,"14":3.713130365379436,"15":3.84652448216033,"16":-2.8425118496685435,"17":-0.47114057021786754,"18":2.5298752829853997,"19":4.034771305731771,"20":3.5528217759611826,"21":4.3607674558261404,"22":7.107694554241473,"23":-3.7360340838102672,"24":-1.6051003401374924,"25":-0.46979726658387844,"26":2.7965318511633934,"27":6.842579195821564,"28":-1.5100995993382138,"29":1.7913418721142853}},"Wfx0":{"n":30,"d":5,"w":{"0":2.6183006896738457,"1":2.4394144569322775,"2":2.6494030394335217,"3":-1.4193006498757512,"4":3.1733882401382485,"5":-7.6750668141416405,"6":1.9928160623200768,"7":-2.754567370302159,"8":-1.465209531474092,"9":-1.392494175878459,"10":-1.2939731675357748,"11":2.911776363716816,"12":3.534648730979751,"13":3.36904833524214,"14":1.7609932004776583,"15":-2.38573313325686,"16":-2.7432645149796016,"17":2.5335377122481826,"18":0.2583755359825145,"19":0.9667659708336889,"20":-2.115926272731318,"21":-3.6597640212295066,"22":-1.1480924867718183,"23":3.2963885832234467,"24":-2.294743153152861,"25":-2.134236562036958,"26":-5.333815871381793,"27":-2.105759372346337,"28":-1.278637138311479,"29":2.1515694343912988,"30":2.49676895981118,"31":2.9620381187792186,"32":-0.8857713553399719,"33":-1.1377346192269369,"34":2.8536347666295176,"35":-2.8694559851755534,"36":1.146272766653079,"37":2.132396404946173,"38":2.842665224740798,"39":-2.6910395946058188,"40":-2.9837264752900783,"41":-1.250036585323562,"42":-0.7922391436690055,"43":-6.020742563442207,"44":-4.831576894323152,"45":-2.9325165302393184,"46":-2.2131368994978855,"47":1.0198591043503298,"48":-0.8380789323207753,"49":0.6989143873749092,"50":-0.04881411433693555,"51":-4.219094572385568,"52":2.1819013341339177,"53":-2.1384656104229585,"54":2.0419648491173064,"55":0.14528615862948951,"56":2.1948311374067813,"57":0.6342523219505786,"58":1.5713815646606692,"59":3.8786924678710974,"60":-0.26640149466505375,"61":-1.6820194131887185,"62":1.6709862654782646,"63":3.902380220353944,"64":-0.9423276457868675,"65":0.8895428265358981,"66":-1.1625982319828527,"67":-0.1537135011182349,"68":-2.5872440507597636,"69":-2.6271956968270853,"70":0.21894991988505066,"71":4.622652505848221,"72":3.6250582608802135,"73":0.5635621867268825,"74":-2.52770400414804,"75":-0.6483510793830752,"76":1.0016695732805287,"77":1.9925916406094386,"78":-3.8209175374225044,"79":-3.5861120375231454,"80":1.4834039060879434,"81":-3.370010595644175,"82":2.327638859840534,"83":1.1599728803190368,"84":1.861463364281416,"85":-0.9268410136409513,"86":-2.8053581439705675,"87":1.9663094338710132,"88":1.9631762919386133,"89":0.23288158936758205,"90":1.081140920462134,"91":-1.7219592926990237,"92":-2.3762612586644756,"93":0.014130500406734933,"94":1.5521693794066769,"95":-0.15354358070537732,"96":-1.6092575018791297,"97":-0.5157175758278253,"98":0.6073160852613212,"99":0.010723941956450862,"100":-1.8938949386341444,"101":2.3174303577273467,"102":0.2998799339606704,"103":-1.7032215052224438,"104":1.8262406634323092,"105":-2.8719597929727936,"106":0.18567861263297997,"107":-4.3069433751111355,"108":-1.455351000272562,"109":3.529138361344109,"110":1.277452173610818,"111":5.068667135902204,"112":4.683283519900597,"113":-1.1220205564526688,"114":-1.8828136349524223,"115":-1.4890895823342067,"116":-0.7011650704081653,"117":-0.9933966149044173,"118":-0.10215015519362426,"119":-2.4924565062801842,"120":-3.9364567015274896,"121":-3.614928753906805,"122":-1.9460541534196552,"123":-0.26208876577127604,"124":-2.221294479064867,"125":2.3763325349501407,"126":-5.555660863091962,"127":1.4711185586119844,"128":3.8317342592973427,"129":-3.1167311378449196,"130":0.8044962678732375,"131":2.6169284959729016,"132":-0.9423750667855766,"133":3.7233685173662407,"134":0.13374488910044285,"135":0.8817350663326087,"136":2.307687164019416,"137":1.6659514912040072,"138":-6.049723119773518,"139":-0.6628487174912633,"140":-0.22559797339443363,"141":0.28898078156407137,"142":0.3156460630511732,"143":0.062059039249089086,"144":-1.4369670381521256,"145":-1.2960109719769488,"146":0.7126288438605064,"147":1.624091510584259,"148":2.0023562601671774,"149":3.7761012048918565}},"Wfh0":{"n":30,"d":30,"w":{"0":6.284998492378833,"1":-1.798637463188363,"2":2.225581813480771,"3":2.6627991563856717,"4":0.8078235352226385,"5":2.0172825700522177,"6":2.1598122292535575,"7":-1.6246489884509323,"8":-0.744004229344555,"9":-3.351409631041989,"10":0.5002101198619986,"11":-1.745914061848396,"12":18.765432895073832,"13":-3.8997520085477184,"14":-0.6317594482288058,"15":1.2568191107110973,"16":-3.730502662952396,"17":0.13094687822473453,"18":2.607647218576919,"19":9.745746255774714,"20":-2.087279519874167,"21":1.3371363269277696,"22":1.33370207994757,"23":-0.3736401655706154,"24":3.7042600882271297,"25":-1.916700774395005,"26":1.8634416820655557,"27":3.2735834222215434,"28":2.638302316410694,"29":-6.4366393926750325,"30":1.486042904711989,"31":4.405515219517603,"32":-4.169453611308975,"33":0.8676000570491056,"34":12.460804213999314,"35":5.688555786240937,"36":4.0623345232663475,"37":-3.3150396425592503,"38":0.9834149423457466,"39":5.335675563930368,"40":6.6335997090506265,"41":-1.2734450429158877,"42":-0.06737036378347036,"43":0.8204125679856444,"44":0.5319339006705164,"45":-1.9347975506816222,"46":6.718083131004256,"47":-2.058358597129005,"48":0.6955963649053832,"49":2.0027841435984683,"50":3.089534816164297,"51":0.8882653946271734,"52":2.783192824554343,"53":-9.381398827388958,"54":6.8361124749279245,"55":-4.924994410548152,"56":-6.3309287938861,"57":4.363165484200881,"58":-3.7668263319483146,"59":-3.6500085866579144,"60":3.4950478979358075,"61":-4.650634241143264,"62":4.125804684396661,"63":12.63633456685348,"64":-0.18731992319785604,"65":-6.551006577253997,"66":-3.2034940877585916,"67":-7.612499087268614,"68":-3.9553764719214,"69":-2.1589556999426365,"70":0.02156975449250636,"71":2.8495360537841825,"72":-10.107584595812684,"73":-7.027310315324644,"74":-1.2781534983045915,"75":0.13257177502752046,"76":1.2739440304196745,"77":-1.6198435773890778,"78":-2.1021663144318827,"79":9.84868682404322,"80":2.1093841812529694,"81":-1.9361562675966373,"82":0.045667507889094294,"83":10.2901394866531,"84":1.7732097205782646,"85":-0.4009466903150435,"86":-1.4291740584644788,"87":2.769289896527814,"88":-3.472700597925312,"89":-2.1004222024660515,"90":0.6744523007767333,"91":6.944530610737037,"92":1.3540027941144712,"93":-3.8959126798720343,"94":3.4283274674064095,"95":6.528858417221658,"96":1.295692849018176,"97":-2.644264675308332,"98":8.160184599239503,"99":1.5927435080930086,"100":0.36685545634761507,"101":0.643802550199666,"102":-0.19942493051150964,"103":4.036322716839103,"104":7.8222007845585,"105":-3.2088247332576523,"106":4.203228149227378,"107":-5.5351729575554,"108":-0.9538813654607463,"109":-10.114958653052364,"110":-3.0350533145015373,"111":-1.2884165628988247,"112":5.96835744384286,"113":-0.549995968035278,"114":3.8149009472833155,"115":8.084972175146657,"116":-0.34618330257696855,"117":-2.074058125656041,"118":1.411033994340924,"119":4.0807214193706995,"120":-0.11396987809573458,"121":6.396104518170577,"122":-7.766257173589383,"123":9.672022582302054,"124":3.1017395710389524,"125":0.4131562341212348,"126":-2.860622695199022,"127":0.04869472368172559,"128":6.753009759161146,"129":-1.0281544022687654,"130":2.929050880871682,"131":-7.082002221190989,"132":-8.439983121270425,"133":0.45380630701657637,"134":2.776937187811572,"135":-5.085511218579222,"136":-6.048938540851209,"137":-3.2925992601426044,"138":6.405342253558948,"139":1.5615348034621974,"140":1.526335698108586,"141":0.13722744980372104,"142":1.0430520717287675,"143":-0.6747449041486607,"144":-3.3326128161863444,"145":-1.8140037452632847,"146":4.370746295273781,"147":0.579665719424104,"148":-1.2974822406143627,"149":-6.6405860975284074,"150":-6.544554223278714,"151":2.086310945855,"152":-1.5522358352060797,"153":1.0567290636233737,"154":8.662186822314565,"155":-8.20811268354703,"156":-0.2604229721433104,"157":1.2972682612257385,"158":-0.9130080855506809,"159":6.523095138709313,"160":3.704529053567537,"161":-7.538901211168748,"162":-4.934146876044172,"163":4.082083408629137,"164":2.6393353510017916,"165":-4.433756763944759,"166":2.5026638316593353,"167":-1.8204560283969944,"168":-3.787774369896509,"169":-0.9192848575041866,"170":2.5807450885244707,"171":-1.2680237971206305,"172":2.845656441123323,"173":-1.5181050820491109,"174":-1.2005061458527422,"175":1.2963438036173232,"176":-9.71234305003468,"177":-2.3660650685409332,"178":6.021191515719006,"179":0.05784628846263771,"180":-6.67004985194967,"181":-7.300403669918719,"182":1.6693236934689302,"183":-2.6139596168411794,"184":-0.5049261911946908,"185":0.693665161675866,"186":5.191202400913364,"187":0.4612603702631171,"188":1.8969505409786538,"189":-4.220846494754721,"190":1.9208900086814613,"191":3.0743074617932518,"192":2.614651126836131,"193":0.62498209016163,"194":-1.1296958415020075,"195":-0.5535580223492091,"196":-2.50903267169462,"197":3.0944636648652564,"198":0.5924187171969678,"199":1.6932527296895041,"200":2.6954708271003254,"201":0.01471852068116711,"202":5.117868759456505,"203":4.00466713976782,"204":0.006246517366536104,"205":-1.4401193459265111,"206":4.307433035811427,"207":3.4333519399989747,"208":-0.5460516449393872,"209":-0.13528059290126324,"210":-6.927462197445966,"211":-0.859686911621274,"212":4.43432272999487,"213":-4.537514129064896,"214":-0.9277963154358071,"215":8.957671067106546,"216":-4.497570789029898,"217":-2.5634885352429397,"218":4.31686127231287,"219":4.558310389105086,"220":-2.544331616785894,"221":-4.974955442804166,"222":5.392058550953626,"223":0.5862845275384502,"224":0.47138769848503875,"225":2.384227073876704,"226":-1.1626194554976796,"227":9.044868465538585,"228":3.4184424649640226,"229":8.21231798882437,"230":-0.5449592556465002,"231":-2.470052113404909,"232":-1.8744914994966766,"233":5.94118897212069,"234":-0.9736842665806257,"235":3.3815500613970704,"236":-1.464119924229986,"237":6.671033484382881,"238":-4.424038606770365,"239":-7.6341207414709,"240":0.7475103693858983,"241":-5.407297079694467,"242":-5.094052102306642,"243":-1.7176510565891323,"244":4.22461340316394,"245":5.981111579221791,"246":-2.3862349315172415,"247":-1.0511540956069951,"248":5.238264834762772,"249":-4.356696286130353,"250":3.0282493460140776,"251":-4.519823954476749,"252":-2.1466296799585023,"253":-6.175089738335339,"254":3.24381234516148,"255":-4.578031211089373,"256":-2.595953868351863,"257":-2.980486249696868,"258":-0.8778120240245486,"259":-4.896996501755332,"260":1.5170592780093042,"261":-0.6463286122378802,"262":4.018471784982964,"263":-0.023054306306673406,"264":-5.468025649854501,"265":-5.415316215244149,"266":-6.287821518172315,"267":-1.7002574617805617,"268":1.4627654364903233,"269":-2.133975735694123,"270":8.107678374402369,"271":-2.410463129200748,"272":-1.351916195002973,"273":11.570429833618507,"274":-5.550977815277877,"275":-3.0287637643798804,"276":3.224461163196881,"277":0.9371852402067531,"278":0.6825663444016153,"279":-0.6877705989383559,"280":5.190176306226578,"281":-4.950667831818855,"282":-2.2014226070893783,"283":-7.0777751203339525,"284":-2.4616334333645287,"285":0.675736020936177,"286":6.753494905463898,"287":0.810801573044341,"288":11.230020347649006,"289":8.043650520424956,"290":-0.16485774168721548,"291":8.505524765250943,"292":-1.3246019240355897,"293":5.963812550324019,"294":-10.060775123492979,"295":-1.2342979511599825,"296":3.664905883166402,"297":2.6094386580377065,"298":6.76205220259474,"299":-1.901273287594166,"300":-1.8873420374639154,"301":1.0417744291191189,"302":-2.7340296512374196,"303":7.942764655062823,"304":-5.505573189404773,"305":-1.260834652611923,"306":-0.011484406670831095,"307":1.8721465265489887,"308":-2.204983877243483,"309":3.049369987113368,"310":-3.030522510969469,"311":3.4599538507917766,"312":6.393499550973083,"313":-11.055114338063909,"314":-4.430580870933284,"315":12.139092991237264,"316":-0.5730057287033651,"317":5.437594320216061,"318":-0.6645842274899352,"319":6.511689403170554,"320":1.4503701328049246,"321":-3.3800141450497527,"322":0.8723121130207717,"323":1.4438891223363903,"324":-1.577215102420443,"325":-4.423894956657708,"326":5.397999928853588,"327":2.1684928885794448,"328":2.383557420488877,"329":-0.711561432981764,"330":0.637922927447874,"331":7.648439897229177,"332":0.24626478661038725,"333":0.8569354448823806,"334":4.751550421865923,"335":0.7399690341663774,"336":0.6531610104908517,"337":-7.407132966982312,"338":-4.716051974745311,"339":4.697922365329361,"340":-4.398919151159836,"341":2.454574120567097,"342":-0.9610629816877785,"343":4.226882173676072,"344":-1.0901871004703394,"345":-1.577190559826484,"346":-4.876535641878207,"347":-4.946835118467607,"348":0.92083560569977,"349":-1.1116916012003304,"350":3.4240386296757364,"351":-11.39092045548076,"352":-2.525876773188072,"353":-5.408278131088004,"354":-5.620758852315381,"355":-0.07563643623514373,"356":2.884841248170468,"357":5.588914140082645,"358":-0.9271670236620128,"359":-6.427354650384074,"360":3.98853247070576,"361":-4.327947562499465,"362":-0.529578091204164,"363":0.542952090921383,"364":-2.2626297903642048,"365":-1.2636850096485872,"366":-2.615039616571441,"367":-2.5470884431591174,"368":-0.0682987785967521,"369":-0.2856034528388877,"370":1.907910084292183,"371":2.4581690714366995,"372":3.178854390826525,"373":-3.568856121907739,"374":-5.141890497102959,"375":6.055073349814208,"376":-0.8958060440611104,"377":2.5987418711952324,"378":1.077848802281024,"379":3.52005676846933,"380":0.6421776135593539,"381":4.20689597852516,"382":-2.1172464191650406,"383":-8.029814772433072,"384":-3.6416696388829384,"385":-1.8646804954208558,"386":-0.7274029205603133,"387":1.7336854829641974,"388":0.44220713858273664,"389":-4.917762708407644,"390":-3.299001978580303,"391":8.465479105434925,"392":-1.7643486848869017,"393":-3.807853427412342,"394":-0.90231548172024,"395":1.4007468898535016,"396":10.897794429867863,"397":-0.045369522171079965,"398":6.411562177936265,"399":2.1881877025350285,"400":6.112683859754766,"401":-7.676504603085935,"402":-0.8690412430946309,"403":4.171690433587864,"404":7.6300548312300505,"405":-0.5530780234347129,"406":6.051537853924783,"407":-3.1669285979571185,"408":0.025117095350765044,"409":-2.7625249793979103,"410":3.7602499631655766,"411":0.5526167465636531,"412":6.394442121906291,"413":1.1189486679554657,"414":6.563793651850448,"415":-2.862314012341524,"416":-9.47634529915301,"417":0.5836455109917279,"418":2.0929426335137316,"419":1.5331742462526745,"420":-7.185522427176729,"421":-7.582802608303845,"422":-1.6231173156458338,"423":-6.150210741436962,"424":2.4312931818375336,"425":5.142347348965182,"426":-2.915867841201802,"427":-1.1279192401104792,"428":1.6671352313948236,"429":1.2079308787462661,"430":2.523117651223326,"431":-0.006634354287507439,"432":-3.327580752614652,"433":-1.3198241355285372,"434":10.128358586565978,"435":-3.455675317888539,"436":0.08777461341192884,"437":-1.773127229600546,"438":-1.226404526159074,"439":-5.894061828979065,"440":-4.510771388708198,"441":-6.233673851096454,"442":7.415690587135074,"443":2.4735233748058603,"444":1.3520719820186153,"445":1.15772639207788,"446":-9.412399032208507,"447":-3.2287436449209665,"448":-6.650962655134009,"449":2.808021349068901,"450":-2.4630006484699942,"451":-0.8733821688969177,"452":-0.817876580739484,"453":-1.3482521820317181,"454":3.341623787155878,"455":5.934175775621402,"456":-2.6580478270194234,"457":-0.9080464434761121,"458":4.357247780215231,"459":-2.1604554811951435,"460":0.38153062481529737,"461":2.9918937746492396,"462":1.5173118398568928,"463":3.079690003853361,"464":-0.9295954765350838,"465":0.11937711732695096,"466":3.4594876222375124,"467":5.86250055122311,"468":-2.9747666879349284,"469":-0.02518002870495967,"470":-3.4960329555655862,"471":-6.235448811200831,"472":-0.8312403412227709,"473":-3.0884745153395308,"474":6.9654849823161635,"475":2.213865536029841,"476":0.29170923848371033,"477":-5.776249568214606,"478":-1.8727128244761109,"479":1.5078542024837658,"480":2.660972378229422,"481":3.677357378302505,"482":3.95100960022689,"483":2.766622310528133,"484":-4.077473396482337,"485":1.5806304190224336,"486":-5.940699423685657,"487":-3.711438185665651,"488":-8.320755083083046,"489":2.4750091157975254,"490":-3.3011054539830593,"491":0.04114465895317292,"492":7.800926957678497,"493":2.6650408017694494,"494":-3.434540162110993,"495":2.1446708522255014,"496":-2.468796799266793,"497":-6.1517648697284235,"498":1.3881693479176969,"499":4.0115087544549635,"500":1.3530652536694543,"501":0.3967397890877246,"502":-1.469560041432308,"503":-4.8481224957933,"504":-3.5069968203495763,"505":4.574729904081306,"506":-11.460031943204774,"507":4.034434021976332,"508":3.797112664412294,"509":-2.4853751162534774,"510":0.7310656569067324,"511":10.219130004248647,"512":-3.4376733385210665,"513":-4.34182607258133,"514":3.7574974577333196,"515":6.195123268570939,"516":-7.567991876722663,"517":0.3674444109235236,"518":7.483464770019317,"519":-0.6722308368182321,"520":0.1019202507762333,"521":-5.2398410239572035,"522":-4.6274514570328815,"523":-0.27326814954421386,"524":3.6868823985238084,"525":-0.12469363936076566,"526":2.8473871029954494,"527":8.50385424299621,"528":-0.33277814621328927,"529":-3.6299746599184965,"530":2.7305705989297437,"531":1.4924549826507283,"532":-4.527279047578249,"533":-2.9571367621249793,"534":0.016738732798024097,"535":-1.6916623554920471,"536":0.244958756122643,"537":3.397509489292054,"538":-0.5113677117902747,"539":-0.943936978335917,"540":12.88078275869396,"541":-9.849510072697417,"542":-5.729064131166791,"543":6.79843238763396,"544":-9.133470003559573,"545":6.011166667316113,"546":-13.878859023757391,"547":4.585105706670835,"548":-0.04015273677340894,"549":-2.06310122284872,"550":0.1033175597515963,"551":-2.701834219581508,"552":2.19716224235293,"553":2.172894004819277,"554":-1.628033876853553,"555":6.3889646008108025,"556":11.290347617338144,"557":-2.844727963169684,"558":4.479697815406673,"559":-2.8947366148102582,"560":4.23993173929457,"561":-0.8668261884244374,"562":-2.971830132171763,"563":3.0531736962182308,"564":-5.901608510388947,"565":2.973331601718195,"566":-7.850377693011002,"567":2.773843318206299,"568":3.7904078878028264,"569":2.5598219457119438,"570":-1.223059683051625,"571":-3.1293294793088564,"572":0.17989035187159338,"573":-5.660885480497331,"574":1.079097367304771,"575":0.36917096190887333,"576":1.2828418361549148,"577":1.1975354691252762,"578":3.0320087188486666,"579":-1.5534838545565457,"580":2.602052553700514,"581":-1.200707297996505,"582":-2.828334547105825,"583":2.2431497002437824,"584":4.632286950869211,"585":-2.0951210596835477,"586":0.9665473554727863,"587":0.21388422540556318,"588":-2.543105956199776,"589":-3.6755026759681964,"590":-5.146583288770218,"591":-2.628705249350327,"592":2.0638893793755826,"593":-2.137389309604639,"594":-0.818705481133252,"595":1.6370651236514817,"596":-2.6168685708178723,"597":-8.822606947704937,"598":-1.0445596290995198,"599":0.5190346455372448,"600":-5.75870155345712,"601":4.217244363588064,"602":3.600998131729391,"603":1.4352221078657912,"604":-5.798968926967641,"605":4.715438424982391,"606":0.6517951448741913,"607":2.9166204681140706,"608":2.6151965906163475,"609":2.0161250725624926,"610":-0.9440985593338822,"611":7.232093838973293,"612":-1.6127645661889425,"613":4.918663793614081,"614":-0.16388955618509174,"615":-2.689533477271993,"616":-6.3984675689453,"617":-11.112880125584352,"618":0.3483685035110633,"619":-2.5119366848110967,"620":-10.72789949690907,"621":-3.742210609751346,"622":4.125019841228693,"623":-1.7462006969513335,"624":10.597114964465344,"625":8.542415675440232,"626":2.6520813106330023,"627":-6.264791734290493,"628":-3.8436044695554177,"629":-3.5964465758353463,"630":7.252568212811569,"631":11.62907196194173,"632":-1.4175632606768271,"633":1.3819088212516908,"634":5.619387432547386,"635":7.389615223604889,"636":4.074458397636205,"637":-7.097275664407287,"638":-1.3827064553490254,"639":7.968901413995952,"640":3.103106622768989,"641":-4.528147461857546,"642":0.06716600742748022,"643":-3.0785849567222026,"644":-2.9826303840424835,"645":-1.511939091409654,"646":1.4216765828375855,"647":-1.1038051711702812,"648":-1.6374919516516604,"649":0.34568561374012324,"650":3.5581991370287063,"651":6.1471779944406615,"652":-0.6561289088126975,"653":-1.3543703322366303,"654":4.267553173950055,"655":-0.8975925622704364,"656":2.141685562892096,"657":-1.7904603056527149,"658":5.636044579582358,"659":7.719695888631209,"660":-4.87786654411633,"661":-1.0444319093728536,"662":-5.366080034454641,"663":-1.7412844178349285,"664":5.0030503332882805,"665":6.607544485843162,"666":-10.175191878778907,"667":3.230637861922796,"668":6.224859708245539,"669":-3.2518509293215923,"670":5.3926591555581505,"671":-3.853301992503758,"672":-3.714452283621441,"673":2.2369781459226212,"674":5.505276139860958,"675":-4.877732478817507,"676":5.204510613833868,"677":-8.45430952567935,"678":-0.8999010466155525,"679":-3.240813158605136,"680":-1.5473016399477175,"681":-5.747536100088516,"682":9.57076385871501,"683":0.7685335898675683,"684":0.5614025755653589,"685":-1.205566748136172,"686":-2.3164522117128423,"687":-2.063526763690629,"688":-3.2939647471392584,"689":10.22345600456765,"690":-0.029136589667632478,"691":-7.691436598752847,"692":-3.6545885517610097,"693":-6.4522590149680745,"694":-1.8999716628724606,"695":5.528742968861956,"696":-7.242641802946612,"697":-3.852094701492513,"698":-4.8414370708814385,"699":3.721744225137828,"700":10.556849764059189,"701":0.7124781850809146,"702":1.1230522449052458,"703":-7.842823012229072,"704":-1.514286292044039,"705":-0.13012636685241247,"706":0.452678429097183,"707":3.457176459596208,"708":3.4841142602584334,"709":0.0029626254066001823,"710":-6.1954745058823875,"711":2.012040681586057,"712":2.4853725656420957,"713":5.724962317050732,"714":5.712833996611479,"715":1.3212975845511994,"716":-3.5160746256887876,"717":2.9303451881485167,"718":2.967867162920438,"719":-2.1163227783139402,"720":-0.07251973647133321,"721":-4.181297854591767,"722":-10.551424079702759,"723":-1.2616904512970781,"724":-0.9240505177694194,"725":4.430256661840831,"726":1.366228423449327,"727":1.0999440519336214,"728":-0.15580959633762306,"729":0.528516288220738,"730":3.4690309645808846,"731":-1.1177916242367558,"732":-1.832180688433725,"733":-0.8098088510919325,"734":-2.211713151145544,"735":-0.38524762825445846,"736":3.940877180109457,"737":-2.7867459074509253,"738":0.04902363689764385,"739":6.885953869648999,"740":3.891470174020979,"741":-1.213096816602558,"742":-1.5096704589945513,"743":-6.9984532734621,"744":-6.367323485450612,"745":4.012713623470611,"746":2.358236698650114,"747":4.49307660576047,"748":2.8776278337310712,"749":-5.0955119275805885,"750":0.8815159830212889,"751":-3.2134190931443145,"752":-3.6243163499854796,"753":0.2665171556893865,"754":-2.1775367293742725,"755":0.32428437793026343,"756":2.2380123048872487,"757":3.7510761569395847,"758":-0.3613618025079754,"759":0.32663410262722314,"760":1.4269955333758064,"761":0.1146797414893418,"762":0.9570068550518633,"763":-5.871525553406491,"764":-2.899955392940567,"765":6.69694883242503,"766":-8.743512959899558,"767":-2.6389239413755816,"768":2.9208507030472575,"769":0.6864978866714118,"770":2.9061940050690733,"771":-1.539865159968732,"772":-1.9369160039977271,"773":-6.197247076340839,"774":2.5311882348978454,"775":-0.7528135171306237,"776":1.4387609252507956,"777":2.6197050703647964,"778":1.5087663371236715,"779":8.23217230452049,"780":2.6359807706394043,"781":-1.2399199046173814,"782":-3.0863373057782355,"783":2.625950623628054,"784":-1.0676338575520943,"785":11.130473011511317,"786":1.1634527184139503,"787":-1.7577279250391493,"788":-2.5645350143018435,"789":-2.0687543491140588,"790":-0.23361672301273978,"791":-2.4384730380901525,"792":-4.198438146846526,"793":10.38007473690317,"794":-2.549016168689918,"795":8.435833798782935,"796":4.484747445834304,"797":-6.8806192535543325,"798":4.6254601458757945,"799":-1.1796850759536108,"800":2.5280149801626197,"801":0.21661394987741953,"802":4.161981442233702,"803":-6.1925722487212065,"804":-1.1378790913944095,"805":2.2486460287280474,"806":-1.5938415862548925,"807":-1.220958518946373,"808":-1.6363987036731564,"809":3.00795836741996,"810":-0.4485644286740952,"811":10.660511891267735,"812":3.049669234906836,"813":7.216767108549351,"814":-7.3554967297076495,"815":-3.9808049842042337,"816":-0.27608760212747313,"817":-0.9406546718678036,"818":-1.6759816625162753,"819":-6.20003368589461,"820":1.8149662604472978,"821":-1.8324779086584337,"822":-0.03720707340163331,"823":-4.161445301593627,"824":-0.9463015850017829,"825":1.140158250056105,"826":-3.775611687099728,"827":-3.839056310984994,"828":-8.117897064205419,"829":-3.85474437488706,"830":-0.6163237109548515,"831":-4.431468040883344,"832":-3.953797521227539,"833":-6.251050012572694,"834":-6.3856864512164995,"835":-3.9243737027013377,"836":12.355662742159256,"837":-0.9616749755333175,"838":-1.235820938952518,"839":5.9776578871779575,"840":-3.3269868521413923,"841":6.410724573157803,"842":1.1081740189127804,"843":0.42934324322037043,"844":6.4157631222964495,"845":6.455995783005628,"846":4.234305757105355,"847":2.3635249045727806,"848":1.943557710043863,"849":-3.8302449036451915,"850":-2.49004061841062,"851":-0.4674057775672636,"852":-5.525311768471608,"853":-8.170065178575564,"854":0.027917640469023862,"855":1.0953886693233084,"856":3.3025902364440847,"857":-6.488760057835202,"858":5.98972643880392,"859":2.5228492664432647,"860":2.1980293495305046,"861":-13.364337332074962,"862":2.3444829718535742,"863":3.0019478460279725,"864":2.732370470164063,"865":-4.012275317950137,"866":3.144570003767217,"867":1.5190839940011152,"868":-1.0843756071237274,"869":-1.6666445939665284,"870":1.4127353356534171,"871":0.8785557342805715,"872":1.9005680580723363,"873":-8.030097044955854,"874":1.1972191644321495,"875":6.85861326360681,"876":-2.077901223749415,"877":1.6932361859422214,"878":-0.723863269197248,"879":-1.5574192406562726,"880":-0.9749624576120888,"881":0.7963287103141973,"882":-4.310402867411736,"883":2.7856340393860397,"884":-4.632914600005882,"885":1.2823493803996757,"886":-0.8347031784694346,"887":-1.7442034433838947,"888":-6.929837968432319,"889":0.695993612598837,"890":3.050348528901988,"891":1.2632114101567664,"892":0.9940760948098603,"893":2.0317664724965687,"894":-1.0526116057254693,"895":-5.440640920589393,"896":-0.9625297287645223,"897":-1.4916404134330332,"898":3.6013362069575376,"899":-3.26364944853697}},"bf0":{"n":30,"d":1,"w":{"0":-4.432069932825181,"1":-1.1054555249716191,"2":-1.495417357685102,"3":5.8595375617553005,"4":-0.8739071595232715,"5":0.851540363027461,"6":-5.895462599646122,"7":-4.520201779033098,"8":4.249445348444921,"9":1.46755019117161,"10":-1.815301092885911,"11":-6.155362623356482,"12":-4.231085655607367,"13":-1.2528519020540114,"14":6.815476836625862,"15":7.114842650064971,"16":-4.882403336060049,"17":-0.38797284774211643,"18":-5.713225396686583,"19":4.220433091105149,"20":2.8418962878334644,"21":-7.131779367365773,"22":5.2071546354253115,"23":-4.668778927694074,"24":-2.9352168233813902,"25":-3.9847170060551496,"26":-2.5530821784904965,"27":2.735142927017425,"28":0.08095038774396893,"29":-1.9558383482965616}},"Wox0":{"n":30,"d":5,"w":{"0":0.4397928428100383,"1":1.7395053859959084,"2":2.7850868327023215,"3":1.3712643612365119,"4":0.39476760281951234,"5":2.6445393084481563,"6":5.578384480782493,"7":0.6982171967623609,"8":-0.3294966336571134,"9":-0.13020398322423732,"10":-0.4293168258522245,"11":1.736069326068666,"12":0.6877440393597831,"13":-2.549209757098427,"14":-2.917149121804549,"15":0.20108261192004762,"16":-0.5946012564001835,"17":0.8747305240475636,"18":3.8012856626933145,"19":3.4743924106893105,"20":0.5178442413981894,"21":-3.29729746353867,"22":0.5133593308217744,"23":-1.7030476447555862,"24":2.6293599482556225,"25":0.9140987936263553,"26":-3.1819487188578077,"27":0.8023454720260937,"28":-1.0073354054618695,"29":1.3723095773350553,"30":2.8622016539125843,"31":0.7277971013158486,"32":2.7414985387283495,"33":-0.6588849343559053,"34":-0.4996803248211517,"35":3.969123132105877,"36":0.2923352159265658,"37":0.27557313206787953,"38":-0.7360815876557985,"39":1.365395123849512,"40":2.7052334040340793,"41":0.31948845141592647,"42":3.996996300607732,"43":-3.216282834986518,"44":0.2633197629416136,"45":-0.7258430514562645,"46":2.5684317216200636,"47":-0.4902215867276796,"48":0.514006371756481,"49":3.243998987853096,"50":2.1321767135671594,"51":2.6478330960437777,"52":1.3472132004331945,"53":-3.4873151685784727,"54":-3.585787391952839,"55":-2.8749185161137887,"56":1.4759188950903912,"57":-0.7458059560451973,"58":3.3099103023426855,"59":0.7321871807813589,"60":1.164790450008161,"61":-3.2348464369799617,"62":-0.2289074936967496,"63":2.3238707203051145,"64":2.8665256429041204,"65":5.220780584222932,"66":-0.7413940473145173,"67":0.6366031386463514,"68":-1.765865484149059,"69":1.7163038916281115,"70":1.4843528676527495,"71":3.483125561568706,"72":0.7146173002804899,"73":-3.2179132809601696,"74":4.535518351606117,"75":2.415462512683646,"76":-1.021441388305249,"77":0.7977766264215082,"78":-1.7453856152684644,"79":1.525822794996159,"80":1.683977734733491,"81":0.014581014888184383,"82":0.01790324270299177,"83":2.040675866891389,"84":1.8614017072423223,"85":1.6358395509519421,"86":-0.9075557079608249,"87":-1.7244626750454466,"88":-0.9929381754955763,"89":1.6091406222409168,"90":-3.6114565845107958,"91":1.577906744355297,"92":-0.7140611358149512,"93":4.429012835639464,"94":-0.08996548738733778,"95":1.7297773768737117,"96":1.2669840881901695,"97":1.9599660440745112,"98":0.5821254117333714,"99":2.953609546208465,"100":-4.928698531214917,"101":4.7539592344107655,"102":-5.767152293053437,"103":0.9554957767862488,"104":0.8989066326875986,"105":-1.6630199371107197,"106":-0.18768077858217191,"107":1.9735960610992593,"108":-1.2349204310059807,"109":1.184166443282443,"110":2.9797415657541704,"111":1.7468518703660632,"112":-1.0040814292662754,"113":-6.682220945142276,"114":1.5956858498823288,"115":-0.2384792813407737,"116":-3.4547997222509115,"117":0.06929154044023862,"118":-1.4167721185531488,"119":-2.1018799429477832,"120":-0.10098286056674831,"121":-2.114933636716041,"122":2.553379561235602,"123":-0.404902442848038,"124":2.7725566084566102,"125":-1.782380172034842,"126":-7.767219021056205,"127":-1.4314540994363318,"128":-1.4111783869100782,"129":0.4004311961695886,"130":3.450494700426673,"131":4.529874966680294,"132":-0.34084006216535706,"133":-1.9547120161866902,"134":-0.06302229962321254,"135":-1.2565382189666046,"136":4.840211396614338,"137":1.5063622251266597,"138":2.356732833558462,"139":-4.272479521305119,"140":-2.2979267876368223,"141":-2.939803261955986,"142":1.1388525475034252,"143":2.466038005534794,"144":-0.7696234588746165,"145":0.09874243217853695,"146":-0.1330241932272948,"147":-0.05997912447189643,"148":-2.4098538481065046,"149":3.4592499646288397}},"Woh0":{"n":30,"d":30,"w":{"0":-1.5323618188597776,"1":3.750550396250267,"2":-2.054166005654966,"3":8.261493702253745,"4":-4.865838170672322,"5":-7.128067421445767,"6":0.026887450574573694,"7":-1.4302509947675532,"8":-0.6273528868686019,"9":-0.500982957966664,"10":6.322949954731126,"11":-2.35734820408281,"12":4.508637831079767,"13":-3.382342764785028,"14":-5.244390949917524,"15":3.5957902576516836,"16":-5.743550608721386,"17":-0.189775649505304,"18":3.4797395343340556,"19":2.8335096564338014,"20":0.7552750417731932,"21":-2.2294607054851285,"22":0.3949712822405085,"23":-5.286804627851826,"24":-2.747345957846345,"25":-0.9419239017389596,"26":-5.394035813679146,"27":-1.6639283787400208,"28":-1.1004723424665768,"29":0.15767899237418653,"30":-1.9235708878500462,"31":4.501949657707783,"32":-3.6709290389385547,"33":0.7380505958271736,"34":4.115610110184841,"35":-4.82584777249877,"36":-0.5762611743270097,"37":1.9414931582192718,"38":-5.429521629896618,"39":0.5403480884764504,"40":-3.8027402949628017,"41":2.5430506709109224,"42":11.991723339844727,"43":-3.4520604981028575,"44":-3.6379559888243564,"45":1.607822605121422,"46":4.9222901890101465,"47":-0.3972126924032189,"48":3.6746769041263434,"49":2.8601133502001796,"50":4.1611136860436755,"51":3.115581003972164,"52":-0.12488891788624079,"53":-0.890497928869051,"54":4.755257655163575,"55":0.8933941098829952,"56":-1.8187116815671756,"57":3.9157225231141304,"58":0.01575466873036705,"59":-1.4274858742136927,"60":-2.368936157587641,"61":-2.1098972196704264,"62":1.1275427477807483,"63":0.5468612028731862,"64":0.07705183631945334,"65":1.5935950044009486,"66":0.2943082533434515,"67":-1.7665543513936617,"68":0.7521524962233799,"69":2.1853427452373317,"70":1.8216755395701347,"71":1.601287055156547,"72":2.2253606656997604,"73":7.273177131192146,"74":-1.793933926523388,"75":-1.8857967041492671,"76":0.19134720684392273,"77":2.124703565357863,"78":-3.8711725626644204,"79":4.953411831459651,"80":-2.5625556023139984,"81":-1.0002809425895587,"82":-0.7094006593989403,"83":-6.040035115094797,"84":3.04447024129484,"85":3.3427679982235423,"86":0.1396441222565064,"87":-0.19756616137875752,"88":0.21133759980856312,"89":-3.1610986812512545,"90":-2.8089566283433633,"91":1.0023870662084367,"92":0.5391337094303943,"93":1.0466111940483966,"94":-2.567217678343336,"95":-0.9627122518661263,"96":-1.4977833365779083,"97":-3.42037330388543,"98":-0.9346772783115117,"99":-0.27889746874602706,"100":-6.046460608992547,"101":4.900034970843297,"102":-2.391761884431599,"103":1.1905115292965238,"104":-3.0268244267015127,"105":2.609208180651545,"106":-0.47084575347558527,"107":2.0026586030786855,"108":-2.5304537561915863,"109":0.9548998005334947,"110":-5.210275342896191,"111":0.2836327417863103,"112":-0.25943912443525713,"113":-1.2609103883736446,"114":1.4003377117684173,"115":1.1141135850215553,"116":-0.6419941943160259,"117":0.8425219265047417,"118":-2.3037823138337292,"119":-2.5166053426050703,"120":-2.9403631858292076,"121":-0.3021416101472399,"122":-6.5717152089271185,"123":2.160352835459684,"124":-5.510808100788938,"125":1.8570437142970644,"126":7.4593963241108785,"127":6.217715151479963,"128":-1.5691264608296749,"129":-2.182569190859503,"130":-1.1811495271566275,"131":-2.5863422480854656,"132":3.0931776524365664,"133":-2.2186421010181956,"134":1.7510051837850305,"135":-0.9812071293637359,"136":-2.4681703483230373,"137":0.9873357434797416,"138":-2.2557918740183234,"139":0.8233389691505092,"140":-1.502335802409422,"141":0.5611085703349333,"142":1.501783915859839,"143":2.477647905204702,"144":-10.119130518232387,"145":-1.2449976294156386,"146":5.528015025722748,"147":2.333100375714533,"148":3.109728391518643,"149":1.3682260545045946,"150":-2.4101121817254905,"151":-4.2810832197919195,"152":-4.429155600597609,"153":1.0852660409291766,"154":-5.874342190626947,"155":-2.0145145794206183,"156":-0.5551927381206083,"157":-1.22975370447436,"158":-0.9995617894593826,"159":3.3992878910292332,"160":4.064705741471387,"161":0.4384888666918964,"162":3.2024840119099,"163":-3.9891478420445035,"164":1.311737232776778,"165":0.8121029962408857,"166":-7.220043072858174,"167":-1.0635070619889222,"168":-0.6029404503174322,"169":-2.8751859854769948,"170":5.3187459795559535,"171":-0.06027829471785118,"172":-2.410658415716922,"173":0.1595809875285647,"174":1.4914577740486423,"175":-0.3472256386407667,"176":0.6365788098710964,"177":3.2322657045211964,"178":-3.0022192814645186,"179":3.5820160985604934,"180":2.6027320738361923,"181":6.8503262908923706,"182":-9.949245116267353,"183":1.6292930107852988,"184":-4.159167244455474,"185":-0.07747659317977613,"186":1.0159835004083984,"187":-3.637912705030121,"188":-1.3652066664462714,"189":3.9139395710963973,"190":-3.0122524968093303,"191":-6.2754111201194815,"192":-1.469574368053214,"193":-1.2779743904705851,"194":3.0522854370516814,"195":5.705739129915238,"196":-1.871148294351643,"197":-3.759153984547069,"198":8.171425488169161,"199":2.3018906984081644,"200":5.230543454300903,"201":2.13612366015916,"202":3.6692621699659678,"203":-2.1381239953324642,"204":-0.34175131230837896,"205":-2.053445978652389,"206":4.018634541278366,"207":-0.34920726121792095,"208":4.273454811249167,"209":1.6389180378739425,"210":-2.975447662397998,"211":2.5979606540084212,"212":-2.8302199555163017,"213":-0.0292932413121025,"214":-4.235430820741907,"215":-6.637115730507146,"216":1.5875977970424797,"217":-2.609736022178857,"218":0.7207847100392932,"219":2.855591161546807,"220":1.2189764357913038,"221":0.9662726957595738,"222":-5.7884735459151395,"223":1.4627708414175675,"224":-0.5338928111842366,"225":0.16913216067055437,"226":-1.6966827023908697,"227":-0.5497513062230657,"228":4.057374758000223,"229":0.48668474401821554,"230":3.749404242861646,"231":-3.2840651511702714,"232":0.9951021621085931,"233":-3.3819884509334797,"234":1.1717778643455488,"235":1.200269429044611,"236":-3.759281591132868,"237":-2.649446536324708,"238":0.9135041728019014,"239":-5.095260423586775,"240":2.7348573540372523,"241":-0.10011098198743511,"242":2.727767680959656,"243":-0.7550311582255113,"244":-0.7969593528226767,"245":1.5493501887067205,"246":5.759950721251601,"247":2.7109433549607056,"248":0.041380396026737196,"249":-5.157747451077075,"250":1.0889637473091793,"251":0.5539504780734871,"252":-9.8306891654876,"253":-1.3623622581554,"254":-1.710790464812083,"255":2.503162408640563,"256":-1.6514732044880178,"257":-3.9117488291219638,"258":-3.791125002059445,"259":-4.457069386040724,"260":-2.359162443852774,"261":-1.2657451887271702,"262":-3.9682910226601824,"263":-3.9559592857871047,"264":-2.0013987107787212,"265":-1.0204798866569782,"266":-4.204398600121835,"267":0.7159572604621012,"268":2.8776899919707573,"269":-0.8657510041864784,"270":2.0472432917845467,"271":-6.771134886256386,"272":-3.8792327709242644,"273":2.5549758278306176,"274":0.03694622405359405,"275":-3.6369841853183025,"276":-1.9575923273829363,"277":-0.420416589331132,"278":-0.0356553778674344,"279":8.245100359666301,"280":5.621460257040801,"281":-1.94407927189767,"282":-1.1370194486673677,"283":0.6573733392952171,"284":-2.3046254826704806,"285":-3.390109900141408,"286":-0.3322379297818026,"287":-0.7760351010765427,"288":1.721550490250783,"289":1.7809105991384542,"290":4.723282190752134,"291":0.6181203182464176,"292":-2.6728796221741775,"293":-1.0728218081265548,"294":-1.0948533583101956,"295":3.626821657733266,"296":1.4382420544412278,"297":-2.0662770091306735,"298":3.48878235403324,"299":1.471563384540449,"300":0.5048898693163145,"301":0.20527453115266303,"302":-8.746070181928575,"303":-2.442176582387902,"304":2.2590983568313554,"305":-0.03194166125221862,"306":9.30378779530483,"307":8.504389191865512,"308":1.2598508591816333,"309":-1.9461633837656005,"310":1.3971373292299323,"311":-4.5975142080146085,"312":-9.898208490281496,"313":-0.38631053686289046,"314":-1.0158926368355414,"315":0.6462038284208532,"316":2.5226087962588,"317":2.175380402601255,"318":-6.742526067258482,"319":-0.6459630802866977,"320":-6.890440635408186,"321":-5.42948369895317,"322":3.9119201082659947,"323":4.260852998672272,"324":-1.977290110833914,"325":-9.327085736177935,"326":2.4732220477300157,"327":0.6429054274468702,"328":3.3014492763164607,"329":0.45159523556018005,"330":0.06049036800359307,"331":-1.5092565524633095,"332":-0.9684194322278831,"333":-1.060685235884759,"334":-2.34813838059729,"335":0.5857990562137103,"336":-0.40214822148507956,"337":-1.398143394143602,"338":1.8862225642263146,"339":-1.8216492245844205,"340":4.153378971492693,"341":-1.6565267958230165,"342":1.745037227569886,"343":-0.17042452311794115,"344":0.21776337140494467,"345":-6.077022774973534,"346":0.7550931075878037,"347":-1.6406342447803028,"348":-1.77369677517948,"349":0.024115112944097114,"350":0.9654422308106277,"351":-1.8107840686489847,"352":3.4391091629812394,"353":3.701602971817175,"354":-0.08299072101293027,"355":-1.474730561624392,"356":0.45186449199503625,"357":3.0876972800427223,"358":-0.5796375083061359,"359":-0.7675039851697604,"360":-0.28765789712888507,"361":4.326811452101483,"362":-2.9363793305522976,"363":6.252596609785121,"364":-1.0928047192047066,"365":3.419032287771066,"366":5.896082131677264,"367":-5.9301776191727935,"368":-1.1139700742897312,"369":2.5449555000599133,"370":2.6959771916767994,"371":-4.503507360889279,"372":7.421894544246889,"373":-1.1133397800240807,"374":1.6504909788989832,"375":1.5543536234648565,"376":4.569189612039273,"377":1.5486350911769358,"378":5.581021070282086,"379":-0.8594776416671231,"380":1.0079745999327774,"381":-0.8525776765052964,"382":-2.005956165373642,"383":-6.086262543229785,"384":7.796169928993722,"385":2.5540942752066345,"386":1.9094823886256844,"387":5.823426246220171,"388":0.18821386735508722,"389":-1.561620567461566,"390":-1.9953272196370189,"391":-1.3687366293705112,"392":0.22947669324843703,"393":-1.1642316335264191,"394":-0.15589180814164003,"395":1.335079680014596,"396":1.4673463753498661,"397":-1.4194766021973009,"398":-0.34089812570274564,"399":-1.1731682479434227,"400":1.7494667599933416,"401":-4.568269388189127,"402":-3.4443671504999793,"403":2.4778779614341486,"404":-0.6570411270474381,"405":-0.623591226813327,"406":0.11369002035919713,"407":-0.13561523137052928,"408":0.6683818096139239,"409":1.6154886354416862,"410":2.8982343792297414,"411":-1.2882294205125635,"412":-0.03915654158791708,"413":-3.4943838972810197,"414":-1.9724005179404571,"415":0.17043966994176976,"416":-0.10156770109766618,"417":0.3950712622963853,"418":1.8146298900578504,"419":-1.812065134168756,"420":-2.2041076462365825,"421":-0.3431974660710134,"422":1.5498151800566755,"423":4.121752755790428,"424":-0.7327461506559554,"425":-2.6565542354435028,"426":2.1357786765919715,"427":-0.6778696107042326,"428":0.33840048801210415,"429":0.09390905586025149,"430":2.040205196683039,"431":1.956847907784643,"432":-1.2489733497864102,"433":-1.558586120139091,"434":4.048411771736608,"435":-4.667740630667667,"436":-1.760569432484212,"437":2.2870018815919706,"438":-2.1407215392884518,"439":-4.03645724213698,"440":-0.9626626253597853,"441":-0.04509655793109407,"442":-0.3507834867275417,"443":-6.148563705387956,"444":-1.8496651006300004,"445":0.8245061324945099,"446":2.348598189486963,"447":-1.0237141824762115,"448":-3.8701927354990975,"449":5.549501386004043,"450":-0.7785307151975452,"451":-0.7485091248018997,"452":-2.2528257934816818,"453":-1.1473574746849686,"454":1.7467464905148562,"455":0.5532421665949441,"456":0.15531984497382112,"457":0.2470172707990297,"458":-0.05403000809993864,"459":2.1632705309983655,"460":0.18078662893311973,"461":-1.5139233527271003,"462":1.4701521631875412,"463":0.429287216808717,"464":0.32101830587279495,"465":-0.5228755073057204,"466":0.39027003543720673,"467":-0.2391660247055576,"468":0.9297565504757317,"469":-0.7225954572788539,"470":2.838531216799652,"471":-1.1210176721749308,"472":-0.32448707828075374,"473":0.28966689360767933,"474":-0.31764065041344713,"475":0.000469099632024861,"476":4.301332244340209,"477":1.7915715882856176,"478":-1.1921692106196078,"479":0.13128133605461173,"480":2.2616460642833047,"481":9.12088001762594,"482":2.6715846873081817,"483":0.9288355074128525,"484":4.037610474257052,"485":2.7031207879039347,"486":0.02575578440033036,"487":2.8286272978705806,"488":1.7292856372992909,"489":-2.7735326438754835,"490":1.806075956533861,"491":-11.224685311537817,"492":3.705371981977865,"493":3.6651074872087235,"494":-2.312658721853432,"495":2.0347822124422934,"496":1.1525713961460105,"497":-1.1873638078516848,"498":1.5223376647647129,"499":7.050305007032064,"500":0.7713172281771714,"501":-1.3548127361310067,"502":-3.695919212748332,"503":1.3622538481619146,"504":2.2943797313694145,"505":2.932877952905072,"506":-2.4689006637015893,"507":0.10793274276804274,"508":-2.89888535977045,"509":-2.349350262324828,"510":-2.696156456659011,"511":2.8969153715437455,"512":-4.104461656159343,"513":-2.007481101041841,"514":-2.243743533462744,"515":4.493181282319268,"516":-0.7144209166360843,"517":-0.5543742199414896,"518":-1.047602016119809,"519":4.36978746213596,"520":-1.310575713835255,"521":-2.6458801654165978,"522":-0.5413191521926524,"523":-2.0570482808172295,"524":-0.5848808287241468,"525":7.290739805889829,"526":-1.5542221467401867,"527":10.14730063149539,"528":2.1336747511857252,"529":2.232243843608618,"530":-1.3379863025267207,"531":10.637328739293794,"532":-6.721161974886213,"533":4.096772311812999,"534":-4.044394379188729,"535":1.9074479132536502,"536":5.936376108236027,"537":2.0682528446700275,"538":1.7232819286799543,"539":0.5116593273767115,"540":4.607845577848452,"541":6.935969935351654,"542":0.5229150077972552,"543":-0.36114475011610003,"544":-2.432744809681167,"545":4.813613599026112,"546":-1.7398955052659923,"547":1.2097200728471815,"548":1.4326999639190205,"549":0.8516089557087427,"550":4.819393938906796,"551":-1.1783002693197806,"552":-1.9237566869564107,"553":-1.980339537798481,"554":2.5818665453456227,"555":-2.584989673237264,"556":-1.105213842388981,"557":-2.0691848862566036,"558":-1.0720018880017104,"559":1.4892544491340072,"560":-1.7463272685931877,"561":2.614275668511398,"562":3.1459572411030723,"563":-1.1647668723363855,"564":-2.735905881130365,"565":-0.010216714141497241,"566":0.9182733609642567,"567":-3.8904043919058195,"568":2.475674372329772,"569":3.2213788436146884,"570":-1.2500580585971535,"571":1.7028194153086587,"572":1.3411833360483276,"573":-3.1621842399804305,"574":-0.2987514273332312,"575":-1.915627354726738,"576":0.15724612468047897,"577":-2.599514596969125,"578":-1.1812096989312961,"579":-0.9510092338526674,"580":-0.2144703080868816,"581":0.044048900841883204,"582":-1.2828546021902352,"583":-2.7862306289170573,"584":0.20304151874719728,"585":1.2996894462465372,"586":2.9828393560053934,"587":-0.5345177961202795,"588":0.4737805099111343,"589":-0.7102938218793517,"590":0.3147317347617923,"591":2.805326838697843,"592":-1.174906309183429,"593":2.2105313551104393,"594":-1.1772323574915438,"595":-0.5606242205838861,"596":-0.5800720320031034,"597":-2.5598645185311906,"598":-1.0920729256234079,"599":1.2360821912744646,"600":3.4634080226201336,"601":-5.092820513131622,"602":1.2042632563770392,"603":-3.5221466665761603,"604":2.206225077102074,"605":3.509000592038524,"606":-0.6387015222562465,"607":-1.4444607109893315,"608":2.1719858885342513,"609":1.69838960604218,"610":-0.7286371544779159,"611":-0.4522667550195645,"612":-5.811475203178691,"613":-0.16777731088004735,"614":-0.5819121458636867,"615":0.31976436645324247,"616":0.7888094380873446,"617":4.114584283155737,"618":-0.3792563527730615,"619":0.6310941671212917,"620":-0.9411209543838949,"621":-0.22398600133364668,"622":-1.2263209181630044,"623":0.14315303156613676,"624":0.5743049783975704,"625":1.0660336085915787,"626":1.0595399255686713,"627":-1.9220623963922936,"628":-3.838490333429779,"629":0.2013924651719689,"630":-4.8432138533836255,"631":-2.0810496251375072,"632":1.861612309073014,"633":2.9365699114693413,"634":-4.942374471162746,"635":-1.0728654254161656,"636":0.43206113253546424,"637":4.400633768405702,"638":3.3976504518766992,"639":-5.119463761658995,"640":0.7497516017877898,"641":-3.528570721426754,"642":-0.7307445266076028,"643":1.26847353510452,"644":-5.326570021801915,"645":5.284533726696832,"646":-0.43510340288871524,"647":-8.78828471054066,"648":1.6754171307265988,"649":-0.0715054188770548,"650":2.827786710160289,"651":4.0841268407883495,"652":1.8043253105790833,"653":0.8852319369007597,"654":6.259260377674782,"655":-2.665529561575887,"656":1.052987599211706,"657":0.6685835431463765,"658":0.21658387909512805,"659":-5.125055331505726,"660":-1.65982912313126,"661":2.035361899592123,"662":2.576534415988546,"663":4.746621051250061,"664":-0.7039325840352879,"665":-2.165099601565857,"666":5.210820140302895,"667":-3.159359889899619,"668":-0.2241417480722041,"669":-0.25784958485013143,"670":-3.60177643723575,"671":2.9377899086926362,"672":1.4072217648657888,"673":3.74824588319338,"674":-5.92522340453044,"675":3.70205915030405,"676":0.23415968328701292,"677":-0.9213501714513398,"678":-0.4806335078778038,"679":4.737566228489352,"680":-1.023493971924701,"681":-1.8180122652277406,"682":0.6508119386470244,"683":0.3820588667869309,"684":3.849849334697218,"685":-0.1265824765113806,"686":-2.8696150556049647,"687":-4.071251133663805,"688":2.1386106449201843,"689":-0.598251419263544,"690":7.217977889978348,"691":-2.0419666127283596,"692":0.6823282985012861,"693":7.645541343857853,"694":-6.037615636129315,"695":6.03448218865437,"696":-0.7952644650266256,"697":0.13886389530423568,"698":-2.785694334870726,"699":5.378193534737385,"700":2.541522511509634,"701":-0.38013381746120595,"702":-0.6542670947252702,"703":-3.6463474673061813,"704":-7.244476415478395,"705":6.630662711223495,"706":-6.356856306386105,"707":-2.890988767853536,"708":-2.631420709600638,"709":8.767807566401318,"710":-4.2132135625126255,"711":0.4785339922268799,"712":-6.6273550631084515,"713":4.3348113838319025,"714":-6.06967929379529,"715":-4.09729880849235,"716":2.122328289861934,"717":-0.20155287133909983,"718":1.5673785653589096,"719":-5.0934739969889895,"720":7.132273937616573,"721":3.310527435840462,"722":-0.7008100521666644,"723":-1.5715691459722387,"724":-1.0301043388655837,"725":-1.8754617863643317,"726":4.270535609932998,"727":-3.697988351912936,"728":2.147927708053763,"729":-1.193419059449685,"730":-2.8433683533908742,"731":0.12191332371799003,"732":2.9803386781014685,"733":0.8141315773702335,"734":0.7960236287030231,"735":3.266933965253288,"736":9.077751161616257,"737":-3.5069662379376925,"738":2.989645567728887,"739":-0.6327801305800279,"740":0.7111498230265787,"741":3.600677319882184,"742":-1.9932767701674934,"743":1.0556580004290508,"744":3.2793901665145033,"745":-2.2570072897716535,"746":2.079215026699099,"747":-2.148001756957916,"748":-5.986967777992114,"749":-0.3508202359930253,"750":-3.263546851626763,"751":0.9098793450703386,"752":2.125881509114216,"753":0.3468703471612574,"754":1.1317294343617108,"755":2.2154808328912914,"756":-7.360720708019443,"757":-2.3549433958342827,"758":-3.543965312161228,"759":1.7117991784713105,"760":-1.0454152596697708,"761":8.989795922592883,"762":0.31535136059338037,"763":1.071873258064119,"764":-0.5276377771990092,"765":-0.5000055903057973,"766":3.7961426102995164,"767":1.8029623573382736,"768":-0.2280690598663073,"769":-2.544442797322068,"770":-0.7909147721101253,"771":-0.617657594527663,"772":4.603337823955706,"773":-3.749170697930908,"774":-0.467455769425404,"775":1.6294087841532687,"776":-12.778319552265206,"777":1.0221794673701141,"778":-3.7121812913082164,"779":3.7886774451198795,"780":-3.017963853365059,"781":2.6756072091333323,"782":0.10931863555083501,"783":-0.5960013092449262,"784":-0.8018065316869252,"785":-0.37729468999507754,"786":-0.5367905352307779,"787":-0.960314339297884,"788":0.6231512109169989,"789":4.85270447982563,"790":3.7020063672239196,"791":0.409834365134048,"792":3.7880366414153093,"793":-9.392399748763681,"794":-0.306808725620517,"795":6.025685773820924,"796":0.035922816018038754,"797":2.1219731017917542,"798":6.495126022840687,"799":2.5128891420946586,"800":7.031814875704728,"801":6.73665402279608,"802":2.6088384859027802,"803":8.187987695643024,"804":-4.372664213969235,"805":-1.8248283302500017,"806":4.837737689117806,"807":0.6021072529636723,"808":2.389574612121825,"809":-0.5413466029832014,"810":3.537520948644444,"811":-1.4436746913832204,"812":-0.5327430104863304,"813":1.641701070404354,"814":-0.6004697822781314,"815":0.4348567966896776,"816":3.4654611152011774,"817":-2.099305613321859,"818":0.311004033813262,"819":2.5351439197151606,"820":0.6518183671462189,"821":-2.1800134367370125,"822":1.1219547386469642,"823":-2.7635193615996188,"824":0.31109823831362554,"825":1.592201340215882,"826":3.0281619883492557,"827":-2.7174595105137316,"828":-0.5078002211674124,"829":-1.4693470829660624,"830":-1.5319823836588733,"831":-1.6648457790723223,"832":-3.820771525915437,"833":-2.370943187231092,"834":0.8086871573580146,"835":-1.4478899017136724,"836":2.772479525522559,"837":0.14765268030932252,"838":0.32087402944641424,"839":0.7141983466420392,"840":-1.220453917966627,"841":-0.9622284741076398,"842":2.740249361471872,"843":2.047523739589083,"844":-0.30684024476348315,"845":1.1879129725841728,"846":3.9169276744440915,"847":-0.7820364447263926,"848":1.3949308527770157,"849":-0.89845745228007,"850":-6.506237469380562,"851":7.34492678814797,"852":3.110209287650896,"853":-5.94911405696067,"854":-5.813411238625463,"855":1.984877627233399,"856":-1.4966855562125443,"857":-1.3695955977260807,"858":1.7456752437688954,"859":3.6245199027421355,"860":0.12131314329954983,"861":5.040209160088913,"862":-5.833738498374517,"863":-6.906386263573521,"864":0.33942231235198383,"865":3.122718806534913,"866":2.8109835346163727,"867":1.247525239193454,"868":-0.175013273911989,"869":0.2002993467382844,"870":3.5884479108718765,"871":5.8233717029605705,"872":2.370118404907527,"873":-4.620117108636298,"874":2.4206115576407345,"875":-6.808248551158249,"876":-2.7653161065111926,"877":3.2893669075270107,"878":-3.9170504857598036,"879":-3.2411256759086444,"880":-2.2416352605278616,"881":-0.9776907165987683,"882":4.627581895876963,"883":3.8051060043875764,"884":2.936224579500503,"885":3.5805323831473714,"886":3.490985497706549,"887":-8.956928940193416,"888":3.892104623845989,"889":-1.3906408437165114,"890":1.2994160487128765,"891":5.902733546101908,"892":7.4141606838635346,"893":-0.07051206986487794,"894":0.8130562548936702,"895":1.1818376155344616,"896":-0.931647551213122,"897":-1.4368871099891185,"898":2.4984941005016528,"899":0.8483095773259003}},"bo0":{"n":30,"d":1,"w":{"0":-2.9931462771384516,"1":-3.1037949362694333,"2":1.923289776077265,"3":-2.4308770256792727,"4":-6.857523818177835,"5":-7.124533603624967,"6":-0.5216062937766411,"7":-2.6872231105763253,"8":-2.072187914360376,"9":0.6888843530547502,"10":5.59131249820395,"11":1.6880557884494523,"12":-2.626153405118031,"13":-6.253583437208385,"14":1.3495824362760234,"15":-2.764841171793845,"16":1.6545466611620383,"17":0.42866961233879175,"18":5.302521563861473,"19":-1.343276699833272,"20":4.62191953243073,"21":0.8732311723847763,"22":1.4982116924240105,"23":-0.3644542422162586,"24":-0.18130900710673006,"25":0.440430981762794,"26":-4.4572815766381,"27":3.1573994262340603,"28":-3.007416658643803,"29":-1.905372845110193}},"Wcx0":{"n":30,"d":5,"w":{"0":5.090109400556481,"1":-3.1814315733863845,"2":2.6400490637503378,"3":-3.0255270150061397,"4":0.07897918809380387,"5":4.096160927169713,"6":-4.160584512340213,"7":-0.18503273174107834,"8":-2.3043825112732983,"9":0.020511224126003258,"10":-3.8619436815837735,"11":6.014896804225607,"12":-4.003612070789615,"13":-0.84278099061706,"14":0.685805145387029,"15":-0.63525941439479,"16":-1.9990172783975497,"17":-1.5762276097611174,"18":-0.04802162937983365,"19":0.7852279580625597,"20":0.9238356911821262,"21":-0.5317008831182785,"22":1.9984647434336895,"23":3.425633948236726,"24":0.18676175930380917,"25":0.4885262116549282,"26":-2.908382082616669,"27":1.8721762261534662,"28":0.14910430533653649,"29":-3.4794080524184823,"30":4.729699779612096,"31":0.3437230621925775,"32":2.3049537908961373,"33":-0.8734613882346378,"34":-2.406395272777605,"35":-1.9631966304202861,"36":2.372255920095555,"37":-2.582060277013615,"38":-0.03769219879524517,"39":1.5307505102715726,"40":0.13921943454117902,"41":2.5008123465933068,"42":0.22313378913972468,"43":0.3570085505910009,"44":-2.2645491993901725,"45":-1.0041916691535302,"46":-4.36096216703854,"47":1.6251495605317943,"48":0.07526352176910853,"49":1.3261346882791716,"50":5.426760752586045,"51":-0.23848367134625414,"52":0.027388656694212792,"53":-3.915477279016068,"54":-3.4662873293251297,"55":-2.736895672061466,"56":0.5395108436222988,"57":-3.0035954526639017,"58":4.672897770641207,"59":0.6107596853391821,"60":2.29261925556822,"61":1.7119728623006325,"62":0.8907286629951837,"63":-1.738940253842636,"64":0.28744688110372413,"65":4.430099128465688,"66":0.18373458206870458,"67":-1.1495759132554493,"68":3.0021528456561297,"69":-2.5758454451675385,"70":1.8788561496669123,"71":-0.7222121691487294,"72":-0.4150834691768218,"73":1.4990949350656606,"74":-1.6047548659048736,"75":0.3084724116695802,"76":2.149905551330314,"77":0.8241873352995381,"78":0.22240215951208048,"79":-0.10361063454045845,"80":2.1553996831491524,"81":-1.6183684720752913,"82":1.3460477994913744,"83":0.4517302011045345,"84":-1.3982071259300304,"85":-7.774383496045951,"86":2.29643950140068,"87":-1.3091856290746169,"88":1.2427588176007713,"89":2.3786599299286055,"90":2.5444471135191074,"91":-1.4122280880945046,"92":-0.8111241183736283,"93":2.2013950045691253,"94":1.921359112240089,"95":-3.763864958585934,"96":0.890142076367491,"97":2.0456947939947963,"98":0.3125628994784133,"99":-0.9668071553899394,"100":0.3578613345091978,"101":0.8130436322705297,"102":0.30399619816634765,"103":1.3798959804738706,"104":0.9593767890727103,"105":2.529822288381192,"106":-5.034114152399137,"107":2.043007723451227,"108":0.8107214775552211,"109":-2.4224915177217947,"110":3.5595290604555383,"111":1.2156415128584075,"112":0.16888675521169982,"113":2.0214071447640873,"114":-0.666011708151102,"115":-5.135373424890817,"116":-0.9408632061214243,"117":-1.1105710647317282,"118":-1.1071708396906874,"119":1.0005382585606808,"120":4.809561996747357,"121":-5.070536139480495,"122":3.3611618460833115,"123":-4.224384055855802,"124":0.09700596440187538,"125":-1.4488336401083823,"126":-0.7557945393722327,"127":-0.28757102346544194,"128":2.914185599099981,"129":-1.3229622954954807,"130":4.060468151262431,"131":-3.9727571137525857,"132":4.904765843345555,"133":-1.0691496018588937,"134":0.28717526317284986,"135":1.943566223410109,"136":-3.1523784599741567,"137":0.13908693315355222,"138":-1.6083714801846871,"139":0.5969695531535477,"140":-1.347394102818311,"141":-0.33872405535850036,"142":-0.4667700812653075,"143":1.7020688293432746,"144":-2.7911339991169446,"145":-3.2060253857688186,"146":1.2940105017076466,"147":-3.9928649010781387,"148":3.0618442196391995,"149":2.7152536354208547}},"Wch0":{"n":30,"d":30,"w":{"0":-0.904422057981022,"1":0.881916927270318,"2":1.2679338168465333,"3":-1.0984446317994823,"4":-2.420386544743378,"5":-0.1722573680657891,"6":-0.7025717801792394,"7":-0.4258526099774637,"8":0.11225069301973598,"9":5.090911627029545,"10":-2.774060529489688,"11":-2.2144419327243394,"12":1.0539266347111322,"13":-5.182292780667854,"14":-1.1333658822804582,"15":3.188839934325266,"16":0.8414496023239381,"17":-4.519666240238327,"18":1.912175517035011,"19":3.1874898253732695,"20":2.059454595910431,"21":-1.6829737704550507,"22":3.82158057630557,"23":4.791462712171173,"24":-3.333895558586428,"25":1.9605844271967063,"26":-2.524475112832921,"27":2.59527915762823,"28":6.116066845876707,"29":-1.3070874036890205,"30":-4.22872123092856,"31":-0.5373672045102174,"32":0.28941458757300403,"33":-3.4817019998754253,"34":-1.754347020391541,"35":-3.0482750056601957,"36":-2.0248731713680765,"37":3.7913863311489426,"38":-4.549899095200123,"39":-4.546974731225917,"40":-2.347676738171964,"41":2.493519679723388,"42":-5.394764307569667,"43":-2.439284397528789,"44":-4.343232228117732,"45":4.912009668180984,"46":1.443065413485204,"47":3.1985600960370624,"48":-2.734563842777056,"49":0.34875551761931317,"50":-2.4670757521473776,"51":-2.2603038871972894,"52":0.49792927079785015,"53":2.7952102981340987,"54":-2.938884563787247,"55":-1.8632463426987405,"56":-0.34587219939016584,"57":0.5373246286495512,"58":3.0780817494482444,"59":-2.693140120050891,"60":-3.2230422626591957,"61":4.894087716420111,"62":-2.5193012058780258,"63":2.802392413114757,"64":-0.8202685293408902,"65":1.780683196839064,"66":-0.11573042620962985,"67":-2.404959535090668,"68":-0.2262110010123555,"69":2.4870101572719814,