window.characterToIndex = {"0":1,"1":2,"2":3,"3":4,"4":5,"5":6,"6":7,"7":8,"8":9,"9":10,"H":11,"i":12,"g":13,"h":14," ":15,"s":16,"p":17,"e":18,"d":19,"a":20,"n":21,"m":22,"u":23,"l":24,"t":25,"c":26,"o":27,"D":28,"r":29,"b":30,"k":31,"w":32,"(":33,"K":34,"W":35,")":36,":":37,"f":38,"y":39,"E":40,"x":41,"S":42,"j":43,",":44,"O":45,"T":46,"v":47,"C":48,"R":49,"-":50,"V":51,"z":52,"q":53,"N":54,"M":55,"A":56,"X":57,".":58,"/":59,"P":60,"I":61,"B":62,"G":63,"F":64,"U":65,"L":66,"\\":67,"'":68,"<":69,">":70,"+":71,"?":72,"Q":73,"Y":74,"â":75,"":76,"¢":77,"J":78,"Z":79,"_":80,"&":81,";":82,"Â":83,"®":84,"*":85,"\"":86,"!":87,"":88,"@":89,"":90,"":91,"":92,"":93,"`":94,"=":95}

window.indexToCharacter = {"1":"0","2":"1","3":"2","4":"3","5":"4","6":"5","7":"6","8":"7","9":"8","10":"9","11":"H","12":"i","13":"g","14":"h","15":" ","16":"s","17":"p","18":"e","19":"d","20":"a","21":"n","22":"m","23":"u","24":"l","25":"t","26":"c","27":"o","28":"D","29":"r","30":"b","31":"k","32":"w","33":"(","34":"K","35":"W","36":")","37":":","38":"f","39":"y","40":"E","41":"x","42":"S","43":"j","44":",","45":"O","46":"T","47":"v","48":"C","49":"R","50":"-","51":"V","52":"z","53":"q","54":"N","55":"M","56":"A","57":"X","58":".","59":"/","60":"P","61":"I","62":"B","63":"G","64":"F","65":"U","66":"L","67":"\\","68":"'","69":"<","70":">","71":"+","72":"?","73":"Q","74":"Y","75":"â","76":"","77":"¢","78":"J","79":"Z","80":"_","81":"&","82":";","83":"Â","84":"®","85":"*","86":"\"","87":"!","88":"","89":"@","90":"","91":"","92":"","93":"","94":"`","95":"="}

window.hidden_sizes = [30,20]

window.model = {"Wil":{"n":96,"d":5,"w":{"0":-0.0071416921355692935,"1":2.031454316547279,"2":-1.715129615641973,"3":1.398495902517149,"4":-1.3000551840443253,"5":-4.099466828282773,"6":1.4396208154779317,"7":-2.9274097584640337,"8":0.8796349720100077,"9":2.088684309957334,"10":-3.965783758469017,"11":0.004483769285714675,"12":0.06736501228921431,"13":4.628226270442383,"14":-0.35025645774989767,"15":-3.021500785589199,"16":-2.0439481485227478,"17":3.547058095354477,"18":2.4250639895846215,"19":1.3568604649960316,"20":-0.3330218008175443,"21":2.9850595032448486,"22":-3.5133477149718555,"23":2.515802916854859,"24":-0.3924858309114766,"25":-1.1906097235949569,"26":-0.5973123972921263,"27":0.14829611948722146,"28":1.084031547875895,"29":-0.48370768125883473,"30":-1.720676772098769,"31":-1.4435202288576687,"32":0.8509629177408927,"33":1.6301311582565203,"34":-0.6871663735496811,"35":-2.472718628965272,"36":-2.2783471480792126,"37":1.1957367205395637,"38":0.810702081850213,"39":-2.262190259305747,"40":-2.7946839383254733,"41":-0.17706805439097972,"42":-1.6531844150618515,"43":4.070698434771045,"44":0.42408661799221253,"45":2.470481443954815,"46":5.992514547228997,"47":2.773332270001991,"48":-1.5859449057778896,"49":-1.092946126579778,"50":-2.926056612886329,"51":-0.8906046806441001,"52":1.0020294069360562,"53":3.94828838124337,"54":0.819714491742599,"55":-0.8138947247947064,"56":0.9624356799513885,"57":-2.132800319373826,"58":1.3612394041446585,"59":6.286644986067959,"60":1.6748415133721752,"61":-0.9927475596878569,"62":1.4065072813665638,"63":2.0462999170915683,"64":-3.923001336604227,"65":5.5702264716524095,"66":-1.1421339437375868,"67":0.05971327861213892,"68":-1.8850005270552626,"69":1.1828059203489165,"70":6.054035742447016,"71":-0.9719629608968625,"72":1.2580529044305215,"73":0.4020344179388307,"74":1.7170642493331685,"75":-3.3882742931656504,"76":5.992044867209354,"77":-7.25953265652934,"78":4.699581171272129,"79":-9.187016317408988,"80":2.449989462445444,"81":0.7809659215008169,"82":1.4640359740387854,"83":-1.6519562362634017,"84":0.6011281386181516,"85":0.6568303909746025,"86":-1.1462191222968656,"87":-0.37206139605031147,"88":-1.6765577392308364,"89":-1.3512748988016896,"90":0.7141320709033504,"91":1.4170591089815854,"92":-0.12179680817660567,"93":-1.4019217553206815,"94":3.3009760639770835,"95":4.793622576634334,"96":-0.08939386973375908,"97":2.11118170469276,"98":-1.9237590486819702,"99":4.266287272160942,"100":0.7846654165439987,"101":2.9696276366019405,"102":-0.9099288871581722,"103":-1.2520123803732834,"104":-1.559671945027709,"105":2.918152929171811,"106":-0.028279250070324176,"107":0.050931130157509275,"108":0.762636879164975,"109":0.574455514622212,"110":3.36468292842318,"111":-1.891090025829742,"112":1.820863404733377,"113":-1.8420677364735991,"114":-0.9740585717862315,"115":1.6508141627976856,"116":1.4151209800484092,"117":0.8730867041537806,"118":-0.6112498209854226,"119":-0.5324074800948819,"120":6.683314226433228,"121":-0.783424152309707,"122":5.328291239409395,"123":-1.3735833208836123,"124":-1.6209887290723837,"125":0.9681125636230821,"126":-0.9251017240719557,"127":-0.5063903236121406,"128":-4.504988425139971,"129":-2.3560173910411892,"130":2.2074867000778657,"131":-4.297719784786159,"132":0.09476273395905849,"133":1.2263871129123025,"134":-2.1196156940703528,"135":-0.055941915071976156,"136":-0.37416524463234424,"137":0.44605971196988614,"138":0.7658096735783534,"139":-4.324019534095307,"140":-2.9645135041617596,"141":3.0750532242576267,"142":0.8750209680037039,"143":3.1979863506431583,"144":8.493430876240291,"145":4.771066797644989,"146":-1.2844253839442632,"147":4.155243965316384,"148":2.360472645568981,"149":-0.8225075317421545,"150":-1.2427006423252847,"151":-1.794199330513223,"152":3.647546435538804,"153":-2.936791337882415,"154":-1.8711440013270244,"155":3.2742717323869437,"156":2.131783519922923,"157":1.5002001826880906,"158":-1.1206860137482626,"159":0.0983214926498616,"160":4.470249196990046,"161":1.064190961503635,"162":0.9583830832742372,"163":-1.4398935606627457,"164":-3.195912765219264,"165":-5.755694819940728,"166":-2.87855321096548,"167":-14.373827260000168,"168":10.896032787708437,"169":2.4550797366411112,"170":-0.7048592641086955,"171":-0.772096827543382,"172":-1.3328076925950811,"173":0.34970770757457126,"174":-0.7382870035213247,"175":6.145782913470221,"176":-0.3900788290112492,"177":-1.548978163934926,"178":4.90331703388713,"179":1.8537522162038271,"180":2.832429881829835,"181":5.735110539523639,"182":-3.0852824057893193,"183":-6.493547681294525,"184":1.2503079201910068,"185":7.58469910848103,"186":8.022436619172538,"187":-2.7144491759998086,"188":-8.838866906094044,"189":2.1635137494509715,"190":7.419118150119933,"191":3.935078325394722,"192":4.021701897135171,"193":-8.066399164592054,"194":-3.1776176230236364,"195":4.2119849885291805,"196":1.7053903457966497,"197":-0.2349551722053456,"198":1.6028596036513145,"199":2.968424491130971,"200":-2.849123691484109,"201":0.6749979506871991,"202":-1.1766694756891145,"203":-0.206770927216757,"204":1.5557172304352023,"205":4.13308290671413,"206":-0.04551794919354171,"207":-2.485973892586379,"208":0.8739130892526557,"209":2.7864572159550187,"210":2.3440805704379004,"211":1.0766512146750409,"212":0.6774744222658001,"213":2.079364978354076,"214":0.2543520453944056,"215":8.583225199849961,"216":-1.671982333087087,"217":0.3238431926865144,"218":-1.4078410859214967,"219":-0.2373161438789363,"220":7.338623381632084,"221":9.221450429554217,"222":0.09054486372873219,"223":-8.52031352224239,"224":0.46178733882275746,"225":0.007614093611489387,"226":-0.3446475467339435,"227":-0.359584703361888,"228":0.634543877785333,"229":-1.59670259214165,"230":2.8522684779917125,"231":-0.18503893933490756,"232":-3.1056634638829173,"233":2.743499533561218,"234":-1.866343418389819,"235":7.026994048306206,"236":-0.9922078321511137,"237":3.064564536185878,"238":-5.346202592334918,"239":-0.5207697523768968,"240":-0.11780063486342783,"241":-2.73505097089967,"242":0.21075584595183441,"243":3.262170026344006,"244":0.5802267257320868,"245":-1.689085946661545,"246":-0.4859737808970736,"247":1.010535419312687,"248":3.347136691609265,"249":3.5338854252613965,"250":-5.569786373747029,"251":3.905899275542668,"252":-3.8476092491300666,"253":3.632156484862704,"254":-4.263341267963227,"255":0.36042041222620963,"256":1.1885364206145628,"257":2.9800307893444424,"258":0.10896366086958179,"259":5.832297359402383,"260":2.5543447104441057,"261":-0.5271961188220019,"262":1.8857171815633864,"263":-0.20704165509550818,"264":-3.7131850865435267,"265":4.015577715396664,"266":1.7787269420830167,"267":-1.0350516635406064,"268":10.700959624987107,"269":-2.7734792917879707,"270":2.736600250300523,"271":-0.9692654859908711,"272":-1.193435486675739,"273":1.0122372639160908,"274":-0.1553646518222731,"275":0.9037768478926839,"276":0.06471560724457197,"277":1.4012893310882786,"278":2.9211811869707125,"279":3.7868658378449647,"280":-0.3603965498433034,"281":1.0324320685585981,"282":0.7259441979170012,"283":0.6412234368962201,"284":-0.7724171588300266,"285":-2.5822771760389323,"286":-1.2094901251948094,"287":-0.6520486103103941,"288":4.378131856787518,"289":8.490804440972422,"290":-1.9006657978765815,"291":0.17284252980271525,"292":-1.4709911843116688,"293":0.3157913076864992,"294":0.6356971460610245,"295":-2.5004544876945256,"296":0.6696558811710763,"297":1.4517720641193044,"298":3.0951496027997023,"299":-0.7560247016044702,"300":-0.9823979515031248,"301":-2.3963941006012077,"302":-3.137858995955604,"303":1.4938959873757582,"304":0.15812944392941805,"305":-2.560649797979801,"306":-2.1962636451821878,"307":-3.953648646004057,"308":3.9598207062480846,"309":-0.9633976203750904,"310":2.687484303605267,"311":6.035926616345446,"312":-6.110326671464915,"313":5.055346777865625,"314":0.6338633408029029,"315":-0.33093289213422056,"316":-0.2945684468986071,"317":0.14478730851746568,"318":-0.563343838145633,"319":-0.10526738675292216,"320":-1.2602286029791259,"321":-2.880802256876384,"322":-0.5121837113813947,"323":1.1769501265583089,"324":2.627458124941616,"325":1.5655483885977675,"326":1.8117294525144632,"327":2.543844944786831,"328":2.332114796202736,"329":0.3570327880289309,"330":0.34223808312962956,"331":-0.46416255473310764,"332":1.1584654680906439,"333":4.050677688726375,"334":3.402526838455965,"335":-7.792940987357493,"336":0.34356795025575926,"337":3.695827016164958,"338":-5.157505018453878,"339":-1.5472177931987277,"340":2.1751747348807546,"341":5.279869799288644,"342":-0.8650517022878488,"343":-0.619031470958388,"344":3.879540041678732,"345":-4.723326206892419,"346":2.246844134815745,"347":-2.3140488569174287,"348":2.7825536436247886,"349":-1.6475333022051442,"350":2.55342228964439,"351":1.6753668439937723,"352":-1.6100234138559202,"353":2.572348434858719,"354":0.5013358248139838,"355":0.012779369892077133,"356":5.263060137976324,"357":4.033066093234264,"358":1.2701125719258848,"359":3.884030872777357,"360":2.6353157848695163,"361":0.8411396225411305,"362":2.5679676437651504,"363":-1.4503951655973597,"364":1.5179797684588852,"365":-3.32344799789858,"366":5.062268004516939,"367":-3.1726260657178114,"368":11.157660407142124,"369":1.4666503600335876,"370":0.1949778574814188,"371":-2.7758589446627147,"372":-0.24664224634846482,"373":3.60324230613059,"374":3.1375135562134666,"375":0.6891508510108898,"376":3.687480467636663,"377":1.0800187281278673,"378":-0.21139744293113497,"379":3.557759096377708,"380":-0.7038387636801268,"381":0.8350848428506069,"382":1.6325043129613566,"383":0.08070684321640909,"384":-3.9076745752885897,"385":0.6623029079147145,"386":1.5033896305201369,"387":1.6583814877596952,"388":2.11526743806181,"389":3.708420206082914,"390":-1.24226805303001,"391":-2.3279079173683646,"392":-1.1566849253627747,"393":3.729281421478449,"394":4.2438477745403995,"395":-1.7051551878106739,"396":-1.459041237980173,"397":-3.1811966021374936,"398":4.202328559627281,"399":1.5548888651793846,"400":1.3610335154395812,"401":-0.5391105856632079,"402":-1.1354803009947978,"403":1.2937543565607146,"404":5.303142194894165,"405":-1.6609547534428266,"406":6.58915731231187,"407":0.6648265990392606,"408":-1.7478180731615767,"409":-2.321963628515891,"410":0.261427012561103,"411":4.81959674872489,"412":0.1505543556116011,"413":3.2991077817460113,"414":-0.05969506511798986,"415":-2.2776874715693753,"416":1.918437765220306,"417":0.45966328724965844,"418":-0.9113449297984785,"419":-2.2351994240247093,"420":1.4070920271433893,"421":5.894549435875044,"422":-1.3322703755507845,"423":2.593750701770158,"424":1.755500110619539,"425":-1.7177444652498066,"426":4.865880940029803,"427":1.9282820823077156,"428":-1.8252703226323823,"429":-1.014163514014379,"430":-2.3182369729668166,"431":1.6931261449006243,"432":-2.1956248944584438,"433":4.268794556173376,"434":-1.7902781156281022,"435":1.245927664083642,"436":3.0653080095646414,"437":0.3766621964847335,"438":4.170513141298189,"439":2.522559212620649,"440":-2.98261434037251,"441":2.8259192193800238,"442":-1.4052019653517136,"443":2.7655904472783046,"444":-0.4988477104597483,"445":-4.3914607449636325,"446":0.6891490017569082,"447":-1.237855934819597,"448":-1.2549620252170024,"449":-3.0530002383246324,"450":-1.9445532961285739,"451":0.08724861066930965,"452":2.6404615430785228,"453":2.7214838506799626,"454":2.8756899666900675,"455":-4.229230508676843,"456":0.09715395998963737,"457":0.11527331341812778,"458":-2.0425330045113945,"459":-1.7557741067194563,"460":1.3431048442604039,"461":2.351416543654017,"462":5.222346533344862,"463":-3.358044083033179,"464":0.4056136202300314,"465":-2.3723324211219103,"466":1.434839083186709,"467":2.1886555415454407,"468":-2.3818091854918575,"469":0.9609607362031211,"470":-1.6539256442638608,"471":2.021194195640387,"472":4.51778674398678,"473":0.6724225405780693,"474":-1.0938108423737836,"475":3.3616942550982434,"476":0.3967505120183415,"477":1.0327902130846658,"478":-2.940890297660634,"479":-4.2331263227811835}},"Wix0":{"n":30,"d":5,"w":{"0":-2.5707202654323265,"1":2.0963901852777616,"2":-1.3668539945746407,"3":1.0638182226056847,"4":-0.028905978037885235,"5":0.11997938343832185,"6":-1.1714467496011802,"7":-0.7643739763620649,"8":1.0082257285154366,"9":1.8543506734212056,"10":-0.9842547179885899,"11":3.8989995273588827,"12":-1.35302077905142,"13":0.009030007927133463,"14":-1.446650373604295,"15":-1.5111075850324711,"16":-0.9858928572651896,"17":-1.0704785240588859,"18":2.8175504020695628,"19":-1.1949973272692902,"20":0.24941176332708911,"21":-0.0018832055545546366,"22":-2.760887298476911,"23":-5.400348678827782,"24":-2.0132180520575176,"25":1.6167244732213986,"26":-3.7627371724032814,"27":-1.8550334409967661,"28":2.7012828256334096,"29":2.8691287060376447,"30":-3.2239474412806755,"31":1.2787614473386884,"32":-2.0177897460398775,"33":2.603628693969061,"34":-2.039430945771195,"35":2.0324705263953486,"36":-0.8616662685837211,"37":-2.1865462180654345,"38":-0.5981927036473794,"39":3.753688943707697,"40":-3.048662900386842,"41":3.095783324523767,"42":5.150463791181251,"43":-0.6460329501826871,"44":-1.552607584323278,"45":2.4519729222411044,"46":2.6120388795099285,"47":0.39561710215000156,"48":-3.511383138575978,"49":3.5719025851165433,"50":-0.14018172979863033,"51":4.9643614578253565,"52":3.0610879446667605,"53":-1.2780189856312727,"54":-4.010400623495693,"55":-0.46233806838523583,"56":2.0976417398875546,"57":-0.9087796470575943,"58":1.0079860547415758,"59":0.7760518104552576,"60":-0.30274539042295495,"61":-2.6857482440608136,"62":-4.1297132368868885,"63":-1.3976977530782257,"64":2.134776544864593,"65":0.7699535196701242,"66":2.401702425383571,"67":-0.7956700922719249,"68":2.9547818442763982,"69":-1.36918144764612,"70":-0.8374849503425257,"71":-3.046134563527745,"72":-0.5275125651806332,"73":1.7284804591711551,"74":-2.992761972274569,"75":1.8341720216756907,"76":0.4256878369064866,"77":-1.5735301598481763,"78":1.8142904289338777,"79":1.8872105759733402,"80":0.5542282473161854,"81":-1.628200242759462,"82":-1.99060934085219,"83":-0.1329944970538239,"84":2.2092836625861776,"85":-0.8575367638549699,"86":-1.9599426823162074,"87":-1.8987438542515378,"88":-1.356709882155376,"89":0.6504455919736871,"90":-1.8805005514185755,"91":3.524889963697275,"92":-1.5412560981605608,"93":1.7464573632456462,"94":0.9764857550553492,"95":-2.604064584970936,"96":5.511012677573455,"97":2.1541045610353904,"98":2.097384304185896,"99":3.0728924951906746,"100":2.194416837103851,"101":0.6184105984473571,"102":-1.383878398800002,"103":1.0829223792252547,"104":-2.335987872875173,"105":-4.426599309560631,"106":2.6685789467287213,"107":-2.0476924660840394,"108":-0.40232009336084235,"109":-0.6524027155671284,"110":2.224452561180718,"111":-1.5090556204288614,"112":-4.590554366710714,"113":-3.2417532471934156,"114":3.0540265309847427,"115":4.562215110380167,"116":-1.869696524746211,"117":3.6530856750785943,"118":1.5695035580589,"119":0.41177258808257655,"120":0.15029110077112912,"121":-1.348790964560879,"122":-1.1984034182948053,"123":-0.12996166324502398,"124":0.9665087330462101,"125":-4.592239489137741,"126":-1.3712567406426126,"127":-7.295809940978516,"128":0.9796018576827974,"129":3.7231648124207664,"130":-0.16811407424161856,"131":3.0146588545857975,"132":-1.0833317478606754,"133":5.080839977027133,"134":-1.0727776594691862,"135":-3.8337343022185664,"136":4.148678262884879,"137":1.572995505675856,"138":-1.491173212031784,"139":-0.7167412859246601,"140":-1.2127516613793978,"141":-11.024782625959148,"142":-2.9233864576119104,"143":4.031569205310247,"144":2.935581927086206,"145":1.2926729197107563,"146":-2.2650191164276356,"147":-0.7086179680799691,"148":-0.004267400710074181,"149":1.682926397776584}},"Wih0":{"n":30,"d":30,"w":{"0":-0.34931469346699123,"1":-0.5376090305738237,"2":-1.883058502962971,"3":2.897886015173633,"4":0.3826233070689771,"5":-2.697751622904233,"6":1.636908631188584,"7":-2.7064383374550998,"8":-3.5601582832982333,"9":2.459343323972196,"10":8.40135818737648,"11":-2.1186829257688475,"12":6.638690722069593,"13":2.526838981380875,"14":-1.9869263400234576,"15":-3.8704421781908227,"16":-2.07894173678604,"17":-0.6870577188492576,"18":2.0682843786108496,"19":0.8167703725472292,"20":-0.9577162200835591,"21":-0.814167220506228,"22":-7.234982105282047,"23":-1.72574824064948,"24":2.170300053257689,"25":-1.1006997273738468,"26":-1.2223784141134872,"27":-2.523242144526614,"28":3.832687490174019,"29":-4.4634104302096835,"30":2.3735729753001196,"31":1.2650025739514206,"32":6.140948588948959,"33":2.108336581044001,"34":4.038968348368202,"35":8.260850151823648,"36":3.9138146849759905,"37":4.540587866816703,"38":0.7587713659998262,"39":1.4112563085010106,"40":0.142195121304455,"41":-1.825741896479556,"42":6.00400707201887,"43":-1.007421827969878,"44":-5.162931875805063,"45":-0.03311236630258414,"46":-2.749001904050151,"47":-0.39512907077087617,"48":5.482265738005594,"49":5.231283543198972,"50":3.0546782931439433,"51":3.404874649857808,"52":-2.1131421144544618,"53":-5.6649753261259015,"54":3.0964563794177593,"55":5.812628164709526,"56":-7.737872868639462,"57":6.526581399693242,"58":-0.6290528100279104,"59":1.315286485910944,"60":0.6117229388360816,"61":-1.5706202020337279,"62":0.36673233152147533,"63":-1.5615484984255978,"64":-1.5528682117680142,"65":-0.5572342683698762,"66":-0.6491878859839704,"67":-3.260869265150181,"68":-1.6984284696677543,"69":-4.380279185884353,"70":3.6344841888416757,"71":3.972210938845789,"72":-0.6249783626699797,"73":2.0026250936582213,"74":-1.9269428875648322,"75":1.7047464722404682,"76":4.6791399853068025,"77":-2.4776949863800897,"78":-2.324875593300529,"79":0.00002234570660098663,"80":0.08617486862085488,"81":-1.1097734208377628,"82":-1.5916884886205882,"83":-0.0649579522947404,"84":6.1556928156417,"85":-2.2976942522962007,"86":2.420116684174933,"87":1.303216996923436,"88":-2.4970923778503815,"89":-3.4098818445010175,"90":1.739595671870818,"91":17.26317592020354,"92":2.452462857627954,"93":1.9097396249088179,"94":16.406686321211463,"95":-16.219778452998746,"96":-5.001211474139363,"97":-2.9957948149383586,"98":1.5720167311983735,"99":7.538324950612141,"100":4.424747530269238,"101":9.780600742400853,"102":-4.231976387098854,"103":-3.0668729509516357,"104":1.6089988997489824,"105":2.4530897237486062,"106":-2.8276452357458033,"107":1.808092513649965,"108":-8.741452686560615,"109":4.433827872960392,"110":-3.4556401368082135,"111":9.425180708748993,"112":-1.246565544167974,"113":1.9188499772285046,"114":2.0190245589976903,"115":3.6270946594294555,"116":5.9148054204887455,"117":-5.002400113027097,"118":-1.2038322847164362,"119":-7.415244287119895,"120":6.303249911929289,"121":1.3749875582721076,"122":3.1208221538895473,"123":3.5547992649154057,"124":6.630223247678566,"125":-5.461913131693521,"126":-6.816183137220702,"127":-2.701542578207198,"128":1.9221567499172716,"129":0.6694112960066678,"130":2.951262636161348,"131":0.5443212312225278,"132":-1.3810072837171377,"133":9.878550181921188,"134":1.5428416596080285,"135":-0.403507151112939,"136":0.5050309932075058,"137":-5.4104150111657345,"138":2.5277899436948696,"139":-2.016390268523961,"140":7.79125816717105,"141":6.846995672600345,"142":-5.17372036623505,"143":0.11000485427813218,"144":-0.2548819433649195,"145":-3.2625969417239635,"146":-2.6611991197192824,"147":8.907534722360593,"148":6.510131551304638,"149":-3.4173873519158797,"150":-0.20157991809965944,"151":8.99543150241771,"152":-0.4499060602010054,"153":-4.4374543816304515,"154":-10.961063147311402,"155":-4.44939393231673,"156":-0.2844796913176763,"157":3.2732104930472747,"158":-2.9485961506783873,"159":-0.26740217075437633,"160":5.244960391172583,"161":-0.6500401818071464,"162":-1.3936844034311378,"163":-4.792757108982379,"164":-1.650697310750708,"165":1.2829984038759934,"166":0.8458976778552534,"167":0.24634386434694824,"168":-2.3563237329483875,"169":1.225249821938448,"170":3.650897072242872,"171":2.8681949957516775,"172":-2.8789102402583757,"173":-5.218261535021195,"174":-1.4759815439477906,"175":-0.0016679539601653739,"176":-1.8694352165443533,"177":3.0517337656153005,"178":2.536199911206051,"179":-1.470727947177258,"180":3.6667029719182924,"181":0.6725195641744602,"182":-0.20618643035676285,"183":-0.8663091498938197,"184":4.059330993561675,"185":-4.60277531083747,"186":-0.6563052184022419,"187":-3.581450875666099,"188":1.2951477432338256,"189":9.63257689458533,"190":3.327279267733375,"191":-7.921369124768497,"192":0.8006590043811168,"193":-1.448599820415789,"194":-3.2381777668805016,"195":7.418684607208186,"196":-4.351614551019103,"197":9.844149641750022,"198":-0.44953040110016246,"199":-1.668995357692645,"200":4.003583917837584,"201":0.8752764234495627,"202":-5.183975368721148,"203":0.8179410920230107,"204":-0.8833157969913631,"205":0.8315188629662643,"206":-2.119463581013323,"207":-4.345934553528481,"208":-0.08878312185325342,"209":2.4338673707282052,"210":3.518714698523391,"211":2.889364782198151,"212":-1.325382731460773,"213":-6.860826565785483,"214":3.7692189647010594,"215":-7.30866698542896,"216":-7.933614950537743,"217":0.5205504813485453,"218":-0.5980195846444492,"219":3.138021260873869,"220":0.5246579907137437,"221":-0.08704185480865088,"222":5.700370112831561,"223":11.410345767443458,"224":3.7692159698826377,"225":-12.967250301352918,"226":5.095889575462177,"227":-4.627961035333625,"228":4.8615773913280895,"229":3.0326033923303717,"230":8.04627726660944,"231":10.494156161222019,"232":5.264598025224697,"233":-2.0292163664713367,"234":-5.271313165132738,"235":-0.22499212566348195,"236":-5.648917892305082,"237":5.064685806968869,"238":-2.246451635657444,"239":1.7581231530143882,"240":-1.45904637269659,"241":0.047615090947799456,"242":5.288841944089974,"243":-0.6881582763610201,"244":13.970644068028097,"245":-6.859042706924238,"246":-2.8851764563542757,"247":2.0814524383171498,"248":-0.2870120154615706,"249":-4.863725933623684,"250":-2.8416283897163535,"251":-6.852660916691504,"252":6.527852164043575,"253":2.2144841091270253,"254":1.6046994696605492,"255":-9.535804449459645,"256":-4.827202157584893,"257":3.1801054100981556,"258":-3.5218673977816537,"259":0.2483030073622779,"260":-3.304545489711732,"261":9.903155481428927,"262":7.509670972463082,"263":-14.166729961496877,"264":-1.0932544149949153,"265":-1.8945622298370992,"266":-0.06622249000138025,"267":-5.660580796640012,"268":4.209203053166792,"269":3.5470552840720337,"270":3.096017013621356,"271":-2.5654474406535637,"272":4.94469699159791,"273":-5.952124866775971,"274":10.461931088971886,"275":-2.066633108186017,"276":0.6736684649546524,"277":2.38400825971341,"278":3.450100658285358,"279":3.430969306494153,"280":3.921325252998613,"281":-1.8329969218193065,"282":0.9605274973203322,"283":3.3778568457536142,"284":0.822348589854665,"285":-7.223170061458524,"286":6.396562496555925,"287":-3.465988766544578,"288":4.422848995383125,"289":6.963754109992648,"290":5.476612842055795,"291":-5.94266278711243,"292":-0.5925912309987614,"293":7.479817995836015,"294":0.8084980423524286,"295":-7.598364844757195,"296":0.21266403417347646,"297":4.291607425539866,"298":5.502919684330966,"299":-4.517905573048021,"300":-0.38134937969618954,"301":3.157874551135731,"302":-2.0044800604848922,"303":-2.059254782789567,"304":0.9649694913485237,"305":2.4662840677521536,"306":-3.1058072126589846,"307":0.31245826277958477,"308":2.3791532659003463,"309":5.179484435015451,"310":6.936569959821347,"311":-10.251429190973074,"312":0.1804557097527943,"313":-1.9040965227654252,"314":1.0959763821957647,"315":0.14656370060462923,"316":-2.6504176524264205,"317":-7.117080503675657,"318":-2.172015790835996,"319":-3.141610175411704,"320":2.4340409384031383,"321":1.8334334171446431,"322":3.7330626620429177,"323":-3.5573435312693147,"324":1.1913485399923862,"325":-1.926012266028291,"326":1.594891941175278,"327":1.2835824580158068,"328":2.291014063817498,"329":1.6978863936777677,"330":-1.1537439681957404,"331":1.2584019804075854,"332":-6.762661214499259,"333":6.513588214920307,"334":4.198407711851547,"335":-0.8980557284133719,"336":3.864923833832974,"337":2.0986138937072942,"338":0.7658867096938679,"339":-1.9231209698590317,"340":3.8185264695983308,"341":-1.2461004503845874,"342":-1.0908677137296137,"343":0.7209588657917958,"344":1.524167091885842,"345":-1.6923627479929764,"346":2.5176099506557086,"347":-5.211984173685103,"348":1.5710803277658623,"349":1.1451122014566315,"350":-0.02906226473147898,"351":-1.5353202776733639,"352":3.65509266388906,"353":2.8546490454300897,"354":-1.3581833316848324,"355":0.18245910748051347,"356":4.646803054847429,"357":2.016285158945557,"358":0.42221843796999553,"359":-1.1090034375746776,"360":-5.267702748887252,"361":-2.7745976683163964,"362":5.115308992556188,"363":4.417413327544548,"364":2.114200006447387,"365":2.4443297981042225,"366":-1.7186013132780043,"367":-1.3051637227901163,"368":-5.13347776547226,"369":10.679844759582876,"370":0.8669760988430313,"371":0.7245977340532778,"372":2.519814655722109,"373":3.1485748887287595,"374":1.0210166691444358,"375":1.9586700506031691,"376":-2.022462337901746,"377":-1.1083637040730647,"378":4.7614597894005755,"379":0.3484929149262447,"380":1.2549372770891,"381":0.5600889340170551,"382":4.786524647249894,"383":-1.219325831083629,"384":-0.24642406475145964,"385":-4.036926948560585,"386":-9.580089017830458,"387":5.939338095783146,"388":-2.2764941697784207,"389":-2.501400380829085,"390":-2.082379577222948,"391":1.7375617120623748,"392":-0.41358584449678315,"393":2.9434730708198753,"394":2.195227556886651,"395":-0.7814499016538876,"396":-5.329537216279238,"397":3.030508063059681,"398":0.9242929369064684,"399":-3.8215999597035224,"400":4.452602524898507,"401":-2.4943020241240044,"402":-2.565807095945916,"403":-7.54244468091784,"404":6.673991046384389,"405":-1.6773802112239926,"406":1.4681192145552966,"407":-1.913695831075652,"408":1.4648284273856529,"409":-0.3923053684272205,"410":1.2663739159096534,"411":0.7836629646214928,"412":-1.6593752307747565,"413":-2.184170073824753,"414":-0.45024868149891,"415":-1.6242065715964122,"416":-7.732668590898268,"417":-1.8323741877318163,"418":1.5970237442548483,"419":3.0766286382739123,"420":-13.963634586219579,"421":0.772138988640004,"422":-1.0883453676363677,"423":3.110152111412316,"424":-0.27350278349907725,"425":10.360518986913947,"426":8.448975629802321,"427":4.209400066025453,"428":5.242380186155269,"429":-4.707203755790867,"430":-2.0546102502143846,"431":4.06081022079703,"432":2.963051152031625,"433":-0.6669733965497515,"434":-8.441749171132152,"435":-0.24891704299565173,"436":-2.146248333655873,"437":-5.102840396382807,"438":-5.7276073357501645,"439":-4.021325655506777,"440":-1.7315094199655852,"441":1.9371219419003534,"442":-6.542794368615775,"443":7.451198829018733,"444":10.777382233468488,"445":-0.6120061309856543,"446":0.4665260332823174,"447":-2.2600607047047836,"448":-7.297776028570688,"449":0.35758527780970456,"450":8.76645538637294,"451":-10.486428333482685,"452":-3.6917817053768918,"453":-2.8910722775594784,"454":-5.058653867961457,"455":-3.192093750924304,"456":9.81755189907245,"457":-5.639152106273149,"458":1.6579022747647572,"459":-4.097992211457432,"460":-2.545735207286834,"461":4.214837275371916,"462":3.8670621488705548,"463":15.68568740294525,"464":2.5779926092749195,"465":-2.149245767357965,"466":-0.7155754430828121,"467":2.843798986432945,"468":1.8163152597340047,"469":-5.558348039818128,"470":-3.495784965072434,"471":-0.8494228958494063,"472":1.5550962392993084,"473":-13.18604512408585,"474":-10.105964694146083,"475":-1.9732442257064033,"476":-11.992598195500188,"477":-3.9530020906975247,"478":-2.2343956284414066,"479":-8.006390023275838,"480":-4.482317477590269,"481":0.6321907451210744,"482":-1.1368004448573796,"483":5.836400788013023,"484":3.689697052542798,"485":4.1539095544713165,"486":-3.1837228493241985,"487":4.127470006575082,"488":0.6524910581468158,"489":4.971977535670616,"490":2.4838741334563945,"491":-2.2187177939841702,"492":0.500167455113594,"493":1.1796456523832242,"494":0.2961101687763171,"495":-0.4197781095358166,"496":5.206654989644245,"497":-8.806301080174155,"498":3.807521058519278,"499":-0.1340828267540518,"500":3.4374067228587135,"501":7.617490921617723,"502":-0.21244173032567235,"503":4.659102182201508,"504":-3.8102351098555984,"505":1.470229480104707,"506":-2.3256941731043708,"507":1.5378754580242517,"508":-1.16876480475267,"509":-0.6951084577190882,"510":8.191060459225039,"511":-2.18205281414304,"512":-1.9752239674934835,"513":0.9732965063096302,"514":-12.845211556272114,"515":2.3773022495336726,"516":-0.3997145155859009,"517":-2.4071297603076074,"518":-15.858757962133419,"519":7.235781989335251,"520":2.6346616222524677,"521":-8.639841075742462,"522":5.250686841843673,"523":-8.365768263308595,"524":-9.937626747876282,"525":7.59450735740798,"526":-0.6356773961396874,"527":-2.382641747478466,"528":2.968105791602256,"529":2.9131546681161167,"530":2.391080699368046,"531":-0.7378241515260593,"532":0.8934579868737467,"533":0.5481578642367255,"534":0.900810092619317,"535":0.3387626382993435,"536":7.887482370589902,"537":0.49767307189924337,"538":7.837327490850461,"539":1.9486732469124437,"540":-0.9701493862956797,"541":-0.5801425248204275,"542":4.131675094175865,"543":-3.280922228864076,"544":1.6104929643100658,"545":-0.45480399564128615,"546":-0.7674721437787094,"547":0.32147713187301535,"548":0.9294634953432938,"549":0.7864505668786084,"550":-0.9481946818742257,"551":2.207502246083803,"552":-2.181446603359267,"553":-2.627276121153687,"554":-0.3664880032396839,"555":4.767941932756723,"556":1.0625805941745348,"557":0.6042603994073926,"558":-6.440632975912571,"559":-2.467406083149905,"560":-4.760056948715676,"561":2.8839686883599813,"562":-0.13191770767988945,"563":-0.9134846921345666,"564":-0.07553062078460525,"565":2.4256457625496286,"566":-1.6696315174160654,"567":-1.4878976175036,"568":1.6336213611102162,"569":1.6093796351095406,"570":-1.9966164287190196,"571":-0.35298089287164236,"572":0.938525950595412,"573":-2.381489055855572,"574":3.2775706283506834,"575":-6.461593875318962,"576":2.18167229192892,"577":1.241637992563429,"578":-0.18857368250032633,"579":1.4936663054431254,"580":-4.018498153138525,"581":-3.745571435185786,"582":4.024931415585894,"583":6.71929054191014,"584":6.676900477212526,"585":4.720573830746029,"586":-5.0923839434293905,"587":9.834967127773607,"588":-0.401095241717477,"589":1.8343285425736522,"590":-1.9301979308718051,"591":-9.26111069634677,"592":11.246942385159125,"593":-6.839276012825346,"594":-2.365497715932461,"595":-3.8342015770276006,"596":7.57217042965708,"597":-0.9644066460739772,"598":2.953659027038069,"599":0.6226984224326622,"600":3.276716813329307,"601":5.271692331278405,"602":7.442109415063225,"603":1.9052013923143978,"604":1.7207189303967851,"605":10.218726624629348,"606":0.446602175680877,"607":2.5606259946885035,"608":1.3918713235019142,"609":6.894581065090633,"610":0.9102994142591114,"611":5.841199526732212,"612":-22.104119419783395,"613":0.2262515122311138,"614":-1.8394098636381635,"615":2.685872099939782,"616":0.05517676246751634,"617":-7.636721769951154,"618":-2.948326210700516,"619":5.957398320869736,"620":-15.070616021526396,"621":7.366292272732554,"622":1.9805552070376855,"623":-13.968322828130884,"624":0.23197908312955537,"625":1.4705296394185032,"626":7.819165029402174,"627":1.0940103940514447,"628":-7.255984478431087,"629":-2.8281944286617295,"630":3.526052787363921,"631":0.9606837898012912,"632":1.5290807665186648,"633":8.42797507740551,"634":0.6669573391821665,"635":-1.3723302682786618,"636":2.679666540337524,"637":0.770132327396492,"638":-3.4284320333255978,"639":-1.4846556798950523,"640":0.46650522280002593,"641":1.8655535437132362,"642":4.542865222706959,"643":4.416836780218788,"644":-5.0148534086364265,"645":6.280466924075284,"646":-2.6683419450346175,"647":-0.6583269753853548,"648":-5.320997948960819,"649":4.43996334925593,"650":2.495016087026411,"651":-3.006098669071678,"652":0.9272473563478417,"653":2.4134892795849985,"654":-0.14583021890612755,"655":-1.1500385829227084,"656":1.882207660557856,"657":-4.234498323842142,"658":-3.197895598541622,"659":-5.421055461341402,"660":6.729863797199497,"661":2.8556121577596643,"662":-1.6823685331584646,"663":-2.6033478192587216,"664":-4.281684416824047,"665":-7.8712248263688185,"666":-1.2245298293012155,"667":2.3245677018907163,"668":0.2717189491195713,"669":-2.042806948634875,"670":-8.425908072834046,"671":-2.111572654299356,"672":11.91165704893501,"673":11.455247913866703,"674":3.654724702175316,"675":-1.7868781982839337,"676":-4.0806507711449465,"677":-1.8663542672978628,"678":-11.212312159507382,"679":0.09310632861759895,"680":0.1013745220882452,"681":-2.8171421466659177,"682":-2.938061468608032,"683":4.5035673387981445,"684":-7.739426606684827,"685":-2.9753075343382847,"686":7.065308023187873,"687":-6.025503019610061,"688":12.537965385444906,"689":9.011766506448007,"690":-0.4716835446210965,"691":6.13500792753627,"692":-0.049275273573548134,"693":1.2178943004568301,"694":-2.8021841351315744,"695":6.960441855710041,"696":-5.764735435671081,"697":-1.4963017166248553,"698":-6.0599239632303785,"699":6.29724469632571,"700":9.746278884366012,"701":-5.255235269918745,"702":8.075312988645026,"703":-3.549402678619717,"704":1.619472098150123,"705":5.890338986211105,"706":-1.8567084415694246,"707":7.854100353880165,"708":1.8625637531010113,"709":7.475686665771413,"710":7.298385431834349,"711":7.089043161824201,"712":1.384327740442834,"713":-3.590952190570183,"714":-4.633547167852882,"715":-2.501206717339389,"716":1.1574333329920834,"717":2.113258131747278,"718":-3.7542685304162324,"719":-0.7390823398072882,"720":-6.5065167846501,"721":5.642275101228293,"722":0.7562763727534361,"723":-3.276886772846397,"724":3.357099913292693,"725":10.096544634448914,"726":-2.880895791500038,"727":4.5634430557548304,"728":1.127417757616573,"729":3.2474061919295862,"730":-5.467489011597832,"731":-4.690835840304087,"732":-0.8177659690072016,"733":-2.119176319850222,"734":1.4316358447319029,"735":2.959756901231099,"736":0.858093435747742,"737":-0.01968654165188262,"738":6.86508332484428,"739":-0.7253019746023373,"740":2.8521653952144588,"741":-9.267068127842977,"742":1.0190154779733769,"743":3.576627035830103,"744":-5.695162459597513,"745":-3.710025798747073,"746":-1.851259338797023,"747":2.0858021412132137,"748":-7.465311920638434,"749":1.2675891490366646,"750":-0.43781478885317837,"751":8.79562284067133,"752":1.6689435310504472,"753":-1.3603749906880245,"754":-1.7009100087132965,"755":9.449303589697289,"756":1.9412466846158312,"757":4.083967477550955,"758":1.0369201364252298,"759":-4.433860611086757,"760":5.978998818203794,"761":-3.0555665705974815,"762":1.8783913278482145,"763":-2.6448439598274236,"764":1.151597577968684,"765":-5.255222516698446,"766":-2.115015060589944,"767":-4.3527080364972575,"768":8.945000150447546,"769":-0.9648878781799959,"770":-0.4123131702048449,"771":2.1027653520059966,"772":-2.1968703595624324,"773":-4.30091545929195,"774":-6.000250216610278,"775":-3.88409818679191,"776":4.382624443358365,"777":3.209135079189052,"778":1.2360684258272596,"779":-9.377962122897072,"780":3.272839140734883,"781":1.997010054532988,"782":-2.213577302340085,"783":-0.8438267313461867,"784":-4.604013840418045,"785":1.2369785666509525,"786":-1.2629136432555415,"787":-0.5895016840134277,"788":2.0365726494198975,"789":-8.317937781809563,"790":-0.7707768278196973,"791":2.1467957872506416,"792":-0.4559062966973167,"793":-6.939542602946397,"794":-0.9806200636525199,"795":4.531116743748307,"796":-7.281431345941797,"797":13.672588482511506,"798":3.0082385032826533,"799":1.9959446200491449,"800":4.729716416917483,"801":-1.0762603264528445,"802":-2.926351292605482,"803":-4.654335280612452,"804":-5.516974784308971,"805":2.5805839626471285,"806":-5.392936841469426,"807":-3.6722214705549163,"808":3.118750571962839,"809":-3.246824318856869,"810":10.080424762391033,"811":0.19106631258837006,"812":-0.8068001039223007,"813":-1.3375557671874683,"814":-3.7427653893688095,"815":0.6346802465956568,"816":7.007772663702031,"817":-3.8410059957905576,"818":2.966006809747362,"819":0.2765242505257,"820":-1.4714739228776044,"821":5.7570940669188,"822":-3.149852687257307,"823":0.5278190990099761,"824":-4.014565167470167,"825":-3.1034429246107638,"826":1.2420063728536852,"827":4.177696767771206,"828":-2.1644884217637514,"829":-3.5871924455002553,"830":-5.315911881475528,"831":2.4490701563189243,"832":2.0425479516329927,"833":-5.6079595465463,"834":7.565198865339044,"835":-1.165948321713768,"836":-9.752160366783169,"837":-2.236442533352957,"838":-9.612302744980598,"839":2.6904142261056756,"840":0.9912696314336749,"841":0.6170026566687433,"842":0.2089016266492148,"843":2.339334269223792,"844":0.2820185396841711,"845":-4.6645953423093625,"846":-5.050894035022209,"847":5.678112953413864,"848":3.9676510348293372,"849":3.906931195539985,"850":-0.8078533876445413,"851":4.882052576078941,"852":2.711630122322531,"853":-0.5240539628502405,"854":2.7425046261130808,"855":4.804857327150086,"856":0.19671232758210477,"857":4.139311599340773,"858":1.9724731071151547,"859":3.1915193314107126,"860":-0.30534375136453196,"861":10.417374922896261,"862":-1.160465612153716,"863":-0.230062943858429,"864":-3.6188741050405966,"865":1.3578264001975202,"866":2.5791415684590393,"867":2.1989230468083996,"868":-0.9828010844481663,"869":2.613102520863227,"870":10.698362577359553,"871":-1.451334982321693,"872":-2.511465752975768,"873":0.7052649191696544,"874":-2.443107153009662,"875":-3.0734782545586135,"876":1.1346230853892765,"877":0.23918024918356262,"878":-2.120551563717789,"879":-5.730741382854639,"880":-1.193788497183619,"881":-1.8886346754793837,"882":-0.8438889190496095,"883":-2.7674895872131415,"884":5.288648210195703,"885":5.962225692578543,"886":-0.05821475544133097,"887":-1.867781672548475,"888":2.9140688662967253,"889":6.132673729237625,"890":2.0308071996992676,"891":-0.1953440569064419,"892":0.036314655168948,"893":0.4786010681664728,"894":0.03666372282685726,"895":1.8535899346137044,"896":1.4758648238280083,"897":3.329137653954306,"898":5.069337445920209,"899":-4.056037899875318}},"bi0":{"n":30,"d":1,"w":{"0":0.25610792179205416,"1":1.2283485242306234,"2":3.6736459192313715,"3":0.7797926410652637,"4":0.0947938667927388,"5":-9.009697516922326,"6":1.081396126854731,"7":4.3425788465620885,"8":3.975173216554635,"9":-1.2516764428791296,"10":0.12275623415690551,"11":2.278933576362115,"12":-2.628002342395388,"13":-5.5305648451922185,"14":5.37732392353213,"15":6.470990184645706,"16":-2.6559787575200393,"17":0.06759059984191389,"18":2.7944407367519104,"19":5.7843518548811925,"20":4.371989104037279,"21":7.656792472150153,"22":8.274824039136803,"23":-9.178812498601385,"24":-2.2160080115922347,"25":1.5963933259032181,"26":2.7559317704232913,"27":11.1461467001839,"28":-0.43644002798341486,"29":2.251571400365239}},"Wfx0":{"n":30,"d":5,"w":{"0":3.8656878692833976,"1":1.701674331764112,"2":1.3090687114995783,"3":-1.9073410860261688,"4":3.2650748656973985,"5":-7.8599209848738445,"6":2.117026226993696,"7":-2.958521304105343,"8":-1.1811538221643696,"9":-2.4627032797603636,"10":-0.7375083958075397,"11":5.67996752061031,"12":5.88370325839747,"13":5.294289964632155,"14":2.590827377967,"15":-2.779266802672154,"16":-4.449698265788507,"17":2.651092902056278,"18":1.2141067796273637,"19":0.5316684151039176,"20":-2.4399331674753495,"21":-3.2555682264896886,"22":-1.4665248643595603,"23":3.4779561920429702,"24":-3.04473722902439,"25":-2.325051822644302,"26":-5.930727382517257,"27":-4.411117575504389,"28":-0.08603436639302524,"29":2.9129707273510426,"30":2.8054916473740867,"31":2.687068741238986,"32":-1.384693523925226,"33":-1.38250303984938,"34":2.959819750052832,"35":-2.7989216218841846,"36":2.3136099132800862,"37":2.995591165304117,"38":3.667420028456146,"39":-2.664793873638624,"40":-3.895916773133119,"41":-2.4146604900362676,"42":0.8662473480353252,"43":-5.3867740952835454,"44":-5.783893417778932,"45":-2.4859620676912746,"46":-1.1654115738222828,"47":1.2506569994779135,"48":0.3962622451449397,"49":0.5382671465205385,"50":0.3079985815783111,"51":-6.413229899368737,"52":1.6660482676909465,"53":-2.460729787456464,"54":2.735949376705055,"55":0.6375471573849285,"56":0.9272195774572003,"57":-0.46887381850141346,"58":0.49141987236754975,"59":2.8011223147546866,"60":0.20151305778171633,"61":0.36347107148238544,"62":2.731834718862932,"63":2.186877108612297,"64":0.06588509558776211,"65":0.923593601308509,"66":-1.9114385067184405,"67":-0.40038425748515355,"68":-2.8580491811649766,"69":-2.844643267536807,"70":0.9724763669113057,"71":4.832005814349292,"72":5.697269150178995,"73":-0.6262246396701246,"74":-1.114461127829723,"75":-1.5262113882063875,"76":0.19558830281783762,"77":2.5920544436352713,"78":-5.530143782267262,"79":-4.147857744322001,"80":1.6494475824719954,"81":-2.9255134831471112,"82":2.2603485130014094,"83":1.9062180492745389,"84":2.3008774975482105,"85":0.13964930627526795,"86":-2.9627477674625515,"87":1.9053593558729853,"88":1.4738117402886888,"89":0.5791927177894698,"90":2.0511215818129704,"91":-3.0883705214597907,"92":-3.905617154070774,"93":-0.9827169823719649,"94":2.8084526615646923,"95":-0.15075138855577247,"96":-0.2654088076577708,"97":1.2927957041500437,"98":1.2159997385948633,"99":-1.469086577086257,"100":-2.671500447255486,"101":1.422694908447512,"102":-0.05471641277456048,"103":-1.5809581239763206,"104":2.075103404359215,"105":-1.512187506733899,"106":0.8583984587469278,"107":-2.4874093582286134,"108":-1.342222088832286,"109":3.675740260994068,"110":3.2276990746318464,"111":6.924788062044337,"112":7.133925852426617,"113":-2.7788812925010298,"114":-2.3735086930826865,"115":-2.000931686758133,"116":-0.6565501274047015,"117":-1.1316627235803223,"118":-0.3521036851254898,"119":-3.6447883307811884,"120":-4.239760336518249,"121":-3.776939453743522,"122":-0.5430406112515104,"123":1.5316519814287177,"124":-0.04652387668101158,"125":1.8942857662510573,"126":-6.452611969963668,"127":1.1370598956026134,"128":3.3187851590809223,"129":-1.774608987777634,"130":0.9373329516947289,"131":3.399462967183267,"132":-1.1282310895696688,"133":2.8703499157032244,"134":-1.0110007999872321,"135":1.1981066506092652,"136":1.591631774533944,"137":2.0459256926649747,"138":-6.086130961388016,"139":-1.485007726183737,"140":-0.7662137022892537,"141":-0.7903230895556027,"142":0.6507591116962467,"143":0.5056350140024767,"144":-2.162967771692278,"145":-0.8197443730854621,"146":1.86166718150334,"147":1.1636987538463013,"148":2.837797877605695,"149":4.384551059344836}},"Wfh0":{"n":30,"d":30,"w":{"0":5.4923959099697335,"1":2.2766470319730927,"2":1.1175349303344464,"3":10.378729241078306,"4":0.01696506925690747,"5":-5.481048252171248,"6":0.03837336745336527,"7":-1.1163352620913511,"8":-2.6262800606835177,"9":-3.4202235911252292,"10":-4.009457462170201,"11":-4.8274687689771865,"12":21.364857987964395,"13":-8.00625388044941,"14":0.6286031004850401,"15":-0.1371395810129194,"16":-3.333991446023481,"17":3.534815032558054,"18":5.397604442810327,"19":13.086687722876041,"20":-2.3278469902658,"21":2.0627835973714888,"22":3.235883070666576,"23":-1.8049130479454525,"24":-2.0531558156469454,"25":0.24210423843407655,"26":0.7908424245566353,"27":3.9125483952156603,"28":13.864640970084258,"29":-5.195674589548941,"30":6.847857937489968,"31":3.103187035580935,"32":-6.271692721283814,"33":0.6291706311087474,"34":14.47958823105203,"35":6.500218210096387,"36":6.302101073183831,"37":-4.699959287167909,"38":2.3562456163022207,"39":4.642246926742108,"40":7.900153604052088,"41":-3.8049373436005554,"42":-2.0747007055200983,"43":0.9523216747916151,"44":-1.6576687339016907,"45":-3.2865126546999464,"46":3.47042536583018,"47":-2.3119075687928876,"48":4.646690277740855,"49":2.3072906040201784,"50":3.570923519267391,"51":-4.356636552256856,"52":5.599919038397352,"53":-12.162548012997854,"54":3.891994959148752,"55":-3.8243207875830176,"56":-3.579085222536421,"57":3.016670441808807,"58":-8.097934252671784,"59":-6.021592085035354,"60":6.661075406736732,"61":-4.8325052508833215,"62":6.890454712298606,"63":20.719338003207863,"64":-1.5439272751032538,"65":2.7831536569016384,"66":-4.154442937986724,"67":-9.940302299715391,"68":-7.635164928143843,"69":-2.3752441469230585,"70":-1.443081000983229,"71":5.6584573597916545,"72":-12.84562570306202,"73":-9.988432662027577,"74":-3.436970840552513,"75":4.132156001682462,"76":-0.9445151171023608,"77":-6.241829625497498,"78":-3.9108588672531277,"79":14.473919107914616,"80":4.5564117981317285,"81":-1.6160283583152109,"82":2.6880524060485427,"83":8.383454658440662,"84":10.892733582664132,"85":0.6818608761769124,"86":-0.9078056296444723,"87":3.475860596718146,"88":-3.529318839608446,"89":-3.5009619144525654,"90":-1.362092611882738,"91":13.818313674436983,"92":0.5439342267543117,"93":-5.905548823336012,"94":11.474746920047728,"95":8.15802440855299,"96":4.425055980917539,"97":-6.6150363057935495,"98":12.493600511488978,"99":-5.649426344764217,"100":2.238568123070863,"101":-3.011442830601982,"102":-2.996600130101187,"103":4.344052882838478,"104":7.929865809881342,"105":-4.919902735984793,"106":4.764510850711479,"107":-2.934541301368212,"108":-4.750180407291945,"109":-8.643579127847357,"110":-3.1926468734026376,"111":-3.196744323637094,"112":8.77986167110506,"113":-3.2033790341832553,"114":6.85333085296305,"115":7.825101440062511,"116":-0.08326024791169051,"117":-4.197632529186134,"118":1.5293580109699751,"119":5.636908786721199,"120":-0.9444669331547291,"121":5.251235761875633,"122":-9.68632737476009,"123":11.931638059090899,"124":2.982663098140627,"125":3.743163141010658,"126":-3.057695911519161,"127":1.1286336343383405,"128":9.280013911155827,"129":-1.0572205416459801,"130":3.2932359303196437,"131":-8.085571221863406,"132":-11.279313744690427,"133":0.20503625387292113,"134":3.578587225574068,"135":-5.998533011294049,"136":-8.479677922581887,"137":0.9710305035184155,"138":8.29942912313584,"139":-0.8216173357430026,"140":3.5882968846635808,"141":2.5979942986555553,"142":0.8699579401834022,"143":-0.9907103073555316,"144":-5.558828386937519,"145":-0.5083696207892634,"146":4.328372138524397,"147":-0.19349754375969772,"148":-4.206928503237132,"149":-6.722870991722626,"150":-4.442443835334144,"151":7.581063072268966,"152":-7.195156537198244,"153":-1.1251262949685077,"154":8.82801692459572,"155":-11.701373574490844,"156":1.1399181061330712,"157":4.031217788405433,"158":-2.5767785605602054,"159":6.1824289722943275,"160":8.057980982881919,"161":-10.070111059702194,"162":-10.17874637089296,"163":3.5273408702370785,"164":1.9710299772059372,"165":-1.9674653138116633,"166":-0.6336480021292069,"167":1.263290278247799,"168":-0.027969047396872202,"169":0.5055608778465128,"170":6.845963520448174,"171":4.622920369204144,"172":5.080910866774152,"173":-2.5309718572247824,"174":-3.500584518589014,"175":2.7744635408475395,"176":-8.485532380927417,"177":-7.209182325440188,"178":3.708823299204594,"179":-3.2862876000367076,"180":-6.190002630259542,"181":-5.853942213822792,"182":2.2087769037657274,"183":-2.397537177916301,"184":1.6012904597371482,"185":5.605668633906372,"186":5.486148110675935,"187":2.728120591520761,"188":2.8582604095968827,"189":-3.1411070501198095,"190":1.4911431803432256,"191":2.906474322288244,"192":3.8091654102043604,"193":0.20805408551929205,"194":-1.615501445013657,"195":-1.6919905872776981,"196":-3.6126932356677077,"197":3.3043670727556704,"198":0.59310736541578,"199":1.1464303842851358,"200":2.524329201853743,"201":-1.5012643887428285,"202":5.83010907871848,"203":3.9658466376049955,"204":-0.18680913931431287,"205":-1.8143633586970391,"206":5.190225010216151,"207":3.798741301960083,"208":-1.2303262452426846,"209":0.708182318572569,"210":-11.441714681340619,"211":-7.0203844776050275,"212":5.133984419204405,"213":-5.779224239643008,"214":-2.2932282034195017,"215":11.831359017147685,"216":-5.659364595889906,"217":-3.8641771778951686,"218":5.192163851567759,"219":6.674219576975685,"220":-3.2432967603055536,"221":-5.65876594292818,"222":7.498768090892891,"223":0.05256497303182745,"224":1.7811255570986775,"225":4.0692198452863755,"226":-3.989822496966934,"227":8.107431836334674,"228":4.906825639824429,"229":11.588237671557689,"230":-1.6700600477270362,"231":-2.4225949613296867,"232":-2.628522698159162,"233":7.525174697058979,"234":-0.6406899581501341,"235":5.50417825713737,"236":0.7322507212113535,"237":7.398872598898377,"238":-2.4711026353068704,"239":-8.301677051016851,"240":-4.770919395597079,"241":-0.9091875511812414,"242":-6.5585991858348756,"243":-1.0760489086530618,"244":5.777565094667104,"245":10.126288911073907,"246":-3.240153132399982,"247":0.24214090683918565,"248":4.662681877693111,"249":-7.910411516275233,"250":3.0329497840802877,"251":-5.458279057014503,"252":-10.221038089438988,"253":-11.887123306069027,"254":3.136609738809386,"255":-9.313904781851829,"256":-0.30060334742512934,"257":-6.135223160720254,"258":0.18349839529886156,"259":-6.252724634850644,"260":2.235671360741877,"261":-2.1933956402451757,"262":6.753648407263316,"263":5.044203814544184,"264":-1.6229135156349241,"265":-8.023032864207828,"266":-0.4559902691122906,"267":-4.321835423349234,"268":-0.6210340517213391,"269":-2.756373625946936,"270":7.33914081668994,"271":-2.1876465526982964,"272":-2.028772281781844,"273":11.651278283810747,"274":-5.912456106453298,"275":-4.319536530587707,"276":2.4924211509496206,"277":0.1929881235752646,"278":2.274175140872938,"279":-1.3825620540628707,"280":5.925066746254968,"281":-7.585664784934679,"282":5.479901099579132,"283":-8.633748472014126,"284":-2.2009424111120004,"285":1.9992227608502093,"286":4.887072958785167,"287":4.291286623848361,"288":13.092703094065795,"289":11.52302439999368,"290":-1.302054948034679,"291":8.380159193443198,"292":-2.518638817813521,"293":4.113814858811518,"294":-8.795477580611559,"295":0.5749855074280631,"296":14.411046321067538,"297":3.4527387006671253,"298":1.9703065951929601,"299":-5.484706897353099,"300":-3.067666432840116,"301":2.246459618668805,"302":-4.7345354164162385,"303":9.132172708724482,"304":-7.559507203451184,"305":-2.850084121013619,"306":0.4762436604051046,"307":5.603595187909669,"308":-2.7215858670550968,"309":8.521636757188142,"310":-5.400364176672013,"311":5.409892198362086,"312":9.240691001333083,"313":-11.429923583289685,"314":-5.615797371353804,"315":6.740113932400692,"316":-0.3683714334067532,"317":4.162197050605629,"318":-1.6187814435693924,"319":12.393574725850746,"320":2.421162117587807,"321":1.0289446142395333,"322":-1.4115663604352642,"323":-2.342363656714377,"324":-5.4551723850552385,"325":-6.445341464467193,"326":3.705545278987987,"327":3.460924184612517,"328":3.7985363896521704,"329":0.9537207166214239,"330":-4.488985098225021,"331":0.29088468288044206,"332":1.7254866408735325,"333":0.11291277224104393,"334":6.3496060568749595,"335":7.213415470429539,"336":-3.836377382049177,"337":-9.009509270537457,"338":-4.801986711582428,"339":4.144592139493439,"340":-5.446096476422302,"341":2.2467274845231913,"342":-5.961231906100463,"343":7.237881222511428,"344":-0.20853301031554725,"345":1.6650699165057161,"346":-2.321905795492937,"347":-6.9264133221621185,"348":-0.8585478270201031,"349":-2.3953613850090973,"350":5.520042191220456,"351":-9.049928338718129,"352":-3.9393343341104847,"353":-3.584362199365615,"354":-9.65726508815627,"355":-5.099888387840842,"356":5.611876049001946,"357":5.865388490058945,"358":-2.6791079139189815,"359":-6.841130035719304,"360":8.161842116872695,"361":-6.417596312029862,"362":1.24096207264923,"363":1.8945776637795897,"364":-13.260085122659868,"365":5.850555831298906,"366":4.515086627891217,"367":-8.373554059769283,"368":-3.378647452294906,"369":6.396754457227698,"370":0.07690108640029808,"371":5.025669975850624,"372":4.906290240249426,"373":-8.417740721284904,"374":-9.44671421727959,"375":4.429359288341013,"376":-3.2974529461075024,"377":4.102900303374527,"378":0.23569925414759685,"379":3.5420912742128086,"380":-0.08915671645542393,"381":3.2882778478692534,"382":-3.6511029963166104,"383":-11.436440483160899,"384":-0.20213849164777148,"385":-0.9556394059728778,"386":0.07607995526831132,"387":2.1051837144069636,"388":-0.1958742359482724,"389":-1.614410804267867,"390":1.558264724851881,"391":9.136185588955174,"392":-2.418394020765933,"393":-6.896736706339386,"394":-0.8708519396564683,"395":5.372310210134534,"396":15.108363833900412,"397":1.683598212029145,"398":10.01226304517412,"399":6.836385287103756,"400":6.841626698658776,"401":-10.656332207318206,"402":-6.32186099785692,"403":9.753432205089881,"404":9.41955882676774,"405":0.6030946977342816,"406":10.787604435966962,"407":-10.56330963234654,"408":-2.0517058122530973,"409":-1.3078550328350442,"410":6.935729543384306,"411":-6.135480500107857,"412":8.154540315558771,"413":-0.42023586914424615,"414":10.54516017416497,"415":-4.2210763814236865,"416":-10.79212670563986,"417":0.35652848955829475,"418":2.5983092956661857,"419":4.4073878561923605,"420":-0.6714522387070612,"421":-6.985058428806773,"422":1.2776726410807868,"423":-5.487179514654761,"424":1.4054297648843599,"425":11.157369102224438,"426":-0.284022914346105,"427":-4.853012890582917,"428":5.8494867940568485,"429":4.442644867536943,"430":3.0628433942438438,"431":0.9998134220385131,"432":-0.732197602972956,"433":0.19420771746610443,"434":6.125192298236281,"435":-0.9381259925005522,"436":2.6335615964098102,"437":-0.6685457540496815,"438":-1.5155627663879554,"439":-4.542334829278353,"440":-3.3140817302281946,"441":-0.7624824224505223,"442":5.796772165723048,"443":-6.689742604112564,"444":7.370883352381339,"445":-0.688208376261602,"446":0.30797035226566477,"447":-0.5201653561977723,"448":-4.728752192501871,"449":-0.27247730429830086,"450":-1.576037275474133,"451":1.9887232339273013,"452":0.06988874259116601,"453":0.8689974645438981,"454":-0.4538352181711971,"455":7.531178084440255,"456":-2.317738714945056,"457":0.8877528224959844,"458":4.9932870565671035,"459":-5.3620052777604075,"460":-2.805348364333505,"461":-4.117651738363268,"462":7.553278001289497,"463":1.066864546586807,"464":-2.3721870967121164,"465":-2.962023941693269,"466":-0.7729636781159076,"467":1.2931867070382126,"468":2.463508943389905,"469":1.2109264372304203,"470":-1.32152072990798,"471":-11.517680836915755,"472":2.074200660791693,"473":2.847099200302871,"474":9.522109301964505,"475":4.236459620009751,"476":4.0057467062605,"477":-12.833122165747634,"478":-4.5279332852372205,"479":2.4524967538402263,"480":17.491554959185276,"481":4.8494260099686235,"482":5.9372031982718765,"483":1.313470054273381,"484":-4.1158691452925735,"485":8.107596784512712,"486":-7.02731706897565,"487":0.8350952758155751,"488":-11.408251497293563,"489":1.683726613351946,"490":-6.1691042711894095,"491":0.6531688732891039,"492":9.797184843740576,"493":5.442854788101819,"494":-2.357236703708478,"495":5.566147243831174,"496":0.11478917601365861,"497":-7.35706592339476,"498":0.11710022152996977,"499":5.817403016992634,"500":4.418796311115287,"501":-0.13499556416446384,"502":-2.887373682925656,"503":-2.386063394256156,"504":-8.628185473558739,"505":3.370727212041664,"506":-22.391669101495584,"507":0.5069022190011181,"508":9.886031898432059,"509":-2.3183505197518963,"510":3.9239432454059826,"511":11.54091107999944,"512":-2.422948938731118,"513":-7.372048035488528,"514":10.636810402578199,"515":12.510871555312926,"516":-5.97129244152251,"517":5.332316764450876,"518":8.66500062645778,"519":1.625082996922555,"520":1.0063620778110187,"521":-5.630590761492483,"522":-2.80121993125228,"523":-1.8019317468494762,"524":2.0692378608269872,"525":-2.707602582504939,"526":7.013363739000898,"527":10.582828672747326,"528":-1.4049741918700607,"529":-3.080067674192529,"530":4.8170290203774035,"531":3.314457626571502,"532":-3.225211161001318,"533":-2.360007594612808,"534":1.4805005852041164,"535":-0.03199397492707428,"536":-7.952173402356033,"537":6.481949747070998,"538":-1.5346588569919397,"539":-2.746162513822443,"540":14.228230840356318,"541":-13.932582644171289,"542":-9.653335644566093,"543":8.641154862318148,"544":-7.452495706832259,"545":2.230251448168462,"546":-17.176838411952634,"547":8.107740854364792,"548":-0.1435382322660987,"549":-2.057706324713257,"550":-0.49977089619244586,"551":-2.5720055749401745,"552":4.996988999337424,"553":0.9175058124437638,"554":-0.0367692007155327,"555":6.799009531773891,"556":11.96818704017795,"557":3.0399883901713642,"558":6.1368941410849995,"559":-2.2389545751585427,"560":8.014434085049604,"561":-6.569154806293982,"562":-2.8022433821687374,"563":1.6127833606230153,"564":-4.452930373122141,"565":3.3989801908761494,"566":-7.74387055282771,"567":2.748964828349109,"568":8.693029719866788,"569":1.3396771823406268,"570":-4.041710259432725,"571":-5.590730814489441,"572":0.0919474314547662,"573":-6.165476424612726,"574":1.4609629881024346,"575":0.9156907601981347,"576":0.3547739468178291,"577":2.530717456947091,"578":5.332474627260528,"579":-0.711750474190656,"580":2.139592612466137,"581":2.386318386268249,"582":0.08074076840024359,"583":4.067456162938158,"584":5.872422190389321,"585":-4.60728109051477,"586":-1.6314401476076728,"587":2.70294052770584,"588":-2.6915390597859172,"589":-4.109205285683694,"590":-4.858686531936775,"591":-1.5003031181616213,"592":6.332966063115565,"593":-1.2716096244028379,"594":1.7473672514572156,"595":3.445236444344413,"596":-7.40282195442361,"597":-7.241000067663212,"598":-1.3358726279536346,"599":3.0839140693099276,"600":-3.713915930147479,"601":0.37200025508280093,"602":5.978579277421894,"603":3.223988371521421,"604":-8.20896460269982,"605":8.52217951840944,"606":2.567256580054933,"607":3.3257993675262645,"608":3.356474377974079,"609":1.4554689522822801,"610":-0.12550674945595794,"611":10.502750898217538,"612":-12.082465955160522,"613":3.700322315189931,"614":1.2145596919460404,"615":-6.574818456543847,"616":-6.968061023265705,"617":-11.918352411479498,"618":-0.49995032926375776,"619":-3.542050206966027,"620":-8.336674399638577,"621":-0.8925015132383834,"622":7.373334177687309,"623":-0.8529923568052392,"624":14.162263657828536,"625":7.739470646534431,"626":3.4338841122358907,"627":-12.561826724356502,"628":-8.49259703734654,"629":-0.6386523480567428,"630":11.047775324675923,"631":17.99155745203523,"632":-4.085080607685445,"633":3.1898989699481666,"634":10.034573166905208,"635":7.810636603062862,"636":3.4116236991764373,"637":-11.362100310803767,"638":-2.6728045006059267,"639":9.126274116270697,"640":4.766077619193001,"641":-1.775790023887398,"642":-3.700956936159765,"643":-6.585865022862033,"644":-5.399897066703307,"645":-1.5286798929097212,"646":1.5542250099559887,"647":-8.278287815067982,"648":-2.180332455965498,"649":0.6757311447836507,"650":2.5808002109977553,"651":5.817141925162581,"652":-0.7558620043506775,"653":-0.684240751844631,"654":7.111004730357882,"655":1.6157147220042953,"656":8.435524216727847,"657":-4.793739317164763,"658":1.73760172636844,"659":11.579258992523814,"660":-0.476720266062976,"661":-7.880721878528366,"662":-6.505540481212999,"663":-0.656788084485173,"664":1.6494928732487284,"665":1.3565947167061285,"666":-6.385587768753301,"667":1.0984045278004442,"668":8.72679909334691,"669":-1.2635810952152668,"670":7.7586026386212055,"671":-7.2109501865261425,"672":-1.106613404415799,"673":6.45851475313769,"674":4.63506826133269,"675":-3.2318434702549124,"676":2.9269375559960538,"677":-11.914549339369222,"678":-0.49041425466483013,"679":0.21316810688313265,"680":-2.5887965813463003,"681":-9.199007292282019,"682":13.302400416759493,"683":5.052702803882194,"684":-7.211184956491613,"685":-0.7348053706322638,"686":-7.088588903585309,"687":-0.49776573925221973,"688":-7.379264293429385,"689":12.007578433195704,"690":-0.5433923616405213,"691":-13.862112116536792,"692":-5.377837047748959,"693":-7.589231843090345,"694":-2.445177636550899,"695":8.228175547895628,"696":-13.505837632655023,"697":-6.752645055654088,"698":-5.817822500813128,"699":6.400158554920519,"700":14.81884045370572,"701":0.5631503820650904,"702":2.221734938787995,"703":-10.523043770446732,"704":-1.0173818012080091,"705":1.6243590110688677,"706":1.616011748304322,"707":6.869781357467493,"708":4.675879368105906,"709":0.7588613746261408,"710":-8.15348725614756,"711":2.565795324901528,"712":3.9222092594984566,"713":9.146742664642215,"714":7.018774630483915,"715":-1.2196516710191623,"716":-3.0022598916391807,"717":5.469968691719948,"718":7.9495978038011925,"719":-5.407855419003895,"720":1.461879839540975,"721":-13.611852949381534,"722":-15.255133388335723,"723":-3.932143048983947,"724":-0.37099885368026786,"725":3.8069892976833724,"726":1.956283410327402,"727":-2.9300676396482364,"728":0.6608091739009482,"729":-1.3279769182930568,"730":2.4332453907603995,"731":-3.8421419141732684,"732":-0.08309741812644543,"733":0.13519313687964066,"734":-2.714064861336417,"735":-2.120609494466146,"736":3.7667627220552604,"737":1.725463337668126,"738":1.8014475456229793,"739":7.376490125672605,"740":7.712649512086033,"741":-5.178784637268272,"742":-4.438315716718284,"743":-11.055094600213318,"744":-7.92304586839477,"745":2.3450371867086575,"746":14.134187634130198,"747":5.5452710462480646,"748":0.7744296297889489,"749":-7.95561467888751,"750":2.1160071351160563,"751":-3.000605966190571,"752":-3.1476844175220084,"753":1.299964359228488,"754":-3.1129890764275925,"755":0.43790943073143634,"756":-0.8765505430310866,"757":3.553456511004698,"758":1.631721633845467,"759":2.277477821412497,"760":2.64572492473064,"761":-0.5517894794613913,"762":0.49351199104245663,"763":-8.716329334167918,"764":-4.566927798699987,"765":4.925704092239094,"766":-11.631800013802122,"767":2.1676781815918273,"768":3.518155002589437,"769":-0.2089025084908795,"770":4.1605554478524995,"771":0.1224835410201341,"772":-3.0072499710244176,"773":-10.665671173606368,"774":2.2314529447834874,"775":1.7471446790292073,"776":0.3138318897040578,"777":7.027911416962969,"778":2.279479145018396,"779":7.9549350928278955,"780":1.5354177125172621,"781":0.0713961319603576,"782":-4.053865189702316,"783":2.793138938628978,"784":-13.181359862478075,"785":6.697262443117545,"786":2.775356265877449,"787":-5.716068369422487,"788":-4.48978800095713,"789":-1.421684706783708,"790":-1.4406665498001179,"791":-1.2223895407841605,"792":-6.012437891101617,"793":11.106256749527267,"794":-5.0202336690948215,"795":10.658750508399057,"796":5.023984429293495,"797":-9.915020638913633,"798":5.535341855988817,"799":-0.36423175925783274,"800":0.32492492447916954,"801":2.67220938866071,"802":6.423494575914122,"803":-8.236890807158796,"804":-3.2891666048962267,"805":2.115149403648733,"806":-1.2383543760396638,"807":-1.6778410530838297,"808":1.541702014432748,"809":0.9773780568201906,"810":-1.298265756660586,"811":9.781269027441397,"812":3.0576143031638363,"813":9.48715310756477,"814":-6.231815738586657,"815":-4.292305428540899,"816":0.605425429094207,"817":0.0722267040223784,"818":-1.3283610640470855,"819":-5.2908652165233745,"820":1.94552711999507,"821":-2.1439918358243824,"822":2.8893499239144624,"823":-6.026526152078998,"824":-1.1873533919820063,"825":0.7065357945663485,"826":-2.413017785686981,"827":-4.118426508124498,"828":-9.437870733802539,"829":-4.157219161443488,"830":-1.7685486415925373,"831":-3.683484876621892,"832":-5.486006393103973,"833":-8.17457163087265,"834":-9.829727685654385,"835":-4.351541698009437,"836":10.524863126014097,"837":-1.9377045048223605,"838":-0.3128163911774733,"839":6.534069103929371,"840":-4.553946091309192,"841":0.7015462674608899,"842":2.1136086084102255,"843":-0.7633860510437938,"844":8.237072375516103,"845":8.344278959580468,"846":7.657511541178519,"847":4.227213187364246,"848":4.36763604065182,"849":-5.086270462164649,"850":-0.7350840333055588,"851":0.8496015310189828,"852":-6.689342837602257,"853":-10.668151328297398,"854":1.2588072437586066,"855":1.0592139870798982,"856":5.074079795208153,"857":-10.811084408552126,"858":6.306517783539057,"859":5.809195487784707,"860":3.7113243662618682,"861":-20.544363627188197,"862":4.663982847408806,"863":6.68451648761471,"864":4.332285444174498,"865":-4.283383175834758,"866":-2.6523179157091628,"867":4.084955468453389,"868":-3.003098270246417,"869":-0.711519392694485,"870":4.039833723887369,"871":3.2044360808239065,"872":1.1884491362776282,"873":-10.886491018494121,"874":2.0950271153847284,"875":4.962465538997529,"876":-2.7773638017572475,"877":3.584872403419813,"878":-1.3176685022855241,"879":-2.071217721745808,"880":-1.5627006080411818,"881":0.7711771218328966,"882":-4.574291737141916,"883":3.7340948485411087,"884":-6.001910669321601,"885":1.8754161156311826,"886":-1.4467965938049177,"887":-1.7362309741266477,"888":-7.982145312003868,"889":-0.5035561425515447,"890":4.9390114288854345,"891":1.5589019466685547,"892":0.1202251496335729,"893":1.8488011530150916,"894":-0.914538151836946,"895":-4.647055905703935,"896":-1.4900365175520218,"897":-0.14100211581308666,"898":7.114850264298118,"899":-4.656345528521166}},"bf0":{"n":30,"d":1,"w":{"0":-7.252882343071899,"1":0.35478765038430876,"2":-5.185935784880749,"3":8.19562007524936,"4":-0.33919709416094546,"5":2.5078292441543613,"6":-9.571373053923871,"7":-6.099460570838852,"8":8.027219141924498,"9":3.264817541913928,"10":-1.1130475332485272,"11":-6.478976282113782,"12":-6.688242451746675,"13":-0.6448220853378136,"14":6.026649154777032,"15":11.255273946916498,"16":-7.524358371427927,"17":-0.9214617472090236,"18":-7.411775301374438,"19":7.392737068331436,"20":5.876818912502919,"21":-8.04757760765414,"22":7.270012893894572,"23":-4.3883240154249865,"24":-0.10169115777101134,"25":-4.704129485631045,"26":-5.000624568558189,"27":2.7311515014062224,"28":-1.6721373491592124,"29":-3.997777353735499}},"Wox0":{"n":30,"d":5,"w":{"0":0.7199068130627554,"1":1.7288163092233668,"2":3.5856827360933883,"3":1.331679773242244,"4":0.25318602510795357,"5":3.4418259462980796,"6":6.175945038201587,"7":1.2043990497850556,"8":-1.4893725243902247,"9":0.2533937371845166,"10":-0.08076309865849332,"11":1.450239583963802,"12":1.417352570533755,"13":-2.2955841984686356,"14":-3.0736709793090227,"15":0.33371034416890355,"16":-0.44399651295912296,"17":0.08433973875369274,"18":3.7376359097297738,"19":3.4991077810120648,"20":0.7925938355216866,"21":-4.515471925816699,"22":-0.5516255936571977,"23":-1.4875021710629404,"24":3.1038441600291784,"25":1.2149529864068465,"26":-3.636880931779358,"27":-0.5488306957688015,"28":-0.6863468639639206,"29":1.8261121680559733,"30":3.863453150236548,"31":0.3260929814982021,"32":2.615893775093009,"33":-0.7782809560365958,"34":-0.36146243157702757,"35":3.7117606672405405,"36":-0.018996420277510147,"37":-0.08256812254359999,"38":-1.2291118662147422,"39":1.2594841720802437,"40":2.5234182408781067,"41":-0.04633910468711989,"42":3.675449119338159,"43":-2.4259928694645647,"44":0.4201693911151948,"45":0.0803779372890196,"46":3.170491026322896,"47":-0.928758965037927,"48":0.8960395797646626,"49":3.150210884278534,"50":2.554943981617558,"51":2.0286980674139294,"52":1.678292821784355,"53":-4.226458207097858,"54":-4.1995891142736905,"55":-2.198545897811008,"56":2.1108802272113043,"57":-0.17120636477851278,"58":2.9104810580374756,"59":0.394989034336139,"60":1.4045604731112027,"61":-4.218456564687134,"62":-1.6074919548459161,"63":2.5725978489576646,"64":3.272828270495904,"65":4.928441046703411,"66":-1.3958466686277062,"67":-0.45590406181042936,"68":-1.9411238897939582,"69":1.7206530778893034,"70":1.5216092799217327,"71":2.6545572898999037,"72":0.3789366076405917,"73":-2.9957941792289517,"74":4.11235778630545,"75":1.375526223282022,"76":-1.278633555134779,"77":0.11829329395819374,"78":-1.2446473117888412,"79":1.1661247153820231,"80":2.3686788982353413,"81":-0.10529405417254542,"82":-0.09918667126514724,"83":1.8446853007560329,"84":1.73743546693676,"85":1.6171650930452661,"86":-1.2773045870103572,"87":-2.8663010331671224,"88":-1.1322573095553952,"89":1.9975745017500885,"90":-4.539130942241745,"91":3.453401913140123,"92":0.020503788477303244,"93":5.782664243427024,"94":0.003987137810099223,"95":1.5017791554714914,"96":0.8853141873025014,"97":1.3923205402591243,"98":0.5604452659582932,"99":2.484076469343317,"100":-6.167881621200485,"101":5.985922898452558,"102":-4.4669497728922085,"103":1.8431408384252728,"104":0.24964936065523793,"105":-2.1710198372055642,"106":-0.3501406815296457,"107":2.9217979191618397,"108":-1.14697914819058,"109":1.407323091023967,"110":2.4868726676238744,"111":0.7844935886097731,"112":-1.2408787203960063,"113":-6.374049489045055,"114":1.5284990148016482,"115":-0.4688134911051851,"116":-3.5425037518367106,"117":0.15635867191110606,"118":-1.3076316313558396,"119":-1.7946676728613962,"120":0.999945269635182,"121":-2.925677115620142,"122":2.0638436627285177,"123":0.43205753786372375,"124":4.012631131148316,"125":-2.316761830051127,"126":-8.2450169785159,"127":-2.8882409658815473,"128":-0.8478400187098029,"129":0.48634004192584124,"130":5.326204941081567,"131":6.045681175368854,"132":0.2715387447615257,"133":-3.464033012386258,"134":-0.48392654193002643,"135":-0.8556661936744381,"136":5.030495934676613,"137":3.0341014917927116,"138":1.9937058297154104,"139":-3.9731557428870397,"140":-2.4024147430763314,"141":-3.8255881287546987,"142":0.9621718171469356,"143":2.5898158619168297,"144":-0.3646994577733496,"145":0.49871920965058336,"146":-0.49041533837849643,"147":-0.9164407690603128,"148":-2.1407819751674384,"149":3.0446454413413266}},"Woh0":{"n":30,"d":30,"w":{"0":-0.17129424253823042,"1":1.4905568903463737,"2":-1.505848369078255,"3":9.725356777767031,"4":-5.899134970077252,"5":-7.443638579044528,"6":-0.06317229816415329,"7":-1.0054639654889503,"8":0.16086157297387677,"9":0.4601847165884304,"10":9.686192697184474,"11":-3.19713201774686,"12":3.798057550631428,"13":-3.415452867987549,"14":-6.566461865168083,"15":5.9612465412598015,"16":-5.602347569595053,"17":0.7036010134552693,"18":4.262491088689141,"19":2.9490769341604843,"20":0.5078843160436839,"21":-4.319387823274151,"22":1.6469410875533244,"23":-7.576311231701333,"24":-3.8192320416971324,"25":-0.9851557942068723,"26":-7.257435692324742,"27":-0.8119458954505855,"28":0.570582074755269,"29":-0.1538872768524303,"30":-3.8350117973106705,"31":9.053433307067282,"32":-6.82602006681625,"33":1.5495070986648725,"34":4.885955427676717,"35":-5.378892830763702,"36":1.8872002372215102,"37":0.2875651039550188,"38":-8.272121706555824,"39":1.081592792456074,"40":-5.51007435499254,"41":2.5901162998192553,"42":12.968253973904057,"43":-3.545336411210011,"44":-3.582286865342601,"45":3.612368977670372,"46":4.523041174938882,"47":-0.628177205206415,"48":5.188850628933856,"49":2.262253975506461,"50":4.783969494346316,"51":6.999474155349605,"52":-0.13518060049922728,"53":-1.8420219582187793,"54":6.224586891224622,"55":2.7251071028226783,"56":-8.348760712875258,"57":4.6758357589837365,"58":0.23861293262831226,"59":-2.718325845006884,"60":-1.2667131430792924,"61":-5.108893539809371,"62":0.2283699788413839,"63":1.408334415346835,"64":0.255044439531394,"65":3.51946484616265,"66":-0.5975344038420028,"67":-0.308955825920456,"68":-0.19448713932160602,"69":2.343795363837817,"70":1.522287928568139,"71":3.130617795354966,"72":1.1876932700526013,"73":9.838158286852373,"74":-2.2914495648432482,"75":-1.833884632240747,"76":-1.7633296794515507,"77":-0.1438379495546502,"78":-4.170572135732847,"79":3.610713667839304,"80":-2.3804323063595114,"81":2.2911694696463374,"82":-1.028433749688974,"83":-7.3917281417621625,"84":5.328878863269228,"85":2.5212764330121233,"86":-0.28295774339585716,"87":1.1957553372417449,"88":-0.34918203193676955,"89":-3.8804274207283913,"90":-2.8758197411544693,"91":1.304083838319995,"92":0.99791464062313,"93":1.0715774849207613,"94":-3.2079658971273264,"95":-0.2076399247151361,"96":-1.621358209148729,"97":-3.4677400762128197,"98":-1.0098138664883645,"99":-1.0840396721862942,"100":-5.936956262498282,"101":5.398857009268175,"102":-2.1846406718451212,"103":1.2697405702688043,"104":-3.117342261856864,"105":3.364522260347227,"106":-0.38416980906888154,"107":1.507520660905134,"108":-2.9598415396197626,"109":0.0988131277256428,"110":-5.5174484518355404,"111":-0.42421332294246095,"112":-0.33172750754615893,"113":-0.6302248063635311,"114":1.4685087211347294,"115":1.4309214793784564,"116":-1.4848785961504112,"117":0.9786759015777418,"118":-1.9819717503839351,"119":-2.7178332173980992,"120":-4.7852282587475585,"121":0.8135061440338639,"122":-9.642088672528507,"123":2.4811287600472,"124":-6.821549312467215,"125":1.7301929058470655,"126":7.711076855895055,"127":8.245426889242113,"128":-1.193872425364086,"129":-2.5986635446892343,"130":-2.046444423456084,"131":-3.5626408131654497,"132":3.1257303256646667,"133":-2.923218101078302,"134":2.3652430214766214,"135":-1.9647019201830394,"136":-3.3738576075899895,"137":-0.3990618543477741,"138":-2.172365344321519,"139":1.1958230521712592,"140":-3.3077829837235417,"141":1.4234771333542264,"142":2.6648951470906463,"143":4.576581919455182,"144":-12.617539656784405,"145":-2.20054779550357,"146":5.4293736390051,"147":3.411798480900978,"148":3.015281745012355,"149":2.556790679949468,"150":-1.7771498506219974,"151":-3.872034711687797,"152":-6.884904657164688,"153":1.0584798616834492,"154":-5.507357936389492,"155":-1.456462959045568,"156":-3.41787940658141,"157":-0.7952979343501041,"158":-0.3554638427133733,"159":2.9544758329896514,"160":5.30221694128777,"161":-1.15422010718246,"162":1.8112003391492817,"163":-4.56754670973719,"164":1.2922643699520855,"165":0.15409483345858033,"166":-9.552668086182514,"167":-0.3422827057109645,"168":-2.3338157439804634,"169":-2.293356649489778,"170":7.09308553183879,"171":-2.220557887491915,"172":-2.5494823230137045,"173":-0.3427935102933708,"174":2.724831383962913,"175":-1.4254596172574074,"176":1.4660731381793835,"177":3.9932427123313,"178":-3.5713961612771685,"179":3.010819436797155,"180":1.9026422701102728,"181":-2.62407696924049,"182":-11.449185951236178,"183":2.315634550535311,"184":-5.541388483625299,"185":0.3069287204344375,"186":2.0317644789682117,"187":-4.323695496359195,"188":-2.8846746397285647,"189":6.015977489666041,"190":-2.883314958512523,"191":-7.300103669836611,"192":-1.4883298921927677,"193":-0.7123451636657389,"194":2.8647808991686543,"195":8.062493789507746,"196":-2.1009726830698714,"197":-5.97553844597447,"198":10.695406325330053,"199":1.7424195831854417,"200":8.204577299632279,"201":2.0584537910122283,"202":5.908726483324792,"203":-1.505293606782262,"204":-1.6162728303213494,"205":-1.0187068607924263,"206":4.19389055978428,"207":-0.942530459473013,"208":3.2486947721047637,"209":2.441491922209948,"210":-2.963931401373698,"211":3.1517366500431243,"212":-3.4693006807686126,"213":0.5306795871985098,"214":-4.636484263742306,"215":-6.276721845189001,"216":0.8958621747741264,"217":-2.8630114789880317,"218":0.682843689164421,"219":2.008466273901286,"220":0.6457981562244949,"221":0.7496086769700177,"222":-6.372043275079753,"223":1.3666466723312334,"224":0.210572710766256,"225":0.9182957951647558,"226":-1.4484353339431686,"227":-1.0159971663611516,"228":5.032805888369096,"229":0.31737858187628964,"230":3.645318590476961,"231":-2.833804582380156,"232":0.4082325326350921,"233":-3.682487340007276,"234":1.3595770909100668,"235":1.9349559034359114,"236":-4.633266325120093,"237":-3.5941289825579186,"238":0.7652642403815014,"239":-5.495848125800055,"240":3.5786245737622897,"241":-1.8428728821687552,"242":2.9287439863963347,"243":-0.7710981721728023,"244":-0.952695581057605,"245":5.0328467396059215,"246":5.003973670525975,"247":2.614785276733047,"248":0.8252783290645425,"249":-5.448979646704462,"250":0.9941986820111731,"251":-0.4247116938621812,"252":-11.496154600796194,"253":-1.4812919202930357,"254":-2.6404424356316682,"255":3.4277860354623897,"256":-1.268650123268345,"257":-4.305156864923027,"258":-4.09793986907676,"259":-4.905324302254023,"260":-1.7036254733527882,"261":-1.5251889632768802,"262":-3.2331484429984814,"263":-3.3724147901613617,"264":-2.703924977940295,"265":-2.350411925530694,"266":-3.578720052456867,"267":0.4372018662122774,"268":3.8239869351303746,"269":-1.1699088829923272,"270":0.6474447885285495,"271":-5.4659437056941504,"272":-3.965394386439034,"273":2.6416676392962644,"274":0.9286469750724012,"275":-3.6301309183148507,"276":-1.5896855577190685,"277":-1.048563381387766,"278":0.8009363896548571,"279":7.608858304482372,"280":5.942837661500107,"281":-2.687771354573261,"282":-5.130104268789029,"283":-0.44089505317178834,"284":-2.5861159472742488,"285":-2.256690027139311,"286":0.24522401338533253,"287":-1.3714575234988642,"288":1.7040323045992247,"289":0.8096824235877492,"290":4.819959985418076,"291":-0.4495135420117383,"292":-3.4943767810527144,"293":-2.579669466147771,"294":-0.818097320861586,"295":4.45691704538366,"296":0.2546592400860293,"297":-1.4531905797899474,"298":4.426211738228491,"299":0.31671060131875733,"300":3.936416361979851,"301":3.9482216307083258,"302":-9.54944756106213,"303":-3.5102922572400397,"304":1.4952117785109102,"305":0.014184457896504245,"306":8.540164338996183,"307":11.243843761527614,"308":1.2481231975463298,"309":-0.8807140119429774,"310":1.6855512999619868,"311":-5.3704940755419415,"312":-8.633494813217437,"313":1.2614169797674928,"314":-2.1231071363243967,"315":0.49976001131497183,"316":3.0819884472851005,"317":0.8552281074659454,"318":-7.749132139073683,"319":0.34310902473399424,"320":-7.527797723701868,"321":-7.739618100914443,"322":5.376721171326881,"323":2.678612322379177,"324":-2.182597956186939,"325":-10.173456982510881,"326":6.637291923719026,"327":1.6741820014077173,"328":4.427557149650328,"329":1.3647390357713904,"330":0.267746281076913,"331":-2.3427273161905346,"332":-1.0906013664434147,"333":-1.4418938971093411,"334":-1.369549475968451,"335":-0.760431979403444,"336":-0.5077328879194107,"337":-1.6737355877905102,"338":1.4042188720062254,"339":-1.7307553817941872,"340":4.193607760936782,"341":-2.053321993814893,"342":1.6585878037569455,"343":-0.46912176158892527,"344":-0.5928320179072358,"345":-6.184675146128005,"346":0.5792265480477564,"347":-0.46269635403673043,"348":-1.9630674843112645,"349":-0.3896968052373013,"350":1.3106991189719555,"351":-2.429180834996423,"352":4.257774374831017,"353":3.4601067967558663,"354":0.5243457595789495,"355":-1.3340015434306727,"356":-0.6451199144921872,"357":3.5945309697484915,"358":-0.4212008420493718,"359":-1.5394585848194533,"360":-1.4963768137825322,"361":5.200206072752968,"362":-4.816959255816337,"363":7.288646018783698,"364":-0.6162335058409666,"365":3.245454378132685,"366":6.262153579224694,"367":-8.118528847375492,"368":-1.5160062098852538,"369":2.0687688549615277,"370":2.499120671214454,"371":-5.672448079776086,"372":6.667340147781511,"373":-1.9601692014871581,"374":2.434308361204505,"375":1.2207894901826817,"376":3.558185482823798,"377":1.7294997967914763,"378":6.303907470269913,"379":-0.0220966915104198,"380":4.510801129210676,"381":1.124007842729947,"382":-3.455477690403174,"383":-7.738828717068632,"384":7.173347371944901,"385":2.483559070143786,"386":0.13213279136215486,"387":7.172328853609411,"388":0.8527305909739155,"389":-1.4344678441462888,"390":-2.419420621007305,"391":-1.2376475923222057,"392":0.04810325538004153,"393":-1.1623834727224744,"394":-0.7226068666934709,"395":0.31660855570927526,"396":2.035314538393432,"397":-1.4097243522394602,"398":-0.9800871992996782,"399":-0.6285947130836906,"400":2.1868699475584195,"401":-5.159059312970632,"402":-1.13486288456336,"403":1.5811294620932042,"404":-0.45069064153891203,"405":-0.5569193479086679,"406":0.421673764549536,"407":0.041328353544361957,"408":1.4707214454738984,"409":1.5620482090201637,"410":2.9997304717356874,"411":-0.15343186573362275,"412":0.11858536001971615,"413":-4.426920600052006,"414":-1.6983365357539772,"415":0.2847507329414312,"416":0.1701637856395158,"417":0.16372879387387265,"418":0.22723748285998083,"419":-1.7940622739910654,"420":-3.464336124035152,"421":0.5413294441030637,"422":2.275063002996655,"423":4.873810510898104,"424":-0.2186829670333307,"425":-5.8712240968601135,"426":3.572889996117004,"427":-1.956344835247164,"428":0.847167943519031,"429":-1.0619883226265503,"430":3.518130296587761,"431":3.176169198567644,"432":0.3111065698183945,"433":-2.8318377704261626,"434":4.726738739373632,"435":-4.0523616974243915,"436":-0.780776575571908,"437":3.1103773898265676,"438":-2.757516167855643,"439":-4.510709973700087,"440":-1.7491266474043545,"441":0.5192611633672833,"442":-0.3903248803919192,"443":-7.395383358507426,"444":-1.739214433792444,"445":-0.7612958767074853,"446":2.6004310792062015,"447":-0.6143132485260081,"448":-3.103270338035625,"449":4.322972255958204,"450":-0.513874343431734,"451":-0.34370175503194383,"452":-1.7912483786965852,"453":-1.1852454477930674,"454":1.5068461189509152,"455":0.6090961687379478,"456":0.4972736463784791,"457":0.5655082544716732,"458":-0.11808586038842504,"459":1.5560781055676787,"460":0.618725947877097,"461":-0.7135863502260745,"462":2.178081412808195,"463":0.1439123438493783,"464":-0.04992554894453031,"465":-0.23804455665250027,"466":0.18829555470183698,"467":-0.8766175406812771,"468":1.040700953199503,"469":-0.6368891342049039,"470":2.1893626753082587,"471":-1.4418250015820648,"472":-0.15652299653740825,"473":-0.267893715216213,"474":-0.48874016773274637,"475":0.27421631434846383,"476":2.6227468088635213,"477":1.6255435396476101,"478":-0.6465122483853211,"479":-0.01031346707023156,"480":1.3311544792854622,"481":5.667833267594646,"482":2.3611111523758583,"483":4.126182754825439,"484":6.519360915947338,"485":2.6654056051864403,"486":0.3892664510858442,"487":2.9155720112354766,"488":0.6151522376915008,"489":-2.003918089191219,"490":0.7966946064399375,"491":-12.311834797681842,"492":0.3900175057257736,"493":4.713777969064268,"494":-3.4160849247400864,"495":0.8133863965214102,"496":-1.014357096641562,"497":-3.5194529374543246,"498":1.2900548588449234,"499":8.373762605638182,"500":-0.1568931857674212,"501":-2.612436571420039,"502":-4.367126842460214,"503":3.926385955075742,"504":1.453465132010924,"505":1.0049692912165318,"506":0.7537349960809966,"507":-1.288197271567419,"508":0.500450215224007,"509":-0.30711963263405945,"510":-2.6371898156402276,"511":0.5259611719256553,"512":-6.061751267362141,"513":0.9526605191521156,"514":-2.4556392328206416,"515":3.335794526554176,"516":-3.2266070070518555,"517":1.7125128301330341,"518":-1.5424055480832302,"519":9.175884358138722,"520":-1.8280578199384963,"521":-4.8390761413623595,"522":-7.727150212577007,"523":-2.722402562039748,"524":-0.8708539684475731,"525":9.822766272874285,"526":-2.2949468616729,"527":17.91040857373334,"528":1.7097220847595085,"529":2.86975078190867,"530":-1.2948527506719951,"531":16.54936781698591,"532":-8.647944931036436,"533":8.303883593725313,"534":-5.1873691142691705,"535":1.7170851755319025,"536":12.471904144107164,"537":2.8364173990330612,"538":0.9551284361102838,"539":0.9075846838259605,"540":5.879385678985914,"541":9.105067000072312,"542":-0.6672402617965668,"543":-0.5222642162121158,"544":-0.6846931638926727,"545":3.9815286253682864,"546":-2.0648959060359418,"547":1.2470431971407034,"548":2.1255480582708657,"549":-0.195615350387427,"550":6.507662596867594,"551":-0.5388023192898267,"552":-0.6445140056572262,"553":-5.18635116760924,"554":5.704486458065331,"555":-3.988036784457003,"556":1.3377066064499958,"557":-0.38812107142460917,"558":-1.730259156649323,"559":2.4018458294397895,"560":-3.048602010571587,"561":-0.5216677210964571,"562":4.606310359578098,"563":-5.123221155703924,"564":-3.092651591340891,"565":-0.405052558336879,"566":0.682304825894022,"567":-4.249989700340031,"568":4.131498602683502,"569":5.115786328314952,"570":-2.1330444241521853,"571":1.974865653072168,"572":1.201368161828627,"573":-3.10388316423049,"574":-0.144076539428514,"575":-1.7414683001841373,"576":0.10451066579838629,"577":-2.003485440888355,"578":-0.6605234014836778,"579":-0.8625505451595,"580":0.008980398344516654,"581":0.26333155208590164,"582":-0.5464981293283977,"583":-2.882996362878793,"584":0.3269828660314385,"585":1.4803607663097946,"586":2.3489874799107504,"587":-0.890145019795273,"588":0.3705276446431058,"589":-0.4742452676108895,"590":-0.176991700816916,"591":3.139598335163418,"592":-1.0155868641110577,"593":2.3080920245094143,"594":0.10090765965741508,"595":0.1889189865449833,"596":0.1466740861607876,"597":-1.5380546582049213,"598":-0.35768604774089735,"599":0.6335593760534123,"600":4.698871098402335,"601":-6.5126375792630755,"602":1.8737467069807996,"603":-4.6170646700216365,"604":3.029693436254466,"605":4.892484430554247,"606":0.8529699224795246,"607":-2.2225955694167387,"608":1.5337198172071507,"609":1.4958878277157843,"610":0.34915288900582997,"611":0.6462149509626126,"612":-9.091023607372968,"613":0.7851082982855697,"614":-0.1210502030509484,"615":1.2670701007575984,"616":1.3264654674133167,"617":3.220139813634251,"618":-0.816599671083836,"619":0.13120996634786955,"620":-0.8020652933795196,"621":2.218419318606078,"622":-1.1753488013081836,"623":0.650813344170249,"624":0.14860451093652008,"625":1.175295139966507,"626":1.8918530220953858,"627":-2.2662915256406646,"628":-3.383000902785799,"629":0.10209602451704136,"630":-4.384850813798881,"631":0.038755121898614873,"632":2.329447752621788,"633":6.373207846322207,"634":-5.619879826244908,"635":1.7990240447574009,"636":-0.3187924288920157,"637":6.01221994019974,"638":4.780834925644782,"639":-4.700073593450454,"640":1.6626309044575347,"641":-3.73261870483087,"642":-1.2122103245747393,"643":2.3655237493424046,"644":-6.41107823320251,"645":6.148868747958836,"646":0.37130164844752095,"647":-5.491896535175916,"648":3.2049842292514756,"649":-0.4154399611020996,"650":2.2324854176434057,"651":5.504819412895659,"652":1.296696059351751,"653":1.0943080116971153,"654":9.670771239291916,"655":-2.0596825206216502,"656":-0.7655834307030894,"657":0.6849713970188059,"658":-2.435768795904505,"659":-4.139512505309369,"660":-1.9630419813369042,"661":0.21671030130611968,"662":2.3484095414082913,"663":5.306868732917966,"664":-1.503133126827851,"665":-2.0398115486313593,"666":5.908113836504496,"667":-3.3306379908694628,"668":-0.576799703701713,"669":0.5017198745671053,"670":-3.862814281840637,"671":4.1675948731317956,"672":1.2799621663046261,"673":4.774398226999155,"674":-6.664811000091202,"675":4.523379544344372,"676":-0.6747385905516204,"677":-0.02934719097893877,"678":-0.3759560155759614,"679":5.5982340296345425,"680":-1.1678662249457155,"681":-0.8250159031321833,"682":0.3874229986013889,"683":0.19930750869099323,"684":3.012263179957246,"685":-0.5357523066287349,"686":-2.7402624573253287,"687":-4.142175736002628,"688":3.6028245442591524,"689":-1.1459989814818328,"690":9.958759724992383,"691":-2.0345349804996324,"692":0.9661561189511395,"693":8.689316196573737,"694":-3.2156389808500405,"695":3.641921783472757,"696":0.4870196529499011,"697":-0.2745766364154461,"698":-2.5817763857105627,"699":6.218827561362279,"700":3.7497194005458976,"701":-1.0947801770514005,"702":6.306032036078054,"703":-4.962719688085074,"704":-8.777389518145496,"705":8.12423294606037,"706":-5.935620613464628,"707":-4.1457419438901795,"708":-2.552288985094455,"709":6.057940059774317,"710":-5.7033857198921645,"711":2.0642914584601515,"712":-6.1984458489425736,"713":4.206027003059393,"714":-5.672111695639488,"715":-2.178669794565091,"716":2.975329049155959,"717":-1.1084702603250203,"718":1.1041193836747898,"719":-0.46506796521630145,"720":10.47987300730278,"721":-0.05433879986740826,"722":-0.5924262840882086,"723":-2.9764913256909473,"724":-1.9146657769684639,"725":-4.034577830934148,"726":7.616221855927023,"727":-7.3543225070717275,"728":3.364055907112797,"729":-1.2219542442793354,"730":-4.537813042329177,"731":0.9701608525188179,"732":1.588446385704839,"733":0.995081406977315,"734":2.2602162460766415,"735":7.341217517382314,"736":14.756808919289107,"737":-3.7030771770258255,"738":4.890596345866828,"739":1.732093812209513,"740":0.8546420158535729,"741":3.492930733962338,"742":-1.2993235115419008,"743":1.2381480727517635,"744":4.495501104958296,"745":-2.98854025512479,"746":-3.202059258261549,"747":-2.608002939342795,"748":-5.347438467190541,"749":-2.5404670887262006,"750":-0.6156959743467614,"751":3.1712063708643066,"752":3.1877081651938823,"753":-1.2613738930101002,"754":-2.5797303428504144,"755":3.44353773221722,"756":-9.196137717632471,"757":-3.961069382933085,"758":-2.616593485770935,"759":0.5610291350234294,"760":-1.6436163516740223,"761":11.113676495080295,"762":-3.421124057308425,"763":1.3818119553405896,"764":-0.9962220385245645,"765":1.2107503948878109,"766":4.591968652106335,"767":8.450850539305526,"768":-1.5031249789165206,"769":-2.6290186993881153,"770":-0.7829116841353208,"771":-0.04088441026625864,"772":6.4142041764198146,"773":-4.9702656929984785,"774":-3.8155693595788773,"775":3.3623027729714052,"776":-15.792056406596556,"777":1.4760421785920363,"778":-7.280140243046239,"779":2.3110016116306635,"780":-3.4160737572770654,"781":7.059983113791294,"782":-1.0699974031196615,"783":0.3454547312496141,"784":-2.703496162459205,"785":1.056870766289559,"786":-0.10966637257536589,"787":-2.778866428734538,"788":1.4633200853385953,"789":9.774470756468602,"790":4.7953534148465256,"791":-0.6304905793141122,"792":5.233257944628615,"793":-15.402483076325874,"794":0.3082343358935795,"795":8.218597050597188,"796":1.6224812545350698,"797":4.52355656720667,"798":9.922385014066801,"799":3.17474702767953,"800":9.881640154313411,"801":13.952322033050738,"802":3.443505241735867,"803":8.459391774491287,"804":-6.684918717425871,"805":0.3209950387589605,"806":3.568060979608518,"807":0.9330575452904212,"808":3.6935366430384255,"809":2.466427692710279,"810":2.574199463176284,"811":-1.8847208263058515,"812":-0.4530628525670212,"813":1.8775313464134524,"814":-0.1321678385292184,"815":0.45322128471519707,"816":4.313453357116018,"817":-2.421613506805505,"818":0.6685278179902324,"819":3.9879966337694652,"820":1.510927884216895,"821":-2.424427374370803,"822":0.013247737171570868,"823":-3.1923739078183564,"824":-0.6127359255569984,"825":2.108894261345829,"826":3.031890458272187,"827":-4.159540667745982,"828":-0.6619255651786027,"829":-1.506283011362617,"830":-2.0311028715070902,"831":-1.4627854263565268,"832":-3.6248580400702775,"833":-1.4287736749397295,"834":1.063154316735453,"835":-0.0997394365619233,"836":2.8412626155496667,"837":0.15285021388940653,"838":1.0976055725894538,"839":2.2375834765314226,"840":0.8302398683247921,"841":-6.01337819364472,"842":4.888473560010648,"843":1.8636293083679458,"844":0.4248671843801794,"845":-0.941030213233156,"846":7.745457587174324,"847":0.20600096078521876,"848":2.2531549255860996,"849":1.3746278726884293,"850":-6.833419692831199,"851":8.765876393508924,"852":5.792583683768838,"853":-7.027806672844402,"854":-6.091332678997555,"855":1.502885365024916,"856":-1.6140283886155204,"857":-8.177725082650701,"858":2.9653477552666563,"859":4.302435129338978,"860":-0.28608941469222016,"861":8.6654924070813,"862":-7.082852145985007,"863":-6.356166945836372,"864":2.7995978636560275,"865":4.096938466995914,"866":1.8901777224829557,"867":3.3686273307880166,"868":0.5430098682845127,"869":-0.47881532861098053,"870":-3.0511505157667824,"871":3.6835655347410037,"872":2.7369581619661547,"873":-5.639523368734773,"874":3.4485577385302038,"875":-1.482270706447073,"876":-2.3244595074904084,"877":4.973725927011373,"878":-3.96445314192804,"879":-1.5315637731381802,"880":-2.0873350369995367,"881":-1.2652471025744016,"882":3.5902993371575485,"883":3.3385207870023446,"884":4.2508550388713715,"885":4.450058982869837,"886":4.56344316249682,"887":-9.173861463219863,"888":4.476876018626896,"889":-0.5662803460801739,"890":0.36980316338067454,"891":4.169450499360675,"892":7.692191916768807,"893":-3.049182769958658,"894":-0.5409050822942587,"895":1.15006916932373,"896":-0.9400450403517895,"897":-2.448845536612057,"898":4.978807546645244,"899":1.6223084637340863}},"bo0":{"n":30,"d":1,"w":{"0":-4.790351571721253,"1":-6.025797812709443,"2":2.6015559651251867,"3":-3.3409107657889923,"4":-9.13807995729367,"5":-9.333497317181317,"6":-2.390978458408638,"7":-4.5593177553873545,"8":-3.1695587299493133,"9":-1.0321474320588842,"10":7.142437009162217,"11":1.5592934842634165,"12":-2.6172046037762837,"13":-7.276464061264199,"14":1.1602106080228218,"15":-1.8311475347820088,"16":0.7723853139578812,"17":0.19055278221756103,"18":6.9573540863166405,"19":-2.4720465822348334,"20":8.184298181455528,"21":1.303854335832545,"22":3.109428992468153,"23":-1.3230942748102952,"24":1.3374047045755095,"25":0.9681697854495258,"26":-11.479867505911159,"27":1.6770079602541295,"28":-3.0781681124370595,"29":-3.3804130436847917}},"Wcx0":{"n":30,"d":5,"w":{"0":4.521334239501411,"1":-3.880314005040339,"2":1.874789079594277,"3":-2.5299888591525996,"4":0.9523605764709542,"5":3.7662867485364155,"6":-3.946847266534293,"7":-2.46109923233228,"8":-1.6849183964156422,"9":-0.5655259539586102,"10":-4.808980123783863,"11":5.6357571026168545,"12":-0.9220737647541027,"13":0.8759332936227637,"14":0.8870729387586175,"15":0.14231857419129357,"16":-0.4414865026498836,"17":-0.3875849334693011,"18":-0.7212259874134357,"19":0.306772516944738,"20":1.2578173837864195,"21":-0.5008583718134844,"22":1.1984983652528438,"23":3.685764463791316,"24":0.43760838670610536,"25":0.4416986455884923,"26":-4.106556332617002,"27":1.8761261789810402,"28":0.00034694944157991536,"29":-3.4803551533039743,"30":8.626015622749106,"31":1.4553942379812232,"32":3.2163432820451603,"33":-2.9199069416319987,"34":-4.268100195874954,"35":-2.8550381609725717,"36":3.4585248441642618,"37":-2.630707720723224,"38":0.1971118652786085,"39":1.8789347537643821,"40":-1.165203845324799,"41":2.9453389075965184,"42":2.3744774163589453,"43":-0.4554879974124235,"44":-2.881479038555775,"45":-1.9181099717257808,"46":-8.344251276914019,"47":1.0096879410160366,"48":1.036091122153549,"49":3.0774693869666416,"50":5.746679225206547,"51":-0.2716349975487365,"52":0.24361087501467976,"53":-4.841357255650928,"54":-3.689461065302241,"55":-3.8529982390232176,"56":2.3696087325363835,"57":-1.9591269089035375,"58":5.588052962949192,"59":0.21676739269480064,"60":2.7712583503570856,"61":0.7126865334603026,"62":0.9659733320574251,"63":-1.9132629487999633,"64":-0.23682731801291118,"65":3.3403280933733934,"66":1.7234991846069623,"67":-0.03994259757833758,"68":2.612963573537131,"69":-2.212398793503148,"70":1.1603506315410645,"71":-0.9279183245028297,"72":-0.4930597148136919,"73":0.7798623939567759,"74":-2.0730511367129654,"75":1.0434180493790604,"76":2.886758986085067,"77":0.27364846121113306,"78":-2.292358865025085,"79":-0.5091841391240888,"80":1.6648111634757103,"81":-1.7757275857821284,"82":0.5655912731653788,"83":0.008008233705688372,"84":-0.6692484834444972,"85":-6.042879049007503,"86":2.2976504305182686,"87":-0.536046577182893,"88":1.5974650875466083,"89":2.3401753602143236,"90":1.9481974656464787,"91":-1.3212267656075385,"92":-1.1666639515660036,"93":2.031377172651022,"94":2.0931950209355352,"95":-4.064725160932034,"96":-0.4188274634888847,"97":3.1516664879921055,"98":0.6486722106251889,"99":-1.3972177781085737,"100":-0.23166634855325438,"101":1.254695637324401,"102":0.5087764317290514,"103":0.6223179048089392,"104":0.8134452174658787,"105":2.3362695389000687,"106":-5.812127641285091,"107":1.8987328017843703,"108":0.581066997274916,"109":-1.5410724733888188,"110":2.6525784322828097,"111":0.8482214816650453,"112":1.9420918752470735,"113":2.3642928890641186,"114":-2.6705613345284704,"115":-6.2200861029810195,"116":-1.9138648745602542,"117":-0.30171485827643785,"118":0.6359222209853738,"119":0.6306809187919049,"120":4.736877572051589,"121":-6.239984139545651,"122":2.4423713884687075,"123":-4.22570427866858,"124":0.9900342742886906,"125":-1.4956141242093086,"126":-0.6304429647888392,"127":-0.19394611361477135,"128":2.986163536126033,"129":-1.6965661960865543,"130":4.280180026420178,"131":-4.134376098466315,"132":3.7057991853948873,"133":-0.8420683197367712,"134":0.9931999275417805,"135":0.7548881529437604,"136":-3.8208150769178904,"137":1.5881601591738113,"138":-2.3146289250227157,"139":1.767345095350133,"140":-1.5633701410200456,"141":0.5519153772798384,"142":-0.836914161021453,"143":0.6157363486697314,"144":-3.528606263934254,"145":-5.091101455983276,"146":2.221134214307702,"147":-4.504509558412883,"148":4.0774262321817485,"149":3.5360497320799915}},"Wch0":{"n":30,"d":30,"w":{"0":3.289692824221098,"1":-0.08977842846242548,"2":0.5338187036547523,"3":-3.6762731018467587,"4":-1.9307007001085534,"5":-1.0896555049222496,"6":1.0751095927680796,"7":0.5721445317302785,"8":0.7480918527958716,"9":9.527272992747058,"10":-3.8083090847251326,"11":-1.8916166069451559,"12":4.192024681236883,"13":-3.4750491168505517,"14":-0.8369091305592337,"15":1.4717246700441373,"16":-0.14493456894832615,"17":-2.937118093458297,"18":2.997757846070582,"19":2.4266539976836823,"20":1.4838592023698347,"21":-2.5808059110176114,"22":2.6416810515721445,"23":3.3781874082003194,"24":-1.2609084178534948,"25":-0.6143946164791506,"26":-1.2236307659305359,"27":3.2600650211857363,"28":3.9953838593682725,"29":-0.6517609501879607,"30":-5.176740241358346,"31":0.5709699837619864,"32":3.3401700362698326,"33":-3.216368663306926,"34":0.6160061549384818,"35":-1.937558139090169,"36":-4.185234516836294,"37":4.611218035917612,"38":-9.40161424878826,"39":-1.899223037551121,"40":-5.525074792800462,"41":2.3339995931043926,"42":-6.939999910437092,"43":1.2139818911783142,"44":-3.915490577891874,"45":0.764610781417418,"46":4.903884447913766,"47":6.428464636155248,"48":-5.362759865812454,"49":1.7837740776838544,"50":-1.506160107241044,"51":-2.1842510814384606,"52":0.1559253435827738,"53":4.856557315344647,"54":-6.764794066740768,"55":-4.169530103742393,"56":-2.167742902506734,"57":3.493327991239884,"58":0.38644018663782126,"59":-4.247717039298587,"60":-1.9846726934075,"61":4.990616765187744,"62":-2.8832373263843336,"63":2.9014338183174395,"64":-0.6153862345221857,"65":3.108587331118303,"66":-1.8166412368952995,"67":-2.3193944636862156,"68":0.8786667810967363,"69":1.862834973848142,"70":-0.8895751622601209,"71":2.302034797763475,"72":-2.1374540663920176,"73":-0.031460696890200805,"74":4.710726111222398,"75":-2.0719252353894113,"76":-0.06454401497569649,"77":0.1498172447058393,"78":2.8594661099198424,"79":-0.9619509612267063,"80":1.1429648297609882,"81":0.13039482933134533,"82":0.5544021124640038,