window.characterToIndex = {"0":1,"1":2,"2":3,"3":4,"4":5,"5":6,"6":7,"7":8,"8":9,"9":10,"H":11,"i":12,"g":13,"h":14," ":15,"s":16,"p":17,"e":18,"d":19,"a":20,"n":21,"m":22,"u":23,"l":24,"t":25,"c":26,"o":27,"D":28,"r":29,"b":30,"k":31,"w":32,"(":33,"K":34,"W":35,")":36,":":37,"f":38,"y":39,"E":40,"x":41,"S":42,"j":43,",":44,"O":45,"T":46,"v":47,"C":48,"R":49,"-":50,"V":51,"z":52,"q":53,"N":54,"M":55,"A":56,"X":57,".":58,"/":59,"P":60,"I":61,"B":62,"G":63,"F":64,"U":65,"L":66,"\\":67,"'":68,"<":69,">":70,"+":71,"?":72,"Q":73,"Y":74,"â":75,"":76,"¢":77,"J":78,"Z":79,"_":80,"&":81,";":82,"Â":83,"®":84,"*":85,"\"":86,"!":87,"":88,"@":89,"":90,"":91,"":92,"":93,"`":94,"=":95}

window.indexToCharacter = {"1":"0","2":"1","3":"2","4":"3","5":"4","6":"5","7":"6","8":"7","9":"8","10":"9","11":"H","12":"i","13":"g","14":"h","15":" ","16":"s","17":"p","18":"e","19":"d","20":"a","21":"n","22":"m","23":"u","24":"l","25":"t","26":"c","27":"o","28":"D","29":"r","30":"b","31":"k","32":"w","33":"(","34":"K","35":"W","36":")","37":":","38":"f","39":"y","40":"E","41":"x","42":"S","43":"j","44":",","45":"O","46":"T","47":"v","48":"C","49":"R","50":"-","51":"V","52":"z","53":"q","54":"N","55":"M","56":"A","57":"X","58":".","59":"/","60":"P","61":"I","62":"B","63":"G","64":"F","65":"U","66":"L","67":"\\","68":"'","69":"<","70":">","71":"+","72":"?","73":"Q","74":"Y","75":"â","76":"","77":"¢","78":"J","79":"Z","80":"_","81":"&","82":";","83":"Â","84":"®","85":"*","86":"\"","87":"!","88":"","89":"@","90":"","91":"","92":"","93":"","94":"`","95":"="}

window.hidden_sizes = [30,20]

window.model = {"Wil":{"n":96,"d":5,"w":{"0":-0.9584854421851452,"1":1.1525406427849605,"2":-1.154966818570505,"3":0.49357008153016163,"4":-0.6278781715246392,"5":-1.9528452088241275,"6":-0.6895766122448271,"7":-2.057200939450237,"8":0.0991431744874555,"9":1.2505537017854091,"10":-2.894145567135081,"11":-1.0624737259136767,"12":1.8661091164721093,"13":2.3655258510374204,"14":-0.25587084775534424,"15":-2.9961015075774693,"16":-1.413231027656888,"17":2.1411678496808877,"18":1.8492861084125145,"19":0.22204875597831325,"20":-2.396571383807583,"21":1.9119473612045015,"22":-3.562540761497231,"23":1.159325275315353,"24":0.6111815380009529,"25":-0.430104737893246,"26":0.20736048021356282,"27":-0.8199069318745476,"28":2.157359029008587,"29":0.6648686261887199,"30":-1.3187563358021899,"31":-0.20109977559138303,"32":1.6192947802995703,"33":1.9942096223753882,"34":-0.34665000645963473,"35":-2.121281923313646,"36":0.2950525181757984,"37":0.8344364493267724,"38":1.1146904411422243,"39":-0.029927919573124066,"40":-2.4241931816952764,"41":1.7490501739677164,"42":-1.4816091768856405,"43":2.1791156396357403,"44":0.8376274027235314,"45":1.3314377888117999,"46":5.391507485299608,"47":-0.8297771535010336,"48":-1.3655288045789957,"49":-0.7335365226626712,"50":-2.164511955836698,"51":0.7714192051501654,"52":-0.22974992444794212,"53":2.217977273845217,"54":0.7599951835461274,"55":-0.06491172952158879,"56":0.18800742749061145,"57":-0.9930476438872372,"58":0.8079264312726286,"59":5.810552019337397,"60":-0.03832519044583105,"61":-0.7649192892744502,"62":0.7945436215723916,"63":1.0300114548236114,"64":-2.907106393503193,"65":3.6395132833390673,"66":-0.767803612213874,"67":0.8975044907001746,"68":-2.2629260823401363,"69":1.378609165930977,"70":3.7681387819172363,"71":-0.3880570980160554,"72":2.144891916568356,"73":-0.17346667409671604,"74":1.7948133537509439,"75":-2.935259604986712,"76":2.839877214868828,"77":-8.064728241095931,"78":2.8533563178949284,"79":-6.191507591239934,"80":0.9307083472077659,"81":1.0175299118624619,"82":1.5422460663581614,"83":-1.2531698890689122,"84":0.18549184193439017,"85":0.18766963955818813,"86":-1.1043354249348547,"87":-0.6135995150955333,"88":-1.7668131444275523,"89":-1.0491490393235487,"90":-0.16906516907245725,"91":0.9816417324788964,"92":0.1860790642053526,"93":-1.237968927475145,"94":2.2689062348340827,"95":2.9136772321497566,"96":0.49856513000704383,"97":2.4611954005893293,"98":-1.6495029770534022,"99":3.4087828132338185,"100":0.1563585948471826,"101":2.872146412504897,"102":-1.2277458457064379,"103":-0.8333885398425065,"104":-0.9861976171618659,"105":1.3556077311844617,"106":-0.04172906931932741,"107":0.3494684131454844,"108":0.20760323923776755,"109":0.6769187358968005,"110":2.1035367570331407,"111":-1.240938443973173,"112":1.4854929344220258,"113":-1.903663758092455,"114":-0.9230628349493258,"115":0.6052220715816599,"116":1.4810852589181762,"117":0.5820204521998636,"118":-0.4245779085917501,"119":-0.4791006409198166,"120":3.517288923082831,"121":0.7397386564703068,"122":4.875343144091613,"123":-1.0881313990612378,"124":-1.7189002041531525,"125":0.887706572935018,"126":-0.6631232204165972,"127":-0.7631155217273716,"128":-3.874051875204391,"129":-2.1617885984324396,"130":1.1471953085608457,"131":-3.967497034039282,"132":0.21541901147992445,"133":0.12020553269980877,"134":-1.6186678566043473,"135":-0.9352418245944292,"136":0.0548751270222979,"137":-0.22613107809034788,"138":0.23719149842767615,"139":-3.4964767673550927,"140":-3.0455820398198634,"141":0.46987765690315964,"142":0.5251364395767101,"143":2.1952944331326596,"144":4.8138081919057925,"145":1.912720939252209,"146":-0.5491408874045547,"147":3.7980049079410483,"148":1.5347743882805294,"149":-0.954100192447691,"150":-1.7025885933733567,"151":-0.9119073471730628,"152":1.7827462282009072,"153":-2.2672981172880045,"154":-2.408908803360252,"155":1.8071274471069998,"156":2.1682300798672336,"157":1.0011620736887001,"158":-0.36066503842776393,"159":0.1559694772237363,"160":2.686587339436067,"161":1.9579960077533345,"162":0.9114838788572903,"163":-0.8802432384902098,"164":-2.9411982802848646,"165":-2.680444676278532,"166":-3.6884518227426204,"167":-10.221715469622799,"168":5.0410504319478555,"169":3.3451048245675263,"170":-1.1721720979551824,"171":-1.738537882133413,"172":-2.3276732286686346,"173":-0.9967681515140608,"174":-0.2858850231752181,"175":3.335581015773868,"176":-0.9822766651519065,"177":0.04199987623563358,"178":3.2546304639232617,"179":2.5666216968480584,"180":1.6828240801996877,"181":5.201646721267637,"182":-1.5915997550783867,"183":-4.822914220135498,"184":1.7288220770323177,"185":5.0087373877931,"186":7.491833171651946,"187":-2.7480578708449586,"188":-5.40349453577292,"189":3.0444222583800364,"190":5.28915168178982,"191":4.630470077727817,"192":2.866752838359751,"193":-3.7715147008106564,"194":-2.9678209927415855,"195":2.562681141772538,"196":1.2210066287664583,"197":0.4328119655962571,"198":1.2269596764598911,"199":2.41398598870893,"200":-2.487281333941657,"201":-0.6311665085721445,"202":-1.4305101408261764,"203":0.039966766220998054,"204":0.7845082134842649,"205":2.0193596620284064,"206":-0.42571869595380024,"207":-0.7987948217557111,"208":0.0203644564638454,"209":2.9936889869787358,"210":0.8718550453354458,"211":0.6436141141910768,"212":0.2706429818234537,"213":1.0927216447276846,"214":0.6109744841257162,"215":6.641956827391931,"216":-1.168601755264847,"217":1.864130838177754,"218":-1.6685417894863768,"219":0.37332069291177833,"220":4.599287270700275,"221":7.271830379493986,"222":-0.7474701105388304,"223":-4.474280183021948,"224":2.589980903859023,"225":-0.8463183241905794,"226":-0.7561397945249876,"227":-0.7049851067415365,"228":0.18561139298325174,"229":-1.2698950763404915,"230":1.7395603703943867,"231":-0.038135691640648235,"232":-2.7035029396896175,"233":1.5479551961316407,"234":-0.353305610035498,"235":4.289461408198618,"236":0.4069356205466601,"237":3.2418710692531505,"238":-4.44460510367935,"239":-0.7921085911606054,"240":-0.37221533916590066,"241":-2.59986900195047,"242":-0.639252647676241,"243":1.9838926593307316,"244":0.48386784146437084,"245":-2.1983556181050425,"246":-0.6993584767931226,"247":0.47754013570647663,"248":2.0156586276763773,"249":3.0639387695758207,"250":-4.975045340935592,"251":1.745935637324695,"252":-4.513048651278416,"253":1.9834061815581572,"254":-2.5230590516378957,"255":-0.14224878652902925,"256":0.4484434778476863,"257":2.3500403906956464,"258":0.7229393929049601,"259":3.364351086806415,"260":1.9020404150906152,"261":0.8958501262392887,"262":0.3251672829302582,"263":0.022086218303220308,"264":-2.8337975331451215,"265":2.495610857709964,"266":0.5795970348916832,"267":-0.09847075018543808,"268":6.379360872001938,"269":0.12233563084173629,"270":1.7213711373108118,"271":-0.8269911756609835,"272":-0.8241605401098033,"273":0.4720420441819393,"274":0.7496236356798538,"275":0.22199229406726223,"276":-0.2009309915563122,"277":0.47912903850239347,"278":1.6779079221312123,"279":2.291467573305512,"280":-0.9156294494609788,"281":0.9205285700495608,"282":0.11324497061883405,"283":0.13083559809586778,"284":-0.3603107612690756,"285":-3.9704571173915837,"286":-2.611669460327668,"287":-0.6505197387890193,"288":2.6337899411632826,"289":5.057396468301453,"290":-0.9093732693076365,"291":0.06124537855074145,"292":-2.6162692113451764,"293":0.4656062906798267,"294":0.5710129268575284,"295":-2.4351634168894867,"296":-0.1324470149844508,"297":0.21318407683854573,"298":1.833262164925497,"299":-0.13175385571023832,"300":-0.18325475051941945,"301":-2.2515323460708783,"302":-2.473563952949469,"303":0.31108139616780445,"304":0.7487214063394317,"305":-1.395213080670012,"306":-2.4363380286468552,"307":-2.2582954663342836,"308":2.6732466186932458,"309":0.013688682152293904,"310":1.593528907449308,"311":3.51361121328434,"312":-3.7384410534887316,"313":3.03398941035195,"314":2.0822186189968437,"315":-0.06410658295153508,"316":-1.040515147163549,"317":-0.576563866583164,"318":-0.7159475031819084,"319":0.2235157113616226,"320":-0.3659842546539763,"321":-1.5889824974443387,"322":-1.01064296150921,"323":-0.1143698536907209,"324":2.254992228317135,"325":-0.0982619982521016,"326":1.290033839259466,"327":1.876600322519331,"328":1.1115986432151497,"329":0.18741057195864588,"330":-1.1944150726041283,"331":-1.1154813579040246,"332":0.7293117417942907,"333":2.457521530858677,"334":2.0963355758988382,"335":-0.787375731552374,"336":0.8469749660559749,"337":-0.9567938624977813,"338":0.06627428282724752,"339":-0.3277707841114234,"340":0.4838899215884032,"341":0.7842074883868432,"342":2.5648925596210903,"343":-0.15361448458454757,"344":-1.2347317724574047,"345":-1.9846342973702198,"346":2.147807646587606,"347":-2.639051564786892,"348":2.2980835674995848,"349":-0.12842913145378393,"350":0.29499952880103086,"351":1.3155480471859817,"352":-0.823008535216952,"353":2.499103838527501,"354":1.5134880780645965,"355":-0.49382468434778143,"356":1.993159181770656,"357":-0.2773138317948146,"358":0.8008898094024842,"359":2.4741621002292367,"360":1.6705169483230151,"361":1.3650179803393085,"362":1.9591092481457104,"363":-1.9471803402181256,"364":0.45152672023101315,"365":1.095000521740144,"366":0.21704882499265826,"367":-1.9220614139837966,"368":6.414520472515245,"369":0.5118196427407404,"370":0.289977093045914,"371":-2.669638300228795,"372":-1.6677861743250408,"373":2.626630415183697,"374":1.7410492999344334,"375":0.7488449999897497,"376":0.7906647541707275,"377":0.3831244170888562,"378":0.05343080181417835,"379":-0.1387436737801885,"380":-0.01061105930639738,"381":-0.8552726620346304,"382":-0.7768618239660623,"383":-0.6149289787844326,"384":-0.9776406163188626,"385":-0.5182697277482268,"386":0.5561965019523598,"387":-0.8167179806828655,"388":0.12534044878363776,"389":-0.02003875588781484,"390":-0.6383968387557513,"391":-2.7380442058755032,"392":-0.6481884765834207,"393":2.4739674330650767,"394":3.1577676694632264,"395":-0.5260567868308739,"396":0.07296302071648363,"397":0.24017567050392363,"398":0.9060685883313871,"399":0.04704081430615923,"400":0.3563357716802445,"401":0.1048019662598523,"402":0.2962585635551728,"403":0.2904728267582531,"404":1.9277980342680057,"405":1.1522168132231774,"406":4.871784037950176,"407":-1.0547476688570425,"408":1.6028263373848728,"409":-0.36605574731123514,"410":1.6375897391002443,"411":-1.228644662710056,"412":1.017539501500127,"413":2.3257371702725598,"414":0.5037942044676195,"415":-0.35532534976406566,"416":0.34295976989131427,"417":-0.056170411320073686,"418":1.5763424234969698,"419":-0.09694419659431165,"420":2.601797519720546,"421":1.4478103958823392,"422":-0.7064793981438546,"423":0.153581531078558,"424":2.4429312169299555,"425":-0.6638087888110734,"426":4.507784398828564,"427":0.041401763730657085,"428":1.2228811706801046,"429":0.6824115969953612,"430":-0.7405874016667199,"431":1.0465732833235524,"432":-3.442807533487105,"433":1.880553423829994,"434":-1.2078875580529724,"435":2.7151941918273628,"436":2.2405701964212383,"437":0.036078713439269876,"438":-1.965072267172961,"439":3.127400410029741,"440":0.040654545168457186,"441":2.722728086477808,"442":-1.8939267198704786,"443":2.608721329562536,"444":-1.7536576297988775,"445":-1.990213791096126,"446":0.1534120136331815,"447":-1.1790229235463336,"448":0.9930087088734294,"449":-1.3047294577066684,"450":-3.7530854074428395,"451":-0.19048400803797305,"452":1.680983639260093,"453":2.105196969047578,"454":1.7225804638462725,"455":0.4052273962132619,"456":0.7887197073405459,"457":-0.9050555539487668,"458":-0.5847885617892694,"459":-0.5910434331369603,"460":2.30207876904643,"461":1.74407115483228,"462":1.3862607933462237,"463":-4.373949722233851,"464":1.0991052311394995,"465":-0.30976185210513985,"466":-2.671252513750171,"467":0.32742142143122605,"468":-0.6423210876314479,"469":1.9992355075506327,"470":-0.39941037803109747,"471":0.6708530076810854,"472":-1.8633271565298624,"473":-0.1165150124934851,"474":-0.7455264178577696,"475":0.15822582201069746,"476":1.8794861264076426,"477":-0.5428116339420997,"478":-0.9208469651760328,"479":-1.7628740731471908}},"Wix0":{"n":30,"d":5,"w":{"0":-1.8854657954442018,"1":1.1668568567085897,"2":-2.1226441930134192,"3":1.1548961556396378,"4":0.3225232382416512,"5":-1.0509242237100844,"6":-1.740907810438256,"7":-0.01946012172733998,"8":0.45540518758307735,"9":2.6649833427013756,"10":-0.7482405113874584,"11":2.864470208963777,"12":-2.186307558099594,"13":0.15096952510953895,"14":-0.9023039072073887,"15":-1.8083283641649346,"16":-0.44921969140999846,"17":-0.9581635018678191,"18":1.8736482336489702,"19":-2.8173201681241644,"20":0.813110176835911,"21":0.21737298119030557,"22":-1.3842824523516941,"23":-2.870757534015796,"24":-1.3137503587090809,"25":1.5884078463451858,"26":-2.9542664175466644,"27":-0.37299549340746796,"28":1.1941187319352204,"29":2.3801023366254888,"30":-2.961569091184436,"31":0.20487509268472853,"32":-2.3726361777509135,"33":2.1616892366369265,"34":-1.0329394457472336,"35":1.075316397123897,"36":-0.6385398176472796,"37":-0.1616372614625837,"38":-0.9109053927775058,"39":3.9875688481789773,"40":-3.299592936636978,"41":1.9452019758108219,"42":3.034901114574137,"43":-0.7593799942711147,"44":-0.9612350533083996,"45":0.0917532847979221,"46":2.63462750521598,"47":1.814431575287478,"48":-2.5802075523235093,"49":4.047176711196696,"50":-0.22276275153393468,"51":3.256028286296596,"52":0.9074380310402868,"53":-0.5324578987915838,"54":-2.855001567023539,"55":-0.5330295024012377,"56":1.5478264936959996,"57":-1.4263320545813363,"58":1.2707375094908082,"59":1.3770215250196942,"60":-0.6644875956392362,"61":-1.9905024066576504,"62":-1.5218301822516027,"63":-1.4434997498002367,"64":2.266703611766021,"65":0.5226086638464461,"66":2.2335257672276767,"67":-1.2894527047446573,"68":3.974252023717434,"69":-0.6951351210766918,"70":-2.395075727579738,"71":-2.120545252149774,"72":-1.1775367086320698,"73":1.5982232880026788,"74":-1.1262630796746114,"75":-2.7588523421660707,"76":-0.18697480011015283,"77":-1.9933149291267258,"78":0.3923747229148991,"79":1.6980115370676783,"80":0.5346680800654436,"81":-2.0720577330389527,"82":-0.9550210018113136,"83":-0.4799572480804399,"84":3.3352727766947963,"85":-0.2903763353993104,"86":-1.156646373417428,"87":-1.6762841793747894,"88":-1.335012436586643,"89":0.8588260009896558,"90":-2.592932207738765,"91":2.361803534223933,"92":-2.311138208818154,"93":2.1497430895851184,"94":2.1698232039543375,"95":-2.7603238394048697,"96":2.15201918906963,"97":-1.7381116173436981,"98":0.10612419028017366,"99":1.392894661759052,"100":0.6980483698290527,"101":1.0899443036816447,"102":-1.7076766718669016,"103":0.07649729880506109,"104":-1.4618646903475603,"105":-3.049808534657162,"106":1.1000071024853528,"107":-1.90143798988167,"108":-0.907400719161654,"109":-0.1026477344112136,"110":1.072826773772143,"111":-1.8170694740222084,"112":-1.4907393444289552,"113":-3.519076511856738,"114":2.1212013351901273,"115":1.7284277917490596,"116":-1.7388128694479223,"117":3.392130711493258,"118":1.3318226708589531,"119":-0.33821881153656774,"120":0.09439875186852624,"121":-0.7312282184618728,"122":-0.32781644230864393,"123":0.13182454525619475,"124":0.5957420452728754,"125":-2.35485871066263,"126":-1.2323089807233834,"127":-4.61977201572911,"128":-0.6759508859600565,"129":3.2214404445041684,"130":-1.6710425517935212,"131":1.9294650055736908,"132":-0.9219639408411608,"133":5.28604818882532,"134":-0.8545747187606345,"135":-2.1208918947616735,"136":5.60029095113148,"137":-0.36585629947674425,"138":0.022426469452100507,"139":-2.3242182655824406,"140":-0.22728805354737946,"141":-8.391692576652071,"142":-0.24747065943327345,"143":2.768199016490585,"144":0.8472068956711856,"145":1.4484391459377435,"146":-2.0701661004937475,"147":0.23165994500819823,"148":-0.33067805264668276,"149":1.8174422458701844}},"Wih0":{"n":30,"d":30,"w":{"0":2.9225336788540544,"1":-1.6632209816064447,"2":-1.8346434219247605,"3":0.7707468786033161,"4":3.1393336820008058,"5":0.3425412174338018,"6":1.4720011562027244,"7":-3.1160676986508333,"8":-2.464276806219734,"9":3.240111301219651,"10":5.673891544391817,"11":-1.9425247786093545,"12":5.317804266002367,"13":1.6549968066753344,"14":-2.4839247690992683,"15":-1.896686474802962,"16":-0.7135717397783234,"17":-2.257308853228244,"18":1.0066911878252227,"19":-0.8761303176344147,"20":0.5749048042904396,"21":-3.349368005522035,"22":-4.144124049526578,"23":-1.07728008652036,"24":0.4316266536797074,"25":-0.9230355006239219,"26":-0.22507934052772405,"27":-2.418609003321691,"28":3.138379247234835,"29":-6.657983155620983,"30":5.358543106789693,"31":1.0967896073655856,"32":3.186041903790829,"33":-0.05921422713606432,"34":4.5145645648813275,"35":4.645198572368103,"36":2.0023539070376093,"37":0.6612393119984312,"38":-1.3307604696280706,"39":0.778119654307538,"40":-0.9984739208243356,"41":-2.4244816282073,"42":1.4660074202011475,"43":-2.4680908007436155,"44":-4.92100241883715,"45":-2.277710510170668,"46":2.789745243451237,"47":0.057951203398116075,"48":3.8436150041089596,"49":5.006498602104682,"50":3.356974564711229,"51":0.663232088825527,"52":-3.041496236910818,"53":-2.805102078769938,"54":-1.5692118018905998,"55":5.78870175771532,"56":0.15039638151663365,"57":4.125402381598674,"58":0.14754733756502125,"59":0.4756260680997211,"60":-0.11575669803687647,"61":-2.085438623054373,"62":-0.08791845911702977,"63":-1.6479874642318788,"64":-0.22669768314264413,"65":-2.3421207299500693,"66":-0.38711739922298155,"67":-2.45451190702269,"68":-1.4774271237929313,"69":-3.6772155357738483,"70":2.588476313024295,"71":2.8971280440534057,"72":0.7068476500897937,"73":1.4859150028507249,"74":-2.808599616060972,"75":0.01750943564888629,"76":3.8692182663868686,"77":-4.836394073832832,"78":-1.7303434192986338,"79":0.02195318001932461,"80":0.10870944510397446,"81":0.08421717683938093,"82":-0.28768695131124095,"83":1.0336008056254127,"84":3.8014353057047416,"85":-1.5903585088835979,"86":0.8372087322615178,"87":0.6347550450756763,"88":-2.420255324862525,"89":-3.4040410867830464,"90":-1.0749188996877628,"91":-0.11015798606723423,"92":1.9546688203250604,"93":0.4534911987714905,"94":2.072312336103247,"95":-7.131863567952753,"96":-2.08072756752717,"97":-3.0345776968227223,"98":0.8131883610925553,"99":3.208232876774853,"100":1.8421974463016133,"101":2.026384966241394,"102":-5.7171056314085655,"103":-2.808939963741865,"104":0.1904844295665849,"105":1.9605919539610033,"106":-0.2865535199145692,"107":-0.7425525018411947,"108":-4.189449304006412,"109":2.880371776232983,"110":-0.6225820242176826,"111":0.06539431411453003,"112":-0.8491903186391028,"113":1.8236768124085063,"114":0.7125791970639721,"115":1.7545959184481923,"116":1.8802151007023944,"117":-1.4863139171174515,"118":0.6707294336523529,"119":-6.711231712048797,"120":2.1198937564201614,"121":-0.5530963810998448,"122":1.2535748167760616,"123":2.5832270535968083,"124":2.1741123142977195,"125":-0.8008863004143436,"126":-5.499133061342844,"127":-0.7369854572075468,"128":2.3703666530757874,"129":1.671209746929233,"130":1.7642121056508573,"131":-0.3265120321950158,"132":-1.5706715560356932,"133":3.9931960276053773,"134":1.723303776513249,"135":-1.108880434025363,"136":-1.6973197940926619,"137":-6.332028579741885,"138":1.1542426797006002,"139":-1.075590608565861,"140":3.783949546916107,"141":3.108480589636743,"142":-2.9317721746586156,"143":1.3609735820389837,"144":1.4039140755436217,"145":-2.854116006930889,"146":0.24222766679412724,"147":4.094927439801987,"148":3.915404953074824,"149":-1.361137549671958,"150":-4.011169750651187,"151":8.508854164028353,"152":-1.9137817731698243,"153":0.10379607775351699,"154":-7.919114345144767,"155":-4.239864937134087,"156":-2.4884839807992427,"157":2.6864441708154305,"158":-1.7705546102733074,"159":-1.9120152104614077,"160":3.1307133572557975,"161":-0.30751363679155785,"162":0.9048142831171593,"163":-2.8464661500715116,"164":-0.9755207483507167,"165":1.1065545843753208,"166":0.9793824227302383,"167":-0.5009298608632572,"168":-0.37136397957271244,"169":-0.8196413053209801,"170":3.7354051193884166,"171":1.3962031980098573,"172":-3.86805107272628,"173":-4.605185933603978,"174":2.4467503665952735,"175":-0.9836781195792222,"176":-0.21856769299852022,"177":2.202974815188338,"178":4.949955834668987,"179":-0.7215998613330635,"180":1.8090776244916298,"181":-0.8071016122289917,"182":-1.577545981063249,"183":-0.5078647162692064,"184":1.395793171651375,"185":-2.6268559702599417,"186":-0.5552520968373418,"187":-2.614780574982817,"188":0.1299068842088447,"189":6.950473125461216,"190":1.3335187318839516,"191":-4.537152962116781,"192":0.8376027610011668,"193":-1.2654988459060479,"194":-1.6429252184997534,"195":5.238794609002715,"196":-3.6626960357420835,"197":6.590127873757598,"198":-1.175580915405175,"199":-0.2820365224083915,"200":4.365677399838782,"201":2.0663221585411993,"202":-4.054660480002857,"203":0.6459542930740142,"204":0.03366194096008954,"205":-0.9818508391253499,"206":0.6201714818887829,"207":-2.9830947365612253,"208":-1.333166699820567,"209":2.0178252305214315,"210":3.0986323773601847,"211":1.4747720674551643,"212":-0.675101290788478,"213":-3.602176599335161,"214":-1.2887872669175087,"215":-2.8967557911202455,"216":-6.275341362135654,"217":-0.3039169932527896,"218":0.1865313214972503,"219":-0.6448646937118858,"220":-0.21086040792122887,"221":-0.9139726376037955,"222":1.6441659941930153,"223":9.312361990122787,"224":2.7836950489137893,"225":-6.22038249969203,"226":-1.6955426071042543,"227":-2.755278089215603,"228":3.420582882447823,"229":1.1814214163199983,"230":5.738900498112213,"231":7.145137570635095,"232":4.187300890934113,"233":-2.524012387887064,"234":-3.7900821896158923,"235":-0.016545375027127322,"236":-3.2377974396041718,"237":1.8039098823050603,"238":-2.648337364353476,"239":1.079024569209817,"240":-3.464501596771957,"241":-3.5625237118218553,"242":1.2237568306712436,"243":0.5887070542498488,"244":3.1575259419649107,"245":-2.293918447310097,"246":-7.1306869593821816,"247":3.5154652544225953,"248":0.753868494804089,"249":-0.7092644689184787,"250":0.2006456758583306,"251":-0.16734630366615205,"252":-0.008015882226709271,"253":1.587732138073434,"254":3.0776825751483514,"255":-4.1249981369581015,"256":-0.6857812502205068,"257":-2.7623957063142512,"258":-2.3653098107299395,"259":-1.6758902956052666,"260":-0.7272876881689708,"261":2.4751699040865227,"262":3.1378035562614817,"263":-1.6264629493322544,"264":1.312452169598235,"265":-1.5324328011950432,"266":-0.5278184410319198,"267":-3.6512508502605754,"268":3.371449902864832,"269":-2.9922657069433773,"270":3.0606678571882266,"271":-5.788728014027307,"272":3.2023165812217704,"273":-3.4137094722025667,"274":4.277906766785223,"275":0.5815055497408568,"276":1.5505929015218791,"277":-1.7607209708592282,"278":1.182975121717441,"279":-1.7087149163584265,"280":3.067962784103284,"281":-1.068202235656179,"282":-2.823598654970846,"283":0.5830996055989465,"284":-0.41480749335893535,"285":-5.620552233548161,"286":2.703268972127338,"287":1.0187619252450553,"288":4.770382056443315,"289":1.8172273057907244,"290":4.370302933500209,"291":-2.049420466456563,"292":0.3783041019530275,"293":6.111542472270109,"294":4.773371599653116,"295":-2.9980006386340388,"296":0.3313433511320405,"297":1.2476644509907795,"298":4.02775106654488,"299":-7.468068748791677,"300":-0.9016125795426705,"301":0.48529749627461727,"302":-0.713347975901364,"303":-1.1366269370944695,"304":1.6098033425997098,"305":-1.762995460069533,"306":-0.47400073944633797,"307":-0.11891419565077631,"308":1.5932572139120715,"309":2.551971394216976,"310":4.569365023657082,"311":-5.212072751658998,"312":0.06419114998130342,"313":-0.2179193689049507,"314":-0.6898994167034741,"315":0.41077528285321363,"316":-1.0738719710235642,"317":-2.656839245797443,"318":-0.8087493548680104,"319":-2.098141203131293,"320":1.169636477351862,"321":3.1242958198354436,"322":3.470720726658899,"323":-0.6965426884793519,"324":0.4059199890702463,"325":-0.6762749292751069,"326":0.3863139855564433,"327":1.7185921113755978,"328":-0.17470859178136972,"329":1.5199018167737228,"330":-1.4113395855247621,"331":1.4397733861596742,"332":-5.603794575013874,"333":5.79651783912969,"334":2.9208169465989324,"335":1.4117860864293723,"336":2.9625162911574305,"337":0.7433215994969012,"338":0.8435008166766802,"339":-2.382030883835379,"340":3.160449499516397,"341":-1.933559770172533,"342":-0.1493444536158945,"343":-0.28316111184001863,"344":1.2199075112077267,"345":-1.3573398098677356,"346":1.9854391634974677,"347":-2.8401562388987047,"348":0.7037887534816687,"349":0.539352310975316,"350":-0.6746136916410025,"351":1.2419201888970515,"352":3.7234347379840873,"353":2.3742479237283862,"354":-1.9141906307434247,"355":0.32065526327519545,"356":4.445652878776688,"357":0.9385574183018639,"358":0.3751706206375873,"359":-0.24579660060443748,"360":-0.4246667744220874,"361":2.5757366224407723,"362":2.0160245029598474,"363":2.8979693736741456,"364":1.463682064394565,"365":2.3843727236283003,"366":-1.163011598019185,"367":-1.4336809504945,"368":-3.506871003275073,"369":6.3109187628334364,"370":0.6770942649012205,"371":1.06674352569802,"372":5.236093549699084,"373":1.3007593372250639,"374":1.656430820299222,"375":1.8253171825399659,"376":-0.6496589257163561,"377":-2.9880324987999596,"378":5.4098934112390955,"379":-0.6863163805526715,"380":1.6368756734911163,"381":0.21864589532687576,"382":1.3818383422001574,"383":-1.729295736999096,"384":-0.26867819222287,"385":-3.892409074457131,"386":-9.14734659719288,"387":3.589739627068062,"388":-2.4589263066589493,"389":-1.9383713632335535,"390":-0.30875283595950137,"391":4.764679921776601,"392":0.8790895599742246,"393":3.047073984422307,"394":4.325673383409204,"395":-4.210686769612655,"396":-1.893917068649876,"397":2.5521266976997925,"398":0.6292854607271492,"399":-3.1280400754414344,"400":3.4509849862372546,"401":-3.9145977565648495,"402":-1.7212791463344144,"403":-5.094485086944237,"404":4.670044410843793,"405":-1.1363848447271896,"406":1.5773571584964095,"407":0.5775340423387096,"408":1.3126618648220134,"409":-1.152721823633799,"410":0.684476472414177,"411":1.189827286469717,"412":-0.6599741544046104,"413":-3.60385254712053,"414":0.18881914384787557,"415":-1.497988652867022,"416":-3.6689859589801004,"417":-1.2955280061402779,"418":0.42126988000417764,"419":3.1363567471567784,"420":-10.353809256317188,"421":0.752524648470352,"422":0.7022899798864087,"423":0.859400749583477,"424":2.2503187051596254,"425":2.43543650686536,"426":5.845723616271145,"427":-1.3393196689824265,"428":1.2089676099400994,"429":-1.2303099579334573,"430":-2.9793159040571937,"431":-0.7690384253802622,"432":3.20583781304043,"433":2.4454841113263632,"434":-2.2737068116496477,"435":0.38016165282475667,"436":2.4227309165869624,"437":-10.637959910735495,"438":-6.447808671954636,"439":-2.0308105152399487,"440":-0.9467172689728819,"441":-1.6833281987531696,"442":-3.2763531785703535,"443":4.955985538413171,"444":5.528326245785251,"445":0.16705181366217262,"446":0.3092726441147791,"447":-1.448498386578856,"448":-2.69540342281447,"449":1.907290408049104,"450":-0.9551478290240931,"451":-1.8679097063693406,"452":2.1955751728012847,"453":-1.6213430538436102,"454":-0.9085132548428124,"455":-0.875177947103712,"456":0.7970290256931377,"457":-3.4994452467289947,"458":2.3014146506703734,"459":-0.48148477799605127,"460":-2.690799854210704,"461":1.8827002532082726,"462":2.7424051800004268,"463":5.394051223787635,"464":2.006715573808637,"465":-6.653909963900455,"466":-1.1551006011707587,"467":1.436964318576828,"468":1.5030789180098825,"469":-3.734342642734917,"470":-1.755327053033528,"471":-1.9442826180495603,"472":0.8123332084587712,"473":-4.288268006910723,"474":-1.3875716771554911,"475":2.7878854983204127,"476":-0.01111937974713463,"477":0.10330542419862603,"478":1.9880802096397612,"479":-2.762679735750439,"480":-3.3512455753372374,"481":-1.497322566346124,"482":-2.3861746372378576,"483":5.322144799084958,"484":1.2629868592233902,"485":2.999479564669588,"486":-2.07797671805382,"487":4.044039483278065,"488":0.42067239387465655,"489":4.203130216492824,"490":3.296648422575712,"491":-3.0395154330748184,"492":-0.17275331956267787,"493":2.677728904061979,"494":0.5036211168313643,"495":-1.2862574555780262,"496":3.1653974696438283,"497":-8.322987082027069,"498":2.740046290892583,"499":0.9574815920542182,"500":3.678355414267641,"501":5.981002603929127,"502":-0.9494123543141959,"503":6.498209526491616,"504":-3.587390928025901,"505":0.3708274071183278,"506":-1.338160259960821,"507":2.757533639599217,"508":-0.7530612452375784,"509":-0.9864317229019567,"510":5.165894520753949,"511":-0.7476171016356806,"512":-2.1854877235515753,"513":0.8099536130613767,"514":-6.304254989636823,"515":3.3268898333518506,"516":-0.14582959358580022,"517":-0.6490083429345801,"518":-9.830727341930213,"519":5.487498447587835,"520":0.42096497256761695,"521":-5.0794670722569,"522":3.7664409840823114,"523":-2.6873725767127388,"524":-6.37852633508419,"525":2.2911096259154227,"526":2.0519760467950583,"527":-0.07863757222883963,"528":1.9393980329546638,"529":3.1269364066529084,"530":2.34793262091016,"531":1.2804868899461288,"532":-1.796257440758003,"533":0.5756575927289989,"534":-0.2099459448868716,"535":0.6772275857927786,"536":1.8058625587423118,"537":0.044559211854257805,"538":2.4232282342485405,"539":-2.3542136206843374,"540":-0.016625626912092597,"541":1.2872273770226927,"542":3.1694450675019357,"543":-2.6820489703265213,"544":1.587182122406097,"545":-1.5589887893052417,"546":-1.147495585329516,"547":1.051239189416086,"548":1.3695797706933672,"549":2.1116571495442127,"550":-0.9355393965121485,"551":1.468031212808037,"552":-2.8508426475309316,"553":-2.8895535486057256,"554":-0.12935775442168573,"555":4.053868386423746,"556":2.0736834181718353,"557":1.9171737020678299,"558":-4.932019524941157,"559":-2.061405884447537,"560":-4.110860703421489,"561":1.2508540151584315,"562":-0.5269870328524634,"563":-2.3739332971140152,"564":-0.05134523137605857,"565":2.685592200917352,"566":-0.9543671951593891,"567":-0.8824711838705505,"568":1.132425789441511,"569":1.3416071803940952,"570":-0.5723292541014451,"571":-1.8895967615322942,"572":1.0580500160397852,"573":-1.2697206199725068,"574":1.912941996622567,"575":3.791460661821887,"576":4.487651765141532,"577":-3.1558673425122024,"578":4.931985134671584,"579":-1.7449147288237583,"580":-1.5461670173838022,"581":-0.47766840118852866,"582":-0.9384686031698414,"583":4.717842819515055,"584":4.3416949771487445,"585":-0.4134430944111622,"586":0.5725105138033632,"587":2.619363381585134,"588":-3.4812973036665413,"589":-1.3389776416831058,"590":-0.06372701986956315,"591":-2.50773391863163,"592":4.878917491381946,"593":-2.5867065781374197,"594":-0.2678562124638632,"595":0.42540678550608313,"596":-0.46871985621177786,"597":-1.6436873445488414,"598":-5.349380141080028,"599":1.5234377791566975,"600":0.7705392417752205,"601":-0.4669020758610841,"602":3.84391786410839,"603":0.7470863582803879,"604":-5.10983315588821,"605":8.244048657770437,"606":-3.1446897884136726,"607":1.0962405673288953,"608":1.3833159352845057,"609":2.9894390194211047,"610":4.527316495412489,"611":3.286709065163482,"612":-2.882380717406831,"613":-0.730917323489651,"614":0.03118243808912821,"615":0.21947779001388654,"616":0.6247849134710467,"617":-0.6580929416986812,"618":-2.1155106409601836,"619":2.0261868447852067,"620":-5.732372145766521,"621":3.5383602776730534,"622":3.3319960868866882,"623":-8.506977432528757,"624":-1.6720301400974185,"625":2.629396018528231,"626":-3.593054989021172,"627":-1.2392575202943379,"628":-6.13795400507014,"629":-0.7642173464128308,"630":4.949690365872136,"631":-0.9957413477856066,"632":2.0137858526193178,"633":5.5282803859503025,"634":0.1413262837157248,"635":1.7952873052511877,"636":1.3894823955414823,"637":0.02746028949600547,"638":-2.3981095646319535,"639":-2.297532160672325,"640":0.33654285345903495,"641":1.4866367057992707,"642":2.3242624742192306,"643":2.425085215746345,"644":-3.9689875450466388,"645":3.3925455022301443,"646":-3.050809490452001,"647":-0.8066826129000595,"648":-4.2438983101248215,"649":3.1797403762900807,"650":3.492745076810592,"651":-1.7380033455655368,"652":0.8435498607756946,"653":1.704021743605171,"654":2.1725236420730245,"655":-0.4196996522218878,"656":0.9106749894784685,"657":-1.8244004924392028,"658":-3.5085287979880553,"659":-4.722176105139436,"660":0.520376571169569,"661":2.096579942781495,"662":3.3104275891042616,"663":0.9500606553497172,"664":2.9332801771115014,"665":-3.9537363734372293,"666":2.440056852287159,"667":-2.1417494801686563,"668":-1.0090966748841979,"669":-0.4895531522103714,"670":-0.7429414381834483,"671":0.18864153267205902,"672":6.45408484517883,"673":4.702811311640382,"674":3.497786258663749,"675":-1.0186910471455568,"676":-1.1161405608290231,"677":1.2512745369227007,"678":-3.204847881847655,"679":-0.15139023294609608,"680":-1.9125693244381832,"681":2.324562087754152,"682":-0.7621981802129697,"683":1.9857580272549633,"684":-1.4933395797250324,"685":-0.7254960587591602,"686":-1.9422800303922967,"687":-3.773296017679073,"688":3.649093389829869,"689":2.5658322005793575,"690":1.8424245888538866,"691":4.779389983359959,"692":-0.11611770660699897,"693":0.15563695302984085,"694":-1.2976916257930973,"695":-1.979136763943506,"696":-0.871796310100883,"697":-1.5603528309964843,"698":-1.8040734760261992,"699":3.294380717267896,"700":3.50183026034983,"701":-2.401462800359838,"702":6.757118335486239,"703":-0.5196147648412041,"704":0.7818675314896407,"705":3.1760502249509024,"706":-2.268155468720917,"707":0.8005529660541801,"708":2.0862912663332183,"709":4.0931609062212155,"710":2.0810588719623335,"711":1.163436046723773,"712":-0.9885739205621983,"713":0.3349617330648681,"714":-2.8877260115680157,"715":-2.493247468603407,"716":1.4115888055173447,"717":1.4643417609055625,"718":0.09957062254672805,"719":-3.1014574989294155,"720":-3.1208480738192415,"721":3.508070442703579,"722":1.477885113905659,"723":-1.7974151765181914,"724":1.156348572977217,"725":3.739851824295124,"726":-0.5687146138698943,"727":2.356932179611917,"728":1.2741953834434332,"729":0.44989081701586375,"730":-3.8539491179117418,"731":-3.9117869930512366,"732":-0.12037356017413695,"733":-0.9212010831450003,"734":0.9864495606716002,"735":1.3405028897288704,"736":2.1935913336352457,"737":1.8008799657040364,"738":5.420897596477511,"739":-0.8335529767992687,"740":2.171497043270446,"741":-4.74898155503422,"742":-0.485266632858747,"743":0.3155617584972781,"744":-3.2182932581337567,"745":-3.4869662649716497,"746":1.004880228396106,"747":1.0073572235139354,"748":-4.985178418816735,"749":1.900251291344019,"750":1.808624766337904,"751":3.967442201990679,"752":-0.5622440166101408,"753":-0.09847526247339267,"754":-0.1081087649546281,"755":2.1174488675712753,"756":1.556215822840184,"757":3.085711076488492,"758":-0.6229945055477936,"759":-1.8332358050746083,"760":2.2914693714881986,"761":-1.0476594137665796,"762":2.725849298525086,"763":-0.3239547965604451,"764":1.7962697691867835,"765":-1.4052795054871126,"766":-3.8634256320022082,"767":2.5401790836536255,"768":5.224171764013532,"769":0.8217444198167639,"770":0.3502862140132553,"771":-0.9800400384191997,"772":-0.9549217646428474,"773":-1.1175088444120231,"774":-2.4976597477849447,"775":-1.2245156426519008,"776":0.5260676615349357,"777":1.4455360849268066,"778":-1.0081303443380254,"779":-2.9803498294270674,"780":1.8444156135775513,"781":5.244098133430687,"782":-0.40019612914788316,"783":0.0027172888761001004,"784":-2.210555442334319,"785":-3.003857963051777,"786":-2.4947418117907665,"787":-1.2004899159608513,"788":0.9128524973879669,"789":-2.910271802048184,"790":-1.0284613307271029,"791":1.2738283616091084,"792":-1.9362749432043205,"793":-5.520958285006662,"794":0.6622406237709232,"795":3.88472546375152,"796":-1.3762447512990112,"797":5.027067256466279,"798":1.5127580539012708,"799":2.0168558524769167,"800":2.612449980416086,"801":0.4032181728219325,"802":-2.343812087728685,"803":-2.400571561981874,"804":-2.6094335005125417,"805":0.8718150406392056,"806":-4.103986507226365,"807":-3.934446088121907,"808":0.3141741774559626,"809":-2.1413607407139805,"810":5.830371390648279,"811":2.0547348463163733,"812":-0.466884862728102,"813":-0.7603029890622505,"814":-3.0592929218820673,"815":-1.7321887979740178,"816":5.594111864414507,"817":-2.862599853599685,"818":1.3115317826323831,"819":0.2488376230239509,"820":-1.1777408956092046,"821":6.562493115601552,"822":-0.17413580064002626,"823":-0.9861555619869473,"824":-2.123036528486474,"825":1.1309415413068782,"826":1.0074917479353491,"827":-1.2906056344084291,"828":-1.9869106086600201,"829":-2.000616015147043,"830":-3.1356052717495713,"831":0.2963764537151957,"832":1.5455676271106042,"833":-3.863532578105989,"834":2.260854326489676,"835":-1.2044522147581378,"836":-3.466967055722891,"837":-1.72248441741864,"838":-3.9955776744841947,"839":1.7519480872517827,"840":3.583276373685199,"841":-1.8729219400492452,"842":-0.7681842865230529,"843":1.2073607508579405,"844":-2.3742257849542967,"845":1.2669933763458883,"846":-0.15628331412730853,"847":0.9361492341844411,"848":-0.05359616417951927,"849":1.7849018555473481,"850":-1.1260159782040968,"851":1.741889555127092,"852":1.5149376071547718,"853":-2.059034469640549,"854":-1.2160500228972626,"855":3.18334183894175,"856":-1.0291034849919083,"857":2.9008186239462024,"858":0.6170004277101608,"859":-0.2799978463351523,"860":0.999339272996889,"861":7.9661759331469515,"862":-2.078929867753914,"863":-1.3432833400831443,"864":-0.7422857580406402,"865":0.24826438991469102,"866":-0.04711278472064184,"867":0.4686553395188143,"868":0.6015536722408752,"869":-4.793628822534565,"870":7.861638650570732,"871":-1.1998095835150089,"872":-2.5360234301935525,"873":0.533419620938525,"874":-1.1201417050842581,"875":-4.483641798401366,"876":-0.5544602379440122,"877":0.009215132934461865,"878":-2.194174639867044,"879":-4.755558521631899,"880":-1.2177284980910723,"881":-1.6950871116898396,"882":-0.8257107750566809,"883":-3.0985197581283366,"884":3.540285765515275,"885":3.1674816891959994,"886":0.15462270886743598,"887":-2.693509393100275,"888":1.7286779917154138,"889":4.587861358494192,"890":2.0461160948440984,"891":0.07015722389542095,"892":1.1837017338940503,"893":0.964546201755382,"894":-0.36537861001264876,"895":0.5085464482371066,"896":0.3314512044568558,"897":1.8715710705293425,"898":2.0223487463493792,"899":-3.0953713488043335}},"bi0":{"n":30,"d":1,"w":{"0":-1.7347206232161674,"1":1.411994121774259,"2":1.8158151419609896,"3":1.3319464197266877,"4":-1.8396729347764613,"5":-3.785844592912265,"6":0.30371017373727793,"7":2.019037223715383,"8":2.1134982692152606,"9":-0.7006284349811639,"10":-0.26905315174987576,"11":0.9532771403033118,"12":-2.120183633906007,"13":-2.805128254508776,"14":2.838123983574689,"15":3.2778331354507944,"16":-2.676116148618619,"17":-0.5101113225079607,"18":2.178204692614865,"19":2.7718230344906614,"20":2.9855580587442963,"21":2.5738917847409066,"22":1.6898370303601082,"23":-1.6742070688474031,"24":-1.2433849795869443,"25":-1.471691306075431,"26":2.232984234351961,"27":4.91808151719685,"28":-1.255114233563164,"29":0.7790015775995587}},"Wfx0":{"n":30,"d":5,"w":{"0":1.5637240041053881,"1":1.4771363708697003,"2":2.600699529594839,"3":-1.2808335486237823,"4":3.2110097507742266,"5":-4.980445036096958,"6":2.1904571626149822,"7":-2.713014066220557,"8":-0.5509971660092529,"9":-0.9994281663459722,"10":-1.3058027629783477,"11":0.974598812140619,"12":2.3552888285203197,"13":2.532250147800016,"14":1.2900223228382948,"15":-1.1817590815377803,"16":-1.3447931723907836,"17":1.1054646564164068,"18":0.2637610818769359,"19":1.1057170461714274,"20":-0.8777086148919195,"21":-3.3622731931585887,"22":-1.596434528495208,"23":2.999396018605361,"24":-1.3672620291855482,"25":-1.3642236300430226,"26":-3.79265485390155,"27":-0.7502224423393905,"28":-2.733487797749708,"29":2.0947436781089688,"30":2.509497516835623,"31":2.450099879727363,"32":-0.3303989547459816,"33":-0.855260655393472,"34":3.236021767946683,"35":-2.8306121546868095,"36":0.41652205539619835,"37":1.0622308902686535,"38":2.2020630240824968,"39":-2.1987353027380077,"40":-2.9494400428139773,"41":-1.4965903752525476,"42":-0.14096185178841916,"43":-4.531031214586116,"44":-3.4524227504921763,"45":-1.7186183330893128,"46":-1.0089608368476088,"47":1.2238782950202562,"48":0.20392899512302065,"49":0.5161373995692308,"50":0.6972547231055946,"51":-3.508599850561031,"52":1.7900551548891628,"53":-1.8580478120561494,"54":1.5462322414103828,"55":-0.6550241555756596,"56":1.1371923994510234,"57":0.5268329615189645,"58":1.4058213201624976,"59":3.3462688376924334,"60":-1.1178171451958216,"61":-0.8856931976855179,"62":1.1222318721051647,"63":3.6220087845040276,"64":0.5600918898460856,"65":0.8475482961290969,"66":-0.694410803600298,"67":-0.21442104664603434,"68":-2.415295701062248,"69":-2.1607585617689424,"70":0.290313237451978,"71":2.9238179157653494,"72":3.8967452871160817,"73":0.7883987463380479,"74":-2.352505352954729,"75":1.2690259807126059,"76":0.5384504564319768,"77":0.586332352009897,"78":-0.6878111749956192,"79":-1.8129359124219835,"80":0.6456170029872338,"81":-3.5696069113445525,"82":1.463917937187027,"83":0.8733189941070715,"84":0.019789196665794782,"85":0.038513799766571044,"86":-2.2372112073590653,"87":1.4177033265222785,"88":0.8448348142987557,"89":-0.3149236124191694,"90":0.5164106335498702,"91":-1.4678365835849347,"92":-1.044646738277769,"93":0.5603037130991995,"94":1.0282146729809116,"95":0.2655015602134343,"96":-0.09590286138308966,"97":-0.4996916323072957,"98":-0.29677548372551454,"99":0.2154828088198153,"100":-2.385811038078465,"101":1.3589854160246373,"102":0.026639882911536395,"103":-0.8135462191570564,"104":1.543011446060227,"105":-2.8161716563213215,"106":-0.528970855852223,"107":-4.528264818344797,"108":0.4282381706700931,"109":2.5031786932082505,"110":1.5409384239536068,"111":4.4005065247447215,"112":3.618834201851132,"113":-0.7773688531129398,"114":-2.6053264377657,"115":-1.5035550271058022,"116":-0.8014416414939146,"117":-0.36615635622490517,"118":-0.48082144888264966,"119":-1.4964115092549097,"120":-2.892511328193096,"121":-2.917876827811085,"122":-1.3644864400616912,"123":0.8229079274111678,"124":-1.6934305290600569,"125":1.8658978651838887,"126":-3.9655488552306366,"127":1.4177704071513162,"128":2.9025398364804094,"129":-2.516627396793026,"130":0.742524859231883,"131":1.6368228660822859,"132":-0.9286809802897572,"133":3.690554471214925,"134":-0.13535570984411813,"135":-0.16214050803238877,"136":2.8507494374662468,"137":1.9342218372208213,"138":-3.9698096391719018,"139":0.05069899983999139,"140":-0.010937305643806527,"141":1.6620345030763728,"142":-0.28495471000004446,"143":-0.2066750840008389,"144":-1.371882307374213,"145":-1.812673827296975,"146":0.020949018606508725,"147":1.2379875981841642,"148":1.8740020763732979,"149":3.46459754126764}},"Wfh0":{"n":30,"d":30,"w":{"0":2.781851518102437,"1":-5.893332174231584,"2":2.6169572108477293,"3":4.423700852729043,"4":2.567168463976264,"5":4.226176420329284,"6":1.2572377569453794,"7":-0.011963243917709622,"8":-1.0219146651383384,"9":-2.0841402676351435,"10":0.39711661678752835,"11":-1.32040261249019,"12":15.40176595114188,"13":-3.8315667308713177,"14":-1.8093366804133377,"15":0.7748719744818038,"16":-6.755192677339441,"17":-1.7528443338510666,"18":1.5790158244215218,"19":6.646053057819206,"20":-0.6763276547469405,"21":0.06468034211362343,"22":0.2953212611762418,"23":-2.055386899533684,"24":6.4443061953147565,"25":-3.7686002186578507,"26":0.8735843782599864,"27":1.8038358466643867,"28":2.888121783852324,"29":-4.334815424571195,"30":0.559039136040933,"31":4.5846044557282335,"32":-5.335786744276384,"33":0.6851794504711191,"34":1.9684959148365988,"35":1.2346258791462161,"36":2.9956382329920035,"37":-1.0891178522594356,"38":2.123835208530606,"39":1.219330978429465,"40":5.60137678427117,"41":-2.554715511466078,"42":3.5662953687900467,"43":-0.7622826628811294,"44":0.6265517207329855,"45":-1.4654959256875884,"46":2.829609248919696,"47":-1.83885307142539,"48":-0.18580386789471726,"49":1.6403045700377987,"50":2.960064872666542,"51":2.280468741396634,"52":1.9461524743317797,"53":-3.7745800834248526,"54":5.592652393322018,"55":-4.640137241802709,"56":-4.870177601809059,"57":2.638593086392526,"58":-2.5135211288345336,"59":-0.010151456689559963,"60":0.5067495194219758,"61":-3.009760052894189,"62":3.5357128721487068,"63":7.8493148604041565,"64":-0.04256241389524774,"65":-6.790303999968301,"66":-1.9608010327248715,"67":-5.10034659728821,"68":-3.209253383653009,"69":-0.5732863247485738,"70":-0.5348299720782538,"71":2.085776066825947,"72":-5.155716290577029,"73":-4.5184272768139655,"74":0.4395128035012873,"75":-1.55328917785407,"76":-2.1773482809973244,"77":-1.780899265692453,"78":-1.4687628242885802,"79":7.529686119222198,"80":2.3556533092964904,"81":-3.8436454752124463,"82":-2.597193524339055,"83":3.4045800393957335,"84":0.353527702353274,"85":0.5546964442737068,"86":-1.2908360023221137,"87":2.014514521045307,"88":-3.3970081367589957,"89":-1.3329432019703669,"90":-1.1690993900500237,"91":-1.2354176176852696,"92":2.1159752535474485,"93":-0.955082118221594,"94":-1.0829021784175301,"95":4.643109052698075,"96":1.065417755369867,"97":-0.8912293460957732,"98":4.065230671463437,"99":-3.4230506720066307,"100":-0.8817089934507589,"101":0.040890702188861705,"102":-1.4277121886334316,"103":8.209365352152894,"104":4.954437471790418,"105":-6.211203273989697,"106":1.0831104866603343,"107":-2.0270804035351517,"108":-1.6064277151311916,"109":-10.217789826228797,"110":-1.2877890850567066,"111":-2.195323718429774,"112":1.5656221138416844,"113":-3.730187840514443,"114":4.1833626827887205,"115":5.793012901367675,"116":-2.632232785586442,"117":-0.9142388998032748,"118":0.3255288777843016,"119":0.740684916293734,"120":0.36235434454006354,"121":2.5229174475857117,"122":-4.86136595089023,"123":7.984167135717737,"124":3.0205741738113354,"125":-0.3720632740171537,"126":-1.995006205859115,"127":-0.10533882837500103,"128":4.49185777555053,"129":-0.41889568623769796,"130":3.1327724803464747,"131":-3.7373435719412798,"132":-6.173624996109265,"133":-0.7021855318153831,"134":1.3770005705854125,"135":-4.299372095944252,"136":-4.589753609213304,"137":-7.198500979608538,"138":2.7553253452321793,"139":1.3114481449849364,"140":2.131192854380874,"141":-1.2838663429520356,"142":0.39205526752665015,"143":-0.18307353162158171,"144":-0.23148333623218043,"145":-0.8888556060055253,"146":5.591320639752526,"147":0.2043266430534505,"148":3.5103419702066225,"149":-5.831404934341957,"150":-4.819661317675862,"151":0.017990261684815153,"152":-3.981566829091279,"153":2.9989502264406447,"154":4.6389685957642195,"155":-4.953495883809005,"156":-2.705030160780995,"157":-2.623213463146375,"158":0.29751565057855645,"159":-0.21085020487710243,"160":3.671219032434597,"161":-5.83177982264144,"162":-4.656065785007592,"163":2.9542237512208143,"164":2.3127514742048287,"165":-2.5630011305855107,"166":-1.3626810317536837,"167":-0.8524547119554815,"168":-2.907836426537378,"169":-0.40604505641366784,"170":2.6971150563549986,"171":-1.7218921969752474,"172":0.5787164764675797,"173":-2.5017491601471904,"174":-2.2404280058258212,"175":-0.6280431825685864,"176":-7.530756240950962,"177":0.7729679888089571,"178":2.9634568582155256,"179":1.174030256878115,"180":-4.897712760122269,"181":-5.989308124743715,"182":0.5506844380758407,"183":-0.5975160389077209,"184":-0.5792783860881295,"185":2.4999369991483116,"186":3.2842688728934872,"187":0.35952169328281885,"188":1.592856231962914,"189":-3.842332081898685,"190":0.631102102899747,"191":2.4232233527083715,"192":0.5015799578853293,"193":-1.1494216969276245,"194":0.02119557654162272,"195":1.555307757444743,"196":-2.0215257472094876,"197":4.1924099733906495,"198":0.9496746294033823,"199":1.2853766573833507,"200":2.850603946600287,"201":-1.1253333591132337,"202":4.46631101771974,"203":2.5854541421117387,"204":1.3978999076262097,"205":-2.328921578244842,"206":6.9737749383828564,"207":2.8924989680433217,"208":1.415086186732986,"209":0.011709821994506027,"210":-1.8752385514360583,"211":-4.106164314471564,"212":2.836541385649542,"213":-2.4654215867642626,"214":-0.44981559299678214,"215":7.3965354755888635,"216":-2.0210203278089884,"217":-1.4938537038757207,"218":3.117272211296008,"219":3.71727268501126,"220":-2.1516428098069444,"221":-4.21236435854532,"222":1.7954255616413497,"223":-0.15048670549192347,"224":-0.03361660774512777,"225":0.7455081960881031,"226":1.6511091769580195,"227":6.612643498626129,"228":1.6493881120167722,"229":6.490182373478032,"230":0.0954661562826149,"231":-0.31258373458539773,"232":-2.0420378432852866,"233":4.930157956749638,"234":1.1184740027274083,"235":-0.116179918443952,"236":0.09233626184092059,"237":3.966778051880536,"238":-5.04221486283591,"239":-8.343178561826052,"240":-1.91828125020944,"241":-6.495201657995577,"242":-3.397769996780507,"243":-2.005911392157672,"244":6.156209483136686,"245":2.6071380862823195,"246":-3.5017844272330234,"247":-0.22578577905080316,"248":4.357426069152469,"249":-1.6127200834306257,"250":1.9251932030696701,"251":-1.900073886196047,"252":1.7717669132764131,"253":-4.898359150716823,"254":3.297808673723268,"255":-2.938870207485889,"256":-0.7784434679013267,"257":0.13776039176933907,"258":-1.2103373762105616,"259":-3.5760872636744088,"260":-0.1346367345832696,"261":1.727360920394387,"262":0.9987497401937282,"263":0.29978363376705747,"264":-4.893710697995943,"265":-0.6809314384509147,"266":-3.6611941815096065,"267":-0.5648619224113047,"268":2.7092255420325113,"269":-2.900883546160618,"270":7.174406463061569,"271":0.349833120483372,"272":-0.8812458676242667,"273":7.021259174804606,"274":-4.681065776773111,"275":-0.5134133190585424,"276":2.3787478756156704,"277":0.9204448785350011,"278":-0.2512923325663624,"279":0.39346471076760814,"280":3.138421657387821,"281":-4.453857582935994,"282":-0.7031896691490115,"283":-1.807788131948975,"284":-2.997745833696659,"285":-0.8390660243798299,"286":3.179830537821362,"287":-2.427964107872507,"288":6.839484758342929,"289":3.7364125307206466,"290":0.0555157223281896,"291":7.738349847102379,"292":-2.1660759515047707,"293":3.538691584926809,"294":-6.135174126218026,"295":-2.941197381637354,"296":0.00514483338512623,"297":2.1926594712241494,"298":2.323314574977377,"299":-2.2474729341694344,"300":-1.2741742587525504,"301":2.1839205137237436,"302":-2.222292686455907,"303":5.645584518013135,"304":-8.913384711805794,"305":-2.2866763970748383,"306":1.9242835358050412,"307":-0.04868083843812912,"308":-2.2333964228945398,"309":3.63893945969728,"310":-2.7100378119868567,"311":4.091907598387266,"312":0.5108896255592361,"313":-5.984882664493133,"314":-2.7965518023948026,"315":5.792751966653953,"316":-1.8290945413199866,"317":3.5788917583034485,"318":0.16809302197030923,"319":4.753545606736966,"320":1.3804056864272372,"321":-0.11571020212279111,"322":0.7422378832103806,"323":2.35193916725998,"324":2.5612732020755518,"325":-1.114517336946693,"326":4.930920378744283,"327":2.34602482755983,"328":1.8545717464990676,"329":-2.029907501852025,"330":1.77855603722756,"331":6.007108656234768,"332":-1.3687851286027037,"333":1.0500962883269314,"334":2.30369725895025,"335":-0.7967553870838352,"336":2.9625006095046205,"337":-5.893585438581113,"338":-2.886249290808597,"339":4.348569663690587,"340":-3.2359710211140595,"341":0.18097663479982862,"342":-0.9899738348588234,"343":0.9949551257681987,"344":-0.5313836700091799,"345":-1.5325357366026673,"346":-3.587794714312205,"347":-1.8705821335006219,"348":1.6956187193261663,"349":1.2267435268485913,"350":2.5010681399950143,"351":-7.100805247372962,"352":0.5186755457465343,"353":-8.21663345678227,"354":-3.2597841427257266,"355":-1.7995253296755562,"356":1.7398332407131145,"357":3.9867039721840603,"358":-1.1926383827472624,"359":-4.801592828661688,"360":1.5486641042746365,"361":-1.5475518246395363,"362":-0.4972447529512887,"363":0.9217463596424152,"364":-0.7951114096992583,"365":-0.9695578437445496,"366":0.4201517827021299,"367":1.3238162904574504,"368":-1.00992780621852,"369":1.2244825999971847,"370":-0.6273453949659519,"371":-0.18859304794069764,"372":1.0687462957163094,"373":-2.9889181257319613,"374":-5.32654172058096,"375":4.619206574952854,"376":0.9858708013309582,"377":-0.163190564110043,"378":2.3521626233715267,"379":4.208847001117712,"380":-0.10193878395902818,"381":2.1122700773439163,"382":-0.7541883129710832,"383":-4.2563220280268546,"384":-2.6607037057776664,"385":-3.6451997183054314,"386":-2.2356020941243147,"387":-1.2260679826402971,"388":-3.477569940616228,"389":0.3620347887325662,"390":0.61340941357801,"391":1.5562891515698976,"392":-1.6121217296016161,"393":-3.0418212902088966,"394":-2.7555181654765812,"395":2.087255632606715,"396":8.785878265889728,"397":1.6998511076069183,"398":5.349120858075093,"399":-0.8941901704518046,"400":5.039178358456004,"401":-5.922145937465329,"402":-0.6449128994067839,"403":3.1053066663734588,"404":6.7195229640545335,"405":-0.1949470296531614,"406":4.806271633620472,"407":1.528410572875558,"408":1.7052701309287004,"409":-2.208704748875399,"410":2.128802268193668,"411":-1.0687164426833426,"412":4.310517489967068,"413":-0.8281854691140346,"414":5.153400773044193,"415":-1.960822379786308,"416":-3.7087853285715675,"417":-0.5603327233423064,"418":-0.33208991784600034,"419":0.7975430274407842,"420":-3.6885985987308616,"421":-4.441579086614507,"422":-0.8243038002786913,"423":-4.8529159205558585,"424":1.4349885655979369,"425":1.8497592620315129,"426":-2.9737511685698794,"427":-1.881132336576607,"428":2.157863542305135,"429":3.1548455857899755,"430":1.773831430205758,"431":0.29816906045782304,"432":-3.7111844122678015,"433":1.1920260762973778,"434":7.420550614781402,"435":-3.367522690729062,"436":0.6020424697258521,"437":-0.7531269921673392,"438":0.2773914033278055,"439":-4.240882668412319,"440":-2.858788567636524,"441":-4.772126074348493,"442":5.119378348514702,"443":1.538045769696976,"444":0.3993823097914593,"445":0.47688671880227074,"446":-5.974244580474931,"447":-1.9861986938224963,"448":-2.5956073920463503,"449":3.58324869876575,"450":-1.535996048764076,"451":-1.3705353508274103,"452":0.692776907963684,"453":-2.0597556636563388,"454":0.8190266748551182,"455":1.4892853399918833,"456":-1.763083244796178,"457":-1.9681036579573512,"458":2.222816745514152,"459":0.12165205296852473,"460":0.3775428270201665,"461":1.101326081665301,"462":-0.8386293637175614,"463":1.7006978017516103,"464":2.519400757308785,"465":-1.784770456563475,"466":0.04733656074355965,"467":1.7078917465585115,"468":-1.9927142254454693,"469":-1.5979573038760135,"470":-3.258363179379217,"471":-0.8029475541825479,"472":3.5566242232728467,"473":-1.8699929734798533,"474":1.1444611285971857,"475":-0.891977456334962,"476":-3.0381179997617016,"477":-3.7847510394718635,"478":0.41257674852585524,"479":-0.17098507587557585,"480":-4.801000770454698,"481":2.897213750763914,"482":2.8503259553058906,"483":2.10688324255534,"484":-3.6140341165509047,"485":1.052404258001182,"486":-4.517263140228785,"487":-4.670791492968917,"488":-7.269400564973882,"489":3.1663405521481156,"490":-0.25931643996348996,"491":1.303100399456521,"492":-1.3560091532601912,"493":-0.00777487270203806,"494":-1.7996602995824764,"495":1.1119503177656174,"496":-1.0136789552692942,"497":-3.0715624313482124,"498":2.1132379354368642,"499":2.9700684873627896,"500":0.46078973383312644,"501":-2.6173774053658825,"502":-0.5736314716878196,"503":-1.7726517659392325,"504":0.284346326113063,"505":1.5475939373169374,"506":-4.351493018797705,"507":3.5863776501161717,"508":-1.2437718301166263,"509":0.5424445903728755,"510":1.2497461091166908,"511":5.345106560828773,"512":-4.087972128598117,"513":-4.140415790864123,"514":4.788154160989277,"515":1.6574472756282763,"516":-7.104193102957074,"517":1.1489099628861805,"518":4.4451701191777255,"519":0.1774966517689956,"520":-0.16653614561433977,"521":-1.7202446303302859,"522":-4.025270851625904,"523":0.4294017821306809,"524":2.796002790027058,"525":0.02862225113026453,"526":-0.2134935992179091,"527":4.515212079930756,"528":-0.72405686713694,"529":-1.7556522623690896,"530":1.6182487319326297,"531":-0.5234184182314815,"532":-3.263409757443298,"533":-1.029872712941656,"534":0.6169483199757928,"535":0.37678977603406266,"536":3.1967690855385325,"537":4.9414362849071125,"538":0.13474367190929495,"539":0.3034391539256144,"540":5.379613374827204,"541":-6.143648418351934,"542":-2.608745107210125,"543":3.679653777232883,"544":-3.9372185559822515,"545":7.252837193780606,"546":-9.99766642292535,"547":1.2052298486937105,"548":-0.40155926371981954,"549":-3.4903772291864272,"550":-0.8119955274062695,"551":-0.708966208549087,"552":-0.6243824051705893,"553":0.8942937789376246,"554":-1.5570467738866556,"555":5.2315405072603705,"556":9.457723828876953,"557":-0.45589577293022776,"558":2.0091034241079018,"559":-2.7444912060622,"560":3.3318521016177045,"561":-0.14153588185154517,"562":-1.6785944549169824,"563":3.494752441994288,"564":-2.766470946801313,"565":2.664035232030468,"566":-3.7277346289436895,"567":0.96322464623365,"568":3.2838700233806803,"569":-0.5975546625606948,"570":-0.7573828005048204,"571":-2.1698057394283095,"572":-1.1281936413756388,"573":-3.4960631857548097,"574":-0.11814574017348928,"575":-0.5070570627041807,"576":0.20761576098905934,"577":1.1774479258661952,"578":1.544716556969251,"579":-1.81192717254441,"580":0.7859538980111309,"581":-1.3083451637400876,"582":-2.5265816199422653,"583":0.7274336092560867,"584":2.8586750606782196,"585":-1.0525166252472158,"586":0.573709785279618,"587":0.38704373715073953,"588":-2.863273746079821,"589":-1.7452759812480623,"590":-2.8522508612608752,"591":-3.209774983114722,"592":0.10222712070800942,"593":-1.0030843705582324,"594":-0.8172234833001011,"595":0.21908347822546642,"596":-1.3009479566536428,"597":-6.400461811389675,"598":0.3297338423649281,"599":-0.5808257367274009,"600":-5.30688106866151,"601":1.2376499774601626,"602":2.692607969362671,"603":-2.148035375933124,"604":-4.572359216014699,"605":3.245576725098132,"606":1.6153183543627752,"607":4.266272309625823,"608":2.117753380482381,"609":0.9820439951036277,"610":-0.5981371780495419,"611":5.707976610687332,"612":-4.31357871646445,"613":4.070528542219268,"614":-1.1615461228089177,"615":-4.224299069185815,"616":-4.662233086172508,"617":-5.251960407606204,"618":-0.48660310435449233,"619":-1.529276427290275,"620":-7.739086507586818,"621":-4.9301799578707755,"622":0.4516701134765081,"623":-3.0139052551669163,"624":5.12545699327233,"625":2.34217387350096,"626":2.292111469761005,"627":-4.048043149780938,"628":-3.1471795545139165,"629":-2.9396601207041306,"630":9.509318651477399,"631":-1.1848582311098221,"632":-1.050516975772274,"633":1.4831094895614194,"634":5.89460243427594,"635":4.218785711384824,"636":3.4803959319615267,"637":-2.0554169289079045,"638":-0.7423884481236097,"639":2.014182590411388,"640":3.6619445409431246,"641":-0.7104904881717129,"642":1.4425372652016941,"643":-1.8706769372396774,"644":-2.6958329922900144,"645":-2.219771070831704,"646":1.851143604849993,"647":-4.274254262007369,"648":-1.7302623724939525,"649":1.4206976139630245,"650":1.2543709174402307,"651":1.3257000579496103,"652":-0.8491727211450538,"653":-3.3536845938660433,"654":4.292427461620282,"655":-3.63578371845363,"656":3.5511862116544943,"657":0.8305160622936726,"658":0.5438444394653431,"659":5.805545436960469,"660":-0.9602328315636615,"661":1.7623064758645317,"662":-4.293334576721493,"663":-3.0774299906155838,"664":0.32695564078100214,"665":4.85471865970304,"666":-1.7737080444484037,"667":0.986905750625629,"668":4.835280149990378,"669":-1.5865869487432325,"670":3.380137798585261,"671":-1.9752805705677008,"672":-2.868806166714218,"673":4.603941868101512,"674":3.8757929885727456,"675":-1.0123088557743836,"676":2.5489818035380645,"677":-6.25503015471105,"678":-0.7566189752060714,"679":-3.523401628944279,"680":-1.5807411805026346,"681":-1.9653561454260184,"682":5.401979008033777,"683":1.451681664543144,"684":2.5362989235049005,"685":0.8452269380029527,"686":0.7236461267057684,"687":-1.6431627939721647,"688":-1.920534536408971,"689":2.870109764102879,"690":-1.9256345786866604,"691":-7.644381512109968,"692":-1.1258264706893604,"693":-4.980379517599058,"694":-3.0994386497148905,"695":1.2052506642950143,"696":-4.823142567922137,"697":-2.8962754214985735,"698":-1.8621919927983377,"699":1.5363385365839581,"700":7.371639544729467,"701":0.040203514870622035,"702":1.6077148646405228,"703":-4.462607285313456,"704":-1.4242814173122826,"705":-0.20457031585979207,"706":1.178233772125479,"707":5.061963129736737,"708":2.0161616964924436,"709":0.3290741080569611,"710":-3.415530813851002,"711":-1.5377292265019085,"712":1.430032607754018,"713":1.8211369200002145,"714":4.2269588544294745,"715":1.4431696668458447,"716":-3.2206713432443803,"717":2.596498548312984,"718":2.5397498688074767,"719":-1.1767178228692585,"720":0.9272707162155167,"721":0.11756143158092293,"722":-6.593418278299097,"723":-0.4458323021116088,"724":3.277015081330499,"725":2.8173680150617093,"726":3.4933619896752206,"727":1.9596019931956248,"728":0.26900315059411745,"729":0.4971989586729556,"730":2.5411084378866193,"731":-0.3162465713099026,"732":2.484540117516122,"733":-1.0880756421911866,"734":-1.690439831090123,"735":0.6828495837548163,"736":3.7033393586795604,"737":-0.1335304923177724,"738":2.4032549775609824,"739":7.093572910147743,"740":3.626584166853155,"741":0.7457237189904175,"742":-1.1966387115769792,"743":-2.618122185877858,"744":-5.038629117046474,"745":2.5380766644042727,"746":3.366039389803167,"747":4.831128613774633,"748":2.5567201698338065,"749":-2.279282734519701,"750":-2.666279231026578,"751":0.5728828727085922,"752":-2.656042525927689,"753":0.3851430748735976,"754":-0.8571188767162288,"755":0.3803698280813494,"756":6.003090370938444,"757":5.594455473202521,"758":0.23534867454823963,"759":0.996426330782879,"760":0.7119015297345738,"761":-0.5938130397936169,"762":-0.3133267015843117,"763":-4.227468362850013,"764":-2.4923960733422734,"765":3.3410316835034166,"766":-3.284624593504631,"767":-3.8801532726694354,"768":2.4091616352243586,"769":0.7103956014712951,"770":2.3087992128761696,"771":-3.2535846198924423,"772":-1.9604049783445463,"773":-6.165905830666623,"774":3.396350460556237,"775":-1.0909278277890675,"776":-1.4312516405732787,"777":0.7427483921243463,"778":-0.872390178751413,"779":2.207690092390341,"780":1.1460102256715876,"781":3.3357987719449724,"782":-4.928686164827712,"783":0.56112147458662,"784":-3.6158830154729054,"785":7.131970188544295,"786":0.592241874600716,"787":-2.569413928867203,"788":-1.5140546382874556,"789":0.12115823582705156,"790":0.9598252572620685,"791":-1.9531691573593446,"792":-2.345195858007863,"793":5.992528481387851,"794":-0.8875269314406189,"795":4.2001555565975615,"796":4.674222693076871,"797":-3.407534603535137,"798":1.7537901381087715,"799":-1.4396644433140064,"800":1.6165552864032506,"801":0.9348009180282612,"802":1.7483270600852217,"803":-3.628845780544953,"804":1.8040390823520875,"805":2.11873448438643,"806":-0.5071487694302581,"807":-0.008439890453486108,"808":-2.824547202219191,"809":1.9051697765114268,"810":-0.47906580421968,"811":7.854567004521757,"812":2.23557863188739,"813":2.9040071415050206,"814":-7.300821097360061,"815":-2.768186712398599,"816":2.2543720545866726,"817":-1.6459720767684207,"818":-2.5332863784941813,"819":-6.5686268895045075,"820":1.2839764921526398,"821":0.058478720466736835,"822":1.6044222301045679,"823":-1.2555452153716138,"824":-0.830859748504164,"825":-0.3607467909243668,"826":-1.392991699918766,"827":-2.804125022218313,"828":-6.2735288330126355,"829":-2.3554635997048137,"830":-1.295242177204087,"831":-1.983306632922563,"832":-2.838003667416889,"833":-3.996788295283471,"834":-4.810198108863994,"835":-2.902140307581377,"836":6.935091088678867,"837":0.487727594154995,"838":2.4893178313077287,"839":4.416151483843679,"840":-2.2668326252992332,"841":-1.0888801780450712,"842":-0.14633864787841533,"843":0.7415370898624447,"844":2.705844564120605,"845":3.194845465392022,"846":3.536498205870052,"847":3.173648340268706,"848":1.533328411494258,"849":-0.8191503530985484,"850":-2.6359332290538586,"851":-0.9001181310963196,"852":-3.6712058184753094,"853":-7.059824092101864,"854":0.2746208649920429,"855":-2.171232944637496,"856":5.142329045133355,"857":-4.691395242659169,"858":4.0591367915961065,"859":1.8897079006673034,"860":0.7981243679641313,"861":-8.194458720007356,"862":2.3617523289286013,"863":2.7593338104915133,"864":0.8104258668723906,"865":-1.0930593162077498,"866":-1.0166000495028773,"867":1.2923070626486335,"868":-1.2245711387004663,"869":-0.41005648582856824,"870":1.7710714097519498,"871":-1.0870457676104552,"872":0.4954222036987591,"873":-7.15428761181781,"874":-0.4882469524802461,"875":2.7657319213452363,"876":-0.03556377978068258,"877":1.9104971636099117,"878":-0.5727512433127112,"879":-0.35658175608042414,"880":0.6306573617975286,"881":-0.5428535515860754,"882":-5.186803110214746,"883":1.8113316701744686,"884":-2.58373016127437,"885":1.019292704633223,"886":-1.7199007805446886,"887":-1.9483335055117668,"888":-3.542196928166687,"889":1.0179904965832463,"890":0.5326471221569221,"891":-0.6548508489480073,"892":0.4743742590982193,"893":2.996297868784723,"894":-0.029850630086760928,"895":-3.629088605038389,"896":-1.021453963425317,"897":-1.4550893323653,"898":2.081572695692013,"899":-2.9188580011605363}},"bf0":{"n":30,"d":1,"w":{"0":-1.7649699730240938,"1":-1.125759786403958,"2":-0.27778836917807365,"3":3.612110350821331,"4":0.055867572806100246,"5":0.5992214810520987,"6":-4.338397791949337,"7":-2.9371949098484516,"8":2.0269269048333607,"9":-0.5196804578025411,"10":-1.63153114690668,"11":-3.4066538866779013,"12":-1.9100121805031502,"13":-1.4373108493706663,"14":4.434382889717715,"15":4.377751182605758,"16":-3.517777617193013,"17":-0.29479433880771067,"18":-3.734397368493718,"19":3.366326087897779,"20":1.8345448946138558,"21":-3.3719497899961905,"22":2.5885702646540425,"23":-2.7099159688570182,"24":-2.172663122034544,"25":-2.0297763607728516,"26":-1.139015852500833,"27":2.1527491425813614,"28":0.06822201629735578,"29":-1.8359619518753765}},"Wox0":{"n":30,"d":5,"w":{"0":0.016197005526055238,"1":1.5376192081965387,"2":2.6458874734334,"3":1.8345396010150428,"4":0.33372898789433325,"5":1.818878646606622,"6":3.9340812130441174,"7":0.5954799274865185,"8":0.6167943110255603,"9":0.20368161264660134,"10":-0.29024750242542513,"11":1.4836098256582935,"12":0.7987588827378252,"13":-2.239249711234781,"14":-3.2646077904105346,"15":0.3148187174307545,"16":-0.5785035725212327,"17":0.4206623524095311,"18":3.1627874050000053,"19":3.219563905080898,"20":0.10738541669735588,"21":-2.842172422377076,"22":0.17599513710201523,"23":-1.6370649420803796,"24":1.9459357909320367,"25":0.8363545923995577,"26":-3.2539089360612308,"27":0.7245004890532248,"28":-0.418223179251501,"29":1.0810588447811378,"30":2.2528000635545546,"31":0.20893417715250007,"32":2.413212256629301,"33":-0.1458227704743762,"34":-0.35914848331921767,"35":4.033549321063156,"36":0.11799332544458309,"37":0.968722716690906,"38":-0.6971879634938634,"39":1.624432067374677,"40":2.7859676685185035,"41":-0.03499664153430322,"42":3.6797014578973872,"43":-2.1006081029714787,"44":0.12747645689028467,"45":-1.1149904750531112,"46":1.987604759367518,"47":-0.7656741012041831,"48":0.45264079336003077,"49":3.36003993720081,"50":1.7532948763950507,"51":2.427865879988004,"52":1.2577294150821452,"53":-2.366168999455228,"54":-3.508054452125431,"55":-3.536335992020747,"56":0.9514639932702564,"57":-1.1316211988580882,"58":3.407620616349628,"59":0.9425090129961256,"60":0.7543735630944587,"61":-2.9476225716704048,"62":-0.20093218889437633,"63":0.7491465585482868,"64":2.4115920498837107,"65":5.398134581747515,"66":-0.8509886760767316,"67":1.8687386493118834,"68":-2.1684364507222504,"69":2.2982645099610273,"70":0.5881664817442056,"71":2.74596222381532,"72":1.3131071717815257,"73":-3.127484625064111,"74":4.126521105469267,"75":2.238691020339511,"76":-1.3883357292620708,"77":2.0047400300700113,"78":-2.5132661396126035,"79":1.781751449678841,"80":1.2401765115931422,"81":-0.4903979186219701,"82":0.08202102121296302,"83":1.5899328826044192,"84":1.8698240878476033,"85":0.7252887120075091,"86":-1.3913197164979307,"87":-0.9041353422609126,"88":-1.2568863039463287,"89":1.635559348443482,"90":-2.6198223170192616,"91":1.1058955686970335,"92":-1.3639507244693232,"93":4.628656366802972,"94":0.20606370905806154,"95":1.556780809967339,"96":1.0217701738535847,"97":2.5669666070364143,"98":0.7770419206893799,"99":3.4849168168994904,"100":-4.631825358221916,"101":4.018739776715949,"102":-5.2011956208800445,"103":0.5835516369863102,"104":1.2157999323786148,"105":-1.909021984222191,"106":-0.07918731473550733,"107":1.9433765278701614,"108":-1.4399011931010237,"109":0.9873531945105436,"110":1.8373214982271493,"111":1.8121029225825829,"112":0.47561205188077643,"113":-5.724550273890247,"114":1.6803799208703192,"115":-0.33765961986197524,"116":-2.550259383600375,"117":0.31624315853875157,"118":-1.4415468145454304,"119":-2.032236071531148,"120":-0.6642019931900015,"121":-1.8923188275440663,"122":2.3421392860586194,"123":-0.3760675110004673,"124":2.367371593161172,"125":-1.162399696040541,"126":-5.879058923831984,"127":-0.9921919252110434,"128":-1.7218484448048177,"129":0.34808456944262783,"130":1.7332390428802091,"131":3.504846784871853,"132":0.08012049930374959,"133":-1.0217610685733671,"134":0.5208728736491994,"135":-1.1082323462421353,"136":4.802468901135266,"137":1.0458335827144043,"138":2.6361592741207103,"139":-4.478868528717472,"140":-1.770994564481056,"141":-2.76487525077326,"142":0.5800117247254365,"143":1.967795484892224,"144":-0.5405477174618168,"145":-0.40670944541114645,"146":-0.24224912905042284,"147":0.25951622527502993,"148":-2.540371937864493,"149":3.1605000476080027}},"Woh0":{"n":30,"d":30,"w":{"0":-1.6233426155134034,"1":4.013658507230052,"2":-2.115243716854371,"3":5.969962701121026,"4":-3.5232055303674854,"5":-5.71285954802416,"6":-0.9233621745631648,"7":-0.5853666683391717,"8":-0.04428040336324271,"9":-1.6510493095997656,"10":5.462574410861111,"11":-2.3508389352781682,"12":1.1822952914458338,"13":-2.5682233968049544,"14":-4.697902053512084,"15":2.3637189012099142,"16":-5.1956535008531635,"17":0.04384252089603163,"18":2.4312701391167937,"19":1.982680252654661,"20":-0.33338006993497304,"21":-2.24653302658286,"22":-0.23083553008854688,"23":-4.795708406994693,"24":0.8873429466595943,"25":-2.0624433523426613,"26":-4.16151011316251,"27":-0.4756246945593889,"28":-0.6862972709607419,"29":-0.07424442151753026,"30":2.2562075066474025,"31":4.537682478702562,"32":-1.8571792699237781,"33":1.4392376424871125,"34":2.0709815802342737,"35":-1.9667052648602918,"36":-0.12365819912406217,"37":1.762005380125578,"38":-2.7173758345311283,"39":1.825564444900792,"40":-1.835861428734932,"41":2.1384667425742325,"42":10.30322577669442,"43":-1.9792736513429634,"44":-3.407505170886907,"45":0.548814480667866,"46":4.165130318613377,"47":-0.9475174759789373,"48":3.7606889141014013,"49":2.6410845315456064,"50":2.662001771585598,"51":0.28861956040390735,"52":-0.06718657950458667,"53":2.2132019864635084,"54":5.750464718478884,"55":0.8278244815327932,"56":-4.324699326426978,"57":5.082275076327853,"58":-1.259617425828953,"59":-1.805963177335976,"60":-4.068802133014924,"61":-0.7577974380644918,"62":0.6374730113923557,"63":1.1081084175775084,"64":0.18119505518388684,"65":1.4082393904201274,"66":-1.4812272656346595,"67":-1.499936552137543,"68":0.6836693487766082,"69":1.361852975820443,"70":1.0463600505072255,"71":1.6255779466276363,"72":2.0201260710188786,"73":5.890223809494215,"74":-2.0968566149140755,"75":-0.9847497615511174,"76":-0.037709078921459624,"77":-1.000311922326055,"78":-4.062544568404061,"79":2.844879147739766,"80":-0.6996771001200697,"81":-1.3262838593889692,"82":-0.034619564804774745,"83":-4.722820838663436,"84":3.0561302114865967,"85":2.3398766937304374,"86":0.5765828432604718,"87":0.12279245479347195,"88":0.8620035799301307,"89":-1.4800669789512644,"90":-3.271511541204459,"91":-0.4702335756979558,"92":0.6124582466657684,"93":1.0048396398037684,"94":-2.8830286173748023,"95":-1.379766075511361,"96":-1.763786958119161,"97":-2.6271701453929217,"98":-0.3779075330660162,"99":0.3098963221545449,"100":-4.927354091262638,"101":3.8692692696487163,"102":-1.4624310123517321,"103":1.0704108647414186,"104":-2.2007298682827883,"105":2.3874468295491527,"106":-1.3278907695305648,"107":1.8466442503088294,"108":-2.364352000753545,"109":0.5471645196239195,"110":-4.328489783710782,"111":-0.9955298055426586,"112":-0.005283021974470153,"113":-0.32666045224547385,"114":1.302715007518917,"115":0.8367991211922695,"116":-1.5234501249193022,"117":1.4244639227741873,"118":-1.599514676471698,"119":-2.666087413791046,"120":-1.9026263319166348,"121":-0.05006761367840823,"122":-5.524416097574949,"123":2.4165935549908237,"124":-2.88801104297598,"125":1.8511131017034994,"126":4.879986341078017,"127":4.204127508744016,"128":-0.985379326522403,"129":-3.1146297221528374,"130":-0.2613103285088839,"131":-2.452438367736374,"132":1.7329713987389057,"133":-2.1030885069680214,"134":2.095585120061084,"135":-0.8524336540496192,"136":-1.873884834454624,"137":0.13886036101768187,"138":-1.291911272089317,"139":0.2627032090396577,"140":-1.6649197506882996,"141":0.3369749266929397,"142":0.6236016404678718,"143":3.449483719385463,"144":-6.655824880284005,"145":-0.9919331186811878,"146":1.091951967575945,"147":2.496832810941594,"148":2.3105113925097487,"149":1.4524770388725985,"150":0.11951874034283384,"151":-4.650158192227462,"152":-3.288867835129759,"153":0.8890189494774215,"154":-5.587085315756041,"155":-3.1126015852695974,"156":0.20062344543359598,"157":-0.6994914429971951,"158":-1.953637075400548,"159":-0.5175396040403177,"160":2.3107018253606415,"161":1.7106192792072503,"162":1.922142977991983,"163":-3.5003758155839857,"164":0.3172863957313423,"165":-0.3210944360730879,"166":-3.8228969077596036,"167":-0.4605192054448231,"168":0.7525772530369449,"169":-1.625503893306991,"170":3.8311926339997813,"171":-2.0793176823717157,"172":-0.1861579322685566,"173":1.5033329289257897,"174":1.4189299440951924,"175":-1.1749246499473356,"176":2.0535060806101586,"177":2.729160236271526,"178":-0.10854410753398787,"179":2.519721300388901,"180":0.3927249373985208,"181":4.292861927856123,"182":-6.502423710539502,"183":0.4313584502064445,"184":-3.732170204561693,"185":0.957300293715908,"186":2.439024093067014,"187":-2.6461654669457793,"188":-0.6567188789307549,"189":2.9355496764641797,"190":-1.4367378260884431,"191":-4.115006723241216,"192":1.562186488693707,"193":0.2655548532016672,"194":3.1769568717339483,"195":4.281980977388426,"196":-0.9330645576560728,"197":-3.189148706179506,"198":5.955658218923775,"199":2.315159002378833,"200":3.887581776847605,"201":2.6284789506257775,"202":3.818059678526245,"203":-0.9078057625085902,"204":-1.2520950000176858,"205":-1.905047507136754,"206":1.1045473072234118,"207":0.5065980688052812,"208":2.969878668540671,"209":0.1459726395241002,"210":-4.871690317986416,"211":1.9609668689367956,"212":-1.8139020943218935,"213":-0.8373856002892036,"214":-4.714593113760951,"215":-3.965028728143751,"216":0.6950287879912156,"217":-2.330072707750364,"218":1.2788895571655452,"219":2.739874896818318,"220":1.4094746518549786,"221":0.6797642646033725,"222":-4.943115354173875,"223":1.136520716699367,"224":-0.7505914323648206,"225":0.08382284689268789,"226":-1.807929322019311,"227":-0.8648170595617656,"228":4.42702623006927,"229":0.8300076301610435,"230":3.1835327192441323,"231":-2.850415239819198,"232":1.4157925192566605,"233":-3.264043093913366,"234":1.728736256307251,"235":1.0841137410861323,"236":-3.8009985883114275,"237":-2.446840168297,"238":2.2421962979230923,"239":-6.434491764227544,"240":2.873238174694586,"241":0.32097472817863765,"242":2.6300676857285894,"243":-0.5637066490000776,"244":-0.649467416043683,"245":2.7442129275311573,"246":5.469844785031462,"247":2.609373836438171,"248":0.43889021867230854,"249":-5.244272782282515,"250":0.8587038744309289,"251":0.48758047500699775,"252":-8.084664338762469,"253":-1.6521453278546212,"254":-1.3766890610497957,"255":1.5763226598810571,"256":-1.9621367333120399,"257":-2.819371754194778,"258":-4.118272169203731,"259":-4.881336140025928,"260":-1.935720550072216,"261":-2.1656693215484344,"262":-4.3296799777055535,"263":-3.5260802478497455,"264":-2.5778387714161197,"265":-0.3966423535442513,"266":-2.8516529786794025,"267":0.10860586115810217,"268":1.187920063214228,"269":-1.1327840454765856,"270":1.660691539343511,"271":-6.052507457202388,"272":-3.4107179161870866,"273":1.8524635002253163,"274":-0.6458409150799678,"275":-3.1212337229522022,"276":-1.4482796850320565,"277":-1.075004661527518,"278":-0.3365801509718417,"279":6.872084038770665,"280":5.593209646588318,"281":-0.7250759171461006,"282":2.0478751927258187,"283":0.3812635139987343,"284":-1.2178422659511716,"285":-3.3658783034046134,"286":-1.7677820949692327,"287":-0.4305220401739296,"288":0.7764091683393124,"289":2.3427126708625017,"290":4.993542851932102,"291":-1.7427578699176944,"292":-2.7179877146261777,"293":-1.3586835597345612,"294":0.7685119360185143,"295":3.7523418744584314,"296":1.7013920975942625,"297":-2.091473929171877,"298":2.8903643035461073,"299":0.8633267881957264,"300":-0.19415920484613855,"301":-0.5352543413306569,"302":-5.405058505055136,"303":-1.8802016626448228,"304":2.29025613764264,"305":-0.3942832542702755,"306":6.64945804590027,"307":5.399528129613982,"308":-0.5486197206633378,"309":-1.4581231032103883,"310":0.9724558679750155,"311":-2.6356251602313105,"312":-4.591774710471084,"313":0.757498523483217,"314":-0.4807642097577087,"315":-0.10917128155849735,"316":0.6591702434211102,"317":2.7975270201090328,"318":-4.076717365253027,"319":-0.565555578998143,"320":-4.9417504277277065,"321":-1.9856806234614552,"322":2.814946210038796,"323":1.479802724032046,"324":-1.9703904767724054,"325":-6.6394169252913295,"326":2.5468950181236085,"327":0.18346974489456006,"328":1.903672740263436,"329":-0.3398167930498677,"330":0.528510103006962,"331":-1.921299745280504,"332":-0.06946949732193396,"333":-1.2200160656049281,"334":-1.8383772939516023,"335":0.3050017656709734,"336":-0.8121941884886014,"337":-1.1764604895515123,"338":1.9347865788962737,"339":0.2921254599630175,"340":3.7697846303640903,"341":-1.9838032097095641,"342":1.1659053520934517,"343":1.0612101621884518,"344":0.5891045947333277,"345":-6.103237492457474,"346":1.022692420080542,"347":-0.5312609499622953,"348":-1.675745546139331,"349":0.6101419739417484,"350":0.6690178121697088,"351":-1.4780277403678719,"352":3.153213766877178,"353":3.8693080430585756,"354":0.41258567364150883,"355":-0.778827982741334,"356":-0.7228870167699878,"357":2.6356048108664973,"358":-1.0461801508404154,"359":-1.470444628473023,"360":-1.770497965600139,"361":2.070678624035108,"362":-2.0415068897912376,"363":5.617745434050535,"364":-1.0672766078552072,"365":1.7758052519177423,"366":5.231496983377319,"367":-4.852396349614628,"368":-0.87949899566182,"369":2.5730896240297354,"370":1.1268956422843672,"371":-2.6031569162308523,"372":4.312889897041342,"373":-0.5412736551037267,"374":0.4387598701829398,"375":0.8201535691672818,"376":3.0386616269713027,"377":-0.8435976489502442,"378":5.225814163602922,"379":0.6896875952517617,"380":1.3041734967218757,"381":-0.35912078638005457,"382":-0.4628188705802294,"383":-3.3527374269364767,"384":6.023616272477475,"385":0.6314819585985857,"386":-0.5469810821712667,"387":4.311260628309176,"388":-0.6603895097511066,"389":-1.650181598566915,"390":-2.6542297732498383,"391":-1.7026772831433572,"392":0.5371944388209042,"393":-1.6773577885963378,"394":-1.005063919068126,"395":1.2534700892779016,"396":1.6063045119110488,"397":-2.501852962788127,"398":-0.5877840667541319,"399":-1.5769152563460036,"400":2.14975007950585,"401":-4.913929262980605,"402":-2.8602518685698115,"403":2.3232966880624875,"404":-0.333385557875512,"405":0.04061370088792348,"406":-0.4446061731221674,"407":-2.0654212866398365,"408":0.5500676523774829,"409":1.2707409577097082,"410":2.7493614757656233,"411":-1.0732581142391708,"412":0.185405620505204,"413":-3.82579278378117,"414":-1.0682730780810292,"415":-0.6815490656384594,"416":0.46903733944533954,"417":0.9832672941069656,"418":2.352620855275592,"419":-2.7094157568241033,"420":-1.2828790344610561,"421":-0.21888187568538556,"422":1.7403565541704755,"423":3.7433015127287588,"424":-1.1655506020092767,"425":0.37384512780449947,"426":2.7825879731197722,"427":-0.0753244053882118,"428":0.35381092572670536,"429":0.616852294297975,"430":1.896298001993807,"431":2.8551871790784955,"432":-3.4017967996943574,"433":-1.2411408081247173,"434":3.655432938463137,"435":-3.095590227585939,"436":-0.4836301845229125,"437":1.552202324624566,"438":-1.641476579983208,"439":-3.2706347478638267,"440":-0.3047153129605537,"441":0.15236291834658047,"442":-0.49783465275055716,"443":-5.112945753766354,"444":-2.282861243874018,"445":0.3330000421299774,"446":2.2975403536177392,"447":-0.5918313934793874,"448":-3.178809221267456,"449":4.0963397972006526,"450":-0.4631206836044089,"451":-0.21018183401045903,"452":-2.822976974059126,"453":-2.177373234004518,"454":1.57827519298443,"455":1.1719315120584815,"456":-0.27272086177236043,"457":0.6261603881708586,"458":-0.14217746984833055,"459":2.8663157519470652,"460":0.3747465331982755,"461":-1.8039594106632444,"462":2.2009692965015795,"463":0.05197903532444437,"464":0.40962726888692846,"465":-0.5342059280360697,"466":0.07433687074275831,"467":0.42508473051868284,"468":0.9052102878344481,"469":-0.4593369790666662,"470":3.3574091195299482,"471":-1.1624579828105406,"472":-0.6631431079048481,"473":-0.6675578538406577,"474":-0.5803726539445804,"475":-0.04108060555286545,"476":4.0982283542409235,"477":1.6439606526244845,"478":-0.34347051005881835,"479":0.23462920536814807,"480":1.9302363727239396,"481":6.818420966514085,"482":1.3438424749210698,"483":2.8538568763346466,"484":4.054969935817516,"485":-1.5179932317616451,"486":-0.09140192304210405,"487":3.6833289880819122,"488":0.8555248513651152,"489":0.1630218696722062,"490":0.975736363503507,"491":-7.47097659187181,"492":3.5336039485004127,"493":2.207385181055847,"494":-1.436378336353242,"495":2.014328343282909,"496":-3.183032137587349,"497":-0.490935350043476,"498":1.7193821812071692,"499":4.435686622595856,"500":0.41186509462767973,"501":-1.419009610459852,"502":-3.10900323934462,"503":1.1693429646110685,"504":0.943063927505259,"505":1.1403678808921314,"506":-0.20923805200408888,"507":0.26350125129482854,"508":-2.3734866846739457,"509":-3.1122553684290883,"510":-2.0464722903118138,"511":2.116087574386843,"512":-2.8871498474115715,"513":-2.0804872446496483,"514":-4.676707050308013,"515":1.2853910497926875,"516":0.11891047427640339,"517":-0.2071920081206873,"518":-2.9247546026715563,"519":2.7624952502511766,"520":-1.5559720181066745,"521":-3.766509138479989,"522":1.1700215780594099,"523":-0.3224772619380256,"524":-2.0893187593021447,"525":5.06885210972424,"526":1.920054778398947,"527":6.879916498375444,"528":1.0221522839535058,"529":2.4501250343126704,"530":-1.097526241564471,"531":9.420980854344718,"532":-5.167745767834398,"533":0.6735713051402873,"534":-2.1794933927448894,"535":1.3650612295236972,"536":1.0377415272671657,"537":1.9923447444387725,"538":0.4981455169082986,"539":2.8072827635730384,"540":2.7495036460426006,"541":5.643252198683266,"542":0.14017642627916643,"543":0.06994097864331976,"544":-1.7919164884792125,"545":3.8397112663625634,"546":-0.4059384482693674,"547":0.6975305863375593,"548":1.2477938764660117,"549":1.8816433487042266,"550":2.8938835312903746,"551":-1.0519609108598804,"552":-1.7434048529627864,"553":-1.234366017367607,"554":1.3951699423054928,"555":-3.1518031910859285,"556":-1.1919455309360565,"557":-2.6589278251239805,"558":-1.423146590552385,"559":0.24537215933371812,"560":-1.8441264361040444,"561":0.6868585004831651,"562":2.872158220323038,"563":-0.02545683198921911,"564":-1.676122006789962,"565":-0.2959663064223157,"566":0.22815885218949286,"567":-3.4958975798513823,"568":2.4303575753629207,"569":2.6699999833468233,"570":-0.4591512819475219,"571":2.9147999969587146,"572":1.0682453606728348,"573":-3.2629670437624037,"574":0.11250821121873003,"575":-2.231296173786335,"576":-0.21507424047912452,"577":-2.1386173343562644,"578":-0.7887534056561784,"579":-0.5516910055884503,"580":-0.3803403564262156,"581":-0.4788547455456385,"582":-1.5215523779577362,"583":-3.725887395693501,"584":-0.20653741429653868,"585":1.5163214752080114,"586":2.8688119706048827,"587":0.11470968337191584,"588":0.3196043356628602,"589":-1.0287668016312486,"590":0.21852068605964217,"591":2.4027501461558334,"592":-1.4527174991350702,"593":1.0034350113987958,"594":-1.04011841892509,"595":-0.6829428717072575,"596":0.401202295465576,"597":-2.095036949100728,"598":-1.2182620138605837,"599":0.4241779942713889,"600":3.6316859627378713,"601":-3.5352920314835576,"602":0.4823823301317605,"603":-2.529914035367443,"604":2.206642387504098,"605":1.6156075292221261,"606":0.0966983126269612,"607":-2.3441963784867665,"608":1.0748755904140432,"609":2.0655305407570053,"610":-0.46853272357851106,"611":-0.18717879177723004,"612":-2.636834562697364,"613":-0.0995497063434483,"614":-0.33731969526937783,"615":0.7157348022331976,"616":-2.013508817595592,"617":3.392533543822465,"618":0.6102294151170483,"619":-0.11400820513678697,"620":-0.8735808023254188,"621":1.5415370880649424,"622":-1.0196772311635898,"623":0.4392419453214554,"624":0.3732668316055728,"625":0.4516095847384841,"626":0.2292793399481939,"627":-1.2580756920869631,"628":-1.2731977012953062,"629":0.07642921094294129,"630":-0.8241927054316802,"631":-1.9602515646229686,"632":1.148172706689405,"633":3.3185480670881566,"634":-3.158086000957628,"635":-2.4880933221786914,"636":-1.3654146289487996,"637":4.5213395718828595,"638":2.410392294612955,"639":-3.497221886073762,"640":-0.07016838593084562,"641":-2.9619513463289584,"642":0.9127609487455739,"643":0.9619666089847261,"644":-4.087201899987736,"645":3.972664542127809,"646":1.289062820504628,"647":-6.110740791631525,"648":0.3436549138991634,"649":0.6590669814875397,"650":3.4375896367260674,"651":4.102308482685441,"652":1.1091450826880824,"653":0.5443139044469013,"654":2.8508714685168286,"655":-0.7012902013415895,"656":1.4298507690515065,"657":0.7881079598789545,"658":-0.15374269475284866,"659":-4.078330129925819,"660":-2.6693064848368953,"661":0.263847601882125,"662":2.367450282564134,"663":4.0085188772202285,"664":-1.2299790013924616,"665":-0.24769641285710267,"666":3.788260662821081,"667":-1.9829567676635529,"668":-0.0953581431225688,"669":0.8266183425436474,"670":-3.393054285771776,"671":2.123519774365415,"672":0.7373535445955588,"673":3.2691027962533292,"674":-4.5309459421589,"675":3.5803885011968672,"676":-0.28478606537940326,"677":-1.6390979958984984,"678":0.07332173108268183,"679":3.8658267351137057,"680":-1.0792518863427254,"681":-2.5418209914887395,"682":1.2553626784016023,"683":0.44230848361333003,"684":3.750618705658374,"685":-0.0069221759319390876,"686":-2.2279348709642948,"687":-3.5823675080709028,"688":2.2097969286142103,"689":-0.7429839166552403,"690":6.347993299772209,"691":-1.2026148558102152,"692":1.1152696960644928,"693":5.034366259713132,"694":-3.490596112189005,"695":6.465418288145855,"696":-2.227471210200458,"697":0.004704546759149636,"698":-3.2696898208913066,"699":2.861069781999797,"700":2.261760885401467,"701":-0.4262589300077373,"702":-1.8665959547036388,"703":-2.2603538348765424,"704":-5.527959675381426,"705":5.77607201681041,"706":-2.139230266908792,"707":-2.4881587616775445,"708":-1.9497069949122952,"709":3.9077723989841857,"710":-3.064416256917276,"711":-0.024372043319685458,"712":-6.071254496333987,"713":2.724834675602958,"714":-4.138312566462847,"715":-3.1927486473978703,"716":1.9833610437629312,"717":-0.10233922650536181,"718":1.6437331161570103,"719":-1.9385351742611139,"720":6.922925699731411,"721":-1.6873255374264204,"722":-1.439257935105662,"723":-1.4778449229941812,"724":-0.9541025821296654,"725":-1.143968816001471,"726":2.4373186141441328,"727":-2.4821215218556447,"728":1.995417837478761,"729":0.020275413575687174,"730":-2.334384311606348,"731":-1.3100686215090136,"732":3.6668361985663958,"733":0.9597500305113063,"734":0.6697548838204189,"735":3.51921612050384,"736":5.711711275879318,"737":-2.7617199120031803,"738":1.9873762717716021,"739":-0.854983449704353,"740":0.32204381173604196,"741":3.821315351807839,"742":-1.3405276617967075,"743":1.2262599322271446,"744":2.0537461683863647,"745":-0.9473494380172786,"746":0.18528374793792074,"747":-1.2692731220561073,"748":-4.222020526639827,"749":-1.5596702901075816,"750":-2.824073980297695,"751":0.6199506428200641,"752":1.7093896163871938,"753":-0.47959595664413796,"754":0.5245466260658592,"755":1.4563272634821003,"756":-6.108075669776372,"757":-1.3063679495450706,"758":-3.772459521257965,"759":2.0399396110716594,"760":-1.0726026686061567,"761":5.754790365338742,"762":-0.08226515907530235,"763":0.0341424300439422,"764":0.08072980339002235,"765":0.14190015457139843,"766":2.979043965349896,"767":1.5023733110965691,"768":-0.2839648373898791,"769":-1.8394791047849068,"770":-0.08137459221442064,"771":-0.2989525322083577,"772":3.4564020892464953,"773":-3.3116215628459504,"774":-1.09949668559727,"775":1.2387319662235112,"776":-7.408736373344474,"777":0.6231796927911386,"778":-2.393276411021671,"779":1.4912019015322615,"780":-4.4398260591030505,"781":-0.21143327821064245,"782":-0.22075425415330074,"783":-0.6383609630554354,"784":2.2123533491196645,"785":-0.6173973878012218,"786":-0.49579863818723124,"787":-0.39591622988861525,"788":0.48381680257546483,"789":4.413839149845395,"790":2.7346426018138383,"791":-0.061410061709050334,"792":2.8140531585187496,"793":-6.734559388527105,"794":0.08746070035057227,"795":5.177382420651661,"796":-0.6190609711877323,"797":-2.5114898298831294,"798":4.715807371002291,"799":2.5761497382624263,"800":4.635285079006053,"801":6.105716443503127,"802":1.9052933703297656,"803":5.349354176411775,"804":-2.30104858861942,"805":-1.8710593124892279,"806":4.0774286027937725,"807":-0.14377543478062654,"808":1.77064177935856,"809":-0.449548863792342,"810":4.166581289029284,"811":-2.66600011569786,"812":-0.15803907587308844,"813":2.2143154691869,"814":-0.5346143601997122,"815":0.7920681302426903,"816":3.5390685647658846,"817":-2.914737722955735,"818":1.312336185166361,"819":2.7264374119366543,"820":1.0769991392704898,"821":-1.9262748905404548,"822":0.6268215497156022,"823":-2.4883531505945693,"824":-0.76561188726051,"825":1.353391055855667,"826":1.6610821186609177,"827":-3.7613239140708012,"828":-0.6675875394837092,"829":-1.0019994525837785,"830":-1.2779055811960929,"831":-0.1791857158295769,"832":-3.7020881151943037,"833":-1.147207111579549,"834":0.34048029459165496,"835":-1.03219529850751,"836":1.8904211679017777,"837":0.021729730886215735,"838":0.3486920520466296,"839":0.8237355377126298,"840":0.4623937746393672,"841":1.7546006359332296,"842":2.690720829396099,"843":0.9585523386446284,"844":0.5789272119704518,"845":0.38950329845672443,"846":2.9801597969404066,"847":-2.305139139394108,"848":0.6816161631914928,"849":0.9986049799132437,"850":-5.347718501646804,"851":5.48556186626719,"852":-0.05424809136941491,"853":-2.8797537308346666,"854":-4.417029250753195,"855":1.0403627708986904,"856":-2.13909477993617,"857":-0.7769155941770006,"858":1.1954032451905554,"859":2.5930760977748717,"860":0.9281995104219076,"861":3.0346890115443226,"862":-4.903309456843548,"863":-5.534863451338201,"864":1.2391604329909733,"865":3.786686739621983,"866":3.325523048180552,"867":1.6950159095881212,"868":-0.2651991390139325,"869":0.611288707457126,"870":6.63604356136722,"871":3.0553245897483516,"872":2.723654954087733,"873":-2.0210877674621237,"874":0.4359787494218632,"875":-5.488497756443898,"876":-2.7480027736980097,"877":1.1770906927806377,"878":-2.682676490825468,"879":-2.8756813569244657,"880":-1.93325178232088,"881":-0.5868888599149577,"882":2.2587017916696404,"883":4.123905262016929,"884":1.9257371254667213,"885":3.0029177973636183,"886":2.947166592101141,"887":-7.340623428848352,"888":2.7986096602176764,"889":-2.636017217852195,"890":1.1153099018849875,"891":5.1111803047125335,"892":6.005809199367682,"893":-0.09902065206391998,"894":-1.3158688958206448,"895":-0.7556358782699227,"896":-0.9334506304474942,"897":-1.959395359784614,"898":3.5441904795190142,"899":1.2288838126859387}},"bo0":{"n":30,"d":1,"w":{"0":-1.3411128715165643,"1":-1.593854203001905,"2":1.7285657739094353,"3":-1.3616652305897843,"4":-4.9705538854182,"5":-4.27590079125872,"6":-0.3785511408630789,"7":-1.2572187717970116,"8":-0.9245437567025392,"9":0.6675997550494945,"10":4.423786157774595,"11":1.3178632797501468,"12":-1.3074931925784776,"13":-3.9936960199010967,"14":1.7001355480963438,"15":-2.3996664205853064,"16":1.7047307613678893,"17":0.15991460596858573,"18":3.4253143722691184,"19":-0.5085452172458821,"20":2.836621955086348,"21":0.39894820183113144,"22":0.9443064556017791,"23":-0.21165068178398347,"24":-0.39943872501608096,"25":-0.3142078734276632,"26":-1.454200446330284,"27":1.7267409698993073,"28":-2.417209297730037,"29":-2.036532252975625}},"Wcx0":{"n":30,"d":5,"w":{"0":4.410010494311348,"1":-2.476057211072436,"2":2.489592062223831,"3":-2.186692678876585,"4":0.1461760020431125,"5":4.410587309395477,"6":-3.1028890442409107,"7":0.565524721033478,"8":-1.1369184793870328,"9":-0.20568327865417177,"10":-4.066588970224251,"11":5.647497496189717,"12":-3.850306921020142,"13":-0.8874933041645845,"14":1.3272757342667767,"15":1.1969696160521321,"16":0.5107359588063834,"17":1.3902604729245582,"18":-1.7453787022044136,"19":1.3208383226157503,"20":1.0699608497852762,"21":-0.5400459225486905,"22":0.9757757942041488,"23":2.7155323763331793,"24":0.21153273102193684,"25":0.853816151563935,"26":-1.7095663024810952,"27":1.5098985533571838,"28":-0.16353706272900276,"29":-3.3113569840912214,"30":1.6989463459341632,"31":0.12779105545479505,"32":2.6591648003445347,"33":0.30581600602167375,"34":-1.2335972529672026,"35":-1.9287384973483679,"36":1.8276943499302243,"37":-2.3201111138173913,"38":-0.0609329097321719,"39":1.6233136678345037,"40":0.20229827361791877,"41":3.436609238516173,"42":0.37091675486597797,"43":0.4452375651105374,"44":-2.2302429656633955,"45":-0.2964735930577876,"46":-3.665295345096046,"47":1.4210632358013537,"48":-0.06696767410752874,"49":0.8228457140145679,"50":3.6780344615808973,"51":0.44521212479724914,"52":0.6501146959019587,"53":-2.278788488262032,"54":-2.7031265419088046,"55":-1.7322612117705747,"56":0.28573411841577584,"57":-2.62701014187217,"58":3.669739493812422,"59":0.5495837525266695,"60":2.18400350582729,"61":1.4490535437132435,"62":1.3747243015729635,"63":-1.7763790578461411,"64":0.06088167511818888,"65":3.384335197965013,"66":0.6167099127939026,"67":-0.7386791450487952,"68":2.3550234071018936,"69":-2.437071709307054,"70":1.3517803875748475,"71":-0.09501984717345394,"72":-1.7051903443952332,"73":1.3892318655347884,"74":-0.508255480116343,"75":1.3641188000015958,"76":2.54667276204227,"77":2.5776776220944684,"78":-0.42494988129470584,"79":-0.3538941614379112,"80":2.1082814009985205,"81":-1.4187014877032158,"82":1.2438176296198422,"83":0.5639332381226125,"84":-1.3713674667326283,"85":-6.162631532012424,"86":1.48605612603111,"87":-2.8275142659444086,"88":1.4444334409500184,"89":2.5944791012313178,"90":1.9365836328197439,"91":-1.1245933895530964,"92":-0.6040045727510233,"93":1.8591194308720151,"94":1.5169058376507767,"95":-1.296549127678757,"96":-1.5904677198355897,"97":2.438502063738053,"98":0.2593240885532772,"99":-0.9344900160814006,"100":0.6257010821685693,"101":0.18348878357855594,"102":-0.5976493346007914,"103":1.0064385842249253,"104":0.4169398383232609,"105":2.661272831807015,"106":-3.4881439396157434,"107":3.1165078063213554,"108":-0.1287390770131906,"109":-2.69069715521726,"110":1.684509724838424,"111":-0.7107138416410613,"112":0.01583623336357635,"113":0.6222179653244386,"114":0.06557391608556337,"115":-4.366859665619094,"116":-0.8375313622581962,"117":-1.3063789699383974,"118":0.006810084162151772,"119":1.3520105747611821,"120":3.4810912366992888,"121":-3.960876287183398,"122":3.1497649826870657,"123":-3.75793976488976,"124":-0.1712329892252236,"125":-0.7298617558152344,"126":-0.34474972401913395,"127":-0.2925641187429201,"128":2.185342345861139,"129":-1.5056287830262303,"130":4.036518040311378,"131":-2.437551725369361,"132":5.087676770662237,"133":-0.11825373584256615,"134":-0.29046208813983726,"135":1.5844305933080494,"136":-3.1752374308102516,"137":-0.12168067902792125,"138":-1.2247353192692225,"139":0.7570513859500108,"140":-1.4769690889205767,"141":-0.01175852694784087,"142":-0.5962930747508751,"143":1.857177826257657,"144":-2.4570231759038443,"145":-2.5564485442363925,"146":0.5800532560271662,"147":-3.1386825754283505,"148":2.096414829306238,"149":2.3359912545388677}},"Wch0":{"n":30,"d":30,"w":{"0":-0.8007978505826372,"1":0.3101879942714976,"2":0.18718701689237427,"3":-1.5683533202691424,"4":-0.25480202216904163,"5":0.7690471543098024,"6":-0.048115787947147715,"7":-0.6103361671916427,"8":-0.8011541041036266,"9":3.8510375863681827,"10":-1.3522489837486473,"11":-0.8901366044297199,"12":-0.3668439970498636,"13":-3.81643237990297,"14":0.8542364877446369,"15":3.0700406729684038,"16":-0.9425253233984439,"17":-2.6797978082915934,"18":2.6232481693351555,"19":0.6278883314929413,"20":1.9340152456730622,"21":-3.188929538470681,"22":1.714844734355081,"23":3.0589213120671555,"24":-1.2949376453011492,"25":0.7988823510810368,"26":-0.5250295056512024,"27":1.2977019262134226,"28":5.294049968973043,"29":-0.03701463407903141,"30":-3.3233223282784756,"31":-0.38534271212649707,"32":0.7740682270222624,"33":-1.4153996428306315,"34":-0.1756504495545388,"35":-3.373894892177109,"36":-2.08000189502974,"37":0.7843161164892289,"38":-2.5155144862137053,"39":-0.6784637522198608,"40":-1.4369186529653901,"41":0.7415929375097989,"42":-1.0738188768554957,"43":-3.425980145706748,"44":-1.1538494496521547,"45":4.053424730592215,"46":-0.3188107291439448,"47":4.268075868948141,"48":-2.328855383097491,"49":1.3987600911798705,"50":-1.1774311208339199,"51":-0.1782395889367442,"52":-1.2253652886778574,"53":5.4600511822978115,