window.characterToIndex = {"0":1,"1":2,"2":3,"3":4,"4":5,"5":6,"6":7,"7":8,"8":9,"9":10,"H":11,"i":12,"g":13,"h":14," ":15,"s":16,"p":17,"e":18,"d":19,"a":20,"n":21,"m":22,"u":23,"l":24,"t":25,"c":26,"o":27,"D":28,"r":29,"b":30,"k":31,"w":32,"(":33,"K":34,"W":35,")":36,":":37,"f":38,"y":39,"E":40,"x":41,"S":42,"j":43,",":44,"O":45,"T":46,"v":47,"C":48,"R":49,"-":50,"V":51,"z":52,"q":53,"N":54,"M":55,"A":56,"X":57,".":58,"/":59,"P":60,"I":61,"B":62,"G":63,"F":64,"U":65,"L":66,"\\":67,"'":68,"<":69,">":70,"+":71,"?":72,"Q":73,"Y":74,"â":75,"":76,"¢":77,"J":78,"Z":79,"_":80,"&":81,";":82,"Â":83,"®":84,"*":85,"\"":86,"!":87,"":88,"@":89,"":90,"":91,"":92,"":93,"`":94,"=":95}

window.indexToCharacter = {"1":"0","2":"1","3":"2","4":"3","5":"4","6":"5","7":"6","8":"7","9":"8","10":"9","11":"H","12":"i","13":"g","14":"h","15":" ","16":"s","17":"p","18":"e","19":"d","20":"a","21":"n","22":"m","23":"u","24":"l","25":"t","26":"c","27":"o","28":"D","29":"r","30":"b","31":"k","32":"w","33":"(","34":"K","35":"W","36":")","37":":","38":"f","39":"y","40":"E","41":"x","42":"S","43":"j","44":",","45":"O","46":"T","47":"v","48":"C","49":"R","50":"-","51":"V","52":"z","53":"q","54":"N","55":"M","56":"A","57":"X","58":".","59":"/","60":"P","61":"I","62":"B","63":"G","64":"F","65":"U","66":"L","67":"\\","68":"'","69":"<","70":">","71":"+","72":"?","73":"Q","74":"Y","75":"â","76":"","77":"¢","78":"J","79":"Z","80":"_","81":"&","82":";","83":"Â","84":"®","85":"*","86":"\"","87":"!","88":"","89":"@","90":"","91":"","92":"","93":"","94":"`","95":"="}

window.hidden_sizes = [30,20,20]

window.model = {"Wil":{"n":96,"d":5,"w":{"0":0.3588862151646099,"1":1.1226624308962185,"2":-1.1144934661200896,"3":-1.8473646528235728,"4":3.3239031249728934,"5":-8.099168041484331,"6":0.25411363613905324,"7":0.687382124268605,"8":-1.8546363183927745,"9":1.4989403903864793,"10":-0.9836691179438355,"11":1.0179648998319235,"12":-1.462456074080136,"13":-0.5876287889571816,"14":1.4440846063126846,"15":-4.940037038116785,"16":-2.3302498703166417,"17":-0.8217494069623923,"18":-2.3228685593798652,"19":-1.2433923130758793,"20":-2.415161473226592,"21":-1.2208448022140574,"22":-0.49188907182736746,"23":-2.706516630253171,"24":0.3954691915934813,"25":-5.482992221751695,"26":-0.41598346468947023,"27":2.518636269784604,"28":-0.40400522444058434,"29":0.4530412149549227,"30":0.4876871717983206,"31":-0.06158871323236817,"32":0.7410600825289428,"33":-1.5852809145418658,"34":0.5500687837781697,"35":-0.7742674013308399,"36":0.7435196902404284,"37":-0.8285756977128867,"38":0.009500069353374899,"39":1.541539043259181,"40":2.1332195520578243,"41":-1.305012575425156,"42":2.1361350076906946,"43":-3.604237049761409,"44":4.132413651787829,"45":2.7027562892805013,"46":-1.0562783914319496,"47":1.3664632984040437,"48":-4.2923163084281715,"49":3.1801193378406842,"50":-3.7437689233692257,"51":-0.44576093844937253,"52":-0.7604039283063964,"53":-0.3236361378995151,"54":1.7142055288968225,"55":0.6623291204697878,"56":5.773538151069364,"57":-2.828268788398217,"58":-0.33408305765853663,"59":-1.973295514323018,"60":-3.350991987169775,"61":-0.6138179042713423,"62":1.1431474436349827,"63":0.22078262348913383,"64":2.9608273520741255,"65":-2.2368300784598296,"66":2.0343522521899007,"67":2.331481837471911,"68":3.970096264205772,"69":-2.9203420135372675,"70":1.0787870304252554,"71":3.215008959416034,"72":3.207904212466728,"73":1.9000213440909348,"74":-1.635081303596401,"75":-0.026926118698718127,"76":6.193016685711279,"77":-4.849796541283463,"78":-9.284991628765868,"79":5.126718104919218,"80":1.3666489376168067,"81":-1.405437361685382,"82":1.5604766330873514,"83":4.030304445215493,"84":-2.5288271161650746,"85":0.31965592927726005,"86":-1.0619943821697573,"87":1.3152350706442983,"88":0.4180979217772735,"89":-1.449089651358858,"90":0.5148279770311674,"91":-1.8156926325185434,"92":0.27475987321450834,"93":0.6943011159230092,"94":0.3761096952546109,"95":1.4853418117898778,"96":-1.1799976242018289,"97":-1.5312345808266477,"98":1.7378137261022748,"99":-1.5936432853193379,"100":1.324965706265766,"101":-1.2583110575720575,"102":-2.0167270098890215,"103":-0.6698369314961761,"104":1.4374548431044227,"105":0.3260881218662599,"106":1.7134700719580362,"107":0.7784121711212479,"108":2.5100736188721773,"109":-0.08959605554268008,"110":-0.5892031615515311,"111":-0.01805927639641264,"112":-0.22628292076923617,"113":-0.05543398348508094,"114":-3.804438182601863,"115":0.04638911048741422,"116":-1.387907015126184,"117":-0.8364527689656512,"118":0.9194534586458684,"119":1.2853836294996697,"120":1.3408228340176802,"121":0.9595645939348182,"122":-0.056729020849498296,"123":0.8256145627346076,"124":-3.156421109290681,"125":1.7419271261210618,"126":-0.9140893383503402,"127":-0.8336703983099253,"128":0.270334296059172,"129":-4.859738595274105,"130":-0.23428377211050835,"131":4.474727457308057,"132":-4.218298299865997,"133":0.5436402513487198,"134":-0.9586475403642691,"135":-0.5143485926334377,"136":1.2273246839671372,"137":0.9902750578030932,"138":1.3341685346030587,"139":1.9671546043684212,"140":-5.3628839384984115,"141":-0.3529120065996874,"142":-3.0597151071367934,"143":-0.2873090522302519,"144":-0.200633214712055,"145":-0.7231901624753964,"146":2.2544559454834157,"147":-0.38803488406312314,"148":2.0994834134306757,"149":-1.7113376043526045,"150":-3.0908679089343147,"151":1.9199518011936227,"152":-1.888884218601354,"153":1.0623840935941935,"154":-0.3966054009144139,"155":2.2945343968469594,"156":-2.1227035838131325,"157":1.8609137360029893,"158":0.5655712710645188,"159":0.15116384297364224,"160":2.180313762419579,"161":2.5557182586337532,"162":-2.367457155527394,"163":0.7120865894947698,"164":-3.284176625668343,"165":0.8035086782697316,"166":-1.5649216995044728,"167":0.026122471105149935,"168":-7.322935597306346,"169":-1.137592620077662,"170":0.144104867442576,"171":-0.1623479220197458,"172":0.7350135663337696,"173":-1.452876333071171,"174":-0.11685146434624612,"175":-3.5158779035010848,"176":-3.9663775609784326,"177":0.8949507472707646,"178":-0.4410228088612529,"179":-3.7183750569300686,"180":2.8586500744528918,"181":-11.228004122713926,"182":2.732470245769211,"183":-4.6831951969488195,"184":0.9469031081418801,"185":27.736087940498646,"186":-5.017691861279246,"187":-1.8962301906701458,"188":-2.0436306228069103,"189":0.9740982332544751,"190":0.4285318813853281,"191":3.214675117953523,"192":-2.780518886211267,"193":5.156889379770747,"194":-0.46358948986910875,"195":0.7530724575379795,"196":-4.555421143557086,"197":0.9933029099333416,"198":1.3691363710267093,"199":-0.26842492259776335,"200":0.9102238856090972,"201":-0.2729477886918133,"202":-2.156262064664399,"203":-1.319334539912557,"204":-0.22919183614534613,"205":2.402826178592107,"206":-2.0087927516245685,"207":1.4675730299934473,"208":-0.6890421951114846,"209":0.07961432399215561,"210":0.1596311864016318,"211":-0.6893490474372546,"212":-1.518346097233505,"213":-2.6045232869629813,"214":0.39391998281098073,"215":-1.3293670723894897,"216":0.1611320001435842,"217":-1.8412171706674354,"218":1.268941631534679,"219":-4.079875724909878,"220":11.53324465751638,"221":-5.411457541563106,"222":1.5727636479183311,"223":0.25065814985903373,"224":-1.8868295972704163,"225":-1.063125310051933,"226":0.2635927689693364,"227":1.1078706061765193,"228":-0.976831184400884,"229":-0.3062329190243991,"230":-1.102119144870186,"231":2.5644843340617847,"232":-0.7435401715379588,"233":-0.20247867417216128,"234":-0.10607335377237795,"235":2.9202132335414874,"236":-0.5962288012448809,"237":-2.3113983455655402,"238":4.041450373568554,"239":-5.843845593975525,"240":-2.879305133282158,"241":-0.14267760447155442,"242":-0.556851982072989,"243":-0.7979606262736143,"244":-2.100104020859595,"245":0.8241854984014879,"246":-1.5426897632081864,"247":-2.8146676332694116,"248":-1.537678775756513,"249":-1.2615482817096932,"250":0.26617856449703037,"251":1.6702454177134989,"252":-2.894991473482308,"253":-2.304741400553858,"254":-0.3478453067346042,"255":-2.273222430632309,"256":1.233482361807978,"257":-2.2495112593193545,"258":-2.0702250204405477,"259":-1.486035733787922,"260":-0.33949480662728254,"261":0.6205937077172264,"262":-0.024650873903752354,"263":-0.06994172288373106,"264":-2.660075994349769,"265":-0.35117650087889235,"266":12.209331737198081,"267":-2.240242315120518,"268":0.44607423652892736,"269":1.7991177488251353,"270":-0.7437860887450155,"271":0.4450036734553641,"272":-0.6969195670330475,"273":0.20069455853687626,"274":0.02036609691797838,"275":-0.8110888016641311,"276":0.6016632794884016,"277":0.49928332379259255,"278":-1.7603115002976912,"279":-3.8225081112888706,"280":-0.06965719759644011,"281":-2.2871236531328933,"282":-0.7531394766723535,"283":-1.6961989922699958,"284":0.1206824406151347,"285":2.1636638484318103,"286":0.47163800704792747,"287":0.7666857602205659,"288":-1.9227196704607163,"289":0.00603884475422089,"290":0.009114941477506164,"291":0.06795879382825053,"292":-0.8226209514548093,"293":-1.1218370281223242,"294":-1.0637277408486083,"295":-0.8059505742919009,"296":0.3924952269574993,"297":-1.3701798159845198,"298":-6.526450351038846,"299":1.926481667996272,"300":0.6466009358384317,"301":-0.7537098606277906,"302":0.5599939836650051,"303":-0.410849174818912,"304":-1.0564212167189044,"305":-2.2672450626106913,"306":-1.4361951910847317,"307":0.6944004342301787,"308":-4.165227346137268,"309":0.04600431772700289,"310":1.0387244804862108,"311":-2.737572312513964,"312":0.2731299285592172,"313":-3.114871164452211,"314":-1.7379525236334261,"315":-1.6726605069731393,"316":1.309933009779866,"317":-0.11908223886199004,"318":0.2634409436121423,"319":-1.0117831806165383,"320":3.9636108950279394,"321":-2.932160405961158,"322":-0.4841161941516067,"323":0.3604462539798655,"324":-3.1993897749801254,"325":-1.55025700145297,"326":1.0829024570298629,"327":3.908943964035545,"328":-3.2410624429611246,"329":-1.337780864768542,"330":0.47324558325389704,"331":-1.9343043032501996,"332":0.539675553851142,"333":-0.879182964212808,"334":-1.6448723345003478,"335":2.0769484576329162,"336":-1.0340733145372705,"337":0.4619249722930485,"338":-2.3996880112986547,"339":1.4697608204966628,"340":-1.92969126779799,"341":-0.05060391615975327,"342":0.7488010875950333,"343":-1.3590318239038346,"344":3.5265609603795562,"345":-3.9473217267042786,"346":0.4219970484891594,"347":-1.5032034179249014,"348":-1.6650779976016339,"349":2.854228247178168,"350":-3.6528010676925082,"351":-2.512562597773526,"352":-1.0057381891096693,"353":-2.408329246704854,"354":-3.834673049837664,"355":-2.257274291090197,"356":0.7470001079736049,"357":-0.5819993921763671,"358":-0.3732627521077064,"359":-1.822065808735102,"360":3.4800580632649627,"361":-6.648288461078573,"362":3.9110771261532884,"363":-2.3430562870479266,"364":0.9886021261459352,"365":-1.9502024148428212,"366":1.4238062609127087,"367":-0.3098895452138168,"368":-0.4742591709803575,"369":0.8000552614526586,"370":0.22151452050760448,"371":0.12068292321252193,"372":-1.4819185144352303,"373":-2.1660219893219215,"374":-1.1158991986401585,"375":-0.2001405896336734,"376":1.8342190892664578,"377":-3.8996687321678274,"378":-0.6530911041865469,"379":0.05563129195818241,"380":-1.027011312136972,"381":0.5140912058867457,"382":-0.5987396395056207,"383":0.31257184516685765,"384":0.5456841113921173,"385":4.609408626929572,"386":-1.8698289604097151,"387":-1.9514898172880097,"388":0.7713020622996737,"389":1.4942799730555674,"390":-4.749515269781701,"391":0.5341645171296202,"392":-1.241229848988538,"393":-1.1748004217885306,"394":-0.37098241238928326,"395":-5.3303264348197485,"396":-2.393154719384271,"397":-2.368485667480802,"398":-2.7911194765972662,"399":-4.566839844020652,"400":-1.5246197926126983,"401":3.0197398279031904,"402":1.089782323020013,"403":0.5963499473225845,"404":0.608522830537075,"405":3.8820499847141696,"406":1.0756764741330143,"407":-0.6173664682699042,"408":-2.9080963476293413,"409":0.9632118233284332,"410":3.0674762135410654,"411":-5.423241691522759,"412":-2.0184735915421657,"413":0.9043676813637679,"414":0.336002205796831,"415":0.7927528998892415,"416":-2.577720414679281,"417":-0.8782867842569544,"418":-2.4179301147310386,"419":1.8022931665067696,"420":0.16638765910240366,"421":-3.9238017857444953,"422":0.17879497357430835,"423":1.1861169991343443,"424":-3.2921337996022744,"425":-3.62304159209254,"426":-2.4729668531968856,"427":0.6431725887065554,"428":0.14815785199359524,"429":0.46344063880160313,"430":1.7489033328242138,"431":1.5867391199179632,"432":-3.511992730486739,"433":-3.248363208359064,"434":0.21520485686472093,"435":6.275154896127311,"436":-1.443098464567335,"437":1.6451445438991676,"438":5.429271739194386,"439":-1.940102653586848,"440":1.9327140256161646,"441":0.6833290189401581,"442":2.213890866160192,"443":-4.029132669132265,"444":3.5014373621861696,"445":-2.1767204312914106,"446":0.305607031177146,"447":-1.1730692321409624,"448":-0.7072919307450369,"449":2.673309597001397,"450":2.282452239422771,"451":0.6155154069757903,"452":-0.729958679302283,"453":-2.908721331656122,"454":3.7700580334952076,"455":1.7914905720690042,"456":0.5800851890584767,"457":2.9298212348621084,"458":-2.077340569203078,"459":4.267606376527994,"460":-0.5549834206195603,"461":0.7894241435079508,"462":3.604806414097463,"463":2.4710835748975817,"464":3.6388569763728027,"465":-0.7991925322420362,"466":2.4433944358289095,"467":1.4080706540379078,"468":-1.0395761208494627,"469":4.972637206902492,"470":-1.0578209057080763,"471":0.5510492058592129,"472":0.24156140490679467,"473":-1.1236487727667688,"474":1.4946053264681047,"475":0.4291892565113573,"476":3.354164286029173,"477":3.2062411166075266,"478":-1.5217381185116934,"479":2.161989111924335}},"Wix0":{"n":30,"d":5,"w":{"0":-2.641533782819143,"1":-5.646026160430132,"2":4.1213255599888114,"3":0.1661690542721942,"4":1.9283488315361903,"5":0.14866154561136805,"6":-3.45420681646589,"7":-0.067606286044572,"8":-2.5198294033897275,"9":-0.4922801052442708,"10":-2.8881292242020207,"11":-1.8785983025123203,"12":-0.9739980006314773,"13":-2.7933490021094105,"14":-1.9863548758046448,"15":-2.7889997232972403,"16":3.2156802287161907,"17":-3.0780333593673226,"18":-0.2042174876316026,"19":0.38547070251424764,"20":1.9362295985534157,"21":-4.158192144612507,"22":-5.473292923916181,"23":-8.882571319062738,"24":-2.4676619865021068,"25":0.6250197355908197,"26":-1.5082733528836159,"27":-1.1580996216488437,"28":0.26215055931715575,"29":-2.513466321940952,"30":3.976854451321907,"31":-1.4463927730643764,"32":5.992255065342357,"33":1.1617905702458111,"34":-1.7398600073510364,"35":1.7424012563034945,"36":0.5648828722571366,"37":-3.681458736168833,"38":4.301858792192028,"39":-12.589769867306247,"40":-2.100979230355745,"41":3.64062795201905,"42":1.7134589320489784,"43":-1.1514451654097124,"44":1.6551526343775391,"45":-0.875425953147669,"46":0.4195104443273173,"47":-0.8507432162065939,"48":-1.1103951421199818,"49":2.395671159177721,"50":1.337675950957915,"51":-2.3071030567145003,"52":-2.3816921887945197,"53":3.095895887374045,"54":-2.618453585765147,"55":0.1395054080523482,"56":1.381084092756989,"57":0.2396465913741495,"58":-4.044257415962008,"59":0.7877701936578778,"60":0.5618106942348183,"61":-2.1750807919356396,"62":-7.427691904249404,"63":-4.657410651220491,"64":0.3850167636928271,"65":1.0506029480623065,"66":-7.086051859730435,"67":2.5879129993073846,"68":3.2535984704960508,"69":-0.7169989574280192,"70":-3.0678351182458092,"71":2.1671040999162052,"72":-3.51182180792425,"73":1.745719825745206,"74":2.344167966472097,"75":3.4517544383988326,"76":-2.264849389197913,"77":-1.2028140724965384,"78":0.42709435479808233,"79":-2.756781695033373,"80":1.7568672883393326,"81":-3.0229976096364926,"82":-2.051215382204351,"83":-2.2646192065026836,"84":1.533613109192215,"85":3.4938037821489005,"86":-5.006175843883706,"87":1.2517064584265964,"88":0.2214573458208212,"89":-1.4477717439160427,"90":-1.4866722640374792,"91":-0.6349989901142511,"92":0.40404516016208547,"93":-1.8236862871083495,"94":-3.6331311303199176,"95":-2.046678782629565,"96":3.012493668862221,"97":-9.159858574842803,"98":2.7628087441983147,"99":-0.5141919037330814,"100":1.4729947498477505,"101":-0.15427465731510975,"102":-4.312943598420182,"103":0.6359598076465528,"104":0.3667410052171296,"105":1.1666233213263821,"106":-0.7633650950357802,"107":-2.9341541131537183,"108":-6.010407701017884,"109":1.9000704718202552,"110":2.1509061102480196,"111":-1.219803767264164,"112":-3.984479234336129,"113":0.3774252296383564,"114":0.9619272213142676,"115":0.11317594558315182,"116":-5.777753379140205,"117":0.25220657919347034,"118":3.3621741915597743,"119":0.928790061290825,"120":2.9514930725584407,"121":-1.2772697479853097,"122":-0.035755551902791116,"123":1.5341453299730103,"124":-3.7584170024778523,"125":0.8987383591270156,"126":-0.6179154977374771,"127":-0.30771257505433697,"128":1.6893696777693683,"129":-1.507652569899092,"130":-0.061273336317375963,"131":1.118171034842089,"132":2.9181617466389183,"133":-2.4304404622916866,"134":0.9773140440416521,"135":-0.7535947348560196,"136":-0.31778062188912526,"137":-1.3943124706248509,"138":0.8106866057168957,"139":-1.0087278088622356,"140":1.6293345560165728,"141":0.9475738829943229,"142":-0.6930873832167045,"143":4.150247482220627,"144":-5.733166242586884,"145":-2.414983758725926,"146":2.160347373277519,"147":3.5465353734363227,"148":-1.1591222329165944,"149":-1.3371576981415143}},"Wih0":{"n":30,"d":30,"w":{"0":1.6429287912924082,"1":-0.37649233229421963,"2":-0.9448320330236315,"3":-5.291870536631886,"4":-3.522331778966831,"5":-3.3888949993151356,"6":-0.4352202293517336,"7":-0.9703772498629101,"8":2.576338889536076,"9":-4.281701571241543,"10":5.001807253946558,"11":0.32882520833411016,"12":2.629983016024987,"13":-5.66753259367099,"14":-5.975241200283149,"15":-1.9711246253684012,"16":0.8298115520749659,"17":1.5526306615643177,"18":-1.4946932072589005,"19":-3.12257700646223,"20":-0.444283136554365,"21":7.966855075104138,"22":2.9086666467690665,"23":-3.852118702352347,"24":4.605978052624606,"25":-3.7234422299371635,"26":-4.165546092739696,"27":0.6695966793617153,"28":2.2287425146240003,"29":-2.733730039323266,"30":0.18279925418182683,"31":-1.040099140833252,"32":5.499524666358867,"33":5.366307008519094,"34":-3.030847629531607,"35":-5.218824138020122,"36":-1.3009558424674184,"37":-2.5342483773507802,"38":-6.139431033992207,"39":-1.7340218541474621,"40":-6.9770587264912205,"41":-3.455370026901567,"42":-2.216672122025923,"43":-0.16121866941219531,"44":1.2996130528495708,"45":2.1643188299207416,"46":-0.6320237323170202,"47":-5.945726147186844,"48":2.8872368020859747,"49":-5.156956172910131,"50":7.385461899175771,"51":-0.2595827250180449,"52":6.571550186463026,"53":-1.5962366302231694,"54":1.2908800516770287,"55":0.4324249541090833,"56":-3.551594503237133,"57":0.754127143341862,"58":0.5822757920266121,"59":1.3657941673337646,"60":0.30598043743440223,"61":-4.731440726199149,"62":-2.4475874068277657,"63":1.7344457757834828,"64":1.2887346024446613,"65":1.5991957950239561,"66":3.6246820733805563,"67":0.7542899635651266,"68":-5.904757610665017,"69":-1.1364629358695377,"70":5.014895309069925,"71":0.7402198416363389,"72":-0.7911190221894676,"73":0.8761011192039178,"74":4.269154283541285,"75":-1.2418946903709147,"76":-1.1618074409798191,"77":2.023302291267206,"78":5.931847545863488,"79":-1.1065170258147194,"80":-0.9198813061391502,"81":0.6992616179930381,"82":1.4541989307783054,"83":8.267082520821688,"84":-6.353613913486227,"85":6.505941464130145,"86":-5.233668962679422,"87":0.5184272779845569,"88":-0.30098113024523143,"89":1.0737090420941924,"90":5.496496290380117,"91":8.957517472810332,"92":-5.919058201607473,"93":1.6609029212163684,"94":-0.8983077315744391,"95":-4.720813362480509,"96":5.523984954391659,"97":-1.6579892671889636,"98":7.578767553842063,"99":0.3697995661344027,"100":-1.1040489005386747,"101":-3.769782643319896,"102":-2.520974424302291,"103":0.7881622468453413,"104":0.5956498816327773,"105":1.5227272009419404,"106":1.05937315404116,"107":-5.250130140262607,"108":2.621781831285031,"109":-2.631484030547685,"110":8.025735447804934,"111":-1.9221582648795081,"112":-1.6223910614421513,"113":-11.518274993531632,"114":-2.7772663472042916,"115":-1.4827547039821531,"116":-0.5117248989155232,"117":2.4431631606091875,"118":-0.2572358143684667,"119":3.1769737475514295,"120":-1.0225340270243346,"121":-0.5701327261212563,"122":1.832957321608507,"123":1.113458099036225,"124":-4.400417258086894,"125":-2.9004633665772674,"126":-0.4865653060709309,"127":1.2815550576563088,"128":-3.2239515900622395,"129":8.742997649009913,"130":3.0084754997767575,"131":-3.859048672102604,"132":-6.632212278524374,"133":4.013813737607343,"134":3.2913578514453388,"135":4.136512265995232,"136":-5.192752868700683,"137":-2.4228115684805065,"138":-0.4980666288454156,"139":1.1421913053100359,"140":4.388029408012253,"141":-2.9118177085738153,"142":0.5810436732291383,"143":0.26263304584349834,"144":3.1273171570236453,"145":5.312864854174938,"146":-2.508891365673248,"147":-6.723712134731974,"148":0.4940598921086338,"149":-3.922624420484467,"150":1.1515855782710511,"151":-1.1770175866833694,"152":4.881914773230733,"153":6.992397653136696,"154":-3.8168654970795637,"155":-2.513224598799,"156":-0.1362084708655459,"157":-2.877189467056666,"158":-3.969281701904817,"159":3.469723579568783,"160":-0.024284987143365182,"161":-7.369722137203105,"162":-1.5397936074275387,"163":2.8333213410834936,"164":1.9705611029958663,"165":6.344169904406673,"166":-0.49258806517974896,"167":-1.3462614214452684,"168":-0.01975915545702784,"169":3.349642016104577,"170":1.4821736763625777,"171":-4.445007219494321,"172":2.7280022156529165,"173":-1.6430197064082697,"174":-2.713438603974769,"175":4.721154546102038,"176":-8.164531453506397,"177":-1.7579036424328096,"178":-4.135781306267767,"179":2.0459385442504763,"180":-1.3216568961043644,"181":2.1346933377119353,"182":-8.141088722158194,"183":-1.3152229359716667,"184":5.4478951395173905,"185":-6.724312800036763,"186":-4.243327391088433,"187":0.49062894078021546,"188":3.8354104046660424,"189":-2.459801021446866,"190":2.515977002553233,"191":0.14827968605838687,"192":-1.4214182248121299,"193":-0.5780590243817886,"194":-0.9124126372355282,"195":-2.1528160798834484,"196":0.8589312940221011,"197":10.102238625926997,"198":2.578306947975463,"199":-2.604961127204486,"200":-0.463330976417532,"201":2.3144949740518563,"202":0.8059953491234233,"203":0.6524154003095376,"204":3.457455684238104,"205":0.0024377492205098954,"206":-8.407191910502794,"207":-0.2568477109479118,"208":-1.7550398945600887,"209":1.5795701390942778,"210":0.33594051986956763,"211":-3.844599094916667,"212":-2.8665877017053645,"213":0.2314906324508514,"214":1.0682751902411591,"215":-3.595210429640606,"216":0.5574390972532421,"217":-1.4514619477348718,"218":0.7934286827159891,"219":-3.1653369725922453,"220":-0.7184819491355062,"221":-2.857343388931392,"222":-0.6737594352678559,"223":0.1699126360486216,"224":-1.4816642506300206,"225":-4.092757986819921,"226":-0.463436299151849,"227":-0.39009860843202976,"228":-2.9609859623861303,"229":-1.2462425393396133,"230":4.2692894510149175,"231":-1.5691000748729385,"232":-2.2937434994601635,"233":-1.2112439005852211,"234":2.073484538144015,"235":2.002102708420764,"236":-5.290148182012825,"237":-2.506388577618581,"238":0.18375261998473144,"239":3.820400659800244,"240":5.898586628563697,"241":-0.3605835620143316,"242":-6.581978290567631,"243":0.7923680428695314,"244":4.608298109681639,"245":0.2017133353823913,"246":2.424358533714745,"247":0.6527313572613825,"248":-5.411615698118905,"249":-1.547417197206218,"250":3.638986134725368,"251":-1.0039454898693454,"252":-4.966771591917934,"253":-5.4404534662633734,"254":-0.6130662827619077,"255":-0.3244102819244936,"256":0.30595930585964626,"257":4.8632579350358105,"258":-5.300853094535503,"259":2.408934978032964,"260":5.684173918690041,"261":0.1984412874401083,"262":4.84218488485672,"263":-9.289937177167433,"264":-3.0890796655225756,"265":13.676019573237085,"266":-4.997377459816982,"267":0.5640858781265715,"268":-1.6898285856949224,"269":4.087258110054618,"270":-2.52888173013173,"271":-4.910101468735623,"272":-6.023539668297185,"273":2.5842507735925637,"274":1.993196896225186,"275":9.519006711846306,"276":2.993625171495524,"277":-1.0621858150152026,"278":-2.3029892640798457,"279":-1.359267788644922,"280":-2.1564338482976604,"281":2.668492815953632,"282":2.271950846655703,"283":0.19332153905231728,"284":-3.060730715161357,"285":-2.894363911231592,"286":0.2624890930342569,"287":4.280724527091477,"288":-0.4283255076515986,"289":-2.1530626144430483,"290":-2.5448261323280224,"291":0.23506866519482,"292":-0.5067698354159266,"293":0.4564618548559339,"294":-2.405736957851624,"295":1.3877012346728024,"296":4.792117967164866,"297":-1.7032927289594109,"298":0.7084821585837172,"299":1.5652347157605393,"300":1.0391776296951551,"301":3.49773336966898,"302":0.21772762039499527,"303":-2.7641731329046015,"304":3.501594678094033,"305":3.6939814995750777,"306":2.4620779495267717,"307":-0.017211680412956516,"308":-1.4556618974368662,"309":0.5043799587034951,"310":-4.432553716309897,"311":0.9122246142388994,"312":4.925013104177544,"313":-0.4972177673650832,"314":-1.5313530549168963,"315":0.27642933477361115,"316":-2.2839639411664585,"317":3.483909903326138,"318":2.7687237246780785,"319":-2.1686078092797345,"320":2.8592507190297005,"321":0.7088022562252885,"322":-0.31361064450203463,"323":0.7571262729416454,"324":4.219370562918028,"325":3.112001957713382,"326":-0.516879179903088,"327":-0.15411899808324547,"328":0.08493311070507223,"329":-5.543639948307446,"330":4.514004374129447,"331":-1.8170467989774608,"332":-5.308247652443906,"333":-0.8657348891479968,"334":-1.1528358167460029,"335":0.3372255357266103,"336":-3.892765505206809,"337":-2.3800959944427205,"338":-3.6543185913919345,"339":-1.0753605845082355,"340":0.213293950946506,"341":-0.8544454761436977,"342":-6.200850397404294,"343":-1.8510214728609058,"344":0.35475715925122725,"345":-0.8245049301828871,"346":1.8452636958164723,"347":3.229789364157776,"348":-2.516205363258024,"349":0.5598348683390143,"350":3.289001444838742,"351":-2.5108353698290493,"352":2.282723229697144,"353":-0.17953530947105442,"354":-1.6420620422625964,"355":-2.28487521787165,"356":-4.142226951071826,"357":3.7285329827304436,"358":0.09245629693742576,"359":0.9765533060611211,"360":-0.14787523315062304,"361":3.8971778821785024,"362":-3.7668450970925718,"363":-1.2472057765539442,"364":0.4530092175142851,"365":3.6397082126052847,"366":5.128108501673233,"367":-1.6233462876646276,"368":-2.345552138257196,"369":-2.192468556176988,"370":0.4734387499744977,"371":3.752073101504822,"372":5.579592664287937,"373":0.6495356755675942,"374":-3.8949193737535035,"375":-2.9387314490641536,"376":-1.0508572985366385,"377":7.9619094700717055,"378":-0.46786855459146537,"379":-0.7493151075343413,"380":-1.2976410233466966,"381":-1.1970678844234384,"382":-2.057821649515748,"383":0.023253692720582836,"384":-0.8676165463780572,"385":-4.888297723837628,"386":4.291386447745391,"387":0.4929807214586707,"388":0.4186591273976402,"389":0.45070229762635955,"390":2.679941476223732,"391":-2.4924978066769046,"392":1.0836950438574775,"393":-0.2221542821781824,"394":1.3260144514206051,"395":0.3169519128272157,"396":1.3572980239357098,"397":10.663853336441214,"398":3.6995768474503743,"399":-3.296706649003901,"400":1.0349671593119458,"401":1.9163089967029632,"402":3.751344006182162,"403":0.14121354611235282,"404":-0.9807871598874829,"405":-6.241498659729167,"406":-2.8063303032377203,"407":-3.549707724755751,"408":3.632764708432038,"409":2.749036039830518,"410":4.087805423541986,"411":1.8703439947899154,"412":-1.8124889667335746,"413":-0.11055217839479699,"414":0.5954465690092829,"415":-1.8417205861114738,"416":-1.3619465749668964,"417":1.3304875334769588,"418":6.59517625688489,"419":-1.4224484266249644,"420":0.7627227678194002,"421":3.142885258559218,"422":1.9458010564816806,"423":1.3857084633141477,"424":5.323514988531818,"425":-2.391436572791604,"426":-5.040628631368389,"427":0.8116357771082717,"428":-0.06294224894500106,"429":1.427334546170594,"430":-2.603910552069659,"431":-0.12408827636775958,"432":-7.018700522959886,"433":-4.502222771723779,"434":5.090701520048945,"435":1.7789061184636255,"436":2.435860886610409,"437":-1.02319335603166,"438":1.9802038568443983,"439":-1.9584708586902126,"440":0.27292228981460537,"441":5.346048414716142,"442":7.358717679505975,"443":-5.143798783265878,"444":1.3619776901047327,"445":-4.4272732338258,"446":5.8261938689176365,"447":-3.6471538156959595,"448":0.5302500108506749,"449":-3.4857015600017385,"450":5.254892108290256,"451":2.709179846381294,"452":1.1323267975139457,"453":3.0484285342917734,"454":-4.3077847225225865,"455":-2.7068513822806555,"456":-6.747792564125355,"457":7.6974097958084435,"458":-3.5635466231377664,"459":-0.8907805829583841,"460":0.5865933313148901,"461":-2.772137512458227,"462":1.2922584414208935,"463":-2.5828739022594362,"464":0.29917552558568494,"465":2.7334457862735455,"466":-3.2731884521799555,"467":2.326299852379754,"468":-2.9215352526187592,"469":0.36764544637160496,"470":2.7254066131856525,"471":-2.276742838316591,"472":0.4476569828593747,"473":1.4909643642445183,"474":3.2996084706409086,"475":-5.418341016619126,"476":-2.010102896991747,"477":3.0372979916582885,"478":7.321064704677294,"479":-2.467816719829272,"480":1.0916773862148463,"481":3.390788966210271,"482":2.183929100252557,"483":-3.0443181817652896,"484":-1.3073851717563372,"485":1.2327929447965318,"486":1.3874844833424849,"487":4.473729968177683,"488":6.189790366594798,"489":-1.2439309937530152,"490":1.772326297594065,"491":-8.779313698909116,"492":-3.1834172147405693,"493":-5.533146131489801,"494":3.6131613991341123,"495":-0.12235724742894188,"496":7.042412467052624,"497":-0.8734314487654155,"498":5.9406316569765005,"499":-6.314373517679472,"500":0.5337282622307875,"501":-0.04567443270094683,"502":1.2178232834235085,"503":-2.291562748564794,"504":4.462484789188009,"505":2.7648668041721365,"506":8.409313051369157,"507":-5.854307828805808,"508":3.0786730813954475,"509":-2.047231484819966,"510":0.5963853581092653,"511":-2.247532464911052,"512":0.7628720256355912,"513":1.2597497382507243,"514":-2.773132642791203,"515":2.011284402124951,"516":-3.186379664649287,"517":-1.9630061302849553,"518":-5.495622206524358,"519":1.4684227292184422,"520":4.167226743781574,"521":-2.6212519028056365,"522":-2.970456673528734,"523":0.5240865400560314,"524":-5.093783110456617,"525":-0.8056432308578153,"526":1.9375316791848873,"527":0.6111019048091385,"528":0.29088371613339686,"529":4.0841502481211025,"530":5.733219363100051,"531":1.0138933428766579,"532":2.996985475840289,"533":0.3186205661362981,"534":0.8639444711923568,"535":10.787473635602948,"536":-6.03049149762285,"537":10.434967719377966,"538":-0.7783018886736384,"539":1.98218987682617,"540":3.348698052113117,"541":-6.063117894196069,"542":4.1752598020550975,"543":5.490139318975274,"544":-0.8510282947338185,"545":-3.814567154644966,"546":-5.068560943729768,"547":-2.688191463191832,"548":-5.888570929355228,"549":8.54893258631877,"550":-0.4678906695350533,"551":-0.8319459142127213,"552":-2.6470498917832956,"553":-0.7184132955653436,"554":3.096391659577434,"555":1.4231256477305914,"556":-2.4257167968777713,"557":-2.6105921568712915,"558":-3.6833262448362003,"559":1.1905736793713992,"560":2.2985239613547703,"561":-3.636068010947632,"562":-0.8517845963003894,"563":-5.064488021958983,"564":6.811457462521713,"565":12.571373547287143,"566":-4.092430194621892,"567":-2.1510690115694304,"568":0.17919139158724354,"569":-6.003309326650527,"570":2.15895949435666,"571":0.6723577115460373,"572":-0.7783185673303257,"573":4.735783600708572,"574":-7.033550716115027,"575":1.5601256178680827,"576":-3.3250289022208444,"577":-1.1124824496420722,"578":2.533846025822875,"579":-0.5294994051243539,"580":0.6197002661293577,"581":0.29505490955942015,"582":-1.521938036259939,"583":-6.620655326809608,"584":-2.7216388458298035,"585":0.16334329286246035,"586":-1.3088705965849372,"587":-2.156841252583288,"588":5.652639891379279,"589":2.41849363975484,"590":2.1154646210132206,"591":-2.1273796946017804,"592":0.5100681429101587,"593":-11.02175703213354,"594":-5.435827023789982,"595":-11.964673107318317,"596":-1.43114145140157,"597":1.3961279721888116,"598":2.0782620327987105,"599":1.9017653244788117,"600":0.9508916481873299,"601":-0.08347251097974737,"602":-3.4972872193679527,"603":1.3931355257168032,"604":-1.1460871725493587,"605":-1.185667961696425,"606":0.1937069702946601,"607":1.2724929748894651,"608":-4.25416016833597,"609":-0.743976985004725,"610":0.6828029265447234,"611":-2.717964436117363,"612":2.827298067415549,"613":0.0862790649202309,"614":-1.6999441788265517,"615":-0.28774351019132294,"616":-2.2663696282903674,"617":-1.1697537294600997,"618":0.2291113581188515,"619":-2.5731269776790304,"620":-5.621454466949063,"621":0.6589284407242751,"622":1.4959464798930415,"623":2.105472001267532,"624":0.1470016744106668,"625":3.473239564461469,"626":-0.14915105139047397,"627":0.7935648283421463,"628":1.852430888382077,"629":0.8400110881967886,"630":0.7476035175864273,"631":0.4524321851438098,"632":5.340660713609893,"633":-2.2398661045764805,"634":0.7425602206338909,"635":-2.08635668567144,"636":-5.428263752194069,"637":9.170696620077667,"638":2.7168379532268943,"639":4.53448021539142,"640":0.8817300342467157,"641":-1.1512347591990955,"642":-0.8647211891522413,"643":-3.3170393910399123,"644":-0.7221200023319393,"645":-0.4364540217272508,"646":-1.472410463107343,"647":1.1087307033130112,"648":-0.7321724391909605,"649":-0.1606707406978192,"650":-3.8072398785607415,"651":1.334580583700085,"652":-0.29715256575909405,"653":0.49403587068091825,"654":-0.9477790221710247,"655":-1.0327045946731184,"656":-0.5773621939640265,"657":1.3124917379670733,"658":2.2689828243986883,"659":7.284619066268187,"660":-5.367725962145903,"661":-6.865060594059547,"662":-6.05685483324404,"663":-3.908974762715437,"664":3.730766903435675,"665":-1.35233549933032,"666":4.237096095570096,"667":1.6678245620069319,"668":15.055942734162581,"669":-1.752073170126171,"670":-2.4654253203254757,"671":-3.9840012786904833,"672":0.04801879088795799,"673":-3.0967123012549918,"674":0.35980666576928416,"675":-3.287199208800826,"676":4.365709226694139,"677":2.6123642312315405,"678":-0.9943441245112824,"679":-11.97580103849163,"680":2.471439775123157,"681":-2.752342248528399,"682":1.6620835398674525,"683":1.808812456638823,"684":2.6355243784209175,"685":-0.13028200302896123,"686":-0.8466594482745944,"687":-0.6646122945679626,"688":7.699186051663821,"689":7.581234883584045,"690":4.944870516551212,"691":-1.541588830154415,"692":1.1501878237970575,"693":-1.5581419058201225,"694":-1.429187428524393,"695":-2.9976115641259113,"696":1.9734025096839485,"697":-0.7166283794934768,"698":-1.261075891103023,"699":1.8836526703926715,"700":-1.4859605935329088,"701":2.1234708576780927,"702":-3.155152584571828,"703":-3.4579123404398477,"704":-0.9464348365276737,"705":0.7811156435928936,"706":-3.0163822682745507,"707":-12.238157859422037,"708":1.986211241913666,"709":1.523221510094131,"710":-0.37890348019859604,"711":0.49496028115882285,"712":-4.5202259877695345,"713":-8.4846731057524,"714":-2.21094074920064,"715":1.495668355049686,"716":-1.8017480265120382,"717":-2.3745706260158825,"718":4.607466499092501,"719":-4.002684704522983,"720":-0.9583002407855412,"721":1.299491766522969,"722":1.7888596254170757,"723":-2.781306161732487,"724":2.286727238564807,"725":4.073056413463553,"726":3.242463908431846,"727":1.3575781287177433,"728":-1.1957870219739481,"729":-0.4558926800578571,"730":2.1192071474105956,"731":1.4471248085982797,"732":2.110828534411829,"733":3.6849818915252186,"734":2.9952296139277657,"735":-3.7367840490869084,"736":0.27624646937299974,"737":4.166644357105928,"738":0.8333641632200912,"739":3.863852415013145,"740":-5.474119005557547,"741":-0.2713882979888746,"742":-0.4402793938506808,"743":2.2482413180596343,"744":2.20086328314652,"745":-1.7641337973949274,"746":6.608558389151339,"747":1.6241582611533418,"748":2.6779319524276186,"749":1.2699096628708442,"750":4.591751951928681,"751":3.8584753410007453,"752":-1.4284064758363972,"753":0.8119763274721071,"754":2.6261072653609463,"755":7.048084756732002,"756":-5.653026592027651,"757":-1.1308938060986737,"758":-6.189210199567474,"759":0.9896138750348837,"760":-3.35457227673111,"761":0.873944465898896,"762":2.1794293871883434,"763":0.6968347218208046,"764":2.134792830140558,"765":1.5552401844058916,"766":-4.348740298753971,"767":1.6971729693969142,"768":7.826358774983603,"769":0.5413383157684859,"770":0.856331487113197,"771":1.9869736721856475,"772":-1.0487786123748442,"773":-4.263592939487647,"774":0.4225447755546581,"775":7.381627183461534,"776":0.9783942884666607,"777":1.011732197514549,"778":-5.473525732809872,"779":3.70115917567891,"780":-0.9962034187562525,"781":-1.790456550324177,"782":3.5958524947951633,"783":5.727100892796079,"784":-6.576022200404778,"785":-4.512487408404059,"786":1.0280571988113567,"787":-4.370090554342653,"788":4.188262194243301,"789":0.17923847553407724,"790":-6.258700592203521,"791":-5.494592165315176,"792":-8.616816663824192,"793":-4.018170756065033,"794":-1.2879841350679977,"795":-2.9582013043710096,"796":1.1839340320675393,"797":-4.5452441057452715,"798":-0.0742396479940154,"799":2.4807863775470005,"800":1.744403631990286,"801":-2.418522528597979,"802":3.959256427675344,"803":4.322972050975083,"804":-4.38756475794719,"805":-5.8150466846360285,"806":-1.5964449365635507,"807":-3.120717090960063,"808":-7.4156478184911405,"809":0.7876661614471041,"810":3.1883941232515554,"811":-8.00283063155972,"812":0.29913404981502245,"813":2.8859004464588285,"814":-0.60825758015355,"815":4.851855253450459,"816":-1.5105254768877907,"817":2.3559185012110824,"818":2.909993990325613,"819":-2.1385200492848226,"820":-1.304731901317672,"821":-2.587550257607194,"822":0.6507262793805567,"823":-6.463184031339995,"824":2.8459750694702333,"825":2.141270740037206,"826":-7.9770310006943275,"827":-0.49916994491037936,"828":-2.970304955036134,"829":2.3468388184965137,"830":-3.7658570753838996,"831":1.1052463366011949,"832":-5.789475001560227,"833":2.2971950954165474,"834":2.5497952129246473,"835":2.187363100665393,"836":-5.10561224681604,"837":4.9444484054116336,"838":-0.3126420022081059,"839":3.3876437655859957,"840":0.5027068596076675,"841":10.690758158866124,"842":-7.2709638335360145,"843":-0.12032340194533936,"844":-0.8322505165788254,"845":-0.9355910063083613,"846":1.4724752945591046,"847":2.906875389715737,"848":0.552458359949311,"849":6.019766142268143,"850":3.8659154619162828,"851":-2.971771484458864,"852":-5.5206542714814235,"853":1.1207836280397785,"854":1.5319790596177703,"855":-3.571071564523325,"856":1.7067832043864684,"857":-0.7433640079021085,"858":0.034340992710255,"859":-2.121535402869962,"860":7.6445581974082195,"861":-2.2546833140402414,"862":-3.4949821520158513,"863":-4.398271205165163,"864":1.7997047424630428,"865":0.31584792279262436,"866":1.8358110153884397,"867":6.3070137697150495,"868":2.2537014708748186,"869":-3.1922425055449732,"870":7.332249442827738,"871":2.731330377457722,"872":3.0222177301477906,"873":6.473276232309667,"874":3.249012321391901,"875":3.8128551682296123,"876":-0.9879852118759871,"877":1.0599943884834138,"878":0.6652803010597944,"879":-3.568781332910161,"880":-7.027317943673968,"881":1.6379554702081602,"882":-3.1887139935721946,"883":-2.827279156155957,"884":7.776949395071822,"885":-3.849076592933816,"886":-1.7077216702744038,"887":1.4343497335039965,"888":-6.550488818916298,"889":3.4453524364333523,"890":0.6422828285222524,"891":-0.5236125672529867,"892":-0.8050825593556318,"893":1.2399299843493983,"894":1.9510707077874665,"895":-5.065081326123849,"896":0.6616180316738548,"897":-3.6675550633943885,"898":2.9552182151527298,"899":-3.1375856547182277}},"bi0":{"n":30,"d":1,"w":{"0":4.117741764247314,"1":-3.135497917556715,"2":-5.708184976542537,"3":5.426740024007993,"4":-3.9079260266619307,"5":-2.0614311809255415,"6":0.19331555196941796,"7":-4.382495466477258,"8":6.432897131172762,"9":-4.890187425708601,"10":-9.263236484008372,"11":-2.639440384582795,"12":-3.7959826964430907,"13":1.692899495631132,"14":-1.7367037148650046,"15":2.3559932882521837,"16":5.558078271112621,"17":0.5306221685913483,"18":-3.1528738463994688,"19":1.6124021941034938,"20":-2.0924531938124513,"21":5.142775544320678,"22":7.096164339523096,"23":-4.203408741517087,"24":-2.6742529282445875,"25":-1.5494698712019648,"26":0.09274653133909601,"27":-1.7910985449585406,"28":-0.6301239130630436,"29":-3.4321986806981095}},"Wfx0":{"n":30,"d":5,"w":{"0":0.499126671107104,"1":-5.374658479720747,"2":3.851073254295754,"3":-1.33615158405362,"4":2.7684754791743735,"5":5.164010969173318,"6":0.47544808785753206,"7":3.3275443193809013,"8":2.308834849964834,"9":2.916166754003913,"10":-0.5655622079624384,"11":1.646844410807193,"12":2.8413138255274872,"13":-1.2511234659868995,"14":0.9534180992619491,"15":2.1796731125333757,"16":-4.00542025427616,"17":-4.541336709885061,"18":3.013753449794988,"19":1.8753225359360555,"20":3.104896347591914,"21":2.7186740266290355,"22":7.588364727080393,"23":2.27570459929685,"24":-1.058559635892377,"25":-0.6129958666034733,"26":4.670717299978598,"27":2.5868011888247118,"28":3.810251841911687,"29":0.9796596971902488,"30":0.15696924575234025,"31":-0.7777761453229215,"32":2.107490025806827,"33":-0.6109469653250387,"34":0.744966027374533,"35":2.016241127557319,"36":2.290711647809122,"37":-0.01941503082493565,"38":4.756694572391844,"39":-0.7408034635889497,"40":1.7490732609339803,"41":-3.904745195706372,"42":-4.215912931563771,"43":4.313588742447158,"44":0.23943239483294432,"45":4.424205241034517,"46":0.5976573152949418,"47":1.7949498094496472,"48":1.2596337477035324,"49":-1.4887520669509169,"50":-1.7821491861000114,"51":5.115658249388914,"52":4.095279351998169,"53":0.2420913506475545,"54":2.2342252978279995,"55":2.8255984547768325,"56":0.19036869335264428,"57":2.053846402232823,"58":3.9882350973964455,"59":-1.7430754654318235,"60":5.232276367691739,"61":1.2502553839006614,"62":4.996676922241816,"63":3.886918033283176,"64":-2.399795140832072,"65":4.058359750132162,"66":2.184792020749574,"67":-1.817392369047593,"68":-3.071444687999678,"69":-1.6579963895327596,"70":-2.935693121358066,"71":2.9040757581483945,"72":-2.0069571817507392,"73":-4.224527857100243,"74":2.4262520040793714,"75":2.502920214254452,"76":2.0411192697988323,"77":0.20031366042255971,"78":1.5403282038199406,"79":1.0186770881235891,"80":1.4383184496116102,"81":-0.2323927418395438,"82":-0.45172397184210383,"83":1.7208169186559972,"84":3.695446878299481,"85":-4.708801801440209,"86":-1.95558539789186,"87":3.6416721689692086,"88":-0.30724915414577497,"89":-1.0735461824681578,"90":-0.8997764579298871,"91":-2.1900804935479044,"92":-0.7006993895839219,"93":1.5715738397929557,"94":-2.3566055750817125,"95":0.9186048976096689,"96":0.7438065317121137,"97":0.9613552992860334,"98":5.7434795922242685,"99":0.08588532278197646,"100":2.511102724309819,"101":0.32814371510324886,"102":0.9611167735459638,"103":0.4476897722508398,"104":-4.740353361674584,"105":4.984319524973626,"106":-0.8185346001519876,"107":-0.9489282460217644,"108":2.671113386799369,"109":-5.022107454399183,"110":2.248959036037297,"111":-0.7538863438196275,"112":2.3426731350830345,"113":2.771701968799785,"114":-1.8950932277780115,"115":2.590872445041674,"116":-0.7790913819620983,"117":-2.1684024799045125,"118":0.034239922444224226,"119":-0.4669909949909394,"120":-1.9380591015903186,"121":-4.875894640814523,"122":1.2742259989090097,"123":-0.9270318964032827,"124":0.5924233504435757,"125":-0.8532639005268616,"126":1.6141358995781936,"127":3.4137285208517736,"128":3.5853394069423947,"129":-3.654896668813887,"130":0.8793934783130046,"131":2.287890008184557,"132":-0.5310648714331611,"133":-0.8013248477202062,"134":0.1829499538027489,"135":2.179268288183598,"136":1.619829649338569,"137":-1.551437967766636,"138":-0.38822974165774066,"139":-0.3022743102029739,"140":-0.8188360036668346,"141":0.8253992962486149,"142":-4.814759479054119,"143":7.180601209345717,"144":-0.7509826210894873,"145":-1.2250164478843018,"146":0.068886930273961,"147":-0.04893991569815991,"148":-3.715548511351067,"149":-1.6894438838478785}},"Wfh0":{"n":30,"d":30,"w":{"0":-3.361957065749906,"1":-4.137051074025307,"2":-5.036411442094412,"3":7.252963714370639,"4":2.0698127796211265,"5":-4.449144127631411,"6":-7.868036804037693,"7":-8.168977582771932,"8":3.8404023425158615,"9":-9.742946299295065,"10":-1.6585507343360129,"11":1.1929147969922818,"12":-7.428699881009309,"13":3.4822012683313552,"14":5.736452201165741,"15":-0.45794047143525385,"16":1.3136056539940628,"17":-0.9938412426454802,"18":3.3940911353776935,"19":4.51213652147736,"20":2.64707907153116,"21":-0.3362721707689597,"22":-0.836113320048753,"23":0.39009886158610013,"24":3.7751430287576926,"25":5.768656120444353,"26":3.8951637232112315,"27":2.947400375229285,"28":-4.185653534006782,"29":6.280017545593229,"30":2.73680537002238,"31":-4.500237224763645,"32":-1.9326590653911548,"33":-0.6214670392878223,"34":-0.3703150146855712,"35":-1.588854801239886,"36":0.21322500958249696,"37":-3.684984751625373,"38":-11.900631664659468,"39":-0.18108937712521853,"40":-0.39823241578507745,"41":3.6231453453241707,"42":11.688572344219562,"43":8.47550650595307,"44":2.3612094776164745,"45":0.36169608273300274,"46":-3.0406381432954763,"47":-0.04549531944149756,"48":1.778732380979794,"49":11.64419423948435,"50":3.3914227576009885,"51":-2.443448811135299,"52":0.21844271381768984,"53":1.7349251486212043,"54":-3.4389017086608957,"55":-0.43666444131201054,"56":6.0153420591974625,"57":-4.2604421655945846,"58":-0.5058575460739843,"59":-1.9850903790197463,"60":3.2287468527261125,"61":0.5269428912680554,"62":-4.8223728200617675,"63":-2.8408315884612185,"64":1.9806518667085047,"65":-0.5667029105895525,"66":-6.822945774547191,"67":-4.550366809166733,"68":-6.341802497409631,"69":-0.5720413881310057,"70":-5.93013080612226,"71":5.79637789529346,"72":0.6122380319650689,"73":-0.1184235161215246,"74":4.464352065433262,"75":2.099302725459348,"76":-10.639737026742788,"77":6.210902161994085,"78":-7.951714423817241,"79":-0.2807801950806174,"80":1.2549074434343532,"81":1.2049961107699456,"82":-2.3666081584074043,"83":2.8234196714454303,"84":-4.441546128811707,"85":11.136060822914025,"86":-4.700886379187581,"87":-10.953965999117667,"88":5.247720125827619,"89":5.924180362279746,"90":-6.553912618157648,"91":7.549149443961432,"92":7.157416891990152,"93":3.381438308699647,"94":-5.415249127730702,"95":-0.34003975714081486,"96":7.052413518595543,"97":-4.998423044833232,"98":1.8715947942745936,"99":2.2491349037764956,"100":-0.5102922363110498,"101":-2.2343744390595703,"102":7.049322466712951,"103":2.9534736406172386,"104":-4.150078068567083,"105":0.410627827922628,"106":6.1542404710912875,"107":2.441435438032831,"108":0.19650218683589402,"109":-3.6894309654931807,"110":-7.229441686456765,"111":2.046420552145456,"112":-2.6815653826125136,"113":6.539655033168383,"114":5.073045362263961,"115":0.35348903749876287,"116":11.10367696031986,"117":6.5092591866438,"118":-3.171918297619418,"119":-6.557727121183988,"120":3.4606378936963993,"121":-3.943197991817958,"122":-0.1667736365480403,"123":0.28572358543194887,"124":2.503465126007624,"125":-3.7825427346404217,"126":-3.5577722700908487,"127":5.842961517857799,"128":-3.671879787896946,"129":0.6098776486562475,"130":-2.493829090343735,"131":0.08138532322606222,"132":1.2994023204537846,"133":7.679444624284756,"134":0.36745148373228115,"135":1.4726729991880623,"136":-3.829176837970523,"137":-3.0464154251367765,"138":3.3901647843502225,"139":1.9323264303347463,"140":-0.48694552713042294,"141":2.0607039496584023,"142":-0.5937222502730825,"143":-5.44926710999221,"144":6.654392031097036,"145":-4.437926258865148,"146":-4.671629763413909,"147":-0.47961735115565624,"148":4.757390977337633,"149":-13.780075381768148,"150":2.751962450873132,"151":1.0854328081505302,"152":10.449798547247312,"153":1.0893033871860476,"154":-1.556471904982213,"155":3.375607955788506,"156":-0.16976369864134677,"157":1.0971846674320092,"158":-3.7239965130120942,"159":1.3147050146803023,"160":0.5730173487590327,"161":2.0744699607439974,"162":2.5576027675006117,"163":2.2912487739717027,"164":2.750905265266041,"165":-3.1086661166127247,"166":-5.100857570266655,"167":-0.8986851478272517,"168":-2.6351054708509785,"169":0.32317536106216965,"170":-3.653778325795215,"171":0.4268675437936143,"172":1.8149142984524378,"173":2.7581623649715206,"174":2.5690801675553483,"175":-2.0392217410612656,"176":5.038159360525632,"177":2.8691581544522426,"178":2.439066187330985,"179":-3.462031119350144,"180":3.820504028223297,"181":-6.441070919236225,"182":1.7915550563115499,"183":0.692517287771699,"184":-7.776355401762932,"185":1.6409738681849888,"186":5.7132664216237545,"187":-2.990267514342839,"188":-2.218211753393357,"189":1.6293565954576805,"190":0.6151162125699372,"191":4.3484190893091474,"192":13.838904616992954,"193":8.35608473084419,"194":-1.830966604519328,"195":-5.26406909980418,"196":-2.090770541954547,"197":1.350664351009821,"198":8.064431801609821,"199":-1.1606505743559852,"200":-5.229731582927134,"201":1.6515024566017082,"202":-2.8312062761223666,"203":5.632681301996038,"204":-3.929114945366423,"205":-1.4339320165148206,"206":1.7467596788000788,"207":-1.312182710000084,"208":2.413653662730628,"209":-2.679408821081444,"210":-5.39703863583621,"211":0.6997128754688697,"212":-5.251770114455138,"213":-0.40787118764707103,"214":3.907139260890506,"215":-0.5965238466834796,"216":-6.037986721399196,"217":-0.5010279495433049,"218":-2.6912675268254764,"219":-0.2584802636107519,"220":2.339747290099309,"221":-1.3779131797073145,"222":4.792207788440654,"223":1.6435287321271579,"224":6.991728957998091,"225":-1.5535803598290607,"226":-2.7100802944218967,"227":0.7944893818674816,"228":3.8209938086608948,"229":-1.9244951994972495,"230":-7.907544344399842,"231":3.9209086638887247,"232":1.1498886068488274,"233":-4.293931803010055,"234":-0.06998456981714903,"235":3.2090480183825485,"236":-2.080160850070483,"237":5.3511399997487645,"238":-2.2035309420675966,"239":-2.336288921908239,"240":-9.731901660756398,"241":6.9870745359997395,"242":1.5501265014703054,"243":-6.607094111147578,"244":1.9654415622553008,"245":1.2262543485616821,"246":4.542934926650981,"247":0.9278654714059853,"248":3.419232160189115,"249":-1.8665072100529685,"250":-8.804997333289482,"251":1.2627987544461818,"252":0.44515740659268266,"253":-0.9278880820653593,"254":1.1351104136110637,"255":-2.5805721672974435,"256":-0.596786715225648,"257":0.4372789586656645,"258":-1.7232518558171888,"259":-0.20389454455463882,"260":-2.2631998265939126,"261":0.40799234759477077,"262":-1.0628200685444327,"263":-1.1257373747768564,"264":-2.7088208112086454,"265":6.795928641819566,"266":3.9171719139885117,"267":2.8862644743961074,"268":4.585048652145792,"269":-1.7752105813281205,"270":4.012240373618273,"271":9.984411275505508,"272":-0.14191395949092842,"273":6.128009395454335,"274":1.2546868651424041,"275":-3.2219914092352178,"276":-0.08309971592416544,"277":1.7148071947538766,"278":-8.500900495094806,"279":0.08647488234692968,"280":-2.5185669492353844,"281":0.16543104089605343,"282":-2.3558763058500025,"283":-0.9112546569486085,"284":-0.2667139510236215,"285":-2.5778740324701217,"286":-2.286324234618607,"287":-4.082784648033476,"288":0.1520862710476521,"289":5.730230556839595,"290":-3.6177332878205393,"291":1.4296598755366043,"292":-0.7943385031808532,"293":-1.5127386363947255,"294":-3.7642216316316692,"295":-5.827459412934119,"296":0.4976150336605612,"297":1.3872284566068092,"298":-0.5212233259123726,"299":-1.7842249196440367,"300":5.3810670903423645,"301":-0.17643805800196866,"302":11.80884843914014,"303":-0.38927537503300824,"304":3.3659085058503333,"305":4.176417048867205,"306":-1.3452677519104879,"307":-3.8610515020751626,"308":-1.064173178184298,"309":-0.8480605738915784,"310":6.51993395494866,"311":7.02129452293146,"312":8.718276016066142,"313":4.976129943385084,"314":-1.5130727749257853,"315":-3.811807528436975,"316":-4.035426707925254,"317":-1.1554770008943815,"318":-0.3207501921414355,"319":2.953976366686097,"320":-7.983307380274352,"321":-3.3957154725676797,"322":-0.2862436922214362,"323":2.274784494358507,"324":2.432399447236974,"325":-1.8493281925416307,"326":4.476319522550511,"327":2.6478940133554274,"328":-3.7399754393130773,"329":1.3456776300457967,"330":5.1312599403038295,"331":1.5802903561515467,"332":3.5216657295696057,"333":4.620744343587179,"334":-1.4207667664505208,"335":10.006226780526637,"336":0.04534130596201491,"337":1.5129282406584035,"338":2.9432146301384594,"339":2.9769103507099657,"340":2.3064378872624545,"341":-0.9280014535936696,"342":3.0711041037651916,"343":3.4252957844697884,"344":-5.963630555146521,"345":-3.028269290356425,"346":-4.04380571795633,"347":-3.1509336319147243,"348":5.083067198901148,"349":0.7851777976198218,"350":-0.8401659321722393,"351":4.443356455844553,"352":-5.060546600500115,"353":-3.3767495087052666,"354":-3.8520810932328393,"355":3.576069179409427,"356":1.3048778870854385,"357":0.40610616961338375,"358":1.1488526582688923,"359":1.4824430142139366,"360":4.4058820852445635,"361":2.1201620127771053,"362":-8.261952259715553,"363":-0.06269280791543427,"364":5.033845078889611,"365":-1.0008148828751615,"366":5.272600580235772,"367":-0.48406984523386937,"368":-3.411825576268473,"369":6.072803595316942,"370":-0.6361206115847481,"371":-0.20386022672483095,"372":2.1568906657829983,"373":2.698686978164451,"374":6.564029237584632,"375":-3.365982030450348,"376":-4.510927394803228,"377":2.130831675222242,"378":2.3281182736583625,"379":2.210652317515358,"380":0.08159094112610644,"381":-0.13461048510674015,"382":-3.0095217321559797,"383":3.813708093634746,"384":-0.6141414182327573,"385":4.890915462898043,"386":-14.202402570531671,"387":-1.8754852163280649,"388":-9.163300608948232,"389":-3.321447692404498,"390":1.0122997948376464,"391":-7.100296559444152,"392":1.566120598586976,"393":0.3681005248016014,"394":2.624346414375817,"395":-2.548173449446804,"396":-1.5409944586027535,"397":-8.21252120782381,"398":-1.0459013016419276,"399":0.3219123570242381,"400":1.5075561116545646,"401":6.302727508104122,"402":6.814624382481552,"403":-4.0628433361501735,"404":-0.8552657332650879,"405":-4.513507746827576,"406":-3.026172682298952,"407":3.5634545330541743,"408":-4.404723084799596,"409":-2.2130626575473342,"410":-8.228966525716597,"411":2.1959153667431632,"412":-1.5806013097262759,"413":3.070067392169255,"414":-4.261314135510441,"415":-2.8216245940447386,"416":-0.9477626999223185,"417":5.230309762220364,"418":-2.338145606215903,"419":-8.555124034782322,"420":-4.314617840036215,"421":-1.1039511623595737,"422":0.07680856416444344,"423":4.708966995271992,"424":-4.172828064686803,"425":-16.38151091380289,"426":-5.151913295283367,"427":-3.605917381658322,"428":-1.7207803678408242,"429":7.508886832547735,"430":-0.10084999608285052,"431":-0.8833802957052631,"432":-5.567019228078665,"433":4.412394819952947,"434":1.4953340075328638,"435":-0.8086715141785976,"436":-2.8999124867763713,"437":3.3854514420310062,"438":-0.08152878284586386,"439":2.283522169661967,"440":-1.8803061828629906,"441":1.8985259982806766,"442":1.944334777950803,"443":1.9664373011780036,"444":5.04584737153511,"445":-1.7933693469603709,"446":-5.009697235126578,"447":-6.5619192188732605,"448":1.738764394568186,"449":-2.2416846131102903,"450":3.484169331199186,"451":1.9281543009656723,"452":-4.277528317964217,"453":2.69116576733864,"454":-0.9070647459662221,"455":-2.920965011459421,"456":3.053672448711149,"457":-3.0731319972814393,"458":-1.6036808913508631,"459":-5.803499636705109,"460":0.6600983590699535,"461":3.087769845563338,"462":-3.666960459045679,"463":0.11872797319101297,"464":14.41745106205428,"465":3.459041377187583,"466":-6.176536466558701,"467":0.802528283617549,"468":0.284003849784675,"469":-3.3009423326185403,"470":-5.941431763649769,"471":4.238117540736771,"472":-1.33658554925551,"473":-0.02234738384485837,"474":-2.566730470274113,"475":-0.8968559051311098,"476":-10.082485041137872,"477":2.7322519633945848,"478":-7.170839391769178,"479":-4.27625851787248,"480":-7.716217654519767,"481":-1.5153975512215105,"482":-1.638145708395178,"483":-2.060811181122357,"484":2.687439612165485,"485":2.741292248823827,"486":2.4462539762052087,"487":3.019425836899146,"488":5.119254989176438,"489":-1.2181216786106994,"490":-6.064414171575304,"491":-7.513871445994186,"492":0.501421771942986,"493":-2.2543555154625285,"494":0.10528903967368332,"495":-1.146653392100134,"496":6.072074650177322,"497":-4.779464136795213,"498":1.0048517624220945,"499":-5.156180063576228,"500":-1.237928151247298,"501":0.2943115791040188,"502":-1.6104688339026552,"503":1.7131889209440647,"504":2.489552964134747,"505":2.216396496670209,"506":1.6730876456207808,"507":3.8907361345442166,"508":-1.3832715122768022,"509":2.8692992053325597,"510":1.881166072242439,"511":2.2689617990893276,"512":6.775764526105426,"513":6.975895079056746,"514":2.38884251497196,"515":-7.511817999721651,"516":3.6522333749172415,"517":-5.859255157152922,"518":-6.265894008261918,"519":1.723497918329116,"520":1.251097537195444,"521":6.984114168964306,"522":-0.2427836366396061,"523":-6.013238170335396,"524":9.097039057592907,"525":-2.7212759095568666,"526":-1.501594189476402,"527":-3.078301528411369,"528":-7.029788946690127,"529":9.159663635512876,"530":2.8409140212275408,"531":-1.32297365048933,"532":2.630313250279645,"533":-0.5788404109116208,"534":-4.118713730014726,"535":2.688531394048521,"536":2.8483737326204324,"537":6.105347285350517,"538":-5.424403509989471,"539":1.496290616959611,"540":4.156683224105053,"541":-3.0665677719281077,"542":4.878013877687322,"543":4.534418749072428,"544":-3.9607103116621993,"545":-3.3006672582442937,"546":-5.061717968826764,"547":-6.004181912906808,"548":1.4695420872105305,"549":2.089319587613969,"550":2.290351149373617,"551":2.539890254840888,"552":-2.175240832183405,"553":2.713167313850286,"554":3.675240701185046,"555":7.02811566209777,"556":-0.9106798475906496,"557":3.5312609344517485,"558":-2.660580769953355,"559":8.08124805534423,"560":-3.4258128118879454,"561":2.770005823114923,"562":4.321774230682686,"563":4.199675994097557,"564":-2.8926236794120683,"565":-3.0596038439720994,"566":0.9776874543604291,"567":-2.8959764147834024,"568":-3.748855248471361,"569":-3.1266628676994364,"570":0.3244566822163874,"571":-4.170517892999012,"572":-3.836757777571974,"573":-2.299877393271953,"574":2.4197524547375155,"575":6.143148312222812,"576":-5.1070247199161,"577":0.2749635030576405,"578":5.119883375431158,"579":-0.5419111694184332,"580":0.5380055734155619,"581":-7.834902489071951,"582":-5.120615490902526,"583":-0.7820700769646861,"584":-0.5537813454802419,"585":4.701402599454929,"586":4.959839948799091,"587":3.649591512506886,"588":-2.0542773852742857,"589":-2.641168662311587,"590":1.781704290154929,"591":-1.7004158476896867,"592":7.189464716830979,"593":0.7598143203903664,"594":0.5862708323829795,"595":-2.8046337483334915,"596":-0.37249691422935566,"597":2.292420697805689,"598":1.4113279092430022,"599":0.44291847454219335,"600":-1.588061372737392,"601":2.857673073299201,"602":0.4017023149552758,"603":8.252457282810457,"604":4.622447448661136,"605":-0.4481117738400483,"606":5.868307954198453,"607":-2.1158589994078696,"608":-1.6945167260175396,"609":-4.048707702278243,"610":3.58714165383687,"611":3.3639883147030156,"612":5.434039884691888,"613":2.4607103968594615,"614":-1.8804278142500148,"615":-4.432108960418961,"616":-2.6788815131632435,"617":6.147155996667352,"618":1.1509115373987029,"619":-2.2803404341482794,"620":1.0009373871525267,"621":2.0135737654905195,"622":-4.612835631952415,"623":0.18497806973987926,"624":-1.4099222023010614,"625":-5.291784596396,"626":-3.007053866285876,"627":-1.3338847883363112,"628":-1.111904354956883,"629":4.009660170541538,"630":5.440225259050646,"631":-1.6098399544818383,"632":-1.1520976278470085,"633":-0.8875867654487184,"634":5.908984884740912,"635":-6.247432810553837,"636":4.917781322335471,"637":-7.500277424016336,"638":-1.162829880657868,"639":1.4080427035000769,"640":-4.4126566595055,"641":1.8505647389395588,"642":6.840913253776802,"643":0.6245538260604588,"644":3.4153259053359784,"645":3.142231626138057,"646":-4.457996026496387,"647":3.3761365504270966,"648":-5.617983778546174,"649":-4.058452589791922,"650":-0.24877982953414993,"651":-1.0607444688655834,"652":-2.589776950563608,"653":-2.2983213133918627,"654":4.213514258567504,"655":6.362784003145961,"656":-6.338686681048883,"657":-3.258497239790713,"658":-1.2426080225296838,"659":0.5649349563595324,"660":1.3771078671074815,"661":0.9472321023131143,"662":-5.7535851300159155,"663":3.6018895451193194,"664":0.7568329266320686,"665":4.205342879210431,"666":-3.4015583246780055,"667":1.2334390380091276,"668":-2.712431639232594,"669":3.2297138308403586,"670":-0.8621808134769354,"671":0.7435175204417079,"672":-1.013738954371283,"673":1.944373792278511,"674":-4.722264961451986,"675":0.4183543165310185,"676":-1.3951812685167302,"677":3.4750212345225187,"678":-2.1708498519547383,"679":-2.55509588287475,"680":-1.1584848767245726,"681":-2.510624799300671,"682":3.638483918158712,"683":2.2879501207885706,"684":2.428026601377507,"685":3.574122136917628,"686":0.7220871835621493,"687":4.917454981820335,"688":-1.810018956764269,"689":-4.190307680804209,"690":2.383219374739834,"691":-14.021503762719172,"692":-1.4617651450315008,"693":3.3142531781023856,"694":0.7147753761949696,"695":-9.749261181607336,"696":1.341492658156521,"697":-2.976625397750354,"698":-2.54439438122749,"699":-4.81376961026003,"700":-0.05802867827100929,"701":7.241631458505976,"702":0.6625040266966616,"703":-1.5912577230294442,"704":-0.693696005808794,"705":2.7281450163524097,"706":2.950611222021733,"707":3.6205785943524478,"708":-7.058924931300646,"709":1.2903739595514185,"710":-3.654437726666803,"711":8.199102225347108,"712":-0.06539251090019137,"713":0.3395426194686023,"714":-6.807544070159787,"715":-0.42236557252555573,"716":-1.1904924033263278,"717":-11.135053761791426,"718":1.7535836350014118,"719":0.2185787678718801,"720":1.0562441461013254,"721":-3.582285167109234,"722":3.9453823090033358,"723":2.5964111138676973,"724":12.90863899769335,"725":2.286559508707254,"726":-6.292657561793502,"727":-0.7676000789512155,"728":-0.33126348411758916,"729":7.351234892538843,"730":-5.384633459703023,"731":-3.04085254069021,"732":-0.5440297661012568,"733":2.8743034733911665,"734":-0.9393043482532549,"735":3.0646535688397094,"736":-3.337595954369008,"737":12.35525225269972,"738":-6.1126335329436685,"739":-1.5450983054817518,"740":-6.938142957661481,"741":-0.1407966821929132,"742":2.3250935021812964,"743":-2.459835821546421,"744":2.854080728307692,"745":1.7507357208477348,"746":4.34032810251803,"747":-0.6419089664349137,"748":2.309766807605739,"749":3.283363690961668,"750":-4.125384364132394,"751":-2.132680752049558,"752":5.154890873991829,"753":-1.314534593224455,"754":-6.439955062412101,"755":-5.717338609063811,"756":1.1864768688166953,"757":-1.279260782966122,"758":2.6004375021010833,"759":-3.756631532069973,"760":-1.8110864074103732,"761":2.090859265652428,"762":7.618584836324625,"763":-4.417704333210859,"764":-4.342621576629291,"765":-2.0199932537292766,"766":0.028378300833009653,"767":5.884323577919654,"768":5.547622020779764,"769":4.034837927613382,"770":-0.9546841972048061,"771":-2.4724324794760557,"772":-6.730468489576267,"773":1.419675406077046,"774":4.330293532991417,"775":-1.8913377446978514,"776":7.780422751739309,"777":0.05166347852225479,"778":-3.503140356915988,"779":0.3394991490937734,"780":-4.668630986558236,"781":-6.309499021613371,"782":-2.0810061523761845,"783":9.245364055721815,"784":-0.6303556917201568,"785":0.5911600635499721,"786":-5.655615396246516,"787":-3.0148161952389376,"788":-8.193204583005015,"789":5.53082032233661,"790":3.4012682746727196,"791":0.28686592178206605,"792":4.539011817707775,"793":2.6532675750827432,"794":1.6407411030085801,"795":-1.6382985379819166,"796":-4.534460706497604,"797":-3.1734191259718605,"798":-2.55843998905203,"799":-3.3187972815587057,"800":-2.668479293270549,"801":4.256637342091691,"802":-4.219483169298196,"803":-8.394102982781929,"804":0.11748649943811962,"805":-0.16834400702552327,"806":-8.692382237271875,"807":8.306716518188228,"808":2.1502443471116885,"809":-1.8336043872537204,"810":2.7859623411376724,"811":-20.390936232073614,"812":-1.0680527277347258,"813":8.917439201749062,"814":-8.5158270837364,"815":5.010062580340687,"816":-4.3324897850395425,"817":1.3055057433864157,"818":-2.4193516824743577,"819":-0.39567515012185955,"820":4.889300926940766,"821":-2.125493756997957,"822":6.89123130406479,"823":-5.732047265417811,"824":-0.5012460045532054,"825":-2.4944188336209963,"826":-4.651236704587382,"827":2.8730402799785346,"828":4.557388229811241,"829":1.6383103081214192,"830":-2.872647588914638,"831":2.863696935345918,"832":0.24649267502116207,"833":0.22865127553769246,"834":-3.388178402377521,"835":0.7876637624005095,"836":-4.140459149000644,"837":-1.9099917075167596,"838":-2.661333396490837,"839":-1.5644408471785518,"840":-4.540948079450748,"841":5.528852628018869,"842":-1.0874620626800984,"843":1.6004916219525676,"844":7.485354476015647,"845":2.146363436600056,"846":2.13168420492707,"847":0.7023220610938881,"848":0.8123029329675124,"849":6.736842064089812,"850":-1.6663090884314342,"851":-1.3983718941818433,"852":6.0406362800451,"853":-1.617971994812207,"854":-1.7542753853899415,"855":-2.1936858348825017,"856":0.012227874557479418,"857":-3.4067456604629953,"858":-4.96044986198623,"859":-1.3552412612331888,"860":-11.381727313231163,"861":2.900198524352493,"862":-4.492547305862353,"863":-3.038772259426848,"864":3.9257944064350934,"865":2.25893211295124,"866":-3.5075649443162007,"867":1.7530173939878464,"868":1.1901557755316923,"869":1.8149275856391496,"870":4.21276234692094,"871":4.089416038871405,"872":4.894586027118054,"873":-1.7288282105084465,"874":-4.687085915894343,"875":5.372729582821352,"876":-0.8927337033501914,"877":0.9078211282858966,"878":1.4515525011430013,"879":-9.577689084953594,"880":-1.7411413002652834,"881":5.2296700883812655,"882":-0.8355064849471969,"883":-1.865706501358998,"884":1.268827459443796,"885":3.7285541184705027,"886":-4.721728180279709,"887":-2.1301008234371004,"888":2.4451348422762025,"889":-0.8656043206371477,"890":-11.046231893185126,"891":3.86195578468541,"892":0.49301597512562045,"893":-7.18678375693111,"894":2.3090601951437573,"895":2.6290282474371276,"896":1.7236479891904912,"897":-1.6140501356233516,"898":-1.3203221471880855,"899":2.0922829989013856}},"bf0":{"n":30,"d":1,"w":{"0":3.635909235841824,"1":-2.293141299096836,"2":-6.1234483607656385,"3":0.8266728649126174,"4":-4.9638358495294845,"5":0.5860260425706553,"6":-4.320465221529555,"7":-6.592418576293644,"8":5.885276562122082,"9":-5.316713373171941,"10":-6.7967682909053675,"11":-1.1142723432116,"12":-6.243160194168686,"13":-6.844322876168001,"14":-0.8624015121385764,"15":-7.742492741167117,"16":6.085015200592631,"17":-2.5752358582431816,"18":-2.4601575994503104,"19":7.278747078346346,"20":-6.6426045120647785,"21":-5.947358921408202,"22":1.5267420109866014,"23":-4.3525550032324745,"24":-4.795002556049215,"25":-5.40492228132867,"26":-5.906858914115465,"27":-4.85584079633453,"28":-3.7224843362478555,"29":-1.415898400539565}},"Wox0":{"n":30,"d":5,"w":{"0":0.0731955904283104,"1":0.22951465317767292,"2":5.69804124712231,"3":2.0707614245904793,"4":-1.7382266879184456,"5":4.109982362852455,"6":-2.9051813498730614,"7":0.7371645751662759,"8":-2.206453158943321,"9":-1.1365449307983102,"10":-3.43074505589607,"11":-3.467491251452085,"12":5.348743276789573,"13":-0.2215063863965821,"14":-2.49610423207727,"15":3.782889968996966,"16":-1.215741252162225,"17":-3.798804670762602,"18":7.717781262934422,"19":-1.78606928597023,"20":1.9970753470123885,"21":-3.2282738974754204,"22":-0.9062293574352898,"23":-2.824338071375863,"24":-5.2978586966697945,"25":-3.064930485429791,"26":0.6506002378754991,"27":-0.9528069219834672,"28":3.9963082826885237,"29":-1.8268066755351207,"30":0.47582235213187796,"31":3.352589135894735,"32":9.244781949074909,"33":2.7764957446042344,"34":-0.3362611234543497,"35":-1.3422192543106075,"36":-0.46350824772966703,"37":-0.33707389401232557,"38":0.42980310659615917,"39":-2.343275377516277,"40":2.510281120561977,"41":-1.5861302139240963,"42":2.811705693884471,"43":7.324069825634964,"44":-4.474952519425526,"45":-1.061575321196888,"46":-4.466222969006375,"47":-0.4368132264368876,"48":0.42802600516539147,"49":-2.3096012444057976,"50":1.3245081339671418,"51":-6.206702413364925,"52":0.5752999625757514,"53":-0.22805460963039642,"54":0.22501902164854562,"55":1.180403260089547,"56":-2.7069852479194663,"57":-2.4612273965106666,"58":-3.0911745770076973,"59":2.3819277722454175,"60":-0.5485345105624236,"61":-2.129671940839682,"62":-0.18913732714707104,"63":-8.545287905636265,"64":1.781748660790827,"65":0.832413998966013,"66":-0.23131710669371053,"67":-1.7676395869367674,"68":0.5408111335951413,"69":-5.3662207145494865,"70":-2.550505813524036,"71":1.8325363268897632,"72":9.911065723544452,"73":0.9846798585318131,"74":1.7802683509071526,"75":5.645060035461053,"76":-0.19093327385072753,"77":0.8549043785197556,"78":1.3809442772026606,"79":-2.289348658107572,"80":1.3145149386082997,"81":-2.52145771405914,"82":1.7406930603814303,"83":-1.9404087673242894,"84":4.019852568542624,"85":1.0136542608812702,"86":-3.2068731255388907,"87":-0.07823154920481892,"88":0.8813572333654277,"89":-1.9215101152179659,"90":2.1114575176619024,"91":-2.044243223896537,"92":1.8373559574000546,"93":-0.7792654567912556,"94":-1.2720131662506724,"95":0.4390631093371195,"96":2.7777929696095467,"97":4.757671704526337,"98":1.3669859786834024,"99":-1.1939495737030974,"100":-0.5494175683253013,"101":0.03293256293609077,"102":-1.6129821118356296,"103":-3.3448755528749445,"104":2.3560231565399636,"105":2.149718184385537,"106":0.7914603764874839,"107":-2.1888318831304483,"108":-4.179156281466897,"109":1.9359744452529655,"110":-1.135258415261753,"111":-0.10035125069119064,"112":-4.4177832830595305,"113":-0.1711873368222351,"114":2.863589814501653,"115":1.2461149032358492,"116":-2.1912861908346635,"117":-2.7789697232173123,"118":1.7949919917107928,"119":2.1617399593694553,"120":0.7239099122665354,"121":-0.6993637389490849,"122":0.7047815586160314,"123":1.9086567650968986,"124":0.8148199506684227,"125":2.699718055230708,"126":-0.6640914693344814,"127":-4.342612436098029,"128":-0.9386458590254512,"129":-3.0282172867497956,"130":-0.53649747754998,"131":0.3065120810267874,"132":0.20969437520758233,"133":-0.436974610959028,"134":-3.1761019270022564,"135":2.209493210688254,"136":-4.927996849869361,"137":0.4746174189904546,"138":1.9261237432809855,"139":-3.0442841430758896,"140":1.78004250479704,"141":0.17415558790563432,"142":0.7134125997210368,"143":1.5178885254789163,"144":-4.040298053397179,"145":4.291502664382162,"146":0.27051038675150085,"147":1.0158296461630094,"148":0.5891705828479107,"149":-0.9084578854713541}},"Woh0":{"n":30,"d":30,"w":{"0":-1.7481029977314937,"1":-0.7951508178363776,"2":1.0936609642184483,"3":-1.3601028110036162,"4":4.152575379706539,"5":3.831132729320719,"6":0.9614197712671348,"7":-1.046924008484837,"8":0.3940787424802265,"9":-1.866552755367288,"10":1.1360708336329544,"11":5.861181193499151,"12":1.9826710052619758,"13":1.7409455157101072,"14":-5.033958941007346,"15":0.74391829894619,"16":-1.2847730000365358,"17":-3.4603060154135576,"18":4.762348958527615,"19":0.459968957940812,"20":-2.7542873417961777,"21":2.5852670166078817,"22":0.7302681991055905,"23":-2.237058199041579,"24":1.9464338917129516,"25":4.416808404193984,"26":0.9959666057281077,"27":1.3580384485249843,"28":-1.9704127224205235,"29":6.075296019305527,"30":-3.1213610703290056,"31":0.9061204634712936,"32":-0.2635601597245847,"33":2.1507651782403614,"34":1.015939452720797,"35":-2.4636022075821646,"36":-2.4667858912451845,"37":-0.860296681162434,"38":-9.042817320331629,"39":-5.950320769107034,"40":1.6637475639170196,"41":4.656131685739627,"42":2.573869203381143,"43":0.2068739283059189,"44":2.5955938943269743,"45":-0.9165352370491401,"46":1.0298058153991367,"47":-2.840511232544204,"48":-2.3578134478246713,"49":1.382281687651745,"50":-2.841108857956981,"51":3.3301131816784038,"52":-1.3059744414121586,"53":0.2584099568990552,"54":0.08251383498080525,"55":3.5283618980016915,"56":5.119923428670974,"57":0.24777538231221885,"58":-2.5059446583644682,"59":0.5018235421910447,"60":-2.572800519742212,"61":-0.15474533349404918,"62":3.8050458960274938,"63":0.6901671254938726,"64":-5.103577573992715,"65":-4.323734228097327,"66":3.9906858810510055,"67":-8.53193017852725,"68":-7.816176123134413,"69":-0.6051667007892979,"70":-0.05472002746328566,"71":-3.5467735455701743,"72":-0.3753032263157212,"73":-4.340872397544513,"74":-3.6848438292021317,"75":-0.43082791251430924,"76":-1.9449887600978304,"77":-1.3840700603552565,"78":1.1292698726734733,"79":-1.7341913985999897,"80":0.7960800120726682,"81":-5.9163370663556965,"82":2.514956519771728,"83":-0.01833988165534661,"84":-1.0716983600956622,"85":1.436203068570734,"86":-3.421165979521946,"87":-15.284958818499462,"88":-0.7355098212036976,"89":5.0939558352667484,"90":-0.14460785792583025,"91":-0.9350280261455025,"92":-1.0420694996938278,"93":2.864581119117916,"94":1.0896853654391017,"95":0.8542850791345761,"96":-0.2474410641045661,"97":0.6386746783746808,"98":3.876244870037444,"99":-0.4477206411505149,"100":1.1322643401818413,"101":2.0820013491162443,"102":-1.1582134331530387,"103":0.17057972367992366,"104":-1.7960284882475464,"105":0.6845275824983728,"106":-1.0491785023724367,"107":-3.9049618165122233,"108":0.024751367397040043,"109":-4.692563570569326,"110":2.144632768853548,"111":-0.8174551247489739,"112":0.25316144336496826,"113":0.7199938777393111,"114":-1.4629156541527433,"115":-2.1882750609015384,"116":-3.5142931650927522,"117":-0.5687346809096546,"118":0.1832757947463778,"119":3.51211473369882,"120":-1.1392823287981406,"121":0.28093922738155885,"122":2.371830418780597,"123":-2.2933841148577643,"124":-0.2613358658341319,"125":-2.478560504896337,"126":3.9225678380145386,"127":1.2730748503790452,"128":-3.9897920546895,"129":-0.06826696335284763,"130":3.825308598309062,"131":-1.3530654046196855,"132":-0.41496342745340775,"133":1.1292725279723803,"134":2.7944407444071797,"135":-1.198133776723398,"136":-1.223983129199796,"137":-2.615289461756594,"138":-2.6947009725646676,"139":3.211760427595515,"140":1.988426701962279,"141":1.781693712775812,"142":0.9877797503165844,"143":-1.6153776115159624,"144":-3.174677823373556,"145":1.5410120017649642,"146":-2.9021751820922614,"147":1.5196313989145611,"148":-0.9682037863116991,"149":7.239973841418817,"150":0.008938601656512836,"151":-1.5210752358128727,"152":-4.1734155236936905,"153":2.9419311047761485,"154":-2.9542754653579064,"155":6.540597989027895,"156":0.37742221234813905,"157":2.2509005438393497,"158":2.1693678847759466,"159":1.708811436685859,"160":1.237503109032289,"161":-0.662196323292305,"162":0.36624170396822175,"163":0.6240656890733313,"164":0.2562223838725655,"165":-4.277268376828231,"166":2.312288281170353,"167":-0.8379736685112354,"168":-1.4949169221805303,"169":4.474255230290521,"170":-2.161569874499691,"171":3.362780294085356,"172":-0.3498909682126486,"173":4.144148920059336,"174":-0.7603516049385599,"175":-1.2348237562060898,"176":-0.6207234732244864,"177":3.0768534936171865,"178":-0.00048759116261176395,"179":-0.882797236061083,"180":0.7673906861479082,"181":-1.7757934284647021,"182":6.491605866206485,"183":1.4317472545766934,"184":2.0454339435711395,"185":-0.6732440002981257,"186":-5.041789132875812,"187":-5.747853327738311,"188":2.0665440175450134,"189":-2.9622447406338424,"190":0.10708618405457905,"191":6.065733597309864,"192":2.7737510076325176,"193":1.5746539236213424,"194":0.4911622849571815,"195":-4.501966954887461,"196":-4.109422731358251,"197":-2.123352358202269,"198":-1.3818951288765207,"199":-0.05597772102556619,"200":-1.9684473933344118,"201":-0.7155545163713023,"202":-2.086008168466753,"203":5.5388812088119375,"204":-3.139070196582942,"205":4.686287527893256,"206":-0.9507841940193148,"207":-6.889458528245121,"208":-0.3844501524047304,"209":-0.6356327824255478,"210":4.332665472059768,"211":-2.7033927303474377,"212":3.3566402106748336,"213":-2.5357902339428526,"214":-4.724142869251941,"215":0.21934559706886525,"216":0.2252429441085564,"217":1.031568212619719,"218":-0.1334872522587011,"219":0.20724639198781192,"220":-2.5489303875747673,"221":-5.638240433962678,"222":-4.643635799647259,"223":0.06975646815788757,"224":-0.2179433831999665,"225":-3.714353891577816,"226":-4.151578465815585,"227":-5.883189655631897,"228":2.278337113763302,"229":-2.390022190029676,"230":2.7545081439198675,"231":-2.2253089990752835,"232":-4.558555554445149,"233":-2.9831629551252687,"234":-8.75906970025766,"235":0.38329507880284897,"236":-1.1507496611369308,"237":-4.254020709246683,"238":0.23632315274628066,"239":-4.9000003815520214,"240":1.0966314118701286,"241":2.2637866657122663,"242":-2.7200577218259543,"243":0.27979042056729764,"244":0.18999159915173328,"245":0.9375785432431865,"246":-0.7728078998842186,"247":4.315640421412384,"248":-0.19983099316035996,"249":0.38146593206837254,"250":-0.3539191648050703,"251":-2.7588036759300434,"252":-0.10535802037790751,"253":-0.28547845328983734,"254":-1.6461593851028005,"255":0.4553505077299056,"256":-1.0340174185876658,"257":4.671992838552758,"258":-1.5442787294966178,"259":2.2047862655493637,"260":1.2158408124154674,"261":-0.8605885664220134,"262":-2.9346306340508184,"263":5.891586917352972,"264":0.014135532774336773,"265":0.8679769464716595,"266":-1.275005858251088,"267":0.6775745813829783,"268":-0.23791035490201118,"269":-0.1427509530213255,"270":1.263491207274347,"271":-6.153483721322724,"272":-6.242390768906757,"273":6.068376556863832,"274":1.1222258614815217,"275":2.3293896223789203,"276":1.667385852381393,"277":-5.227551686400375,"278":-6.368482721134625,"279":-3.90608874123163,"280":-1.763469645168951,"281":2.2824555399875526,"282":0.7689566950313403,"283":-2.338766971448432,"284":-4.689150447521242,"285":3.456773098811025,"286":0.7756757384857272,"287":1.7999917538306318,"288":3.8085362025399845,"289":-4.212484730557478,"290":-5.392305059604681,"291":0.8102637467966997,"292":-0.304848293133319,"293":-3.192794667827841,"294":1.3100598805673629,"295":-5.752486250739106,"296":2.847118425290448,"297":-1.0688351678140766,"298":-4.619650863045794,"299":-0.5747730701340854,"300":-3.2543146293081353,"301":2.618979993860164,"302":2.3440179018426184,"303":5.692270599235576,"304":1.385240795172392,"305":7.2845995930470515,"306":-3.0812207999811743,"307":0.3329392967135045,"308":0.7835672720818572,"309":1.2815128291488205,"310":5.306401856190926,"311":2.99318856023341,"312":2.6853396536318397,"313":4.302032994325901,"314":3.105582918000829,"315":-5.480777901794561,"316":-3.988776103548979,"317":0.9592402794150704,"318":1.6527627633051136,"319":2.1975986275139703,"320":-0.5271665317832938,"321":5.019594488433763,"322":-2.993927638708068,"323":-2.18795107448557,"324":2.7866711467745957,"325":-2.009607193239641,"326":4.101877810167118,"327":0.36819718601969276,"328":3.8109364323564363,"329":0.14448863633209125,"330":7.0687916592271645,"331":-1.471458590030829,"332":1.009620844557563,"333":0.03055337449373063,"334":0.1372149709630517,"335":1.61623362775693,"336":-2.122505890832269,"337":1.1941511393072068,"338":1.0256712019255865,"339":-0.5104430604546648,"340":0.22980119735401003,"341":-0.9728756019011117,"342":-0.21393239460772623,"343":-3.6010851380554585,"344":1.8978697878448865,"345":0.48404730520653344,"346":-4.0766757130089175,"347":1.0632574776790757,"348":3.6022937936289723,"349":4.327217877209481,"350":-0.4161213436294288,"351":-0.7098152674839215,"352":-3.111763335881072,"353":5.692663517889076,"354":3.3803872025960198,"355":-6.1133858571683986,"356":-6.221483606295456,"357":-1.4530071248484462,"358":2.67671581206758,"359":-3.35249897616491,"360":2.6350683694725685,"361":1.7161853314774178,"362":-4.973760982865965,"363":-0.3979522081566945,"364":-0.5874211839753237,"365":1.151474074537354,"366":-2.7825741395967962,"367":-0.2923990269088662,"368":0.276460593743956,"369":-1.3240090566185934,"370":1.477473282925197,"371":-1.0143831152437544,"372":0.7340481139730103,"373":5.606971492809571,"374":4.356783436884607,"375":1.4822529720513216,"376":-3.2479930994856865,"377":2.5897228959577463,"378":0.0554871481279319,"379":-2.619939834309466,"380":4.9998946106136986,"381":-1.6155231489413213,"382":-0.4260653137998216,"383":0.26081093152109674,"384":0.6657328498691926,"385":5.123327548002663,"386":3.3896355201107666,"387":-5.951742132376246,"388":0.7753409013304884,"389":3.156595438044976,"390":-3.1668864986341565,"391":2.944931010947467,"392":-2.318114408763093,"393":3.97129021091469,"394":5.180627209560651,"395":-0.4509816313362844,"396":-3.85861797836233,"397":-0.5930615634947313,"398":2.749444094435652,"399":-0.3752592402492345,"400":-2.392030228384487,"401":-1.3314829502049152,"402":3.1000159225312554,"403":4.670986373559929,"404":2.0084274825068036,"405":-4.854134679766021,"406":-1.3188207100034446,"407":-0.07491297851486663,"408":3.1506448113572203,"409":5.31201586637451,"410":5.545395915490371,"411":1.1273762094965367,"412":-0.30258986111094693,"413":1.8502870158957345,"414":0.7301878887932851,"415":-0.775489681871257,"416":4.453199222826114,"417":-1.3978349467411906,"418":-0.9206895276169573,"419":5.0393615481486576,"420":1.366797177991047,"421":-2.663079792805905,"422":1.3131582363190248,"423":2.0761138728352724,"424":1.6404205906542453,"425":3.9646445464103506,"426":1.3979996884726704,"427":1.2292559829821066,"428":2.29167497215335,"429":-1.880930020289082,"430":4.0301846330404025,"431":2.9110423922630924,"432":1.6818336967535017,"433":-0.8591663909405044,"434":8.798532623172655,"435":0.025727269443577123,"436":-0.8869336904485783,"437":2.2172369257170943,"438":1.459102912192604,"439":3.2089127521101757,"440":-0.4398989253325219,"441":-1.120226659871083,"442":3.3937113699451382,"443":-3.5555996489582102,"444":0.19279715937035477,"445":-4.693912837124268,"446":1.7798949233292145,"447":-8.269983683730276,"448":-2.8110919304428448,"449":1.1539484694198587,"450":-0.749850297830059,"451":0.651500003484278,"452":-2.640946097632718,"453":-2.6182036078994817,"454":-0.6139488165526106,"455":1.3443865770226715,"456":-2.0871085666617217,"457":1.7022599074309666,"458":-0.6930391625830206,"459":2.87064741202855,"460":2.3583600201885146,"461":-2.920001645447763,"462":1.1980702576615254,"463":-1.1250453379434473,"464":4.172764999125464,"465":-1.4355345904034493,"466":-2.3629715373263624,"467":2.39487770202537,"468":-2.131034949913885,"469":0.14737145315414635,"470":1.8583030916573235,"471":-1.0494898960684758,"472":1.0066789754465777,"473":0.6740887652313543,"474":3.130557347234798,"475":0.6921797935126695,"476":-4.373847091034981,"477":-0.004284273718766893,"478":-2.0469875740876584,"479":-0.20452289311367317,"480":-0.0016340807065891756,"481":-3.502143122150835,"482":2.026590338671808,"483":-3.395276808502471,"484":-0.26783372271209016,"485":6.220861791454945,"486":-0.6409538832857005,"487":-0.51838229039531,"488":3.4490896415721797,"489":-0.6541902634836737,"490":0.3188200008365832,"491":3.058285404789802,"492":0.3265905454062395,"493":-0.8012502184463403,"494":-2.7005823574471095,"495":2.6486449688855354,"496":3.9209451233428636,"497":2.0845116883695796,"498":0.5194794620222725,"499":2.5062118841491308,"500":-0.8959656301736384,"501":1.4589282538561803,"502":2.15432585348175,"503":0.7892500094867838,"504":7.0512556406067075,"505":-1.0722775485790432,"506":-0.8868399204812071,"507":-2.094679981695936,"508":-1.9682414344993613,"509":-0.7664794673147223,"510":-1.8463886263010598,"511":1.1096320661616046,"512":-0.510180687748883,"513":2.6356826420430823,"514":0.4460217051816098,"515":-0.7415568812317697,"516":4.5661924671022645,"517":-4.07116944739982,"518":-2.5917751647458,"519":7.573421244218866,"520":2.9885392607901187,"521":-4.825628357765332,"522":-2.476896631764037,"523":0.6529418819656837,"524":0.06613180922834523,"525":3.0508201675494404,"526":1.1146653013175587,"527":-0.5252785338572091,"528":-1.812310924775659,"529":0.3421947040792291,"530":4.377490804206432,"531":-1.2877973145501986,"532":7.16704000373464,"533":-5.958604032550437,"534":4.9018285902363266,"535":-3.278823312548142,"536":-0.9080596975062709,"537":0.22115395602034893,"538":-1.4800374868682582,"539":1.399418542974474,"540":-0.8593977427275086,"541":3.0486342494842273,"542":6.671916912789019,"543":6.100354382505822,"544":-1.4845943049125492,"545":3.684462845910165,"546":5.787488572791497,"547":0.4031108807286696,"548":-5.3074289969331625,"549":2.1519391394780807,"550":-0.43698152272934737,"551":-4.465470997549449,"552":-1.6051148770316594,"553":3.571332667306413,"554":5.147022329560906,"555":-0.6980543745942366,"556":2.2609001085613865,"557":1.32131956189638,"558":-0.4269490638854073,"559":0.8315721299067432,"560":2.6887604784910777,"561":-4.027432992685257,"562":-0.8069822305349861,"563":2.289239163006748,"564":-7.367548102104893,"565":-3.912853528649442,"566":2.2147407335740064,"567":-1.9413337541092517,"568":-2.0644194107096285,"569":-1.3602507812474123,"570":-0.38148761258694364,"571":-2.150378201858322,"572":-0.49039586652030187,"573":5.120466282586065,"574":1.9035697385572565,"575":-2.5808517271730236,"576":-4.577205879948817,"577":-2.9781473519152875,"578":0.2446842578853005,"579":-2.6679686580574655,"580":1.5580441787066088,"581":-2.005741487392866,"582":-0.34509767389849016,"583":0.5256238449752739,"584":2.2252133884394576,"585":3.7289115157080124,"586":0.7006340365015736,"587":-1.3693558938886843,"588":0.18026309108965463,"589":0.27425726060959177,"590":0.9764973624797176,"591":0.9853265724767487,"592":1.0239125309746053,"593":-0.6301214739839346,"594":1.3655644392973003,"595":-3.8494495877596417,"596":-2.7827906826772977,"597":-2.463947242498812,"598":0.32222974400988924,"599":-0.8345768897890272,"600":0.7294484846289363,"601":0.15935813500398052,"602":8.944548268904907,"603":-3.4221069003385765,"604":-0.42771122097357617,"605":4.321852969569157,"606":-0.05028933355558813,"607":0.09331983314224743,"608":2.4549318307526,"609":-2.928217480245817,"610":-0.8330581135165605,"611":0.6745925487846959,"612":0.9618467299202585,"613":-0.8229796951433912,"614":-1.4011333097593137,"615":-0.11046754018563236,"616":-1.4125348716694053,"617":2.8183973438201777,"618":4.082529897303687,"619":1.071990714434271,"620":-4.325938591237556,"621":3.218853901407896,"622":-2.4063712568369997,"623":0.18966154272266303,"624":1.7816916437217272,"625":-0.37683458683586707,"626":-4.316872007919372,"627":3.3227311533604262,"628":-5.029535276971227,"629":0.6513693361339202,"630":-1.4842568210316942,"631":6.930413122198795,"632":2.5569520721226007,"633":-1.46704704968297,"634":1.4592153405066195,"635":-0.04689622463061477,"636":4.5351025068086335,"637":5.629847407063692,"638":0.9634229168468529,"639":1.400512842154657,"640":3.817152804450311,"641":4.003199475741329,"642":0.44588533758255855,"643":-3.9700366797812783,"644":1.7830109672032546,"645":0.46203853600651235,"646":-0.8183860267129215,"647":3.452536624490938,"648":-0.3302800045005594,"649":2.4787111797030086,"650":-1.3615728050844387,"651":1.0749707074608494,"652":0.03271943603122774,"653":0.7246360113081871,"654":2.543343353427863,"655":1.0466759647744783,"656":5.337095977801631,"657":1.8687542078672061,"658":1.4183707521114743,"659":-1.455467676696816,"660":-1.5070040202994999,"661":-3.4785951526488206,"662":-2.1526720167705755,"663":-0.9002754519253449,"664":1.150586525751092,"665":0.21577990811667588,"666":-2.8146394714736007,"667":2.3750896038344513,"668":-0.5822853466375715,"669":-4.389689840990891,"670":-3.2726949540605266,"671":-2.5134061544365616,"672":-1.2849122771991812,"673":0.5153002601483769,"674":-2.071494825740857,"675":0.24219960574320054,"676":3.2629069804299116,"677":2.8843783086220878,"678":-3.997378024633326,"679":-3.3890830468093696,"680":-1.4423816598500376,"681":-2.1049600055429654,"682":-1.7893119873482939,"683":-0.8669616686573448,"684":0.15879648505415325,"685":1.8889555486486211,"686":-4.3843884837642,"687":-0.18859356483719322,"688":1.7627990524630646,"689":0.5500192502750053,"690":1.407356115153877,"691":-2.07350591022278,"692":5.047832864341169,"693":-1.2805707658983634,"694":1.2887393338241189,"695":-2.713387669931045,"696":-3.4177528660621412,"697":1.0821809580830961,"698":-1.0278317179791103,"699":-1.6071087525876366,"700":-3.1187275496079248,"701":-2.5106992525315563,"702":-3.3181937809863506,"703":0.0644921532564949,"704":-0.6220227551441773,"705":2.110914069046692,"706":-3.819062968395275,"707":-1.8944167695755174,"708":-1.8764743971448947,"709":3.045327960908065,"710":-3.367467661516891,"711":-0.7490163133860557,"712":-2.3242653657982757,"713":1.2015512924856715,"714":-1.7432276422527269,"715":4.255178043719018,"716":-4.973323999288303,"717":2.556514156329502,"718":2.3059789090779574,"719":3.5295035131426027,"720":-0.32697232312622865,"721":-1.8686379634921217,"722":0.164736576195197,"723":-0.36366909160572547,"724":-2.217598617819214,"725":3.351333581855043,"726":0.5398385447345584,"727":0.9998330648091165,"728":-1.3149374541882515,"729":-2.3696760917128517,"730":1.1860496225993817,"731":0.473543834456832,"732":-3.2087471923726274,"733":-1.1145909907842855,"734":2.0540791853204023,"735":-0.06949075121473772,"736":-1.678649489912494,"737":0.9370474554074982,"738":-0.508080072715897,"739":2.0746715632872608,"740":-0.8865171233529041,"741":-0.41289626391516865,"742":0.0010419054866438447,"743":1.2424375555552587,"744":0.8932640659020852,"745":2.2269311242166356,"746":3.092066754447256,"747":-0.4309543500936891,"748":2.277564265027794,"749":0.034065178413400087,"750":1.1540771761100166,"751":-4.813452364701374,"752":1.5937123539684026,"753":-1.9221872685047532,"754":-3.4044027152764675,"755":-0.30982137145772,"756":2.166314955085043,"757":2.5294117647923695,"758":-4.059185777324,"759":3.0725855525294143,"760":3.3443271612394145,"761":2.2745139634058202,"762":0.8358081091768411,"763":-1.7275115769846556,"764":2.2776163285454047,"765":3.1411967874021154,"766":-3.46043431143546,"767":8.743645656386189,"768":-1.695665961749782,"769":11.581620737226856,"770":-4.4619200003677015,"771":2.231856870142819,"772":0.6933706773136148,"773":-3.2093463726204066,"774":8.998500842763194,"775":-3.295649355287739,"776":0.2848188622897683,"777":-3.301102258039487,"778":-5.301196144407166,"779":8.12623532287859,"780":0.9763105495623932,"781":2.1729804585842336,"782":0.15120484053571495,"783":4.828697326851312,"784":-0.4008545895328783,"785":0.547532457522833,"786":-3.7154932212647993,"787":-0.6514843404304451,"788":-4.496064479128177,"789":-0.7275046523117802,"790":2.5848817757983604,"791":-3.960162387783103,"792":-6.431765990215331,"793":-1.7660230506304653,"794":3.0479645238880333,"795":8.088223003170459,"796":0.4865791359410208,"797":0.9019172184517859,"798":4.477745816808411,"799":2.6051049663697823,"800":2.4679316342350264,"801":-4.1995964168467985,"802":0.023898603680931326,"803":1.3939676356520312,"804":0.7832651251551982,"805":1.5744392571945145,"806":-0.6072424541681143,"807":-4.839354204313741,"808":-6.227612885786738,"809":3.61440901880902,"810":-0.5195766226274053,"811":-1.1402836058480919,"812":-3.819592155708855,"813":-1.054261173036166,"814":-2.6589844823532562,"815":4.1531773717094715,"816":0.5342044723990816,"817":-0.4446585113800325,"818":-2.566028033044943,"819":1.657385423289021,"820":3.3873263764966977,"821":-15.548419241604439,"822":-9.249666677304605,"823":-3.6355180413369466,"824":-3.0652493136300247,"825":-1.588583026768797,"826":-1.7794166471470012,"827":4.206943612407069,"828":0.21294883697565334,"829":1.5896866791557285,"830":-4.180394683687268,"831":-0.7687011031342129,"832":-2.8303996127854885,"833":6.274216224300153,"834":3.5991046834473357,"835":6.437225175724121,"836":1.8579233660438108,"837":-1.931823628609884,"838":-4.164064989834676,"839":6.587962850460254,"840":4.95754387140328,"841":-0.9260073033436659,"842":-1.7424388276019518,"843":1.49181160894523,"844":-1.1270363987803433,"845":-0.14771426153994374,"846":-0.5168237658911481,"847":1.096300800001369,"848":-1.6147575035184416,"849":2.49828707494253,"850":2.578246752053648,"851":-2.098235238703876,"852":0.058421760038462354,"853":0.21973253305897203,"854":-5.909641989263053,"855":0.9749006597892724,"856":-1.4092551318367368,"857":-4.911428677898196,"858":2.3647731723689596,"859":-4.178503118442886,"860":4.052289734869338,"861":-1.1917141684604782,"862":-0.6165040573511195,"863":-1.6604037373360767,"864":-4.1820959711155865,"865":-0.9757037763820882,"866":-0.520293960860551,"867":-1.0468038413338203,"868":0.741914469942925,"869":-0.8802067663705979,"870":8.228327131717247,"871":2.238977580232251,"872":-1.1933848873203312,"873":3.196142711299412,"874":3.1625500212092055,"875":0.06955485253281132,"876":7.2364318172284765,"877":-1.9331866153415491,"878":-3.3045325830313255,"879":-0.8269386338160865,"880":-1.0317308850269065,"881":5.31187252187385,"882":-3.9981671192748807,"883":2.389576266849413,"884":0.26173468534855765,"885":0.5622662870265338,"886":-0.19218517101604418,"887":5.812826820858824,"888":-0.4059531595098586,"889":2.3064897548856655,"890":-3.1750990081254,"891":0.9457974853873966,"892":0.9875115063917146,"893":-4.411089630571506,"894":4.300954678092977,"895":0.4906913891275061,"896":1.0414485897878185,"897":-6.4640996313163726,"898":-1.8316757527658842,"899":5.530913827420562}},"bo0":{"n":30,"d":1,"w":{"0":5.637900307499951,"1":-3.136485843702947,"2":-5.0148050338276855,"3":-1.3128639921523306,"4":-0.8680931396398903,"5":0.6691391402203223,"6":-4.315529895219824,"7":-0.6328898143214663,"8":1.6743411979318257,"9":-0.6982467348730194,"10":0.2866159888930353,"11":-3.3880126949717835,"12":-0.4781490824925753,"13":-5.824146989088458,"14":-1.4109165630270593,"15":-2.220984960368591,"16":4.316319136897506,"17":-2.4116206916037655,"18":-0.5678849217175673,"19":-2.2108626697410054,"20":-1.2243838726285317,"21":3.3406640489084913,"22":0.686960450032546,"23":-1.588756218810679,"24":-0.2644579656939195,"25":-5.609874677381882,"26":-1.4202849777506512,"27":-2.8663210348651753,"28":-1.2845134402612488,"29":-3.142233122206009}},"Wcx0":{"n":30,"d":5,"w":{"0":0.5908007812562108,"1":4.087401055991967,"2":0.03454421264032473,"3":1.1740051331180392,"4":-1.1705655191391253,"5":-0.02482046073695707,"6":-3.4479158428427397,"7":1.6027210207815081,"8":-0.49446415558136203,"9":2.9168866803338513,"10":2.0548361202019563,"11":-2.2151612873970286,"12":-5.659495689868831,"13":2.3105608739142554,"14":-1.6549365064801664,"15":1.652482713196552,"16":0.6419902273283956,"17":1.7392902226555436,"18":-0.4306631386702292,"19":-2.2625413183952325,"20":-4.63601590711956,"21":-0.9934013441699483,"22":-1.302575474511836,"23":2.1553472081311793,"24":3.711752594636343,"25":-0.02937143863064233,"26":-0.09608023401759277,"27":-0.27577923787677455,"28":0.18011607505340044,"29":1.732706212028248,"30":-1.3079134650259734,"31":1.1798306983307685,"32":0.33026789857392397,"33":0.8783391537917485,"34":3.1616824810018667,"35":1.181656729326237,"36":-0.007026443407182089,"37":0.6508411478477091,"38":3.4767955507335158,"39":-1.2850889696846153,"40":0.591503076205372,"41":1.586008340767757,"42":-0.37093418345186546,"43":0.7008677512358107,"44":0.47743641879493487,"45":-0.3076708875918204,"46":-2.0343966122496746,"47":-0.5795932406218313,"48":3.8389016332483217,"49":-0.755415821049276,"50":1.380348533441169,"51":-2.2129233179177175,"52":-1.6734544701385259,"53":4.105376392637502,"54":1.921206822767288,"55":-0.35536288540750394,"56":-1.5548085167716688,"57":0.4454789367859502,"58":0.09498074585282362,"59":-1.6298215160313463,"60":2.951969438207077,"61":-1.6967781435345175,"62":1.6482918475916861,"63":4.069954470043224,"64":0.0926869909615105,"65":-1.7239355424109764,"66":0.058009350281383334,"67":2.854857813009147,"68":0.0776677743953188,"69":2.8706099424286045,"70":0.13759773566363145,"71":-0.27833044102887317,"72":1.4839297830008737,"73":2.0299981070524913,"74":1.6331561508264087,"75":0.30643586840190074,"76":3.352445842651853,"77":-4.51804056270069,"78":-4.021254896499689,"79":3.1194721067440074,"80":1.371968174230877,"81":-0.38591534716035525,"82":-1.978588917029339,"83":0.8752360889843124,"84":-0.13265111594084023,"85":-3.3013329884132774,"86":2.762268943930426,"87":0.9799763545317671,"88":0.2709835797489384,"89":7.487335552400051,"90":-2.060702726823419,"91":-2.447684642201862,"92":6.501573184277732,"93":-1.4549140104429106,"94":-2.7791735605089283,"95":-3.24567190434379,"96":0.3915430276948571,"97":1.664134185969072,"98":1.6924368460140289,"99":1.8099038748634113,"100":1.9556767732196774,"101":4.354119257283639,"102":-0.14442568429315716,"103":-2.073296172327804,"104":-4.11511598448185,"105":0.10885014337917029,"106":-3.1999162953461515,"107":-0.46960287496603165,"108":4.522780273472734,"109":4.499401168441398,"110":1.1578371305912234,"111":-3.005535012236384,"112":-0.9161780637374659,"113":-4.105514280222107,"114":4.646925402268341,"115":7.0057735071068725,"116":1.7502268940628645,"117":9.467309345585416,"118":2.239183358592689,"119":-5.337682138511323,"120":-0.7415735625231903,"121":-1.1581319061404314,"122":-1.823641834402107,"123":-1.8624885526271535,"124":-0.33730826164786354,"125":-4.569158204089519,"126":6.660868769758869,"127":1.0511066289729338,"128":1.0762958915043745,"129":1.2071735387042457,"130":-3.7104965470346247,"131":-2.26284272136059,"132":-1.778296787579183,"133":-0.3772315791693926,"134":-2.523554232304882,"135":0.5334169454863185,"136":0.558482911879659,"137":1.750956719992716,"138":1.0964949875202976,"139":-0.97107657282088,"140":1.2625882985106371,"141":1.0548479001236657,"142":0.9685587861742408,"143":4.1137049260223115,"144":-0.5009448198912835,"145":-0.7454568624361015,"146":0.3183454975654022,"147":0.293541031895107,"148":-0.4020235693529048,"149":-0.13073150584033444}},"Wch0":{"n":30,"d":30,"w":{"0":0.7435815630251417,"1":0.6420035445345259,"2":1.647684888410509,"3":-0.9889967841427661,"4":-2.330111938031433,"5":-0.04114584439518342,"6":0.33824831100162933,"7":2.4365270604540057,"8":-5.958698000669744,"9":1.1233989582128412,"10":-1.1829640756313502,"11":0.48794353630373427,"12":0.20368030573121926,"13":0.028350585957712122,"14":7.662008626473449,"15":0.6063941682704501,"16":-2.9787953403723315,"17":-2.2402806761548666,"18":3.830216209095264,"19":2.4255223075427166,"20":-4.250673759493627,"21":-1.5627671619964358,"22":1.2740730478808,"23":-2.972820908421959,"24":1.4232781836419262,"25":-0.7575151965502785,"26":1.609794536725518,"27":-2.3682135864762426,"28":-0.7301630215847655,"29":2.577401424167627,"30":-1.8386399142891932,"31":-0.9776114772638843,"32":0.528809386148063,"33":1.8077019887117323,"34":-4.346629259795895,"35":-0.8523402680205175,"36":1.7561160507471518,"37":-2.3390492790669657,"38":1.6846690609859118,"39":3.6064143153201194,"40":-0.24290772368600147,"41":-5.699406764955282,"42":-3.21960530659938,"43":0.27464380848442044,"44":4.080220960469785,"45":-1.486766955173471,"46":3.90650909622666,"47":-0.5182796312175727,"48":2.4424960403769935,"49":0.45847404085326837,"50":0.26426028782857897,"51":-3.5686385361090194,"52":1.9484267397392212,"53":-2.354439374602009,"54":-2.204529447571919,"55":0.6689869080217583,"56":-1.4732009852786492,"57":1.8993793978241824,"58":-3.7620076000163465,"59":1.252234955622202,"60":2.563544563965044,"61":-0.10498118879334303,"62":-1.1951209378568268,"63":0.15759143284822955,"64":-0.5558681370874402,"65":-2.5319439674416016,"66":-3.5767772491281145,