window.characterToIndex = {"0":1,"1":2,"2":3,"3":4,"4":5,"5":6,"6":7,"7":8,"8":9,"9":10,"H":11,"i":12,"g":13,"h":14," ":15,"s":16,"p":17,"e":18,"d":19,"a":20,"n":21,"m":22,"u":23,"l":24,"t":25,"c":26,"o":27,"D":28,"r":29,"b":30,"k":31,"w":32,"(":33,"K":34,"W":35,")":36,":":37,"f":38,"y":39,"E":40,"x":41,"S":42,"j":43,",":44,"O":45,"T":46,"v":47,"C":48,"R":49,"-":50,"V":51,"z":52,"q":53,"N":54,"M":55,"A":56,"X":57,".":58,"/":59,"P":60,"I":61,"B":62,"G":63,"F":64,"U":65,"L":66,"\\":67,"'":68,"<":69,">":70,"+":71,"?":72,"Q":73,"Y":74,"â":75,"":76,"¢":77,"J":78,"Z":79,"_":80,"&":81,";":82,"Â":83,"®":84,"*":85,"\"":86,"!":87,"":88,"@":89,"":90,"":91,"":92,"":93,"`":94,"=":95}

window.indexToCharacter = {"1":"0","2":"1","3":"2","4":"3","5":"4","6":"5","7":"6","8":"7","9":"8","10":"9","11":"H","12":"i","13":"g","14":"h","15":" ","16":"s","17":"p","18":"e","19":"d","20":"a","21":"n","22":"m","23":"u","24":"l","25":"t","26":"c","27":"o","28":"D","29":"r","30":"b","31":"k","32":"w","33":"(","34":"K","35":"W","36":")","37":":","38":"f","39":"y","40":"E","41":"x","42":"S","43":"j","44":",","45":"O","46":"T","47":"v","48":"C","49":"R","50":"-","51":"V","52":"z","53":"q","54":"N","55":"M","56":"A","57":"X","58":".","59":"/","60":"P","61":"I","62":"B","63":"G","64":"F","65":"U","66":"L","67":"\\","68":"'","69":"<","70":">","71":"+","72":"?","73":"Q","74":"Y","75":"â","76":"","77":"¢","78":"J","79":"Z","80":"_","81":"&","82":";","83":"Â","84":"®","85":"*","86":"\"","87":"!","88":"","89":"@","90":"","91":"","92":"","93":"","94":"`","95":"="}

window.hidden_sizes = [30,20,20]

window.model = {"Wil":{"n":96,"d":5,"w":{"0":1.3217299987638873,"1":2.5535047041398657,"2":-2.1332185197270768,"3":-2.114741112898652,"4":3.2870899712598205,"5":-10.399092685329643,"6":-1.6050419255474753,"7":0.40641547046813636,"8":-1.6470686817245708,"9":0.19571156613394047,"10":-2.0922527546520375,"11":0.43944880308160283,"12":-0.4798761598988836,"13":0.317506910563431,"14":1.0711841070030539,"15":-6.112662581822941,"16":-2.95106787535833,"17":-1.2551196838948582,"18":-2.4180203133398677,"19":-2.4495742653025303,"20":-5.379601382927154,"21":-2.4148969602932766,"22":-0.031477115399586954,"23":-2.3550026335614627,"24":-1.385980989026427,"25":-4.420045214148425,"26":-0.11781672522574246,"27":1.3374508338733924,"28":-3.060023472974998,"29":-0.7794939182567105,"30":1.9696088396359626,"31":-1.3357842171535317,"32":3.262190979461137,"33":-2.6092764866278695,"34":-0.8310216651483648,"35":-2.056024799199627,"36":0.25342437498006,"37":-0.04866612224522383,"38":0.9864374557581242,"39":1.5098359986924745,"40":2.6134852127000077,"41":-1.485904548325086,"42":0.7396209448299721,"43":-4.95895607515514,"44":3.5597647523182343,"45":3.140719093944824,"46":-2.959658745125445,"47":1.1183295461111384,"48":-5.555989187795279,"49":4.766951320880458,"50":-4.884322012378704,"51":-0.5561113737477681,"52":-1.3326271235999407,"53":-0.7164371381106323,"54":1.366370217900545,"55":0.6271121331226456,"56":6.328188721997726,"57":-2.9743490240512163,"58":0.05151246009958542,"59":-2.321813854864954,"60":-3.047934312888986,"61":-0.8103470160297651,"62":1.2272661296752843,"63":0.16525573992615306,"64":2.6464040176788015,"65":-2.988116953162698,"66":2.609258966865531,"67":2.6888776549306646,"68":3.7687008146199736,"69":-3.440207097373461,"70":0.8979977818823713,"71":3.663878993477348,"72":3.2202621037172725,"73":1.486430710372169,"74":-1.8861348182526165,"75":1.1874383920086933,"76":7.139958019543166,"77":-5.768960548959712,"78":-9.094554183860277,"79":6.791102062849276,"80":1.6862400430772948,"81":-1.2454128911672622,"82":1.7267093465007268,"83":4.03164884488556,"84":-3.3285403707191894,"85":0.36956439487451187,"86":-0.9103489921739277,"87":1.4607116868649876,"88":0.33654251795144646,"89":-1.9428313600261424,"90":0.6405934281689372,"91":-1.9230615204066486,"92":0.22700425430503826,"93":0.6877255431789965,"94":-0.007954146439753115,"95":1.4498519860152956,"96":-1.1399314144863009,"97":-1.3939670157928665,"98":1.921645852791865,"99":-2.0920873680126033,"100":1.7476543389664028,"101":-1.5278859948339156,"102":-2.0850161512136163,"103":-0.33947673826373886,"104":1.4101339600202163,"105":0.21637293335382293,"106":1.8085615290000672,"107":0.8967915652446339,"108":2.4829965877157787,"109":-0.606510154534221,"110":-0.9996664109846155,"111":0.1366262395998333,"112":0.13271372160009093,"113":-0.3000021762047458,"114":-4.277166819213176,"115":0.26034951718265364,"116":-1.4322574761378186,"117":-0.8367691032933164,"118":1.074880530407836,"119":0.9938576523923562,"120":1.3517057510466515,"121":1.137136743729182,"122":0.25291498837622783,"123":0.8155616745662126,"124":-3.4680849177888975,"125":1.5603510663417715,"126":-0.7588421316304397,"127":-0.601353605804128,"128":0.23657468142682916,"129":-5.378956734711527,"130":-0.43136022709342464,"131":4.492942553366313,"132":-3.5667346417405157,"133":0.5675911183957146,"134":-1.2279488838929755,"135":-0.3990610788700323,"136":1.116743125839616,"137":1.0410691425738516,"138":1.2300095146176424,"139":1.723508256170298,"140":-5.471788932384371,"141":-1.0671571630476695,"142":-2.6046658306389885,"143":-0.24027055157370966,"144":-0.35709574979067,"145":-0.8592971443644174,"146":2.4251202420090374,"147":-0.17905668883089187,"148":2.010124169339444,"149":-2.1820582453853925,"150":-3.239020556447773,"151":1.819090667657716,"152":-1.638897887939084,"153":0.919914704312674,"154":-0.763727067189094,"155":2.296431779823489,"156":-1.9741663719501379,"157":1.6842204950930328,"158":0.530167569314517,"159":-0.5179976467710226,"160":2.1502813924628374,"161":3.0488732924575994,"162":-2.4841102166689457,"163":0.8683233483956838,"164":-3.379405215015174,"165":1.1685166891556427,"166":-1.3734632227895571,"167":-0.19485091841964058,"168":-8.073451937394001,"169":0.336771000868985,"170":0.7971215371763188,"171":0.9253791451135317,"172":0.7973886841123555,"173":-2.4961925377622283,"174":0.22179669265602034,"175":-3.724844128458834,"176":-3.164182980140968,"177":1.3841173465478351,"178":-0.881380552852642,"179":-3.8758730659367706,"180":2.3537832632016675,"181":-16.338619044959316,"182":3.342755913978049,"183":-3.89322921603252,"184":-0.11877788064441162,"185":33.485597969075776,"186":-7.8028823212449625,"187":-3.8981179842911007,"188":1.096332659908566,"189":0.3997904642459604,"190":0.7176758134760804,"191":3.6661420836296843,"192":-2.4158577646007826,"193":5.273203196217009,"194":-1.1728196147313728,"195":0.6620012252825447,"196":-4.379398988201018,"197":1.1680288583589986,"198":1.4423398819881803,"199":-0.8482624522421824,"200":1.2000044542340482,"201":-0.7963498939313535,"202":-2.0571007483296038,"203":-1.2154272086310653,"204":-0.09052113821957732,"205":2.0352200562347322,"206":-1.9421398899804165,"207":1.1699674026860958,"208":-0.770771248122054,"209":-0.38102620019003125,"210":-0.5708958055134801,"211":-0.8867168555394466,"212":-1.6520065083028428,"213":-2.413135507459993,"214":0.17871135005268945,"215":-1.3913560777434113,"216":-0.055739023028418946,"217":-1.4974984100791437,"218":1.491154505365546,"219":-4.732694696567186,"220":19.152625935613457,"221":-4.130779711939687,"222":-0.7929262783606641,"223":0.5795532450648122,"224":-0.2089840235023619,"225":-0.9479212120468719,"226":0.36653988532272624,"227":1.4406122238023062,"228":-1.3924287911188413,"229":-0.7326707776764159,"230":-0.9979170889159761,"231":2.833338490818577,"232":-0.6431947045964509,"233":-0.2548108556711493,"234":-0.40718507836970036,"235":2.850338438436408,"236":-0.5292863090627831,"237":-2.1423996417483426,"238":4.3128929394731355,"239":-6.940966197849236,"240":-2.8672715199121956,"241":-0.29869100047641073,"242":-0.6805831488500188,"243":-1.0469903805099439,"244":-1.9846151591982435,"245":1.400019397801017,"246":-1.0560611328790235,"247":-2.9430989114739226,"248":-1.4587712364883525,"249":-0.8292106472351193,"250":0.31970458907456173,"251":1.4630915928623183,"252":-2.907414812491211,"253":-2.7820382396708,"254":0.058496117859577826,"255":-2.0560547859740335,"256":1.866051975314761,"257":-1.7660234574778,"258":-2.059303355566482,"259":-1.1849182681426778,"260":-0.8013829200606725,"261":0.8547507190021406,"262":-0.35703166871859665,"263":-0.018195731595267276,"264":-2.431304211677195,"265":-1.4035598478011488,"266":13.120133753409219,"267":-1.9982727894003491,"268":-0.43861972298876256,"269":2.226902777392909,"270":0.10813413777836009,"271":1.256899604005169,"272":-1.067757826952648,"273":-0.3384302273433675,"274":-0.03776822273993716,"275":-0.33198894953104685,"276":-0.00047303586696828244,"277":0.540820942893053,"278":-1.8565068061669348,"279":-3.5989098023342825,"280":-0.6595500559142764,"281":-2.6884692606766687,"282":-0.8840232260834368,"283":-1.7964236869715116,"284":0.30878596012924736,"285":1.938210799266876,"286":0.07605263598140695,"287":0.7329442422512291,"288":-1.7243560816679386,"289":0.15293578321709375,"290":-0.5013263106667799,"291":-0.706261564314745,"292":-0.7480117362333568,"293":-0.9568394876665532,"294":-0.8378391486955373,"295":0.15553956698260188,"296":1.20370223456893,"297":-0.6527264312099226,"298":-3.639137371064615,"299":3.10771700775766,"300":0.9611170554791136,"301":-1.239246584607875,"302":0.5879263177570216,"303":-0.4912240810833761,"304":-0.8932075962781809,"305":-1.7797170849744612,"306":-1.7774873862960179,"307":1.4741520875971588,"308":-4.580619806665045,"309":0.7907241922558139,"310":1.4607157942291125,"311":-2.3374488949633814,"312":0.5638413324242797,"313":-3.1369324923971345,"314":-1.4181190440433267,"315":-1.9551142477122472,"316":1.03003439310891,"317":0.5621913114877303,"318":0.10518475110275628,"319":-0.9222778966262987,"320":4.926318223772919,"321":-2.7137379107278043,"322":-0.4590133638882999,"323":1.1606492865624913,"324":-3.7505368092261047,"325":-2.073631344005797,"326":-0.2439649617155989,"327":5.095398686397616,"328":-3.8428324054562064,"329":-1.7075241255486793,"330":0.3550958959913246,"331":-1.8166755455811034,"332":0.2095000062986374,"333":-1.0640765468321205,"334":-1.8435528223530955,"335":1.3624879754394743,"336":-1.0988360687908103,"337":0.44406098486526646,"338":-2.190154036947132,"339":0.6020650893588141,"340":-1.6311411442057615,"341":0.7055919598868379,"342":1.0690010482238623,"343":-2.112458407945609,"344":2.1552143488358726,"345":-2.9592916699938554,"346":0.4463214628393222,"347":-1.5976103991139552,"348":-1.330899991118437,"349":2.5913079103634553,"350":-4.59704105089782,"351":-1.245145825219097,"352":0.8355618512723774,"353":-3.024982122787328,"354":-6.361612570245966,"355":-4.38924035109765,"356":1.5222919120928982,"357":-0.09394320417216159,"358":0.9490162428907664,"359":-1.5133250276919794,"360":7.47188781019831,"361":-5.9519238179367004,"362":2.639832307652639,"363":-1.9983512452746226,"364":2.741645782989925,"365":-1.3177406086525578,"366":1.9806190055680493,"367":0.2735421630585739,"368":-0.8945384276922689,"369":0.4059851956656909,"370":0.9606520814063733,"371":0.4753148094939687,"372":-0.4582151749665551,"373":-1.4468501451278946,"374":-1.4934274825769325,"375":0.3651633982331051,"376":-0.7673378955521156,"377":-4.130232762247786,"378":0.2410680322689936,"379":-0.17252774907678847,"380":1.670609516760494,"381":0.3118876644017719,"382":-1.8392206103797573,"383":-0.7767639673021891,"384":-0.2350040511818591,"385":3.6986537901009573,"386":-4.866367222715821,"387":-3.6285966220993515,"388":1.222262370601752,"389":0.14767347133673955,"390":-5.5757197513931,"391":-0.33897058038697625,"392":-0.4234465557151235,"393":-1.380925448725304,"394":-1.0808992519426035,"395":-4.230295169356437,"396":-2.7488523065558454,"397":-2.7063116930217803,"398":-4.865623382075714,"399":-4.258458194440083,"400":-2.567562371465355,"401":2.550732587189525,"402":3.932322758131365,"403":1.644778283092061,"404":-0.3843836893305006,"405":0.4963185119954776,"406":0.03952019408862884,"407":-1.0487848150231645,"408":-2.137582120053527,"409":2.693332182773372,"410":0.7497659937676042,"411":-6.793127318120823,"412":-1.487762353125724,"413":-1.7212343513270838,"414":-2.242370951772814,"415":2.980527771978481,"416":-2.7229107887962654,"417":0.15440500938784688,"418":-3.641871934566987,"419":-1.291115545362638,"420":-0.916484429534099,"421":-6.195291160992792,"422":1.3861837260119674,"423":-0.03511539926140955,"424":-3.5415948411019493,"425":-2.95000304502707,"426":-4.703273717208354,"427":0.5117367351239213,"428":0.8116338581823532,"429":0.11592499251572135,"430":1.751635769573983,"431":1.0158645324407516,"432":-1.3720877737986625,"433":-4.892731134382452,"434":-0.1369811020939832,"435":5.464092390142146,"436":-1.4047180014998957,"437":3.967021769500112,"438":7.0365102692719645,"439":-3.36607901963889,"440":1.6967956595265503,"441":-0.4282904797938802,"442":0.98244490372573,"443":-1.937261165939703,"444":4.704816594449138,"445":-1.8499667046423574,"446":0.8323102509349158,"447":-1.0016890136723493,"448":-2.292002039327261,"449":2.083303091227744,"450":2.1267856816268553,"451":-0.802711257832537,"452":0.18646296153513064,"453":-2.5610514794189023,"454":4.940143406410397,"455":1.8717999018652791,"456":4.0788259389369514,"457":2.62532328011701,"458":1.1603194914727848,"459":5.2767381739539685,"460":-1.2735919709210037,"461":0.8684909823550636,"462":1.2137047577952202,"463":3.7043482964290164,"464":3.159589343712936,"465":-1.501226641802736,"466":2.082270796120282,"467":0.610734630254075,"468":0.838822520287909,"469":3.34904083042049,"470":-2.268507195404742,"471":1.2944479198612409,"472":-0.06488171971929119,"473":-0.6446683330807118,"474":0.5015434670163953,"475":-0.7819632935145013,"476":2.571629282503311,"477":4.433751565392124,"478":-1.4840105927211793,"479":1.0562659802082912}},"Wix0":{"n":30,"d":5,"w":{"0":-2.4330843938087496,"1":-5.826422004112757,"2":4.410393498611744,"3":0.5837012069299504,"4":1.7084138593488458,"5":-0.01639411140732985,"6":-4.340750639323156,"7":-0.08712975832034552,"8":-2.8646146829831323,"9":-0.595704337446808,"10":-2.911119260925875,"11":-3.084942320326345,"12":-1.2713702244622724,"13":-2.4797036512050576,"14":-1.4529093287500217,"15":-1.449061157956316,"16":3.884317841483118,"17":-3.5316533058209956,"18":-0.06428876183741968,"19":0.8576954093664263,"20":2.7053592040774856,"21":-5.026979183962222,"22":-6.755612153838618,"23":-10.18733286329286,"24":-2.8912007974292546,"25":0.7825497035881432,"26":-1.6596152952299656,"27":-0.8988332997431886,"28":-0.16414400382783148,"29":-3.0214294231482244,"30":4.655697197143032,"31":-1.7310485356305267,"32":6.567790910639201,"33":0.6045687235029618,"34":-1.9977927566840201,"35":1.619941175695634,"36":1.674665676440921,"37":-4.49012038818898,"38":2.5827084980896795,"39":-13.286832845701595,"40":-3.4986179278514937,"41":3.4733832443590003,"42":2.835502994984587,"43":-1.6610180832465424,"44":1.2969317559372304,"45":-0.6847813741037645,"46":0.17465989928158082,"47":-1.0391692706051543,"48":-1.3738236597335933,"49":2.5515325351880342,"50":0.5513258008076923,"51":-1.8734324159222109,"52":-2.2324062415361,"53":3.416855183396639,"54":-3.301829129289619,"55":0.15729044287099186,"56":1.318964266693635,"57":0.2524662821866463,"58":-3.612229854869857,"59":1.3674793376144556,"60":0.12456993272758837,"61":-2.819788197402878,"62":-6.703342863010349,"63":-4.752653397899981,"64":0.5991001418267661,"65":0.5331513401123643,"66":-7.766635409277126,"67":3.712253808545041,"68":3.9424231348302494,"69":-1.0654522616332833,"70":-3.055652445250654,"71":1.7129436302350858,"72":-3.7873435533059236,"73":2.3410357447642616,"74":2.5413032896777903,"75":4.14174720309998,"76":-2.3389247928986907,"77":-1.2468288441037005,"78":-0.05759547216070147,"79":-3.424589086647167,"80":3.637225563283588,"81":-4.815510831731001,"82":-1.8984989003796877,"83":-3.136774045521376,"84":1.6582340717790174,"85":4.031669898029865,"86":-4.832115336721043,"87":2.0007389857098725,"88":0.1367891593228326,"89":-1.9930561860689666,"90":-2.064577599542521,"91":-0.8104821531775062,"92":-0.3209259244625299,"93":-1.9473663571266573,"94":-3.8339388568085244,"95":-0.15914057373004264,"96":1.533157088128253,"97":-9.189520911315396,"98":3.08432688916542,"99":-1.548077319953762,"100":1.4499611695911168,"101":0.05808926487891976,"102":-4.639756849146677,"103":1.2129695036473338,"104":0.20876222143106998,"105":0.6888910968336794,"106":-0.879350368336485,"107":-4.219741597485119,"108":-7.670731301735165,"109":2.203052174291031,"110":1.567773811580189,"111":-0.21964332906754702,"112":-4.1588026068293455,"113":0.7819675609984451,"114":0.806681143718596,"115":-0.31296565467150345,"116":-6.290526955542323,"117":0.16768746629387565,"118":4.412347390864333,"119":0.8374903951371256,"120":3.604128479382458,"121":-1.0519035015843312,"122":0.28823201080778793,"123":1.3571964674179773,"124":-4.545018384880707,"125":0.749204732731137,"126":-0.5218661483168289,"127":-0.2857928374955072,"128":1.9561715029704059,"129":-2.083540984054539,"130":0.27651547762790074,"131":2.251675832286557,"132":2.878434960427853,"133":-3.6052761939495017,"134":1.3016356021749358,"135":-1.1419895917437843,"136":-0.6337454546246478,"137":-1.483391383252893,"138":0.5464719127568284,"139":-1.3627813109359848,"140":0.8683352135522601,"141":0.003558338378779279,"142":-0.0683290532919225,"143":4.139864931299799,"144":-6.79989152265347,"145":-2.1873594753321184,"146":2.5599613182272014,"147":4.1800228923660105,"148":-1.3679159137509829,"149":-0.4863149904947913}},"Wih0":{"n":30,"d":30,"w":{"0":1.2329932422280057,"1":-0.877510288731268,"2":1.5020437552625685,"3":-4.585617466198171,"4":-3.6411706729123057,"5":-3.3949451904737007,"6":-0.2307603234704309,"7":-0.058846190394508606,"8":1.1648555289584477,"9":-2.9627764117782425,"10":3.539548826548929,"11":-0.1850462342398369,"12":1.452734054746415,"13":-3.458556959211426,"14":-5.9345918665382635,"15":-0.4020196290893499,"16":0.8165325003530107,"17":1.7536059005976952,"18":-1.5201034785657983,"19":-2.6739025325491377,"20":-4.038998432420673,"21":7.342611892039336,"22":2.0768252988928633,"23":-2.71424936812849,"24":5.416103241237788,"25":-0.813001267056553,"26":-4.5376957674440295,"27":4.777991868040126,"28":1.7842626595931692,"29":-4.074708594822314,"30":1.215119478165526,"31":1.8779370773862603,"32":4.066081143919913,"33":6.016721658456849,"34":-3.0747496494246276,"35":-4.9748374533296,"36":-2.928016894584031,"37":-4.415012629737402,"38":-6.730618038542205,"39":-0.7801511568333993,"40":-9.253876838349349,"41":-2.41377599903514,"42":-2.691855784751568,"43":0.37390671932659236,"44":1.6384459379458756,"45":1.377320441015877,"46":-0.6167017732261819,"47":-5.627832695269424,"48":3.8287998654717357,"49":-5.840390823743834,"50":7.51225064329424,"51":-1.4007097593079503,"52":7.7461746796395765,"53":-0.4102893900873998,"54":0.12464360308374814,"55":-1.1687964704419678,"56":-5.321897858199378,"57":2.081044431512874,"58":1.7716528866790922,"59":4.499306854460346,"60":-0.2649405235613127,"61":-4.866674645375406,"62":-2.7831756793431373,"63":0.908158580503598,"64":0.3731090761291465,"65":1.6490267864874577,"66":5.96013544586375,"67":-0.7494823189275204,"68":-6.2200213683495855,"69":-2.4133638768429537,"70":5.210017325402665,"71":0.04100941979127894,"72":-1.4650633953109566,"73":-0.4448701384136483,"74":5.572971597211374,"75":-1.709168894285965,"76":-0.6729588243099193,"77":2.7287328920847096,"78":7.33089629937323,"79":0.5784080493917845,"80":-4.2388197142563,"81":-0.7367131126277449,"82":0.47608037916770385,"83":8.086800671752739,"84":-6.88776874716405,"85":5.412449399075971,"86":-4.973533059990828,"87":4.473464897810344,"88":-1.673785279971631,"89":-3.90801823511772,"90":6.270486009378568,"91":10.886793755713335,"92":-6.640664189023374,"93":3.007225901642831,"94":0.7629866843256985,"95":-4.331708545464689,"96":5.63242246804365,"97":-1.4356909721849722,"98":8.501451083412883,"99":1.5331352100312652,"100":-0.08745601524561479,"101":-4.136633220987191,"102":-1.7531460809723265,"103":-0.10347625551995103,"104":-0.7844810170321878,"105":0.8678833837793907,"106":2.2412967370091175,"107":-8.001456236535274,"108":1.4516651117673616,"109":-4.596131695835029,"110":7.267321182606521,"111":-2.0456911556163813,"112":-1.4842637947176318,"113":-14.58487405989723,"114":-4.112657879388658,"115":-0.0410061886455534,"116":-1.6786592453830638,"117":2.6713763016001537,"118":-1.8673304797629244,"119":-0.1040689080777016,"120":-0.9148466918505723,"121":0.571490706821565,"122":5.795247459868804,"123":2.4616647446097843,"124":-2.8401211987421537,"125":-3.923241900782482,"126":-1.5415045442579698,"127":2.736103055895101,"128":-2.395782087813442,"129":9.024173543159591,"130":4.092287314802139,"131":-3.785045061307446,"132":-5.114812495731464,"133":6.779727324084183,"134":3.979865394368671,"135":5.7929669029246025,"136":-6.632080648600645,"137":-2.962996778474053,"138":0.537461963141471,"139":1.85023559581529,"140":6.054909834359693,"141":-3.1939262092630814,"142":2.136127010693751,"143":-0.3778812254775762,"144":1.6093266141128912,"145":9.200400135699335,"146":-4.885471197139408,"147":-6.613796392360235,"148":1.431335952299896,"149":-4.691873843074661,"150":0.4345211317798026,"151":-0.4236891189884118,"152":3.1158545830227182,"153":7.929851537590756,"154":-5.457525528483969,"155":-3.4138138313726585,"156":-0.5231024520723253,"157":-3.884291954254396,"158":-5.105170675420309,"159":3.3118466635183554,"160":-0.9740862945470042,"161":-8.166294806457055,"162":-1.0691944153934783,"163":2.1606208823197024,"164":2.78419866335948,"165":7.299848974994336,"166":-0.2762408457045666,"167":-0.7612621071676923,"168":0.4852255781592937,"169":3.8207662536364593,"170":3.6192961890395137,"171":-5.014508919984963,"172":3.781377231443428,"173":-1.0113639169392679,"174":-4.161514537442398,"175":6.739050566888088,"176":-11.16044559525723,"177":-3.2321825204099883,"178":-4.212648145276169,"179":2.450941254566242,"180":-1.1664948617531863,"181":1.8070363240436251,"182":-10.051670492415152,"183":-3.4013900922708604,"184":6.299917557402643,"185":-6.47895327213389,"186":-4.349866371228734,"187":-0.23517302137586132,"188":4.757467847830546,"189":-3.6037647519021854,"190":1.860214465038668,"191":1.5761234125407477,"192":-1.0686208002221265,"193":-0.9220941563895325,"194":-0.47101507878747273,"195":-2.5271373287815697,"196":-0.7249694960428669,"197":13.05017565278194,"198":1.9198117693123982,"199":-1.281464562070472,"200":-0.033340785821149826,"201":2.044630164774094,"202":1.6410771855314694,"203":3.8806714363292105,"204":3.1928665685930104,"205":0.6969721103581682,"206":-8.836214796839824,"207":1.081565534655762,"208":-2.2801561580016947,"209":3.416225907912233,"210":0.38218337891431026,"211":-3.657121240387585,"212":-1.1352828746760146,"213":0.4088039791039805,"214":0.24592356413884897,"215":-4.888765389207476,"216":1.4404900660300064,"217":-0.9297148513919569,"218":-1.17195055971788,"219":-1.4998474808513897,"220":-0.6816395488059871,"221":-0.13190673276733797,"222":-0.28131959118392774,"223":-0.6112758592776089,"224":-0.8274068151031723,"225":-3.6922231388266824,"226":-0.4222008279150168,"227":0.11004476758807917,"228":-3.509468369491924,"229":-1.6967195051235422,"230":4.062326750372764,"231":-0.6801467183113911,"232":-1.6852379538092788,"233":1.3025918066037054,"234":2.1724215557061246,"235":2.5437534322296704,"236":-4.68658550958072,"237":-2.373262694005879,"238":2.02553132070917,"239":5.042401963432397,"240":6.333384862797608,"241":-2.994014612942554,"242":-6.5009501812268535,"243":1.2605098361852585,"244":2.7760308837756815,"245":1.0644096417320035,"246":0.2998527385341237,"247":-1.7285691298031338,"248":-6.7488166422063,"249":-2.7027207308546672,"250":0.8520874818792573,"251":0.8195336437702574,"252":-3.900266567491989,"253":-4.7002733242258214,"254":3.175048251149219,"255":-2.230518306698916,"256":1.113592266078316,"257":6.82758604855444,"258":-4.7199949552586915,"259":3.0799502106258942,"260":9.8053258573159,"261":0.4339083732522421,"262":6.184777362193003,"263":-9.744041261569297,"264":-3.5049228856303194,"265":11.911179100618883,"266":-3.593784941946041,"267":-4.21466792468295,"268":-1.6959784500684123,"269":6.300285857555481,"270":-3.3159381662005583,"271":-3.768250167199363,"272":-7.089917062906299,"273":2.0981094638120177,"274":1.838349413839642,"275":9.964873031741755,"276":3.7704907025968106,"277":-1.457823330769888,"278":-2.005072716054814,"279":-1.8960444526115607,"280":-1.9047517170203718,"281":2.25431414878992,"282":2.0047614971612813,"283":0.9080506814002977,"284":-2.3146549025526704,"285":-3.246300500232465,"286":0.6236693260466529,"287":3.94485801627231,"288":0.8936623227503496,"289":-3.144751133833898,"290":-4.471413085920362,"291":-0.37926988970684183,"292":-0.3450129741892443,"293":0.329366175297184,"294":-0.9653940832351333,"295":-0.4359076862655796,"296":5.849815289516543,"297":0.6990586205540739,"298":1.185204382626064,"299":-0.004036143563586361,"300":0.9086530717180608,"301":3.6535577685112757,"302":0.4516801003916269,"303":-2.8071974011188345,"304":4.857329187665134,"305":4.210421712454891,"306":3.041175601449031,"307":1.2759332899188696,"308":-1.775593667119404,"309":-0.1325673268297424,"310":-4.353007618812645,"311":1.3509620830564795,"312":4.688518608914478,"313":-0.3785085842289593,"314":-1.7252976501038235,"315":0.14605855179624563,"316":-2.6859948637965236,"317":3.0890556841945718,"318":3.146604103332374,"319":-2.948170414324877,"320":2.8308383526763383,"321":0.8748232190421229,"322":-0.048715206188482484,"323":2.644553635923766,"324":5.184601774238169,"325":2.7757464891969508,"326":-0.9230635434323572,"327":-0.3413902074489249,"328":-1.0595463313602655,"329":-5.598845622409662,"330":3.729478174856963,"331":-4.8350857930106175,"332":-3.1752502610428524,"333":-1.3755190412061036,"334":0.2299356276076812,"335":-0.9502710491620466,"336":-3.3328756203591454,"337":-2.220113409890548,"338":-4.168561588851069,"339":0.4622869074727074,"340":-0.7699711375623912,"341":-2.3558380340614167,"342":-6.6317070650598495,"343":-1.3986588286346227,"344":-2.0472505955667426,"345":-1.7035365816398642,"346":1.9010362384433672,"347":3.5222352356312006,"348":-1.7933856003117468,"349":1.8040941082631279,"350":3.691997448888023,"351":-3.96234828751175,"352":2.9798245594689066,"353":-0.25239769505297055,"354":-1.469392421226162,"355":-2.0873859172987226,"356":-4.145300020491178,"357":4.677567676867665,"358":-0.23656217890275402,"359":-1.0464552563132383,"360":-0.15370318075823947,"361":1.7762695857401833,"362":-2.4188305654338493,"363":-1.1550107891062031,"364":-0.5231688255480061,"365":2.318751132094017,"366":6.858032570610892,"367":-1.0490237318157964,"368":-3.024559994884363,"369":0.8339513293363395,"370":0.8133887612450196,"371":3.595544904239429,"372":5.800322078266391,"373":1.0526672074088914,"374":-4.837880433502304,"375":-1.0419861052506405,"376":-2.0315877097829085,"377":8.552350139490178,"378":-1.1370347916099484,"379":-1.8704048106772055,"380":-0.8610815480712961,"381":-0.5846638519176534,"382":-2.058142602650604,"383":-1.6995826074405598,"384":-0.22230831766866396,"385":-9.040931394044451,"386":1.297950691528925,"387":-2.9720783300384768,"388":-0.35544458241003324,"389":0.36822807678071756,"390":4.038418986603637,"391":-1.7234090742816877,"392":1.0939209367938698,"393":0.1639829787346606,"394":-0.19239050476041572,"395":1.5658018225774428,"396":0.5344746299005239,"397":9.788204769645052,"398":4.359324882935925,"399":-2.98589614650678,"400":2.725374484503845,"401":1.5447217940148208,"402":3.642157723295474,"403":0.013965931196820814,"404":-0.9815716539087744,"405":-7.3128762639836715,"406":-1.9949441104886239,"407":-2.605957135754053,"408":2.955589253628244,"409":2.4157338470177048,"410":2.9334216753738906,"411":0.9216454190067458,"412":-1.9327923423716364,"413":-0.6919826455092429,"414":-0.024603521344090443,"415":-1.8163767862154858,"416":-2.2345121048105203,"417":0.8276506052213076,"418":6.136185327016858,"419":-2.580157729269793,"420":0.37631358123222564,"421":3.6511488876384175,"422":2.7818307216342033,"423":1.8360318098892867,"424":5.274981279413298,"425":-2.325439166290511,"426":-5.660787877769245,"427":1.9364842095408608,"428":0.4607164613305507,"429":0.3878149607192209,"430":-3.697813057655446,"431":-0.41257754345483255,"432":-5.075280978812745,"433":-4.5983620110494705,"434":5.871532235147213,"435":1.1432469120504536,"436":3.19778699770486,"437":-1.3659321651845096,"438":0.09077687070248301,"439":-3.0574039872748813,"440":-3.1805882223751274,"441":3.4226270969723442,"442":6.368138955636905,"443":-6.990142957876386,"444":0.8060912656446755,"445":-5.230172352833357,"446":7.3920970453897095,"447":-4.014163947170392,"448":-0.24552001848382443,"449":-2.7945489284716687,"450":6.315987712434547,"451":1.4287614362785168,"452":-0.2406482415844588,"453":4.097166893771983,"454":-6.835205056699324,"455":-3.266855659376073,"456":-8.551282865165671,"457":7.990985953567618,"458":-3.8007029860654207,"459":0.009239656722083697,"460":1.5237799202882318,"461":-0.8428650813930053,"462":1.5582173516743365,"463":-1.4106557202351666,"464":-0.08943857896365809,"465":4.908474655534577,"466":-3.0530924769968477,"467":1.1408095379388865,"468":1.467351902382785,"469":0.5293914248665434,"470":3.2588530639300846,"471":-4.397206999916469,"472":-1.3957141318319999,"473":3.4319489713832745,"474":4.619613730033709,"475":-4.595672176985869,"476":-1.3894990632433972,"477":2.961085360963019,"478":8.200529230067291,"479":-1.0382113030494355,"480":0.16956766164770973,"481":0.21598389938326498,"482":-0.3299221731700619,"483":-3.023071866288665,"484":-2.6561763917895296,"485":-1.8224171060046652,"486":-0.24688447382786435,"487":5.077920897693289,"488":3.1893272651408977,"489":-3.8951990493987454,"490":1.3197974404806252,"491":-7.875147678923374,"492":0.2185859851149859,"493":-5.340239127380284,"494":3.0833206484743854,"495":-0.01765095790224732,"496":10.23356181330173,"497":1.1031904425844399,"498":1.7575224084271028,"499":-5.113804311586586,"500":0.23253715257554547,"501":0.49345317090338536,"502":4.213660854639984,"503":-7.35728429341388,"504":1.613514624213876,"505":0.37657946130730463,"506":7.731570311938435,"507":-8.970019560037715,"508":5.93082684946618,"509":-1.711311684807376,"510":3.085886847994345,"511":-7.163701025346763,"512":-3.5894336389129293,"513":0.03943791712520934,"514":-3.048218445933777,"515":2.9922336056343757,"516":-2.755957755922831,"517":-3.346398719147383,"518":-4.852219675843853,"519":2.898854332300152,"520":4.606086450431907,"521":-3.0245768108507938,"522":-4.81692557426615,"523":1.7508821213788672,"524":-5.663673805600708,"525":-2.4079192871216515,"526":1.7260110607646058,"527":-0.020772847053633896,"528":-0.5115166261469193,"529":5.547114376522346,"530":6.08276051894792,"531":2.666368028445706,"532":4.479998522732052,"533":2.025507488750202,"534":1.449590668720883,"535":12.07127565070509,"536":-5.602710486511829,"537":9.278264721643028,"538":-0.9757515653609283,"539":-0.6981948373320417,"540":4.305760427747329,"541":-6.416693965514634,"542":1.0418217518886608,"543":5.805483337868253,"544":-2.425374816752636,"545":-2.6562082499064883,"546":-4.224486093625281,"547":-3.732829156926459,"548":-9.983737943478486,"549":4.678975834470959,"550":-1.3609433364237784,"551":-0.4991138741526042,"552":-2.6042252989908095,"553":-0.32283966585101975,"554":3.5361225254054878,"555":2.1629575497796574,"556":-2.211544502984542,"557":-1.7336942530863584,"558":-3.6053104811205765,"559":4.5972715437478655,"560":2.751654578511234,"561":-4.478646406491986,"562":-1.062917502592187,"563":-1.9066718632496316,"564":7.444398613644801,"565":12.821027551437592,"566":-3.7519609008679327,"567":-2.32981287144236,"568":-2.074622858541186,"569":-8.712829410957829,"570":1.9424535407393435,"571":0.167015740404841,"572":1.0022238751020787,"573":4.2923763576631755,"574":-5.467374352520064,"575":4.51877124785318,"576":-4.28313788878892,"577":-1.92116343931916,"578":3.3839990782071605,"579":-1.5302886844362829,"580":5.796347585905827,"581":-1.8818197360219397,"582":-1.1988907339601238,"583":-6.438427501020935,"584":0.3638785631961196,"585":-0.03515007708597579,"586":-0.8316502338614422,"587":-1.6888599223734089,"588":4.019234632794838,"589":1.0350949896454886,"590":1.9295117078794624,"591":-5.309493813758284,"592":-0.4225955323253997,"593":-17.213308843382134,"594":-3.8187009897069277,"595":-14.513653431700334,"596":-2.7832015377368875,"597":-4.384639184681467,"598":4.507182214751566,"599":5.971706090711469,"600":1.2661494576348702,"601":0.032620726162049404,"602":-3.6247045829525613,"603":1.5937332045995098,"604":-0.5643858620211372,"605":-0.48100652272206723,"606":-0.4055910976296609,"607":0.9508939153005906,"608":-3.919538936931325,"609":-2.2774430733132793,"610":0.41349140318090877,"611":-1.6294238252011066,"612":1.9584720197611256,"613":0.654383847783265,"614":-3.121852109697139,"615":0.9383149669896791,"616":-3.699577515837067,"617":-1.3103159142206016,"618":-0.24798927831001857,"619":-2.182562692139948,"620":-7.052951312407135,"621":1.0282374658184734,"622":1.074123910840455,"623":2.187696275814081,"624":-0.42470664202253683,"625":4.390699496018203,"626":-0.7868388137485607,"627":1.1369516420778993,"628":2.0716649988742017,"629":1.502758591959688,"630":0.8309838332169581,"631":-1.3725877533671205,"632":4.894579062504953,"633":-1.6894454502579856,"634":-0.5098728859343395,"635":-2.7270533001997626,"636":-7.512878429148778,"637":10.826505507574279,"638":1.867887676332879,"639":3.767019088774868,"640":3.2287291036187673,"641":0.18481477695657517,"642":-0.48212218347180524,"643":-4.674219507216048,"644":-1.4736006605886975,"645":-0.5664765706087523,"646":-0.24132900038865113,"647":0.14396525478992203,"648":-0.609288766035389,"649":-0.25023964617360406,"650":-5.5731711235743155,"651":1.3911356489049227,"652":-1.9105377602276314,"653":1.0915591313131252,"654":-1.1058103879868217,"655":0.603020497653035,"656":0.041560510612236416,"657":1.9455342737975136,"658":3.166000846195901,"659":3.639556152855373,"660":-2.5262293452788,"661":-7.464859545942664,"662":-3.616710830124572,"663":-7.039455052582059,"664":3.9738043754037062,"665":-0.6911110492360616,"666":4.692119980351116,"667":1.326009266511759,"668":18.289776533721135,"669":-1.555663137908506,"670":-1.6245135745456363,"671":-4.739072760191972,"672":2.5528954408811853,"673":-6.586221221137847,"674":1.0432483415002327,"675":-5.03841452816207,"676":4.407135019837623,"677":2.074231786838042,"678":-0.8654205865534008,"679":-7.179249592289465,"680":4.169066388290356,"681":-2.8309525202566324,"682":2.1541983717799944,"683":2.9030143047588095,"684":3.0640138398388825,"685":-4.593841190501903,"686":-2.366699637923048,"687":1.9015625267756404,"688":6.344155029127047,"689":6.5912747047409,"690":3.7084965812123256,"691":-4.755964533204455,"692":-0.5217920085840633,"693":-0.589555756454222,"694":-2.78409271267582,"695":-3.5583568806049097,"696":2.364942222177684,"697":-1.9797178085355036,"698":-0.4882474080364012,"699":2.34846246792328,"700":-0.2852282193402137,"701":0.39858406433888666,"702":-3.5757156329416153,"703":-2.058483703193502,"704":-0.29335598950789354,"705":1.876384073216415,"706":-3.7298848043260127,"707":-12.495416288081769,"708":2.1731307514268208,"709":1.2100475125233998,"710":-0.114210268847703,"711":-0.6235155172456471,"712":-4.760192824244428,"713":-6.888829418388583,"714":-2.8187076183451856,"715":1.2251589169323387,"716":-1.3177790588277147,"717":-3.909358133442286,"718":5.205216309975088,"719":-5.596770732576925,"720":-1.2130657500212934,"721":2.540877132697764,"722":0.6478325119567535,"723":-3.941962615726923,"724":3.567753392828016,"725":4.273372169558702,"726":3.1951518615066594,"727":1.9370195358173703,"728":-1.6528303728893876,"729":-0.24920543866542189,"730":2.2201229515002145,"731":1.8096789706973881,"732":3.382840756488151,"733":3.6864327696720647,"734":2.708325032122785,"735":-4.644523151808595,"736":-0.5427569028052787,"737":4.027490576318492,"738":1.04173429177332,"739":4.009431307504699,"740":-5.348848579805649,"741":-0.0875448054006796,"742":-0.5793613006520162,"743":2.614539327158025,"744":2.54812967137405,"745":-0.7070368080050138,"746":8.083521183108935,"747":2.130534303540177,"748":2.044453838896213,"749":0.9974316786833614,"750":5.715960936600151,"751":3.694951738640101,"752":-2.038779970504537,"753":1.3165217388064423,"754":1.4078529101770647,"755":7.165027155095289,"756":-9.491685785653742,"757":-0.14519307606921866,"758":-6.40512593617853,"759":3.117602350218219,"760":-2.043607800701362,"761":2.6537229668223747,"762":1.820833104368474,"763":1.0499315732272192,"764":3.5686250815391203,"765":1.1460123878091026,"766":-4.318187624818339,"767":1.854151716369956,"768":7.831081676457789,"769":0.3989156195942999,"770":0.8387234899208393,"771":1.1840618696749694,"772":-1.9224916689873643,"773":-3.844881122296182,"774":0.02879392787987317,"775":9.487704088755692,"776":1.6081106540595214,"777":0.48153725489582494,"778":-7.180124770532202,"779":3.6887317666248265,"780":-0.2368792668775443,"781":2.8087377330685435,"782":5.021586593208733,"783":7.4117005561948694,"784":-7.717937764052673,"785":-4.6891726682581325,"786":1.7029643924512798,"787":-4.485189828079507,"788":5.690755299314177,"789":-0.7360214727509782,"790":-5.032837273335486,"791":-6.071776828579912,"792":-8.978926509468215,"793":-0.7163847105295083,"794":-2.610192837042523,"795":-4.600357843662176,"796":1.3800351515428246,"797":-5.664329800389113,"798":-2.945444426823965,"799":-1.2922896737640945,"800":4.359509358576554,"801":-2.109363615339194,"802":3.756781121628381,"803":4.478170720550091,"804":-4.231119536101808,"805":-9.812095185052351,"806":-0.7427835943673807,"807":2.776789685190002,"808":-8.522934507069941,"809":1.6952610708635374,"810":2.792832734295193,"811":-13.507190815409624,"812":1.560006791678233,"813":4.064622208579328,"814":-1.0483281044717498,"815":6.459882357049464,"816":-2.92694436961155,"817":3.040762045596078,"818":3.4381788787230816,"819":-3.277713636164379,"820":-3.3393013344095506,"821":-0.5323450004847953,"822":-0.9148002146270898,"823":-9.254977978282774,"824":2.7562749688125883,"825":3.1273805330005,"826":-8.965946812489115,"827":0.4440622000404669,"828":-1.6850966480156582,"829":2.9146160002944113,"830":-5.484994592104477,"831":1.0798356836902598,"832":-5.803763253990191,"833":2.7117744930605476,"834":1.9323519517960668,"835":2.781246537048569,"836":-6.717369157987958,"837":4.821866463109445,"838":-0.49733286883172667,"839":3.4840973413965464,"840":-0.33842638354721527,"841":11.174024282630429,"842":-6.982083887491435,"843":2.2557985974381296,"844":-1.8219014788666532,"845":-1.1673836301179088,"846":1.4874607906859798,"847":3.3515969407634025,"848":0.9541862942009878,"849":6.794314109797088,"850":2.524854624984024,"851":-7.917538551530036,"852":-7.332363705655508,"853":2.2222127236815874,"854":-2.5386732525961513,"855":-4.537733054195118,"856":4.627760223045116,"857":-0.39613726334752947,"858":1.8792833361364316,"859":-3.3824149742538165,"860":3.514682977035929,"861":-1.4703210396294653,"862":-4.510544656460931,"863":1.8522708137907078,"864":-0.27155187829236194,"865":5.33290011133652,"866":0.22081948401234208,"867":3.550435223729125,"868":1.8822548118564606,"869":0.44975007504350045,"870":5.029883614787766,"871":2.328683402356683,"872":-0.1500281862149499,"873":6.607717098045114,"874":3.3310272192457835,"875":2.960665323874123,"876":-0.9874103217743716,"877":1.3063887976009079,"878":1.120770720188917,"879":-5.66914580545806,"880":-13.085425227331942,"881":1.064672571574829,"882":-4.3916573344289445,"883":-3.3367340242011716,"884":7.482148874872873,"885":-5.22921469190058,"886":-1.5638444223898702,"887":1.7102511989054867,"888":-8.38137484555648,"889":4.169460148327183,"890":-0.12685963860358146,"891":-1.457638372434114,"892":-2.072509346166611,"893":1.5208200175566047,"894":2.6583196457802027,"895":-4.6335065522912595,"896":0.6058379083602402,"897":0.15015052185709285,"898":1.8017965945544698,"899":-0.8434814178689414}},"bi0":{"n":30,"d":1,"w":{"0":4.436048637905759,"1":-4.156052836597574,"2":-4.723547767507713,"3":5.839660634038412,"4":-4.942892520794661,"5":-3.039723274591771,"6":0.6220122871260021,"7":-5.0344715369162145,"8":7.778432729111887,"9":-4.432595310894222,"10":-10.027749424587102,"11":-2.9092796365643756,"12":-3.5461348952502676,"13":1.3906438296847754,"14":-1.4413163368457558,"15":1.7148712396306345,"16":6.660763280498543,"17":0.3822743986484599,"18":-3.9492363440898925,"19":2.2485531570054786,"20":-1.8476513299798722,"21":6.696082545764861,"22":6.774338343252028,"23":-5.23322976681187,"24":-3.7233268774392245,"25":-1.8849246799620398,"26":-0.686260039174984,"27":-2.407803315807508,"28":-2.5895342516286934,"29":-3.245378689314812}},"Wfx0":{"n":30,"d":5,"w":{"0":1.9721245312324953,"1":-5.808633119660745,"2":4.625256809239345,"3":-0.9831679802526414,"4":3.5830732226910507,"5":4.7231167459159655,"6":-0.3220076168460424,"7":3.079107715141144,"8":2.2793532642200436,"9":1.9429951156328655,"10":-1.4507257758885328,"11":1.83963215839131,"12":3.9469083287459266,"13":-1.389059589901036,"14":2.3399822992353942,"15":1.5586986165485803,"16":-3.886463329743255,"17":-4.413001851312386,"18":4.090505625688623,"19":2.1267919897541008,"20":3.7107922448625184,"21":2.989319183357516,"22":8.580984238802865,"23":1.4146842418560652,"24":-1.0547186058979017,"25":-1.212472672758081,"26":4.47494274040088,"27":2.9378470437240396,"28":3.5637673145845583,"29":1.034401341531468,"30":0.3041899839092091,"31":-1.7623581776967219,"32":2.7950148689839605,"33":-1.7027405378509781,"34":0.26713045457925705,"35":1.696763937506736,"36":2.3001935398646656,"37":-0.001851599038271082,"38":4.129280660580694,"39":-1.0906356461954907,"40":1.2323098431727864,"41":-4.163536806064479,"42":-2.665549278322183,"43":5.172949934512489,"44":0.17397528484369296,"45":4.160118742425264,"46":1.2735536866567694,"47":2.0289990117955945,"48":1.1008021618633015,"49":-1.9840136657652,"50":-1.2561609434633196,"51":4.727834679985712,"52":3.3915127152779787,"53":1.2697827403671487,"54":3.021001156598075,"55":2.837293647010663,"56":0.32473496564740745,"57":3.2512342904429308,"58":4.44264587928491,"59":-2.0427137755680684,"60":5.521670896999659,"61":1.9811382524851686,"62":5.903102254211888,"63":4.520538357506972,"64":-3.3888697236483742,"65":4.820158600841277,"66":2.4446688242423082,"67":-2.250666430901416,"68":-3.376209748292315,"69":-1.6249776393897712,"70":-3.887630120346581,"71":2.7812038025576893,"72":-2.067213148558145,"73":-3.537357062347479,"74":3.2218225522382764,"75":1.8789695303795884,"76":1.9623002514240777,"77":0.35513376103417343,"78":1.1439677673565056,"79":1.8629106807143538,"80":1.769085036403265,"81":0.930949438810147,"82":0.8860913566138792,"83":1.0061980944260576,"84":2.851555150020002,"85":-4.462856092067128,"86":-3.6740596231062863,"87":4.909807307331099,"88":-0.7518202577759422,"89":-0.872635203421186,"90":0.2829741502095357,"91":-1.552416458434706,"92":1.0959250044498698,"93":1.377799868190079,"94":-3.1457231759934206,"95":-0.1212455549190504,"96":0.4810616551919851,"97":0.8876613475741947,"98":5.722950680445107,"99":-1.3526518646125272,"100":2.960786202267093,"101":0.6669785012624222,"102":1.7826165502975753,"103":0.18131310033984194,"104":-5.242749340320202,"105":5.488759159989957,"106":-0.4573742689560861,"107":-1.6246135663125032,"108":1.513053547189178,"109":-5.996486232191063,"110":2.1369483446002593,"111":-0.5111894786039861,"112":2.9772312423926643,"113":2.947331312961444,"114":-2.300641147994718,"115":1.3960352267454097,"116":-0.8918291105371882,"117":-2.684537886332476,"118":0.5310345211285803,"119":-1.2550941165713088,"120":-2.608185411434888,"121":-4.893189614428168,"122":1.281285432748402,"123":-0.9375087284127797,"124":0.15643182076146048,"125":-2.151660393896766,"126":1.2695655077462444,"127":2.152215708102866,"128":1.6928687134269642,"129":-3.283286676478077,"130":0.9606078774736365,"131":2.10576639660427,"132":-0.5551901771917305,"133":-0.6281191096593742,"134":0.6135302377985333,"135":1.306115050849814,"136":0.11279428168661769,"137":-4.183306500471948,"138":-0.6362205827212865,"139":-1.2087748718313218,"140":-1.289218059958218,"141":0.7490662196271531,"142":-5.250920159144784,"143":8.935138054377603,"144":-1.1975479004868577,"145":-1.3368362097655762,"146":-0.015599418315134866,"147":-1.434349587976912,"148":-5.165729358579523,"149":-1.691237544922534}},"Wfh0":{"n":30,"d":30,"w":{"0":-3.615409935882323,"1":-5.955665854980893,"2":-3.9661272608477636,"3":6.918424751124014,"4":3.9623629583637925,"5":-2.4140831504003337,"6":-9.924188585869416,"7":-8.248321001330796,"8":4.230081341719036,"9":-11.154417460250123,"10":-0.8779169218520828,"11":3.6744108512745504,"12":-9.262482119169936,"13":1.8767009936212615,"14":5.781929004923837,"15":-2.004199222439445,"16":0.172929894393481,"17":-1.8715973643075172,"18":2.0004438672940372,"19":5.974823936116053,"20":4.24551422754876,"21":-0.4235557166342518,"22":1.1495962070698047,"23":1.1039492731856986,"24":3.9974161901282237,"25":8.606040453050369,"26":5.491086898870181,"27":3.6690611846782066,"28":-4.047960054342522,"29":6.848762820071011,"30":3.305672433214858,"31":-6.31208161559337,"32":-2.7659398044228647,"33":-0.3208505035342167,"34":0.4091165100832766,"35":0.25844740319335757,"36":0.9319547142075597,"37":-3.084235944072108,"38":-12.164304709493175,"39":-3.979925611133912,"40":-5.264956651337214,"41":4.8698428920345265,"42":13.6524444615619,"43":9.300797592615464,"44":4.370095740525199,"45":0.1345146946780902,"46":-4.247125153889705,"47":0.630434734324119,"48":1.3847535264547943,"49":13.499025169165224,"50":0.17683223686818778,"51":-2.321930546982524,"52":1.9924285805202635,"53":4.9111931930153085,"54":-4.482136380825526,"55":0.5180634778699513,"56":6.230727489531578,"57":-9.417318514089162,"58":0.44862349159020903,"59":-6.956530673695095,"60":2.689299705726569,"61":2.3852432942909636,"62":-10.732165355400978,"63":-3.8942434511141046,"64":3.277746496632401,"65":2.079023160475887,"66":-5.7215534330354725,"67":-5.629436914373422,"68":-9.059439196856989,"69":2.415042808629423,"70":-4.319170491791729,"71":5.714435412452785,"72":0.024490431155374803,"73":2.196858496493707,"74":-0.18438240733685662,"75":5.102344880201648,"76":-9.291203367118129,"77":6.636497168817226,"78":-6.17316761358289,"79":-1.828207119386264,"80":3.2772644350154274,"81":0.06867913212853352,"82":-3.8198985572171065,"83":-0.9440079258457842,"84":-2.6245805066238175,"85":11.910107688234088,"86":-6.338759268383591,"87":-6.604333225409519,"88":2.7364320764783687,"89":6.019215661086035,"90":-5.709539632272161,"91":3.3506979052709083,"92":9.322553180389681,"93":2.82658927710829,"94":-4.5191278443164355,"95":-0.2926118287143084,"96":7.12616050004364,"97":-6.714650866381439,"98":1.8206848270661107,"99":1.1407956080151664,"100":3.0585912019477886,"101":-3.94757087670978,"102":8.462140111137368,"103":4.509839664222673,"104":-2.775211839976399,"105":-0.5542609340478015,"106":6.901208657099771,"107":2.5630232008940665,"108":0.48907445122798027,"109":-3.116921544839456,"110":-9.103450335323103,"111":1.6943705024815667,"112":-1.605518015768947,"113":6.3061644673704205,"114":5.155981849390429,"115":1.2254084310554707,"116":13.380018672210763,"117":7.110198867771144,"118":-1.7670176241446702,"119":-9.844330804817945,"120":2.7042144474619594,"121":-4.175145388153976,"122":-0.3592105267701924,"123":0.6687192000460328,"124":2.8521770806211784,"125":-4.061768423044023,"126":-5.630972032438241,"127":6.688600185879891,"128":-5.035796041330002,"129":1.9564255045616696,"130":-2.0863622378037703,"131":1.15697951068073,"132":2.430202834162613,"133":8.068226767295549,"134":3.4898076392883266,"135":0.060918966708253385,"136":-2.504223691161039,"137":-2.919174548100044,"138":3.4067007820831066,"139":3.9029524692729525,"140":-0.17024231970388273,"141":1.229190766023183,"142":-1.0351892645704626,"143":-6.923892761845435,"144":6.0287292987198935,"145":-3.849537198246553,"146":-6.595008904864665,"147":4.100339178943589,"148":5.324666742374389,"149":-13.243803652360373,"150":3.4081712332982614,"151":1.674624450712285,"152":10.801868340908909,"153":1.825856868001074,"154":-1.7221194351896656,"155":2.5852370760805274,"156":0.6090218665529827,"157":1.6779424312741422,"158":-4.765454414082586,"159":0.29846449157437527,"160":0.29644704971407376,"161":2.4135931530031556,"162":3.874578237775308,"163":1.8515454078600773,"164":1.7636227229207544,"165":-4.192649843737183,"166":-6.429872711511438,"167":-0.9357500799139041,"168":-3.1838478131390477,"169":-0.022228443920334837,"170":-6.45872062635696,"171":0.37091302756886224,"172":2.0180473787214694,"173":1.2840778769493986,"174":3.1475309866956853,"175":-0.5739343525088437,"176":3.903312161935769,"177":1.3596584662785298,"178":1.9652776506600904,"179":-4.484049921700124,"180":4.481005467914041,"181":-5.983905419766859,"182":-1.7839881736309227,"183":0.7409829071758892,"184":-6.830740778571435,"185":3.2719785055100044,"186":8.029979228919306,"187":-2.561281953130315,"188":-1.8073231322380998,"189":-1.075691020129418,"190":0.9458206301812159,"191":4.974011398107204,"192":14.743599101686204,"193":9.0697696827763,"194":-1.3662432356762189,"195":-5.990625621769124,"196":-3.4835660364035115,"197":1.3295638294963488,"198":7.523056844373443,"199":-1.1820848466074751,"200":-6.510423402547453,"201":2.707453831692475,"202":-3.147866725063739,"203":5.439350903404947,"204":-4.022388775734178,"205":1.1779500868461792,"206":2.9248434453999974,"207":-2.441526143160815,"208":2.7278395200017287,"209":-5.814973172491006,"210":-5.604662558696384,"211":3.4826093550480786,"212":-10.103819887316025,"213":-0.2048302746343457,"214":2.4963374239288267,"215":-2.2582971861276926,"216":-5.454439911781058,"217":0.2697266221042381,"218":-2.712276040512383,"219":-0.6996878364541902,"220":2.7243240133841,"221":1.5548880649202115,"222":8.314260697126171,"223":0.32604931161471623,"224":6.683315846043505,"225":-0.35991392281253926,"226":-2.171820804589206,"227":1.7221252711941517,"228":5.131332726967313,"229":-2.4133501837765654,"230":-9.170709728711287,"231":3.8045132019666568,"232":1.7143302027719565,"233":-9.000119412611696,"234":-1.272529867536944,"235":1.5011411975104256,"236":-1.5848981165492637,"237":1.5705026388058148,"238":-1.6448274284510667,"239":1.5507672642362553,"240":-9.450156485012844,"241":4.895394168652444,"242":2.3226189165305895,"243":-5.589752180745948,"244":2.8714407256756402,"245":1.507666217209576,"246":3.5364488632159317,"247":1.0505947590014537,"248":3.7581797529804195,"249":0.9855782170338283,"250":-8.730444521169789,"251":1.8741387145373019,"252":-0.03859805412774433,"253":-1.814833039145951,"254":0.5168975602185285,"255":-0.6510557893507674,"256":0.5601250539705647,"257":2.677892848089092,"258":-1.4972872149500618,"259":0.0841670402234175,"260":-2.549434080656391,"261":1.9077784617841966,"262":-1.2452763166653262,"263":-4.138831586887031,"264":-0.4903964504773329,"265":9.520369481186112,"266":8.308357697773687,"267":2.6003948405496415,"268":6.799937437039197,"269":-5.4745955931053505,"270":6.982726619637522,"271":13.37968733334913,"272":6.8205813077269495,"273":6.305774984633182,"274":2.353916573670642,"275":-4.565427306946682,"276":-0.4610290186748146,"277":2.4523980141737853,"278":-8.058402280142072,"279":-1.127834072207275,"280":-2.818078645973622,"281":-0.32236445442229106,"282":-2.7219708071180246,"283":-0.6218774040847532,"284":-0.08915710108256693,"285":-0.18299224430321495,"286":-3.5859175387734337,"287":-4.516097090086713,"288":-7.7843003522082,"289":5.353854948005074,"290":-2.6905212988408933,"291":3.246222430472194,"292":-0.48003441824077475,"293":-1.6966998910155784,"294":-2.0999010666183766,"295":-3.82589080459428,"296":0.0037154368984560746,"297":0.16683259414010743,"298":-1.1683040243896994,"299":0.5049397551595401,"300":4.269331102127015,"301":-5.71954346421863,"302":12.13821838280481,"303":-0.4240681933116848,"304":3.6633075682652487,"305":5.5974385965043805,"306":-0.22381430268769129,"307":-3.768325784044802,"308":-1.140737391748739,"309":1.434139546908536,"310":6.384837663901143,"311":7.079510918600216,"312":8.811286277600853,"313":7.41988900673238,"314":-3.0952449135335622,"315":-4.789009258965008,"316":-5.000523735007933,"317":-3.152838149391281,"318":0.657198563973431,"319":2.8704605999769672,"320":-10.8180353800102,"321":-5.174037823904362,"322":-1.5490832440562858,"323":-0.7054943775096418,"324":1.6391584517977407,"325":-1.278423758928737,"326":6.5236897601470805,"327":4.522677151612579,"328":-3.4918764023684514,"329":2.195917075284934,"330":5.986371884935398,"331":1.635877754209814,"332":3.2874629165705804,"333":4.908790667687274,"334":-0.02625817176948355,"335":11.19003999214453,"336":1.595485435107597,"337":1.1903277923244524,"338":3.0103267882583173,"339":4.121097320048238,"340":-0.0641447431082236,"341":-0.679736437520399,"342":4.934172323658099,"343":2.59250749688031,"344":-6.10553060362185,"345":-4.2543272138243795,"346":-5.480425699116101,"347":-1.7252858069007457,"348":5.256051197051591,"349":1.3295480025181217,"350":3.625472054320797,"351":6.716645332014318,"352":-6.227614012449673,"353":-1.8929573544928433,"354":-4.016610240518803,"355":3.490458696399429,"356":0.10692273424886013,"357":0.3377973019357293,"358":2.2411189351468894,"359":1.5228824735736057,"360":10.821924613832357,"361":1.032017087527055,"362":-9.448851761569271,"363":-0.02117364925995948,"364":1.734972904826056,"365":-2.902074087320878,"366":4.893514612602849,"367":-1.111235398252319,"368":-2.839024746865464,"369":9.536744010630201,"370":-9.734175484358904,"371":-0.6244858304809472,"372":2.6508413388236565,"373":4.148315234315291,"374":6.63814708658115,"375":-4.910143875795545,"376":-2.6719887683329064,"377":1.861715385821238,"378":2.6602914694248216,"379":0.819825817620028,"380":0.4936758950005697,"381":0.6149384889271351,"382":-5.104932080218501,"383":7.0947323612946285,"384":-4.599883858530335,"385":7.851064370987958,"386":-8.732251484128037,"387":-0.7978909274068318,"388":-7.135406667457543,"389":-4.539811963613239,"390":0.8793093109664893,"391":-5.558441827709887,"392":0.9096304176851037,"393":0.7850521730313619,"394":2.588244942705167,"395":-3.2350537803497255,"396":-2.2792453667486443,"397":-8.332486538433383,"398":-1.1355794300650008,"399":-1.2071890443929676,"400":2.3237437929251366,"401":8.074890130674607,"402":7.000844829601108,"403":0.05166204116730838,"404":-0.4382034971703675,"405":-0.6563441698186385,"406":-2.7443003452607253,"407":0.4641475412833871,"408":-7.106942448215696,"409":-3.5672950333482283,"410":-11.266809256242704,"411":2.2438469744954106,"412":-0.3631444103237917,"413":3.825964652646139,"414":-4.246712417550802,"415":-3.088888833423536,"416":-0.9922477661715178,"417":6.69833513994968,"418":-3.7879743031017026,"419":-8.021215937190151,"420":-3.6223856804260075,"421":0.8631834583984094,"422":-0.9196827554878552,"423":4.788668164361335,"424":0.48221707987524487,"425":-17.41117161715787,"426":-6.8932445465568435,"427":-2.7422820450691496,"428":-0.8514737891282848,"429":13.234461695605534,"430":3.430596075838107,"431":-1.4501057284945391,"432":-0.3969887823811985,"433":3.8183192526352823,"434":0.09053911325385657,"435":1.0727051802716283,"436":-4.05934852973538,"437":0.8890894615146875,"438":-2.3572515589341307,"439":3.4764962213061548,"440":0.0521369183049694,"441":0.5464603069589097,"442":3.2741985229243458,"443":-0.24824519248926855,"444":1.2277679301115725,"445":0.8453032043580739,"446":-3.4558694553816305,"447":-7.00751163598226,"448":0.17442843573949918,"449":0.8561730150506656,"450":3.2397119427356684,"451":1.7254571118928197,"452":-3.8430608693224118,"453":1.4639294449579285,"454":-1.3592852753106233,"455":-2.7792579970043465,"456":3.942507576802993,"457":-5.473783812619633,"458":-2.123226340183394,"459":-9.195739075525497,"460":-1.5160197656075385,"461":1.990326358248753,"462":-4.0832661326878865,"463":-1.75807885712128,"464":17.365745332216317,"465":6.248518402419182,"466":-5.038794732926625,"467":-0.12359474967559987,"468":2.8142577337113837,"469":-1.7641315969403422,"470":-6.13753789315831,"471":5.482129385431501,"472":-1.7149738659018712,"473":-0.18237359388808305,"474":-6.263382445176434,"475":1.7840850335394647,"476":-11.16536618164385,"477":2.963759835094533,"478":-7.120078832205476,"479":-1.4497385591581804,"480":-7.9071472350647625,"481":-0.40919364262813873,"482":0.09261644029505516,"483":-0.47002916340828343,"484":4.029438534480245,"485":3.411093126999109,"486":6.763682933809497,"487":8.49604342369795,"488":2.103865531510036,"489":-2.643204880828342,"490":-10.63286149192661,"491":-8.210979227064483,"492":-0.5181745989805475,"493":-2.3979118949071903,"494":-1.4436996306790517,"495":-1.892891133866158,"496":6.957273826329038,"497":-4.061365083110772,"498":-2.7522518689785107,"499":-9.963676535479708,"500":1.7747582735542098,"501":1.188967257641928,"502":-1.248986299392875,"503":1.0393512288815863,"504":-0.3946852558240291,"505":3.5412372589922074,"506":3.236316825896375,"507":1.8609812670019046,"508":0.5305668430183746,"509":-0.8802440173252166,"510":2.451543312539996,"511":2.1081349736333426,"512":6.498974175750495,"513":4.6500361592929815,"514":5.7138799547116665,"515":-10.458305636813416,"516":-1.030854240399112,"517":-9.046136295203736,"518":-6.788395597590906,"519":1.4206229059233557,"520":2.6162053641937204,"521":6.086647379773297,"522":-0.7442579562541741,"523":-9.134116324507115,"524":7.062088452860567,"525":-1.3965042510176784,"526":-2.5965084128301035,"527":-2.9518502479098525,"528":-8.336005610685408,"529":13.705423045267441,"530":7.715512876521897,"531":-0.7389399526636063,"532":1.518723028298495,"533":-0.22653121926332304,"534":-2.0757852424919596,"535":7.304539991881421,"536":3.083828485191746,"537":9.09700505713696,"538":-2.812443117276037,"539":4.234103367665498,"540":3.3832763638182617,"541":-4.604643652875282,"542":3.3731047425509497,"543":5.839425607299737,"544":-1.0025370492650234,"545":-2.401289522490639,"546":-4.385408553777646,"547":-5.995154647202449,"548":-0.10491712969818111,"549":2.4256892360191635,"550":2.545221947224305,"551":3.4416536446110353,"552":-2.0299801090581044,"553":-0.4356199686304721,"554":4.353878970076798,"555":5.9485293637062755,"556":-2.6840523780785914,"557":4.543764599942484,"558":-5.102725012287484,"559":6.463473555743372,"560":-2.168332164118737,"561":3.2495114338021973,"562":4.995087865891607,"563":3.652691151645918,"564":-2.534755804292054,"565":0.0497501724185991,"566":-0.20553284044284392,"567":2.3654459568261217,"568":-4.541160290269786,"569":-4.917970458056719,"570":0.6247126757615371,"571":-3.7994441676426227,"572":-3.323012520440231,"573":-1.165586739598322,"574":0.42462917335959605,"575":5.987177933737723,"576":-6.632415034153162,"577":0.056582736870889994,"578":4.53391920626364,"579":0.513598377583731,"580":2.2751869926863226,"581":-10.521668347485662,"582":-6.431984602004276,"583":-2.533544370921729,"584":-0.47149048757449535,"585":2.3558834387160474,"586":5.947176074528705,"587":2.4718797047304943,"588":-2.4519698005140125,"589":-4.401237031136243,"590":5.102526488177414,"591":-2.2115262738276744,"592":9.330667168453317,"593":-0.6943803843520115,"594":-0.9054389395956697,"595":-3.8727014221445293,"596":1.8257931872037685,"597":1.6777975486367664,"598":-0.8491952439841017,"599":-3.739166832463439,"600":-3.1182026985376243,"601":2.5027312407633997,"602":1.6182365613498302,"603":7.74884990870828,"604":8.197611631426874,"605":-0.8003038067337076,"606":2.4298096447248962,"607":-1.1260291709856503,"608":-5.106598100328373,"609":-1.6530960595267785,"610":4.5310585341304135,"611":2.1552245373748367,"612":6.2355829675505285,"613":0.3302644608349687,"614":2.0366248664592557,"615":-2.146425778298277,"616":-2.2015176057537222,"617":2.552223565970203,"618":3.6954346769285644,"619":-1.7289326524604853,"620":0.16424127447716338,"621":-0.5449959001810405,"622":-5.339572854021475,"623":-0.09115569040980433,"624":-2.322257922274667,"625":-7.2594172045074075,"626":-2.653062900999846,"627":-3.796917533982196,"628":-5.391922838380914,"629":5.197655466637141,"630":5.772401661980314,"631":0.9964319421437846,"632":-2.4831126904231065,"633":-1.1248654038162755,"634":5.532592027310978,"635":-6.296303597377367,"636":6.120532086577025,"637":-7.517132747704667,"638":-1.7914081623925966,"639":1.7962783526314445,"640":-7.497763747177026,"641":1.2843574253896064,"642":6.522979288938394,"643":-1.437209479063453,"644":6.4275996087463145,"645":3.7004677546032005,"646":-5.725253147947955,"647":3.935243892004289,"648":-5.654198109308896,"649":-4.187849949713869,"650":-0.45712599043452606,"651":-0.963332670390014,"652":-2.8855494344984782,"653":-3.092348281854131,"654":4.413918000958557,"655":6.118320100056354,"656":-3.9895861081609962,"657":-3.0821420384432128,"658":-2.208254537885586,"659":2.932103749815642,"660":1.8081637222582907,"661":2.391476334132969,"662":-5.5299391356631045,"663":2.935608251639513,"664":1.0453239890143022,"665":3.057800106378801,"666":-3.9733557913062008,"667":1.3083651032587047,"668":-3.4218094604674754,"669":1.4624860658811023,"670":-1.5726885774583472,"671":0.18868149815475452,"672":-0.9690235862125699,"673":2.6874325886223454,"674":-4.370447578311454,"675":0.020399746918408283,"676":-2.137941846308797,"677":3.826879661619292,"678":-3.153697943802999,"679":-3.5851795058479414,"680":-1.4726057799074064,"681":-2.2381773181603237,"682":3.7357496749303696,"683":1.675045371410764,"684":2.851204734087161,"685":4.252147579292604,"686":-0.3236273566152438,"687":5.258658197785437,"688":-1.679951370815313,"689":-3.512843897049827,"690":2.0446261117834115,"691":-18.45855243203845,"692":-8.080214811532716,"693":4.24288464230158,"694":1.1148122057459704,"695":-11.830093185323037,"696":1.0048251709352043,"697":0.7285336592213388,"698":-2.7742976653760167,"699":-5.462075630040155,"700":0.28717766025799996,"701":3.914112819562708,"702":-0.25576030970932345,"703":-1.539020290555084,"704":-0.6767948993222507,"705":4.4967625823882615,"706":2.7500628033839334,"707":3.953905167242916,"708":-7.953451843291651,"709":-1.918428386208957,"710":-0.2463720925767323,"711":11.134172069058287,"712":-0.5166625707762889,"713":2.0116297715491944,"714":-4.219461441763021,"715":-0.5025551206171817,"716":-2.6586742591443673,"717":-12.863569638714397,"718":0.9710063566305136,"719":1.8636702135081857,"720":0.496307197049916,"721":-2.855024912157205,"722":-5.011809392615524,"723":2.1237909318471013,"724":15.23393676829345,"725":1.9917276443644474,"726":-6.85808876287887,"727":-1.3599838113732257,"728":-0.49168875110659443,"729":5.967181673063695,"730":-7.0635491792010825,"731":-1.5166226946471069,"732":0.5778370257072223,"733":2.1764866349682976,"734":0.15969303825627004,"735":4.096948340237972,"736":-5.266143740895392,"737":12.033677464861146,"738":-6.8798099776709,"739":-3.021851176640059,"740":-9.120026125063779,"741":-0.04466559765301037,"742":3.8732618311747355,"743":-1.8795032374131577,"744":1.8393072973943319,"745":-1.7970128798675817,"746":7.38133438376824,"747":-2.193114712353182,"748":0.1472552095803573,"749":3.0372039911046125,"750":-4.349383257748578,"751":-2.409132431207942,"752":5.025460452930593,"753":-0.9573886290970156,"754":-4.483928489481913,"755":-6.0566907642016385,"756":3.058677381753135,"757":-2.3560694983284085,"758":2.1481625524659727,"759":-3.7210277175937643,"760":-1.531624375598954,"761":2.158058212837303,"762":5.392754989600383,"763":-5.127883657150162,"764":-3.108326715802675,"765":-3.2162886082559385,"766":-0.2854034727916467,"767":7.1218151136908405,"768":5.479110747892887,"769":1.8251322220157513,"770":-0.5508922071079897,"771":-1.8592919508114476,"772":-5.55755598605901,"773":2.26595360463839,"774":3.114082853132374,"775":-3.268065133668,"776":8.601219127352268,"777":1.8981156456766621,"778":-2.4347957788511208,"779":1.6848786380540552,"780":-4.86503691431418,"781":-7.60452338925432,"782":-1.5230049469990916,"783":13.704825006415193,"784":-0.44479483498724137,"785":-1.427453629943001,"786":-6.922714813982192,"787":-2.787327196743265,"788":-8.897458128556096,"789":4.134721667614008,"790":-1.4362747159820797,"791":3.70242532239507,"792":3.918073921705875,"793":1.0915284406075585,"794":2.10334522788711,"795":-5.368326962423498,"796":-2.9365975384129177,"797":-2.8883130391831764,"798":-4.06493885218339,"799":-2.259395816490093,"800":-1.3033200593852448,"801":4.101230699935338,"802":-5.117752548943973,"803":-10.509273084243837,"804":4.823357622828305,"805":-0.42247718047451893,"806":-8.193458801454373,"807":11.73422052680543,"808":2.759219944846477,"809":-3.9793856058640364,"810":0.056723451531144595,"811":-24.581661066613872,"812":-2.644082458689688,"813":9.574115296369609,"814":-4.347051213504852,"815":3.41282222374438,"816":-5.885956641175825,"817":3.982121570064934,"818":-1.0353376902076972,"819":1.4638827274749986,"820":1.1779714440533398,"821":-2.9422882887035273,"822":7.918852484834387,"823":-7.661270260152373,"824":2.3063611260341625,"825":-3.071265237253183,"826":-5.714229528887207,"827":0.17145700674528414,"828":8.385237668341787,"829":0.559968166653196,"830":-1.3476128218039842,"831":4.75862292513928,"832":0.26374215116877997,"833":-1.3460924751117267,"834":-8.04395308270809,"835":1.5663536429908778,"836":-5.746472579758491,"837":0.6250891409714283,"838":0.6609518428306358,"839":-0.39895482551031825,"840":-5.186118003946238,"841":7.059219922071731,"842":-2.679185715622087,"843":1.3850439701016222,"844":7.60468460892276,"845":2.403177211036948,"846":3.882283978363307,"847":0.5296850563781788,"848":0.7430238027960139,"849":9.282292989545404,"850":-1.268137145296505,"851":-6.110260342057388,"852":7.529854088879436,"853":-1.9568805978990245,"854":0.6168238427471027,"855":-3.086447270110171,"856":-0.7810748942691154,"857":-3.7483027811120513,"858":-5.3371742106656415,"859":-1.0532188754113594,"860":-13.538781694355587,"861":2.6743801690097087,"862":-4.054714979079081,"863":-4.441476053757064,"864":4.899411189410815,"865":4.348557166067838,"866":-4.5686558911453305,"867":1.5874842333165853,"868":1.2839534919928535,"869":1.948181233965402,"870":3.84151123487014,"871":4.946682755995389,"872":5.7060724233009275,"873":-0.7207847412915754,"874":-3.2248325078642526,"875":6.281136528664716,"876":-1.1761168385529117,"877":2.1431460661259014,"878":0.270786665607202,"879":-7.980741420965212,"880":-0.7585268488053187,"881":7.825941563943047,"882":0.9128424309942857,"883":-3.57281994549748,"884":1.3211288932445835,"885":-0.8379478012128547,"886":-2.8279327036333157,"887":-5.433736360495295,"888":-0.24427891181706038,"889":0.9923106891549349,"890":-17.115467709099374,"891":2.7149550817997308,"892":-1.4447783761204633,"893":-4.8114481520886425,"894":0.5590171551146349,"895":-2.1090080705176484,"896":-0.9977168487148735,"897":0.6145957910599209,"898":-2.678254259100949,"899":0.36502351400688793}},"bf0":{"n":30,"d":1,"w":{"0":3.9817309327573494,"1":-2.902586109857383,"2":-5.0773956577304515,"3":2.0159107959393197,"4":-5.954353426718397,"5":1.7401360801197692,"6":-3.4267426487725787,"7":-8.394813137114419,"8":7.564450767388405,"9":-6.117608553625249,"10":-7.223772412743532,"11":-1.6442837502913714,"12":-6.991365135514364,"13":-7.915573703816672,"14":-1.1370192093922493,"15":-7.8117534458874935,"16":7.879062962700996,"17":-4.885339146681048,"18":-4.190006035220663,"19":8.06824227455886,"20":-8.359612518765058,"21":-7.688807908146371,"22":0.08927394669604145,"23":-4.891847436153494,"24":-4.693659849244029,"25":-7.119594976041744,"26":-5.0611462625050825,"27":-6.611073606814653,"28":-3.6378916231663734,"29":-0.6477252999222403}},"Wox0":{"n":30,"d":5,"w":{"0":-0.11616901162444782,"1":0.15117805357564154,"2":6.286514106644282,"3":1.0889082674727162,"4":-2.736359859803687,"5":3.62585349166508,"6":-2.575802545888798,"7":1.1460735713691765,"8":-1.8733177739922298,"9":-1.6073983322069798,"10":-2.590773184729112,"11":-3.419893367060736,"12":6.047015193623406,"13":-0.5897424136232889,"14":-2.3982451695907994,"15":3.9710974482196875,"16":-0.7049550513980211,"17":-3.893853616395684,"18":8.062447168055455,"19":-2.5514827567207483,"20":3.1186156695152176,"21":-3.0155513678754784,"22":-0.9994136783453248,"23":-4.169850014102158,"24":-5.367265325792461,"25":-4.250306393070662,"26":0.9271202983091452,"27":-1.1800365266924995,"28":2.961827287315276,"29":-2.2971190276806364,"30":1.0051769039123093,"31":2.9772554223848555,"32":9.611149919536993,"33":3.4584574241999686,"34":-0.2537470685028941,"35":-0.5978169186640255,"36":-0.03064409938145857,"37":-0.09765974042801663,"38":0.6518092667154992,"39":-1.535143007168493,"40":2.8777132440981434,"41":-1.6631015046122877,"42":3.8723124313120025,"43":7.5328562699350075,"44":-5.088554584860017,"45":-1.5857117420935989,"46":-4.785763365289044,"47":-0.5674003028864967,"48":0.9186038885786565,"49":-2.0530745367161884,"50":1.455863680947266,"51":-6.803310481065126,"52":0.5030644745270992,"53":-0.09465737041428754,"54":0.14291532147909056,"55":1.3489409707622921,"56":-3.0323426834987957,"57":-2.645019544355214,"58":-2.8000460977444237,"59":2.633114451700822,"60":-0.6222196793443843,"61":-1.9632925750598686,"62":-1.1283177381219156,"63":-9.799724432352797,"64":2.6649266979611705,"65":0.9176249942575653,"66":-0.13870486554797587,"67":-1.981679588641563,"68":0.2904524507703155,"69":-5.342607313492993,"70":-1.8060059729806113,"71":2.0893613532465865,"72":10.529399984093061,"73":1.0614900736174246,"74":2.2104582011241525,"75":5.36413825158849,"76":-0.3687341038328534,"77":0.5596817885219137,"78":0.9817899319789106,"79":-2.9762847032620723,"80":1.634566615569729,"81":-2.9906077912921925,"82":2.074587035222539,"83":-1.9036723137601526,"84":4.41203672470095,"85":0.9538836477755649,"86":-3.6528775946279906,"87":0.13347182076107467,"88":0.9314426503501597,"89":-2.621267841278341,"90":2.1977494891059517,"91":-2.019444926655542,"92":2.8378698444941652,"93":-1.0807853246345915,"94":-1.3288189334532183,"95":0.8856001469666607,"96":2.7774884582496364,"97":4.906094334217666,"98":1.173900636741478,"99":-1.12913579373762,"100":-0.3261843116861928,"101":0.16934337321520915,"102":-1.923386879172871,"103":-3.2411021423239053,"104":2.388239166147079,"105":2.3124119774886807,"106":0.7884600289463339,"107":-2.5239728014877545,"108":-3.9932648641163553,"109":1.770538918913416,"110":-1.383136295962258,"111":-0.13103418222085197,"112":-4.470091699107125,"113":0.24489064898679602,"114":2.371637086002055,"115":1.6844737898149862,"116":-1.9545198812905509,"117":-2.295370759105893,"118":2.4087124168184917,"119":2.4006268918453544,"120":0.34145437682982527,"121":-0.6918102336289186,"122":0.604362319071993,"123":1.992251552618246,"124":0.3722555625732602,"125":1.7169565181616098,"126":-0.3122143572005242,"127":-4.121538477083888,"128":-1.7264395374759807,"129":-3.3615607095377995,"130":-0.34327867173412924,"131":0.20125748078733005,"132":0.34136028265376295,"133":-0.9570026992318172,"134":-3.137705689464519,"135":2.4946046452782715,"136":-6.144678822687196,"137":1.266055494875181,"138":2.852286906684825,"139":-3.3935716228992825,"140":2.2498662264103486,"141":0.5879833481459575,"142":1.3910517694027753,"143":0.6206178253373544,"144":-4.960179053995277,"145":5.034065199819291,"146":0.311112315167576,"147":1.244390125128544,"148":0.4969695948528548,"149":-1.9046934160194295}},"Woh0":{"n":30,"d":30,"w":{"0":-1.8020770511020616,"1":-1.1431338124199213,"2":-1.6965848695502088,"3":-0.7388557605188941,"4":4.245321979769513,"5":4.920836371108083,"6":-0.5119254505736464,"7":-1.2890688830343093,"8":1.7635319199483876,"9":-1.2385788709228223,"10":1.6141278668207784,"11":6.165326053796084,"12":4.151412620831334,"13":1.0662978254285485,"14":-7.567681764799053,"15":0.23262149321953465,"16":-1.063842382518847,"17":-3.3330010400245196,"18":5.528227397582403,"19":0.5391235809606526,"20":-1.3456286185865318,"21":3.4426477883171254,"22":-0.6052820250626969,"23":0.7836325014958937,"24":2.2592545661068857,"25":4.331901197977492,"26":1.723437498542272,"27":3.4209078776637316,"28":-3.5299647252427104,"29":5.102868954444315,"30":-2.897180092702506,"31":-1.6531783376144742,"32":-0.5116185710479535,"33":1.5442634517890617,"34":2.0844500357161224,"35":-3.671969228619991,"36":-2.200851431135679,"37":-1.2377585912723819,"38":-9.096971938888672,"39":-5.325861045011818,"40":4.389764788152052,"41":4.509351423559142,"42":3.165355754692778,"43":0.9860408854996157,"44":1.9524804999596352,"45":0.7559116885234097,"46":1.6402337483675262,"47":-2.4244383418544904,"48":-4.198662827110061,"49":2.2871984391865405,"50":-4.86030373174204,"51":2.190582477463281,"52":-0.8658087338426005,"53":-0.5189451855149089,"54":-1.6675163075731227,"55":4.559291987839666,"56":4.268818352579177,"57":1.3824021290119324,"58":-2.074867539389573,"59":0.8765596848269447,"60":-1.6950647365409586,"61":-1.996879482799087,"62":2.432836462992152,"63":1.088527852756211,"64":-1.6044890947875292,"65":-4.486856891679064,"66":5.01184378356817,"67":-7.929626824025482,"68":-10.159612104023743,"69":-1.5518864552081095,"70":-0.4333129409651224,"71":-4.5433459699689625,"72":1.7067586650990079,"73":-5.117150591834742,"74":-2.0739711763320283,"75":-1.7365467154738063,"76":-3.9665815538851104,"77":-0.6040809279848434,"78":1.657598208040307,"79":-1.1565368121301887,"80":1.4187810304528292,"81":-7.24800113938178,"82":2.8901270368953758,"83":-0.9204910925641561,"84":-2.610275995138671,"85":2.114040144352379,"86":-1.5974093105206302,"87":-19.371750404833715,"88":-0.45816291831054895,"89":12.94521654192259,"90":-0.4691585437288679,"91":-0.8592220415567163,"92":-0.41129257711123246,"93":2.4747254463789607,"94":0.6964655498255908,"95":0.7745591815387852,"96":0.36526944052684057,"97":-0.1593360102323406,"98":4.169164092642071,"99":-0.8779959801982031,"100":2.255238735699038,"101":1.067866125246422,"102":-1.9534723012736277,"103":-1.6786905651962964,"104":-2.0323045862530424,"105":0.6551445618219717,"106":-1.1241754991314965,"107":-3.8126445245715535,"108":0.05496514564972768,"109":-4.569116605108577,"110":1.4310077416370237,"111":-0.20055630846564262,"112":0.21472110695330598,"113":1.4417292376037298,"114":-1.6907836747037712,"115":-2.753758207371428,"116":-3.983096967630943,"117":0.38712877214969177,"118":2.000295952672746,"119":4.437528095244282,"120":-0.6058549563774763,"121":0.1483870257795901,"122":0.4384364754372189,"123":-2.6046406996375366,"124":0.38836265928427155,"125":-2.0028363541411003,"126":2.903956298283309,"127":0.9331742623358483,"128":-5.793610590721288,"129":0.004707014038563627,"130":4.691054314387437,"131":-1.209028168961781,"132":0.1961462894044357,"133":1.975641964727831,"134":1.5459192946325147,"135":-1.7157834191148889,"136":-1.2606079249532112,"137":-1.5975705473123736,"138":-2.456926010356169,"139":6.013199000370615,"140":2.28460350667107,"141":3.284789273996212,"142":1.6176309612410327,"143":-1.2314269063596768,"144":-4.22854129046648,"145":0.08264701208889032,"146":-3.405177470979674,"147":-0.8161114323659164,"148":0.013023976498278906,"149":7.268405488549179,"150":-1.5977678985523984,"151":-1.8082317517500657,"152":-4.180829998511507,"153":2.3246914354266366,"154":-2.75158486435944,"155":7.434504363361189,"156":-1.246117468121246,"157":3.7678423842797564,"158":1.9201017589207936,"159":-1.6098943919502076,"160":0.8350133320804952,"161":-0.9441456653666367,"162":-0.12991320344921994,"163":1.7568749632435101,"164":0.9950046800757639,"165":-5.831655376801906,"166":2.2771951798363013,"167":-0.789504979193979,"168":-1.8226470273835615,"169":6.012053560439973,"170":-3.2738685144869675,"171":4.525637023019148,"172":-0.09173678697793661,"173":2.999788696891163,"174":-2.0326557303067734,"175":-0.9914776531056779,"176":-0.7602033230698279,"177":1.2662755752805253,"178":0.2054414462289556,"179":-2.1344632249025963,"180":1.2431046564917423,"181":-1.63005595807577,"182":6.843029921670472,"183":1.861214554978479,"184":1.8927658457543448,"185":-0.8512700600561107,"186":-4.183219303929839,"187":-5.14611880858918,"188":2.0428851735631524,"189":-2.4958256595306447,"190":-1.1855967122755207,"191":6.79440834812389,"192":2.174570117911883,"193":1.5377280258935715,"194":0.08248086139941176,"195":-4.673082648304203,"196":-4.612560081412193,"197":-2.1278494213909767,"198":-1.2461605388016652,"199":0.5953129614866801,"200":-1.8320584414892054,"201":-0.1348674630914804,"202":-2.0172655441077088,"203":4.461439669485443,"204":-3.589050076596096,"205":3.946094886053796,"206":-0.8290624633051003,"207":-6.493806590735478,"208":-0.7301947893753417,"209":0.2692634531299802,"210":4.201715389937982,"211":-1.5090480753556244,"212":4.892118261422177,"213":-3.0888768081616282,"214":-3.4301731372848026,"215":0.8283730464121711,"216":2.0165538370330425,"217":-0.4950578922004719,"218":-0.2676918574831463,"219":-1.7560271105017353,"220":-2.6298483928139906,"221":-5.128340322042084,"222":-5.118260797342491,"223":1.5414872120308287,"224":0.45458977977376375,"225":-3.081357323373045,"226":-4.830553679402809,"227":-6.124837384495067,"228":2.795489005835268,"229":-1.5679012733044024,"230":4.038345693766512,"231":-2.335436623434556,"232":-4.674401548549926,"233":-3.962608077996794,"234":-8.036933354526793,"235":-0.19179328925189637,"236":-1.9292448892018137,"237":-5.015615169049665,"238":1.7195908370985133,"239":-2.7833115754452837,"240":0.56504134646219,"241":1.6846325512193314,"242":-2.580561893300735,"243":1.6968626422123516,"244":-0.0897982945159886,"245":2.048035729865637,"246":-0.6290386940009521,"247":4.918260332905143,"248":-0.483204506786062,"249":1.6571883930148488,"250":-1.5031008015268508,"251":-3.3947877741225914,"252":0.09135779967919883,"253":-0.0945850244387099,"254":-0.1310825379824497,"255":0.803753157258073,"256":-0.7337824066279278,"257":5.517776717541849,"258":-1.3951999986313737,"259":2.685859038660469,"260":-0.6111985283651858,"261":-2.370145378023571,"262":-4.460201720911962,"263":6.340976891157976,"264":-0.2751430680349245,"265":1.33015718908612,"266":-1.2190250123711517,"267":0.42910537660985576,"268":0.2140455391747654,"269":0.6656504843433043,"270":1.9439376221677032,"271":-3.798584956485403,"272":-5.211054937426593,"273":7.226035855858397,"274":1.1592485508843218,"275":1.6399282975707719,"276":0.9902103474635671,"277":-6.7500445498493,"278":-7.572651491303881,"279":-2.523895025548059,"280":-3.3532537669265894,"281":0.32885348963766486,"282":0.18440190295397638,"283":-1.044523619698059,"284":-4.5755934325449505,"285":2.4396049540264997,"286":1.3656994483319358,"287":2.760661922980874,"288":1.6448418160383727,"289":-4.65568133992089,"290":-5.003718947900815,"291":2.1108861393883034,"292":-0.2088906096726079,"293":-3.957649342482272,"294":0.2041691145174001,"295":-3.6262664412065404,"296":3.744109905554151,"297":-2.524146999473889,"298":-3.631132000861391,"299":-1.209637630499296,"300":-4.0254917452255174,"301":2.786925663420063,"302":2.8336078735098944,"303":6.946734144449316,"304":-0.6065769481551928,"305":7.0067900407643595,"306":-4.113953711270254,"307":0.4776263301572827,"308":1.078149322049339,"309":1.1469059790535754,"310":5.111182974867161,"311":5.516039947433919,"312":1.4606008362661609,"313":2.4654315632635297,"314":3.6760119230871977,"315":-6.923648473850406,"316":-2.6452198540306977,"317":1.675267857627821,"318":-1.253701389659392,"319":1.563590011460131,"320":-1.8891105486354995,"321":5.47372898013139,"322":-3.370727956959014,"323":-0.73929640290773,"324":0.6142653296348249,"325":-3.0642786249955,"326":5.7936291128443544,"327":-0.48064580447607747,"328":4.198903955609874,"329":1.808201964579337,"330":8.244508898524591,"331":-2.564410212104585,"332":0.7481038567655339,"333":-0.715106277246335,"334":-1.5204969327071571,"335":1.7761307259025378,"336":-3.0378897840962575,"337":2.2783761364695025,"338":-0.268664520015491,"339":-0.7546196403341314,"340":0.6485136844239997,"341":-1.1300521403241295,"342":0.3234147635397847,"343":-3.942660352460496,"344":3.3104136759589147,"345":0.7473694153340341,"346":-3.7121463095951936,"347":1.7975163498543802,"348":2.8921683820818775,"349":5.698080343793577,"350":-1.3249476770746156,"351":-0.7050676810647248,"352":-2.968004873253915,"353":3.3352809973810884,"354":2.370327222488698,"355":-4.6882057552964005,"356":-5.814592031205888,"357":-3.276397726938076,"358":1.9027006345507818,"359":-4.249652974093879,"360":2.4113817330887115,"361":0.5518028205100731,"362":-2.738226286289338,"363":1.2345498790481426,"364":0.37698201334696957,"365":1.5027399441365101,"366":-1.0417683318362232,"367":1.6843038454787778,"368":1.0007955951923115,"369":-3.6170252025824903,"370":1.8056839463419756,"371":-3.063006185641653,"372":2.219209026435937,"373":4.508195735679012,"374":6.988918123325622,"375":1.7836693195781648,"376":-3.1248369129254128,"377":3.6730269554412245,"378":0.5116990640100731,"379":-4.787197897050373,"380":4.4037903117043244,"381":-2.530621974469346,"382":-0.18935580585537726,"383":-0.6549574379733828,"384":0.49350226481159204,"385":5.575103346682156,"386":5.315872152741934,"387":-2.5813869131785743,"388":0.14385961181203913,"389":6.961194003925534,"390":-3.139124472814247,"391":1.7913366874716325,"392":-1.497320272200504,"393":4.477676882346633,"394":5.653918943486469,"395":-1.3680135464063639,"396":-3.7631560531781627,"397":0.0028525651804415966,"398":2.395957757519935,"399":-1.6950009624888962,"400":-1.7354343446095686,"401":-0.6566041685642533,"402":2.592184407694004,"403":4.3423547266361116,"404":3.801529130328617,"405":-5.45699913530914,"406":-0.623998752377076,"407":-0.31482525813581663,"408":1.60067880256412,"409":5.056781596499194,"410":6.027237600432442,"411":0.6570046462597559,"412":0.8128413171465978,"413":3.088499160847191,"414":-0.7646486597321087,"415":-0.18233253039224456,"416":5.8005086414712315,"417":-1.3207826908603872,"418":-1.619154960653446,"419":7.273826569514051,"420":1.195993550298362,"421":-4.276551662305624,"422":2.0782594000638888,"423":2.6781029940678565,"424":2.1719464752598343,"425":4.192386516266532,"426":2.6201682799984516,"427":1.026378272505193,"428":2.8782863588435936,"429":-2.5746087326575458,"430":4.4506455973070445,"431":4.30075048112089,"432":1.5964109534795277,"433":-2.031727667776989,"434":7.795730236228217,"435":-0.1907305890227306,"436":-0.9392267195534526,"437":1.700743332144337,"438":1.9664408033559562,"439":4.579748430625866,"440":-1.7847681789790129,"441":-0.29114608162508476,"442":4.417747206611306,"443":-2.963910024306601,"444":-0.7701774919847292,"445":-4.859971407238525,"446":1.5242244711229627,"447":-9.547181145444569,"448":-2.4751051278230207,"449":1.108724239689661,"450":-0.7243664086458549,"451":1.0401542799463628,"452":-2.633060095177186,"453":-2.5310849526716455,"454":-0.8780740019815696,"455":2.395200435754852,"456":-2.285640572263803,"457":1.9221644528346646,"458":-1.4298725195302309,"459":1.8754184631065776,"460":1.7808990753606662,"461":-2.264029346935781,"462":1.3019026174767834,"463":-1.1010648106860343,"464":5.039336989718275,"465":-0.9050831648839253,"466":-2.742078123731719,"467":2.2088764870036717,"468":-1.8542629498738996,"469":-0.010848102847569607,"470":3.2693321680586362,"471":-0.0376214913729064,"472":1.5950578711579597,"473":0.08648110774590738,"474":3.59212274228178,"475":-1.384216876092931,"476":-6.362985829287392,"477":-0.7629129406869424,"478":-1.9564899328888967,"479":1.0959686957494956,"480":-0.4833099275158807,"481":-3.7343195950941053,"482":3.9644522163073193,"483":-3.5558764390886655,"484":-0.07648648165444132,"485":6.546989878131155,"486":-0.19276192071392415,"487":-2.0835733673529515,"488":3.793291184436498,"489":-0.2929489631196718,"490":0.6967473314145213,"491":2.6696101271926977,"492":-0.2384331951648834,"493":-1.341405883173997,"494":-2.9334214857507255,"495":2.821667226447315,"496":4.709907641357549,"497":2.0581366609292013,"498":1.0412103236862624,"499":2.063587790118858,"500":-1.8611084214481666,"501":2.027187030921019,"502":2.8475280372340936,"503":1.4346012084238486,"504":8.148557901078986,"505":-1.5793583979483385,"506":-0.514954748550006,"507":-1.60033783174647,"508":-2.59866591027366,"509":-0.766532751245778,"510":-2.059560418368068,"511":3.470915640568084,"512":-2.8535970887895714,"513":3.9658574910175655,"514":0.0779627442017407,"515":-0.05854770675901676,"516":3.84408845938133,"517":-2.617805382720734,"518":-2.4446883010609657,"519":8.078922682711209,"520":3.1790583621328214,"521":-6.363647532566604,"522":-1.7720143266022488,"523":1.1280069250185538,"524":0.4564261087464444,"525":3.9218779910065793,"526":0.41008031148141544,"527":-0.4276581474447597,"528":-2.499762592360028,"529":0.10056560063515875,"530":5.2938191951778935,"531":-0.074030270273868,"532":7.311313426232693,"533":-6.115357837377763,"534":5.838174410972384,"535":-3.1811018769143673,"536":-0.6566241753410058,"537":-1.6048498030435525,"538":-2.696152658975174,"539":4.0370440227276285,"540":-0.9881207348188175,"541":0.9163610793320601,"542":8.393800333087896,"543":6.269693500039506,"544":-2.400686024007992,"545":2.086398344148189,"546":6.026999253455657,"547":-0.22980472547067635,"548":-5.868407385989781,"549":3.631165972191264,"550":3.0055360630974888,"551":-4.174335789709816,"552":-1.925967706632118,"553":4.042711023189862,"554":3.784885380939814,"555":-3.7061409908040064,"556":1.5921862630947663,"557":3.09356879946979,"558":-1.7524043860413823,"559":0.3344330916832495,"560":3.616265859812353,"561":-4.733419704510463,"562":-0.39698324122092143,"563":3.181908566921486,"564":-4.170145527500146,"565":-5.505946802689905,"566":2.3755805521246565,"567":-1.5295090276362728,"568":2.3325198653217316,"569":1.2089581804647276,"570":-0.5210190489200349,"571":-1.826630559514375,"572":-0.9602632980249527,"573":4.903430796409069,"574":1.9413374768314897,"575":-2.082081969912668,"576":-3.610156443636959,"577":-2.117206732091303,"578":0.04472893650201691,"579":-2.927842126029064,"580":1.5739057420116866,"581":-2.0472024470050743,"582":-0.7180289383375972,"583":0.0847082576193603,"584":2.2553587677486426,"585":3.5911431997109187,"586":0.09109018954996272,"587":-1.3870829437737624,"588":-0.09756445438254961,"589":0.3336156259526964,"590":0.5789765668418922,"591":1.0114333079947686,"592":1.080396989237708,"593":-1.3993964699955421,"594":1.2367119542032896,"595":-3.638556025684675,"596":-2.54545636271116,"597":-3.755441053339977,"598":-0.3652370567275068,"599":-0.7282914789556677,"600":0.8120972568897533,"601":1.1563446973013243,"602":6.801951249592057,"603":-3.3768183858631016,"604":-0.30954450614818013,"605":4.557396352427421,"606":-0.8680910546344567,"607":0.21921371782145938,"608":2.357745791942065,"609":-2.956104867718407,"610":-0.0028728776917858745,"611":0.8045124664060742,"612":1.795014055515051,"613":-1.1917595747995455,"614":-1.877284495256884,"615":0.7925711333454908,"616":-1.4722354902030799,"617":2.0051110451126495,"618":5.015763870367988,"619":1.3068949859746795,"620":-3.3726846918499227,"621":3.0112696881667134,"622":-3.344801507792064,"623":0.2953540268257731,"624":1.7117099195770298,"625":-0.21444234502502899,"626":-4.228297481666828,"627":0.38906630860881913,"628":-4.709708492150732,"629":2.5144745872574954,"630":-1.2946401001982393,"631":4.386864594286631,"632":1.4526965145671187,"633":-1.2904175764709043,"634":1.4615050701974241,"635":-0.2237125800655962,"636":5.099230571806831,"637":5.8779681416247,"638":1.1759602119985286,"639":2.1581849012080183,"640":3.7042783504581154,"641":3.847728889864522,"642":1.7811967547934715,"643":-3.1911459448327983,"644":1.692637141212676,"645":0.11620843864669593,"646":-0.3255630440654605,"647":3.7762849682416952,"648":-1.373507195045971,"649":1.951677696008206,"650":-0.8284538477516659,"651":1.1171432180469627,"652":0.11215533657501092,"653":0.4363740713027431,"654":3.0149053065690854,"655":0.7397197302599771,"656":5.55065830080624,"657":2.0235039623300266,"658":1.8200259491336472,"659":-2.264821216332685,"660":-1.7508167911330201,"661":-2.4474752534635393,"662":-0.9926157207077759,"663":-1.1810257456458757,"664":1.5099856103865346,"665":0.8096269628420385,"666":-2.8815510328002527,"667":2.4665750876488874,"668":-0.8436834884939635,"669":-5.033501257293822,"670":-4.198740121121256,"671":-1.3550762981604465,"672":-1.3351070769782631,"673":0.38787572877880555,"674":-2.172873728095447,"675":-0.22592854168139068,"676":3.4521657750267307,"677":2.867558224454556,"678":-3.8998019879184285,"679":-3.3852331504413784,"680":-0.4031933270682628,"681":-3.1308769642705543,"682":-1.2758756689681965,"683":-1.7502292465269411,"684":1.0851911208364509,"685":1.743425290812724,"686":-4.697559286283857,"687":0.8452347110273118,"688":2.015714426078739,"689":0.423405613862228,"690":1.7431293384874644,"691":-2.8526559295347957,"692":6.314956607754942,"693":-1.8299395057853964,"694":1.1301040180898847,"695":-3.600422635009254,"696":-4.432624740212177,"697":0.9125046934753785,"698":-1.4359435454925713,"699":-1.9677389166703132,"700":-3.9755481392974934,"701":-1.886152191153383,"702":-4.209964325054379,"703":-0.5772312416999459,"704":-0.48894560156489053,"705":1.491427646885004,"706":-4.1247943179895525,"707":-1.267835285983664,"708":-1.5230451303211,"709":3.091385986921206,"710":-3.15433756135535,"711":-1.175358718231033,"712":-2.871131078793608,"713":0.18755857763777006,"714":-1.9094144812849665,"715":5.2047254164598415,"716":-5.560282863749124,"717":1.8757957229711812,"718":2.6864275722675295,"719":5.561737087140466,"720":-0.4799735304833878,"721":-0.7669296766483572,"722":-0.46458601803040067,"723":-0.4354225169662968,"724":-1.879758046114282,"725":3.7642304270974645,"726":0.5024516757259417,"727":0.576223794047524,"728":-0.5523533715033733,"729":-1.7332666800155008,"730":1.430547239161808,"731":0.11767608291053022,"732":-3.5841795803411047,"733":-0.6296846063714953,"734":1.953729760622338,"735":0.07243479550190278,"736":-1.9245472498252623,"737":1.5177385107246215,"738":-0.33168399580451846,"739":2.466709901830126,"740":-1.3386175689888191,"741":-0.7471792332759841,"742":-0.6652964646037246,"743":1.4110998873040543,"744":0.6380583096562994,"745":1.809190922699883,"746":3.439895056411394,"747":-0.7328204694969734,"748":2.197234511399907,"749":0.534089452401584,"750":0.6124800882205843,"751":-2.69254904922401,"752":0.41398830998276004,"753":-3.0681897661913275,"754":-2.8145807579570765,"755":0.48219142849149543,"756":2.0103523282581595,"757":3.504254322944362,"758":-4.870465909075435,"759":3.1990840205210436,"760":1.6942591219660947,"761":1.872709158962043,"762":0.638981260116271,"763":-1.0637041823423112,"764":2.332970544499918,"765":2.001686602676122,"766":-3.271821520973767,"767":8.551499631864493,"768":0.15072810083640006,"769":11.27656345027188,"770":-5.630730726521009,"771":2.1136406289259573,"772":1.0421939243517075,"773":-2.6806701596396887,"774":7.911421719411147,"775":-4.7266963192266855,"776":-0.9434741399975329,"777":-3.1421782574441357,"778":-6.176902464243649,"779":4.921477279375029,"780":0.5051025425343519,"781":2.3470502080916433,"782":-2.188006544264004,"783":4.02001610776947,"784":-1.3692436634634542,"785":0.4443094997570768,"786":-3.142549755644259,"787":1.7497388328062866,"788":-6.942371397256945,"789":0.836373611242765,"790":0.9452476034662133,"791":-3.4456811113145625,"792":-6.376521229347327,"793":0.6670882509336091,"794":4.0441472031104935,"795":7.223704694944727,"796":0.8756576512467845,"797":0.41834656457829206,"798":4.293565401326481,"799":3.1858992085944506,"800":3.2465260946724266,"801":-3.5777399181532985,"802":1.3400605412325814,"803":1.6813561526552423,"804":0.7818748123424962,"805":0.1328113366271164,"806":-2.3812424921245885,"807":-6.737378350516839,"808":-4.34616365227182,"809":4.9504519463615875,"810":0.36271186432815633,"811":1.7714869207795882,"812":-3.1942605616478614,"813":-0.42069429435207584,"814":-3.7150402948028414,"815":4.6696087863612155,"816":2.194771022573504,"817":-0.35144507619325704,"818":-3.3694701869408905,"819":1.2999311223460404,"820":5.769273926440864,"821":-14.783592506649798,"822":-5.5856204062876165,"823":-2.83248548827801,"824":-1.69852481188816,"825":-1.8836650069408905,"826":-2.888872463534716,"827":5.358055307528518,"828":0.15077937276780687,"829":2.0041697084016126,"830":-5.555559272701741,"831":0.048295190529906995,"832":-2.509012537379683,"833":5.755171468124774,"834":4.922751619801756,"835":7.029849627757435,"836":1.6630965001746107,"837":-3.975274170372807,"838":-5.370975273327539,"839":7.468950785098269,"840":5.817783311819922,"841":-0.7222636481905342,"842":-2.3760406827064573,"843":1.839789817945046,"844":-0.20206960824766662,"845":-0.5587177932273074,"846":-1.3743502803390264,"847":2.481426597216409,"848":-2.395261517190808,"849":3.198602375262289,"850":3.270643731317165,"851":-2.278987571189001,"852":-0.6672364208075073,"853":0.8715422394176559,"854":-6.000733723647523,"855":1.4028029208986281,"856":-2.1848072928874633,"857":-5.007264101538561,"858":3.7521177716585767,"859":-5.485895316396499,"860":5.138779969161339,"861":-1.294088169157124,"862":-0.5525526720269317,"863":-2.1677100902982587,"864":-5.359865954716834,"865":-0.613297332133491,"866":-2.447877187127369,"867":-1.082359501633221,"868":-0.12853854258778658,"869":-2.139258529521007,"870":9.299410726781089,"871":1.3408901714454866,"872":-2.853689109356001,"873":2.8804709540244655,"874":5.454601692000814,"875":-0.8436091810666232,"876":7.8868330537852005,"877":-2.1076324029824294,"878":-4.068089682187793,"879":0.8626292593693872,"880":1.7415698061922644,"881":6.714073791494193,"882":-2.8747340920609514,"883":1.9707309339639436,"884":2.292712616398296,"885":0.169043460353602,"886":-1.262419772677945,"887":7.0794345598029045,"888":1.2423291545321689,"889":2.6415973379866653,"890":-2.7455120135631534,"891":0.9752154260921646,"892":0.2748409648699156,"893":-4.34829767397871,"894":4.533959054569559,"895":1.1906243362182483,"896":1.2082090999079669,"897":-4.011857393586601,"898":-2.2979291592166264,"899":4.558786395114748}},"bo0":{"n":30,"d":1,"w":{"0":5.612048501698158,"1":-3.8707294467896443,"2":-6.1743984531792755,"3":-0.9635247725745997,"4":-0.993184458240566,"5":1.2909215440416224,"6":-5.971957732640616,"7":-1.1873986655643665,"8":1.133677563915853,"9":-0.9205987916211785,"10":0.5462000119384759,"11":-3.3190421278915268,"12":-1.0802950194939736,"13":-6.379172059488444,"14":-2.7622894190061245,"15":-2.9773563042329756,"16":5.583823695141009,"17":-2.4214479508091142,"18":-0.2108455074085314,"19":-2.549339654999635,"20":-0.48815084874021886,"21":3.429797964558361,"22":0.37763751028730685,"23":-1.1873352016134076,"24":-0.6226477577304917,"25":-5.756788714849999,"26":-2.005298251395354,"27":-3.016226150179692,"28":-1.8111631905359211,"29":-4.213289993421616}},"Wcx0":{"n":30,"d":5,"w":{"0":0.55797982305232,"1":4.166502407690239,"2":-0.12411941868551736,"3":1.0194596151070983,"4":-0.9141250281176411,"5":0.4607566776771058,"6":-3.4034699295153565,"7":2.535350047642958,"8":-0.8002228467259278,"9":2.449727007138104,"10":1.8437729405507544,"11":-2.508940918356728,"12":-4.972948257876888,"13":1.7592510985508951,"14":-2.701909989686136,"15":-0.2946857625630783,"16":-0.46554751512925396,"17":0.5950414373592725,"18":-0.8599686960354155,"19":-0.6752041415780003,"20":-5.596670880739002,"21":-0.6503864560805583,"22":-1.1591597044485114,"23":2.6275877375819876,"24":3.575333023532265,"25":0.3095401192682767,"26":-0.16434718006318352,"27":0.6540555349466163,"28":-0.5868278851780424,"29":1.0591534561442408,"30":-0.974756090927176,"31":0.7660513588761103,"32":0.6366468877579328,"33":0.7151344792043212,"34":2.6702030163624024,"35":0.888321270044006,"36":-0.504624915849729,"37":0.37586147324537894,"38":3.3912399718982744,"39":-2.1310880899791638,"40":1.5064793377677994,"41":0.15382389705961055,"42":1.1326055758092552,"43":1.033626321168592,"44":0.3374405955311506,"45":0.5116573621300965,"46":-3.0070390053606157,"47":-0.7191165308988168,"48":3.6243884419174255,"49":-0.5734756531886337,"50":1.4163285652013855,"51":-1.7799641368917578,"52":-1.5895642304780693,"53":4.089283582931619,"54":1.6954092546908128,"55":-1.171935177179333,"56":-1.413887613803391,"57":0.277465033506694,"58":0.37641377629242084,"59":-0.9538701962440784,"60":2.474442862848943,"61":-1.845634812056305,"62":2.269537991299059,"63":3.9815842418497276,"64":0.5612763974362028,"65":-1.6210301208564737,"66":-0.028248071687717233,"67":3.646698163673015,"68":0.045538750369942774,"69":3.5027943799532477,"70":0.48596902825680127,"71":0.347997146558028,"72":1.6832928715067494,"73":2.6795775048126425,"74":1.9500679044368194,"75":0.3630863177495597,"76":2.4347698341691997,"77":-4.627933369364527,"78":-2.6392183567176617,"79":2.38025882564124,"80":1.0466850062390762,"81":-0.8488011199607909,"82":-1.0573165512675837,"83":0.33849740000070305,"84":-0.0656720587006329,"85":-2.878489149987784,"86":3.081196750283303,"87":2.166172697895697,"88":2.041945045690405,"89":8.803281636409762,"90":-1.6909500374817021,"91":-2.9370754994290458,"92":5.792735037456631,"93":-1.4892923173417745,"94":-2.6745984506800706,"95":-2.7238251234150184,"96":-0.07997058013509145,"97":2.1247840441284436,"98":2.3551392468638954,"99":1.1275667132689595,"100":3.101645455737549,"101":5.396710429031287,"102":0.3327303344832013,"103":-2.1406332501661134,"104":-2.8346763264038466,"105":0.6298466249660325,"106":-3.2852079765941564,"107":-0.07169776205943444,"108":5.362597165459244,"109":4.2930047782850735,"110":1.3029716149895676,"111":-3.0614734857685306,"112":-1.050176275060264,"113":-2.824525871655626,"114":4.412384141938613,"115":7.43658488586603,"116":2.345244097448962,"117":10.571969427120479,"118":0.32618655503308114,"119":-7.147656975213782,"120":-0.7420572586626013,"121":-0.7772712040002949,"122":-1.8612046177088744,"123":-1.6503177641772002,"124":-0.18571982625049488,"125":-4.906392823753772,"126":7.223996414676243,"127":1.47033137036825,"128":1.6580289387457114,"129":1.776653296984119,"130":-4.855492031934692,"131":-2.0506655912282907,"132":-1.475262168379494,"133":-0.6382934984339479,"134":-3.0470974148662746,"135":0.12799232401322655,"136":0.7501982315263851,"137":1.4926141083456657,"138":0.41862929833075657,"139":-1.2771431397108326,"140":0.7820217040494711,"141":1.183367691408952,"142":1.4464232987708054,"143":3.8773552120582755,"144":-0.9199233069293618,"145":0.7064327218233,"146":-0.27011553907019986,"147":0.04456779221235947,"148":-0.6037333348793423,"149":0.7036218874225474}},"Wch0":{"n":30,"d":30,"w":{"0":0.9578707485283421,"1":0.6281209978234541,"2":2.128192695037158,"3":-0.7373529151951664,"4":-1.8087020236950477,"5":0.625826022654274,"6":0.8181280260142448,"7":2.372641614933318,"8":-6.120704868944295,"9":0.9701542244806913,"10":-1.3316148471390359,"11":0.45851556199380433,"12":0.7983757727615863,"13":0.497085772859053,"14":7.847073971507803,"15":0.792965794188565,"16":-3.7652275340331993,"17":-2.562540166066271,"18":3.464688189556599,"19":1.8598199134142792,"20":-4.848710602976275,"21":-2.0297975487328257,"22":2.225950449240334,"23":-2.4868694229294905,"24":1.4893850642182274,"25":-0.17935499222609821,"26":1.6970109311965478,"27":-2.0074759307555996,"28":-0.1486871820810677,"29":2.7326949595344794,"30":-0.9778219164084634,"31":-0.3292472004100196,"32":3.1389269378274776,"33":4.12587859176295,"34":-2.881489704175552,"35":-0.81941255669551,"36":0.27668389765102436,"37":-2.5637939536994026,"38":0.4490749302780478,"39":4.576881759124859,"40":0.612999763677001,"41":-4.1934605083933,"42":-2.8809662205191544,"43":2.4960327095468666,"44":1.9494364857405615,"45":-1.6758613637534154,"46":3.4656371529437386,"47":-2.044703118960902,"48":-0.32487929593593723,"49":2.2078591083386696,"50":2.838850456696229,"51":-4.838375854407196,"52":2.639170414047397,"53":0.18957596765325344,"54":0.9944435569486235,"55":2.193249363709339,"56":0.7706362913896934,"57":1.9770634335454824,"58":-4.050846739076247,"59":1.8430006932845233,"60":4.159537023062947,"61":0.794575677887265,"62":1.270690075276331,"63":-0.8502371399738168,"64":-1.9261932945973188,"65":-1.2951734474784442,"66":-6.561707064653779,"67":-1.080102258382639,"68":-2.016034527004224,"69":-5.441455454430925,"70":-7.609214947565034,"71":-3.0270108421084236,"72":-3.558349239289006,"73":0.8664612264038359,