window.characterToIndex = {"0":1,"1":2,"2":3,"3":4,"4":5,"5":6,"6":7,"7":8,"8":9,"9":10,"H":11,"i":12,"g":13,"h":14," ":15,"s":16,"p":17,"e":18,"d":19,"a":20,"n":21,"m":22,"u":23,"l":24,"t":25,"c":26,"o":27,"D":28,"r":29,"b":30,"k":31,"w":32,"(":33,"K":34,"W":35,")":36,":":37,"f":38,"y":39,"E":40,"x":41,"S":42,"j":43,",":44,"O":45,"T":46,"v":47,"C":48,"R":49,"-":50,"V":51,"z":52,"q":53,"N":54,"M":55,"A":56,"X":57,".":58,"/":59,"P":60,"I":61,"B":62,"G":63,"F":64,"U":65,"L":66,"\\":67,"'":68,"<":69,">":70,"+":71,"?":72,"Q":73,"Y":74,"â":75,"":76,"¢":77,"J":78,"Z":79,"_":80,"&":81,";":82,"Â":83,"®":84,"*":85,"\"":86,"!":87,"":88,"@":89,"":90,"":91,"":92,"":93,"`":94,"=":95}

window.indexToCharacter = {"1":"0","2":"1","3":"2","4":"3","5":"4","6":"5","7":"6","8":"7","9":"8","10":"9","11":"H","12":"i","13":"g","14":"h","15":" ","16":"s","17":"p","18":"e","19":"d","20":"a","21":"n","22":"m","23":"u","24":"l","25":"t","26":"c","27":"o","28":"D","29":"r","30":"b","31":"k","32":"w","33":"(","34":"K","35":"W","36":")","37":":","38":"f","39":"y","40":"E","41":"x","42":"S","43":"j","44":",","45":"O","46":"T","47":"v","48":"C","49":"R","50":"-","51":"V","52":"z","53":"q","54":"N","55":"M","56":"A","57":"X","58":".","59":"/","60":"P","61":"I","62":"B","63":"G","64":"F","65":"U","66":"L","67":"\\","68":"'","69":"<","70":">","71":"+","72":"?","73":"Q","74":"Y","75":"â","76":"","77":"¢","78":"J","79":"Z","80":"_","81":"&","82":";","83":"Â","84":"®","85":"*","86":"\"","87":"!","88":"","89":"@","90":"","91":"","92":"","93":"","94":"`","95":"="}

window.hidden_sizes = [20,10,10,10]

window.model = {"Wil":{"n":96,"d":5,"w":{"0":-7.154916577179657,"1":-6.865911044589472,"2":1.0599083391684778,"3":0.27988320999987465,"4":-4.748607932293642,"5":-0.42347563107353825,"6":-2.3507438020512974,"7":-0.4303417551224241,"8":3.6039807900786127,"9":-0.08401074473478973,"10":1.4884353082874044,"11":-5.146185350423369,"12":-0.560948699528104,"13":2.3615315965693484,"14":0.6962626923522401,"15":3.1097723524964636,"16":-3.8742213782521127,"17":-1.7620950381705491,"18":1.8572396311446855,"19":1.061475806245459,"20":1.8672866428686583,"21":-2.480549173393262,"22":-6.0687714536452795,"23":0.1533707668842935,"24":3.2270799015103924,"25":1.372765671626302,"26":-1.458003205897033,"27":-2.90109656478245,"28":0.4994704208606985,"29":5.073473933432151,"30":0.8164461938943011,"31":-1.0448448295858332,"32":-1.731314440252747,"33":5.055554305036264,"34":-1.5875197686898488,"35":-2.7037015538081075,"36":8.368758750146378,"37":-1.7857651209483834,"38":-2.959758368419507,"39":-0.8289150618399097,"40":2.596660211686832,"41":0.6347142181517244,"42":-5.442271486884297,"43":2.011082192065095,"44":7.00792702694773,"45":-0.9204977926872838,"46":4.71048344652504,"47":0.10688208173886284,"48":-8.3035509573294,"49":-0.2029083388224508,"50":0.9797814498989886,"51":6.9382405904665045,"52":-4.6477999883960175,"53":-11.308553866182283,"54":2.0826142552953217,"55":-2.4556176073834313,"56":-0.387105546748528,"57":-0.04336017825632969,"58":0.8907671012901025,"59":-1.6078626517091377,"60":-0.622519238360651,"61":0.37717068416232064,"62":-1.6256754145028212,"63":-0.0122348234464934,"64":2.474025514601545,"65":-4.5962570526533515,"66":-0.7448082936864903,"67":-2.3933626736023332,"68":-4.080005061074899,"69":-5.9171214536897505,"70":-0.8613771151899441,"71":-0.7164510927360885,"72":-2.3316600544509196,"73":-0.4903388385009122,"74":-4.150680841445632,"75":-2.6681447010237065,"76":-4.819719689140077,"77":4.142662026323676,"78":11.064874394660158,"79":7.84666714354645,"80":0.32828637980742403,"81":5.947239866037871,"82":-0.36120905547905213,"83":0.4411914310419131,"84":-2.317352475387404,"85":0.23250683627845362,"86":-0.2428116867464504,"87":-1.0017597864285022,"88":2.4572792001751353,"89":-0.9638704873588113,"90":3.191009034082451,"91":-0.5724451652576381,"92":2.802032218755062,"93":-0.2553833292955275,"94":0.31642707783799007,"95":-4.820190912538968,"96":0.8522998144836615,"97":-5.157140768241284,"98":-10.942992394491712,"99":-0.06337692367975256,"100":0.9443417251377672,"101":-2.3227902002127943,"102":-0.22734563168987781,"103":-0.10316184918445381,"104":2.553435864914289,"105":-0.7075926994768312,"106":0.767330706195958,"107":1.9499220352144966,"108":0.7484537709860613,"109":-0.32461891905040113,"110":-2.442088693787823,"111":1.0671738307058145,"112":-1.2298829124847765,"113":-10.354594699309212,"114":-2.403246971323215,"115":2.3690187171295034,"116":-3.265170539508958,"117":-1.2337498985657687,"118":0.4363174957018256,"119":0.4416562913855825,"120":-4.32125371789385,"121":1.3048596959901955,"122":-1.3642108932923218,"123":-4.8823289568790615,"124":-1.7797796152635688,"125":-2.030449159952435,"126":-1.5351971963942197,"127":0.6586210547892518,"128":0.9588777417471529,"129":-5.421427293480946,"130":-0.48603176458660047,"131":-2.345709773670406,"132":-1.2988395173979999,"133":0.08635478141326972,"134":-1.174082897172495,"135":1.7018273258617538,"136":1.3418416022400936,"137":1.4970271883657116,"138":-1.6830190183521532,"139":-0.49121893775644787,"140":-1.9945909252181755,"141":-1.4466233139306555,"142":-4.945460547422965,"143":-10.282646920219237,"144":1.3208881260661802,"145":-3.0462428126424568,"146":-0.6752396598541124,"147":-0.8804851204139045,"148":-0.8725078616736166,"149":1.2414374165610327,"150":-5.805235745355302,"151":-3.6335523637540605,"152":-4.39175962104456,"153":-5.503923401356103,"154":1.6847666611453307,"155":-0.2882272600384649,"156":4.098963190497608,"157":-0.5452421654514579,"158":1.5788058201551023,"159":-1.333321996081707,"160":-2.5330939490829327,"161":0.8224307528594254,"162":-5.11240437035707,"163":-2.996935208359266,"164":2.109533811546574,"165":-0.49770378101906365,"166":-5.229117438277526,"167":-3.3490585783519102,"168":1.7920982706362953,"169":3.6511780823674,"170":-0.9634847791726732,"171":-3.337202486276293,"172":-2.4971364925361144,"173":-2.7469526834917914,"174":2.6029302802108427,"175":-5.082401768428102,"176":1.9378820714339795,"177":-4.1174221125345305,"178":0.4725023860282,"179":3.6060105424140807,"180":-0.7610961402683715,"181":9.52382029476732,"182":-0.3169594887949449,"183":-11.615133197895187,"184":-1.773691290573964,"185":-5.391879395513229,"186":2.011775279809764,"187":3.5660229460404453,"188":-27.02520089183282,"189":-2.3433597753709803,"190":10.76985811763955,"191":-7.468124549391189,"192":2.940734092487541,"193":3.044851191466607,"194":5.602318975309464,"195":-2.0715028731297167,"196":1.9222974330040068,"197":2.699642157129497,"198":-6.897759765256145,"199":1.7394165430349042,"200":-0.2737464307442161,"201":-3.352407552476855,"202":-2.9515203072421987,"203":2.65740618045545,"204":1.7491441714194667,"205":-1.4828166305425832,"206":-1.4392780641894218,"207":0.5505331482055023,"208":-0.7969166182565841,"209":-0.039495354547176294,"210":-0.13529915616495308,"211":4.55685973377647,"212":-0.05793256494973511,"213":-5.15701635409803,"214":-2.9821656221825394,"215":-7.425083408443795,"216":0.889481135499251,"217":-7.569216256904381,"218":2.8709406409939753,"219":1.9916766999180546,"220":-6.597572566923148,"221":1.3556071009727482,"222":1.4687288885462237,"223":-19.500604189748422,"224":0.3539813584303269,"225":4.080277030895318,"226":-3.7589158130465523,"227":0.2306801963157483,"228":2.3127108789919952,"229":2.3960321848581003,"230":-1.7434412014970202,"231":0.35389783950012615,"232":-4.185877444904784,"233":1.5553531976328445,"234":2.458996057700857,"235":-4.788597851623325,"236":-0.5698649708868954,"237":-5.543675497707722,"238":-0.925783879866063,"239":-1.1665722940968009,"240":1.8584857240322934,"241":-1.5921437083105991,"242":-1.8512557034271795,"243":0.2623378151200113,"244":-2.3748550024424038,"245":-9.374396008041169,"246":4.1864444161024945,"247":-7.774180014248031,"248":-8.19971510197828,"249":5.251928112820923,"250":-0.29661609553014084,"251":-6.687366937379129,"252":0.9130960434385964,"253":7.0103446305905335,"254":3.133345012871785,"255":-0.9200276023802303,"256":0.711853565206612,"257":-8.011683463993123,"258":-6.21967047340205,"259":2.910322067320141,"260":-10.261543220859332,"261":1.9694456295536276,"262":-6.620543668212151,"263":-8.296289889770085,"264":-0.33548763601270654,"265":-2.36396386258743,"266":-4.011686788184372,"267":-4.794380558791503,"268":4.72230111302191,"269":-1.7496291976929166,"270":0.7866282174270262,"271":-1.4865436579824736,"272":-0.8291130631446038,"273":3.7146966523307143,"274":3.0946326083169855,"275":-2.8014492077769635,"276":-0.555805016195705,"277":-6.756461271268356,"278":-3.803708625392809,"279":0.042908476920107144,"280":1.5281919388656202,"281":-4.899839689426278,"282":-4.362253189727636,"283":4.377576456147967,"284":1.3311881142812987,"285":-1.0915695918257917,"286":-3.0518472214542154,"287":-2.8426115850789717,"288":1.241813432268016,"289":4.348618692429964,"290":0.3170883818706555,"291":-2.141798115556238,"292":-0.9760926022488055,"293":5.141859515086301,"294":0.2565547965449226,"295":0.99559983631165,"296":-5.133887906986222,"297":1.2311455885547677,"298":2.9289336970311,"299":1.8445408696861978,"300":0.17421572399752613,"301":0.7656093958599308,"302":-3.7841236013822774,"303":-0.8415419137026965,"304":0.9246462691176036,"305":-0.8409288822005362,"306":-2.6735063242887516,"307":-4.682364190363218,"308":4.440305420148037,"309":3.2980588974990592,"310":1.9416426982560606,"311":-8.312440435269107,"312":-0.5866271813521059,"313":1.9735581847977577,"314":1.9539213262386952,"315":1.222319657368701,"316":-1.171697540566519,"317":-4.245327348445399,"318":2.002810700663513,"319":4.149470357622848,"320":2.9398416680839636,"321":-5.258723202994371,"322":-4.049894865631822,"323":3.159815014359976,"324":3.671022305433939,"325":-2.0459951675134715,"326":-1.089407714893288,"327":-4.4678972483069135,"328":0.8306568240770259,"329":3.8552192174345743,"330":-1.6368039850536462,"331":-1.1507532447667437,"332":-2.1673734814620103,"333":-6.7902363708901845,"334":1.2876184988758435,"335":1.1678629507741645,"336":-0.7721747178851189,"337":1.78149638562086,"338":-2.380124351151409,"339":-0.5208293526551298,"340":1.364144951519831,"341":-2.0533867059961026,"342":1.2864864488895735,"343":-0.5009301403309473,"344":-2.2828808637246256,"345":-0.23449820310614822,"346":-2.3030201271254365,"347":-0.3591517947897342,"348":1.8457907414018053,"349":5.1802642304741555,"350":1.002159198005679,"351":1.9543156119118479,"352":-8.677210554164121,"353":-1.5747428408668231,"354":-0.24942119998334678,"355":2.720008672155312,"356":-1.9466288990129748,"357":-2.876590699238649,"358":6.058612178737242,"359":3.1281692033945068,"360":-0.16436318496711183,"361":7.143651651668733,"362":0.050457949497016194,"363":-2.8045465656583817,"364":-1.2486867131183315,"365":1.8129956208773448,"366":-7.237198993158573,"367":4.243232203198591,"368":2.9518978129605387,"369":1.9147382737189271,"370":-7.926945099839603,"371":0.4539214155508991,"372":-5.2044148973156785,"373":-1.071828420299989,"374":-2.989093285320031,"375":1.3861956609235466,"376":0.4183566352181908,"377":-0.3174961558423374,"378":-0.06663890557014789,"379":1.5832501234942034,"380":-1.66725164054854,"381":5.851080546505362,"382":-0.8410693785027855,"383":-0.9804434651845586,"384":1.6660857846191934,"385":2.973961550524786,"386":-0.40648354914089024,"387":3.0698442487241353,"388":0.9522832010034693,"389":0.5827858114021348,"390":-2.359104241649504,"391":-3.403115911557029,"392":-9.928422575441944,"393":-5.481175103462645,"394":2.4790742019875736,"395":-0.4012130359602701,"396":-0.564613254000184,"397":-3.7230046106856842,"398":0.4356141551054361,"399":5.149461881171761,"400":1.2336176095491103,"401":0.01059755779188905,"402":-0.026742051226531578,"403":-0.6800498026162257,"404":1.7457370202212916,"405":0.4969199376604829,"406":-1.1045023411943107,"407":-13.389949714182107,"408":-4.544624341127118,"409":2.8283954053604443,"410":-1.1455491062889178,"411":4.2427054219005695,"412":-0.702866484302932,"413":-6.3921027654880325,"414":-1.1375542448261478,"415":-0.8352257574972817,"416":0.4037197563291579,"417":3.9187811432964264,"418":-2.5595911929505415,"419":0.11368504852363155,"420":-2.6940189896658033,"421":8.799702076157054,"422":0.4521969347333761,"423":0.28474386848834965,"424":-1.8698785160490126,"425":-1.5641611539939733,"426":-0.051780141247247544,"427":-2.184539225010329,"428":-0.3815388944532653,"429":5.902269876246293,"430":-0.8664359454415771,"431":2.7902356409978157,"432":0.41522297885146436,"433":1.3369423364028283,"434":-0.4222814915387134,"435":-0.5500572556131351,"436":5.579312733794524,"437":-1.5540954787221128,"438":0.9429892689726515,"439":-0.45655910716746023,"440":-5.678842452383435,"441":3.208718148493549,"442":-5.836639871121727,"443":-3.9305124255943404,"444":-2.9089527264544035,"445":-0.6107268952422938,"446":0.7706357697884689,"447":-1.0725853796505993,"448":0.7143511995080177,"449":-0.1817554145432318,"450":1.8819099055730208,"451":1.2565024226910861,"452":0.9096829767993799,"453":-0.861536187849849,"454":2.5423609504129936,"455":2.7790348394046616,"456":-2.6248429078012374,"457":0.5496440662550297,"458":5.9799041571310605,"459":-0.8311426303193903,"460":0.2789103692779946,"461":-1.402896970525031,"462":-1.8237896878923132,"463":1.9085852269980814,"464":-3.0531517379355724,"465":1.590070160850581,"466":2.853761231296892,"467":3.1157982660008563,"468":2.1487213163023813,"469":0.6805176384416858,"470":-0.6179985335052012,"471":5.860795626279281,"472":-0.9639978093215363,"473":-2.2381236968701312,"474":-0.6772000187099269,"475":-1.282996322614814,"476":-4.410892472971008,"477":0.5366055526541547,"478":-2.7021257473607765,"479":2.6092683519114592}},"Wix0":{"n":20,"d":5,"w":{"0":1.0477224624323433,"1":-3.389538173608442,"2":2.369980859002437,"3":4.113753439933321,"4":-3.897908019461156,"5":1.6761638870019937,"6":-2.454009190742776,"7":-3.0562505432744684,"8":3.9216781696993777,"9":0.7299591698545222,"10":-3.240227454991803,"11":0.06159936513807844,"12":3.4251479714719704,"13":-5.1145322713267865,"14":-7.103064686476803,"15":7.14107101855544,"16":2.5183929854832035,"17":1.3875209840237166,"18":-1.0153402832177516,"19":-0.45814238801948337,"20":2.6511185616099175,"21":0.9471709467742969,"22":2.7484213289731096,"23":4.027821065551764,"24":7.990752359787816,"25":-3.2785010094709848,"26":-1.3998255772689685,"27":6.523050152911779,"28":-1.6518741407180229,"29":-0.765299461348324,"30":-1.206807954041372,"31":-1.4028020155720908,"32":3.7264045184365764,"33":3.2326569586678553,"34":4.958892430880682,"35":-0.3508565825262021,"36":-0.24462593498884833,"37":-1.3912839953091813,"38":1.863719965180011,"39":-4.3097848201138955,"40":-3.0612725014256053,"41":-1.1744268864519891,"42":0.9151704283067702,"43":0.7397198484800352,"44":4.4756626028450235,"45":-0.47684696024958584,"46":-0.27862879119246786,"47":-1.5643316663824953,"48":-0.4933258802960657,"49":-0.6123713959435679,"50":0.6204720429351394,"51":1.8380069973268875,"52":-4.0632706283611935,"53":-7.154535310200152,"54":0.488263152646663,"55":1.8424887337785192,"56":3.2754259078056935,"57":-1.8212687153774627,"58":-6.079560930318676,"59":-1.0168424891403125,"60":-2.254224511053968,"61":-3.2300856683395125,"62":-0.5205847327936169,"63":2.9657461313041633,"64":-2.4146112273410165,"65":1.4201367099100712,"66":0.42308369551056674,"67":-3.829490825308021,"68":0.14263262554615844,"69":-2.165214031055494,"70":-0.18423415936045529,"71":1.5675650868745645,"72":0.500539810990803,"73":-3.1104645572820733,"74":-4.151378249154594,"75":-3.4092930105785184,"76":0.51193302692586,"77":-1.8064356649279947,"78":1.1488792291632541,"79":-2.8027898208091577,"80":-2.7546357604722798,"81":-2.8075129306422255,"82":-0.28903311596333936,"83":5.518272500568305,"84":-1.681812773759972,"85":-6.0270191837889,"86":-2.353862401781919,"87":0.5283284498082471,"88":2.132452250244228,"89":-2.526870820800836,"90":2.248571730988787,"91":-2.7783827319095193,"92":0.4871621652077022,"93":2.1237639046931776,"94":-0.4844774246522982,"95":0.8659220211464879,"96":0.9169125110748265,"97":0.16691707085836463,"98":1.9384960351458642,"99":1.8711096005036618}},"Wih0":{"n":20,"d":20,"w":{"0":-7.523991144735643,"1":-0.6480046245643477,"2":-7.092960814503175,"3":-8.908284389397526,"4":6.712345553526845,"5":5.529552223149276,"6":16.87679395396999,"7":0.08933013007071433,"8":-7.813434926532489,"9":1.3035962393226412,"10":2.2437352127312087,"11":0.13613273926427455,"12":-1.925742831845893,"13":-2.451182589749477,"14":4.800640770799079,"15":2.3947610344264607,"16":0.46669694118919514,"17":5.702230509060966,"18":-1.3077471995735541,"19":2.8665854521824765,"20":1.9631723575173385,"21":-0.028866638611111082,"22":-1.4894224848562645,"23":0.5994772308902695,"24":0.24423579213704572,"25":4.6681723368485555,"26":-5.732808016860058,"27":-2.923820336935829,"28":1.3734821171634142,"29":-6.7619401733590045,"30":-2.2264389652019694,"31":1.119119231675699,"32":-1.8215497403765222,"33":0.8051839134131927,"34":1.59740012161229,"35":-1.895804478971332,"36":5.886920417525519,"37":0.6988628151251413,"38":3.169207213295415,"39":-1.7801586250785963,"40":-1.3953494205173875,"41":-2.7577365978994313,"42":-2.5278492454737638,"43":-4.7991462649064225,"44":-2.1354099444896133,"45":0.6190673226000464,"46":1.5798000726380097,"47":-3.688748167712713,"48":-1.5251744825739224,"49":1.533817665284977,"50":3.850525367731543,"51":2.8361540695111356,"52":4.883559838030198,"53":3.394492850369247,"54":-1.5696389117440341,"55":7.528959956231411,"56":-7.512412486726088,"57":-4.99822650338806,"58":-12.077940804624573,"59":0.3868736857815365,"60":-0.8692311189107051,"61":3.101345075163917,"62":-1.6293150381712058,"63":-1.7827595115188382,"64":5.50894263773356,"65":3.581114499504975,"66":3.3686195971474184,"67":11.453244239462204,"68":-4.215654898386352,"69":7.341202176970064,"70":3.2134460514697896,"71":0.24157163734334589,"72":-0.2548513000647028,"73":5.836433182973919,"74":-0.9256608068238641,"75":-2.073568234341016,"76":0.6023141134826295,"77":0.8113816569005282,"78":1.7861365589340445,"79":-1.2901934874594119,"80":0.8026207972116024,"81":-2.0338527454814326,"82":1.7916316385653062,"83":-0.1078133927995343,"84":-6.115613284518618,"85":1.1910401855894315,"86":-0.7908997865179778,"87":-4.300981995898393,"88":2.39112233237996,"89":-3.606246954559555,"90":-0.5930373609635871,"91":2.221401786526598,"92":-0.8774560892681648,"93":3.70665407074067,"94":-3.094866078614218,"95":-3.7490490793858653,"96":-3.121957658863925,"97":-0.2983553891233718,"98":7.144666549140729,"99":1.2198772207236637,"100":-4.627095294051789,"101":3.870231260560876,"102":5.7448637190154646,"103":-0.962405007467032,"104":-1.0456620581467133,"105":8.254569026952,"106":-4.3854108232895985,"107":2.727188131234414,"108":4.828723542351492,"109":3.9508100416724923,"110":5.63469048004558,"111":2.5157858991021174,"112":6.601188188096281,"113":-5.941886945424957,"114":-3.4225424117270635,"115":-2.9719861298012695,"116":-1.2110894333574163,"117":0.801247759903233,"118":2.70530690915172,"119":1.121090077796316,"120":-2.0124647737670642,"121":-0.5135309177009365,"122":-4.233157506568485,"123":-1.6370288792087937,"124":0.16755394045803965,"125":-3.5181901221402994,"126":-2.8745084560934524,"127":1.0052600280445645,"128":-12.39527177100266,"129":-1.9459978589522815,"130":8.884188037010812,"131":5.9807152519962585,"132":2.3677339464205684,"133":10.505324568141539,"134":0.6034611462730287,"135":1.9282276093868242,"136":1.1228685311178865,"137":-5.150768205816573,"138":-0.6332771979587054,"139":-3.9225854348046916,"140":9.367650390347459,"141":-0.44207953456841614,"142":1.184495714484348,"143":0.02629759654898934,"144":-4.866122141161236,"145":-10.389020855048818,"146":-5.519263478998703,"147":-3.0405919349030905,"148":3.3984845306954963,"149":-4.076602174698188,"150":-3.2670916918382913,"151":3.0220844595468366,"152":-2.821305937152882,"153":-4.212009934287866,"154":1.7362542571786608,"155":-3.781906690608971,"156":-1.955348562015236,"157":0.015832705495592316,"158":5.812237372352913,"159":-16.79156562841549,"160":-1.0675689596502003,"161":-1.789520179329969,"162":-3.0982846372465738,"163":2.157495578310619,"164":-5.147414629660656,"165":3.5919414518008206,"166":3.6151261599030464,"167":0.6178302020010004,"168":1.7986092593910086,"169":5.372679644400381,"170":7.11748208373302,"171":4.339687967318225,"172":-16.758067326649233,"173":-0.767069891630326,"174":11.75103544782169,"175":8.303191080885993,"176":-7.207211319570958,"177":-3.3235291043935087,"178":1.4478661779982687,"179":1.3637849873672283,"180":0.5835284969377692,"181":-0.2480480343786457,"182":-3.231222167749521,"183":0.22312367641638903,"184":0.1362980409744225,"185":-1.2436105352137912,"186":-0.9286409897556428,"187":-0.6376232210151221,"188":1.3535196656520252,"189":-1.2924786202470357,"190":-2.185047024110696,"191":0.1573716521010927,"192":0.046005054140410055,"193":-0.9120524934720113,"194":0.8658368841737862,"195":-2.4448012921434765,"196":0.4223252072657515,"197":2.060608205752222,"198":-2.2577439286470073,"199":-0.05735780581528478,"200":-1.4603781535803386,"201":1.295020500593741,"202":1.6157681914264879,"203":1.1381928314570258,"204":3.779108334284928,"205":3.6829161914875113,"206":4.7370491053617965,"207":6.429058641033053,"208":-4.862705485411749,"209":0.9845073988059166,"210":-6.107621768290129,"211":-3.935476388402193,"212":-2.770785061170827,"213":5.403304287772672,"214":-0.13616381034407993,"215":-6.150521759115826,"216":1.970383107187852,"217":5.816822626862627,"218":2.6978095274016116,"219":-3.130477731921161,"220":-5.564048128605949,"221":4.017603532136785,"222":4.480417142701305,"223":2.860409652521463,"224":-2.4490377970007304,"225":2.8511370235167,"226":3.7471180811685234,"227":4.2392354504644265,"228":0.18293608621753094,"229":-3.2683545533683716,"230":6.04450823821989,"231":0.6435710561997773,"232":-2.946571634854178,"233":0.45720120785129514,"234":-4.65076394189214,"235":0.758040225411984,"236":0.2061865692276294,"237":-2.8228194857121713,"238":3.818540097601197,"239":-2.271605787125368,"240":-3.128255063370593,"241":1.4403743766070602,"242":2.7809983558490434,"243":-10.243005159316107,"244":3.14635702681587,"245":-0.25640724331806547,"246":-3.159754059565189,"247":-0.2521146295889102,"248":2.779096332010496,"249":-0.4610190079912892,"250":-1.0513930352683902,"251":-3.197644736697795,"252":-1.353371727461417,"253":2.283747410352411,"254":-4.0029506604302725,"255":-1.4693310543977496,"256":3.191339636022312,"257":-3.4239035841833587,"258":-0.09048627936837068,"259":4.799377324641544,"260":-4.639948938764581,"261":4.2106935002272445,"262":-0.3625459472453131,"263":6.586725481649425,"264":6.780955871128385,"265":1.1894626754352282,"266":0.8938600590182576,"267":1.0345085874417663,"268":-4.952703190055545,"269":0.24068549420932436,"270":-6.705939734122874,"271":-2.7390773617328645,"272":2.573432969192913,"273":4.047613638086449,"274":1.543329841041863,"275":3.0681383888300093,"276":-0.03751181877767468,"277":4.7603124510304635,"278":2.3848053142294887,"279":-2.4362473082591163,"280":0.6061522038042496,"281":4.634336368186561,"282":-3.6473557796502694,"283":-7.261634352235426,"284":-0.7092688148199991,"285":5.816769222108483,"286":3.395969925034669,"287":0.48247923927147185,"288":-7.795028584283667,"289":6.783643505280079,"290":5.299686169736596,"291":4.233003452367448,"292":-2.7814525600529887,"293":-3.092041732086031,"294":-3.7858128132255136,"295":0.23936154828694461,"296":4.285610330970779,"297":2.8281159627414674,"298":-1.1425296009149697,"299":-1.7650316366890226,"300":13.900170949688212,"301":-5.1689821370185145,"302":-1.0565446631827229,"303":6.766962235084421,"304":-1.9036990681396184,"305":-3.4272457066697193,"306":-5.960514302258226,"307":-3.7274809327791267,"308":0.8422202886413143,"309":8.904845731431436,"310":2.216102398870193,"311":1.975472768496493,"312":8.645348083203945,"313":-3.5137376434264405,"314":-4.773525468429372,"315":-5.310956632643823,"316":4.7573980775605405,"317":0.18540923750963814,"318":-5.955627298692307,"319":-2.8666765780641157,"320":-4.411370845404213,"321":-0.2807022156208927,"322":4.707536298957023,"323":9.097734783344523,"324":19.029750604611287,"325":2.7050641499923223,"326":4.49327456456496,"327":4.1999766553623195,"328":-13.833138038566362,"329":3.1885999577993913,"330":7.784108557923702,"331":-2.442417609509621,"332":-0.306402246385925,"333":-4.1999668515623725,"334":-4.183100612687286,"335":2.058609857041352,"336":-6.8656414592828074,"337":3.7611038749506807,"338":-1.3873665817469016,"339":4.224606642296098,"340":6.703084417151117,"341":-3.6632675286294294,"342":0.051245436336117126,"343":3.265391159910946,"344":-9.671225550121562,"345":-0.9405289566717688,"346":-8.235401010347715,"347":-2.262839854076523,"348":4.291742457020463,"349":-1.0843277165898173,"350":-0.9585926319460852,"351":-0.08188323051476296,"352":2.738149580147852,"353":1.8412837911082136,"354":-0.8747578673032267,"355":1.3779337373649947,"356":-0.028424495995465614,"357":-2.8439286502204855,"358":-5.3179038773337,"359":-5.7630832654986115,"360":-1.5396157049741015,"361":-5.06478237085968,"362":2.462369833924143,"363":-0.6172301585116295,"364":-2.1360423332704364,"365":-1.714276847807511,"366":0.8980095600123559,"367":1.8476206773081851,"368":5.5715782482768255,"369":-1.7121381567289766,"370":-1.838667583252761,"371":1.9411228239455511,"372":2.9304788808432076,"373":0.28142144804889774,"374":5.414755393823011,"375":-1.9284773596196958,"376":2.8581523179424817,"377":5.4254712137651095,"378":-2.6212647332091867,"379":-2.0749970151368573,"380":-4.484362732729647,"381":3.4883256254753214,"382":-2.9022743460352474,"383":-10.814774357417214,"384":11.022148646736438,"385":0.3738723541452631,"386":-0.3756513219413308,"387":2.5157887080032415,"388":-5.616402043215469,"389":5.914947933683095,"390":4.728228619964312,"391":-1.5961913999018877,"392":-9.663115386272343,"393":3.6891273852913615,"394":4.576731415582277,"395":-0.3786682565007777,"396":-1.1140152099841223,"397":7.560982649665466,"398":4.0280294748707135,"399":5.951753930445139}},"bi0":{"n":20,"d":1,"w":{"0":6.38299431746526,"1":-7.6167976823880785,"2":6.505342288515565,"3":2.659047636183743,"4":-1.378737748592528,"5":3.0403218277948523,"6":9.44979475947451,"7":-5.056693010444364,"8":7.210906193966955,"9":-1.722962972604293,"10":3.2701081198179756,"11":5.137566090309382,"12":-7.946046167997493,"13":-3.497118012777933,"14":4.893953748259848,"15":0.800104294253678,"16":7.163343555482107,"17":-3.2073405996609017,"18":-0.9205027229395548,"19":0.34134570226950717}},"Wfx0":{"n":20,"d":5,"w":{"0":0.26978117229605486,"1":0.5584008005777148,"2":-0.47766991774226975,"3":-0.08373637258143049,"4":-2.3156473106333433,"5":0.46617067435059234,"6":1.010362859055333,"7":-0.49364009166421413,"8":2.4794531950041856,"9":-3.376280328388497,"10":-2.5705044688683256,"11":1.8925685418208307,"12":-0.09927756284732207,"13":1.0210980568431156,"14":-1.8992235098259127,"15":-6.0348129180590755,"16":-2.6781910105746887,"17":1.6456345283698899,"18":-0.8550667691640058,"19":-6.651485715572297,"20":-2.3064427735976687,"21":0.20277358451679361,"22":4.687333981319586,"23":-0.8129536670426157,"24":-1.3547713411563707,"25":-1.8845755638436144,"26":2.728826605447852,"27":1.2604119452547906,"28":-4.291879371866304,"29":2.2396214557799357,"30":1.4231373593731422,"31":-2.5196339618898103,"32":2.0161607152806145,"33":-0.5207157225200644,"34":4.686907430344765,"35":-2.760308167036577,"36":0.9412857211770582,"37":4.395835625738532,"38":3.291579906323981,"39":-3.412629798066585,"40":2.262435128373248,"41":1.8376447934436355,"42":-1.2617238705924376,"43":-0.8308019176160479,"44":4.15764211100224,"45":0.44915959869582794,"46":-4.3017590512314134,"47":-3.4458629863922576,"48":1.6523083219431334,"49":-3.0855196089012082,"50":-1.8984151588028733,"51":2.557191664044384,"52":-2.207493903272421,"53":-4.312711395826114,"54":-4.229163671515521,"55":-1.6240233077251016,"56":2.2004934654324746,"57":-0.6344274513588126,"58":-0.22066228925694448,"59":-3.3652989791135073,"60":1.7893152348124148,"61":-0.2877667717744122,"62":1.8356014989251352,"63":0.9570207784560321,"64":2.3671898434636263,"65":-0.029608000517523853,"66":-0.8370503969429233,"67":-3.2926972734531423,"68":-2.4141646997958848,"69":-1.0725232129545104,"70":2.5040346903764954,"71":-2.129571186419288,"72":2.344975903848887,"73":-1.6502262141657977,"74":-2.9292051473936764,"75":3.6093029878944116,"76":0.7717619581204529,"77":-1.431537192988216,"78":0.9038931566314305,"79":0.6107610475049184,"80":-1.8254931875769989,"81":1.9404760220018538,"82":-0.9529406133065239,"83":-3.0230991122376656,"84":1.1146302435880635,"85":-6.22253969835819,"86":0.3904570689601059,"87":2.152842322931118,"88":0.6304550531560226,"89":-1.4802307016235494,"90":-0.29504357981030976,"91":-3.2059666901947192,"92":-0.497905511884962,"93":-3.90618566325945,"94":1.7581029416181306,"95":4.408863783203103,"96":-3.064576340595818,"97":4.469602662508348,"98":-3.7482970083373837,"99":1.9848381817980845}},"Wfh0":{"n":20,"d":20,"w":{"0":0.4154770008652982,"1":-8.309266835343907,"2":4.938099417932521,"3":7.441609549407994,"4":-3.687062636397259,"5":-6.44878873585018,"6":-7.393351525031406,"7":1.4728464165028337,"8":5.069935585779666,"9":5.108765221793443,"10":5.888247207193975,"11":-0.43393221796170683,"12":6.72482600722989,"13":-8.573698127366345,"14":0.8342296563394951,"15":2.8059813763540222,"16":16.140038023883616,"17":-0.7888168217768479,"18":-12.49683615991162,"19":-3.713160616555037,"20":11.756607942226866,"21":0.21476823060499362,"22":-9.183346331760394,"23":14.102747085383982,"24":-2.065451325122323,"25":-9.015602279937616,"26":-2.13550565681838,"27":-2.216626504730479,"28":-2.4570145623647566,"29":1.3815307412414812,"30":0.6832173749494591,"31":-3.6412400112365093,"32":2.6345039184992163,"33":-0.012178384229847338,"34":-0.7272410329709058,"35":-5.891600901773112,"36":2.058028702955737,"37":-4.150938004172818,"38":-1.5789975087074857,"39":-2.661077178395996,"40":-0.9866130224496327,"41":4.8635909109426025,"42":5.782042718526466,"43":-6.699830285560494,"44":1.871392883530306,"45":-2.1252948641548746,"46":-2.9695834119597655,"47":-2.5716987321202147,"48":1.9746350356347122,"49":-2.253211039563956,"50":-1.6498475497214922,"51":-2.4241210757514344,"52":-12.783217136658584,"53":-4.794734648905759,"54":6.842603355531725,"55":-5.1451326412877325,"56":5.217000605803891,"57":8.25775094189928,"58":-3.430426715729408,"59":0.3778777728078948,"60":0.7893893413385644,"61":0.9974466093261927,"62":4.098093972330681,"63":6.6487799830001055,"64":-1.3404527104133706,"65":-2.6176052592971506,"66":1.4783296161611,"67":2.4836797750746276,"68":6.0784328354296155,"69":3.51946802638681,"70":-1.937359832363294,"71":-4.193238607896559,"72":-1.8582089631532137,"73":2.5439268441915033,"74":4.594770378933289,"75":1.3353078470813275,"76":3.290460434099627,"77":2.148363930977992,"78":-0.9986972784718832,"79":0.705529128124371,"80":-5.820503573074064,"81":2.8434993153766324,"82":3.3412348961240594,"83":-2.81528216831676,"84":13.473477701207672,"85":10.416501620045095,"86":4.555644823275282,"87":-2.3593550230472364,"88":2.400499452969805,"89":-8.048394917004643,"90":3.6955967371091814,"91":4.679704869192861,"92":-1.2998119673890982,"93":-5.232711377329758,"94":-9.192650287089768,"95":1.229106995234038,"96":-8.754647914976674,"97":2.8710857623190624,"98":4.226993947223506,"99":10.590128373657377,"100":-4.6232146165883785,"101":-4.398408350364232,"102":-7.365009331821648,"103":-3.7722724534733922,"104":2.3624659594771162,"105":11.546804979591773,"106":0.9346163175254643,"107":0.6347491976851241,"108":-0.6311532546774311,"109":3.4894780140863246,"110":-0.540231204740016,"111":-3.754871714574852,"112":0.22062087513591574,"113":-8.577972834898093,"114":-1.317017605624101,"115":-0.3809967529597164,"116":-6.253662910697918,"117":-3.9251553731525575,"118":-1.281186605021324,"119":6.027829642358772,"120":5.1540387081434265,"121":2.796164608615349,"122":-8.830237893102657,"123":0.025304930041150076,"124":5.9939077071635225,"125":3.7038740373764933,"126":5.63009238223569,"127":-5.909164769835563,"128":-4.4165943373712855,"129":4.746966050182874,"130":10.256409107347935,"131":4.578486547642781,"132":3.4072909527162714,"133":-0.18351286091581295,"134":7.951091809872376,"135":-1.9796118650909642,"136":-6.128289443159683,"137":4.403266935083047,"138":-7.351706902525219,"139":-0.5284005522018326,"140":5.356754411428013,"141":-1.6670515932054655,"142":7.414573764535605,"143":5.057131919009782,"144":-6.558216609044377,"145":-1.816217818030942,"146":-2.1887361345961374,"147":-3.159316613327068,"148":12.756707483423504,"149":-1.8223165925415927,"150":2.7656883059747686,"151":0.3977019936408258,"152":-0.5390220503397873,"153":-7.1616894319064714,"154":-1.1975170819292162,"155":-4.082745631018091,"156":3.0418580741863406,"157":5.82546285999489,"158":-5.51116422752333,"159":-8.561305356815808,"160":-5.943201795928724,"161":0.27635434296719696,"162":-6.098249878922276,"163":-3.400866509894716,"164":-3.1743790642140413,"165":-0.2933707133415793,"166":-0.7268416997446936,"167":3.79389352128163,"168":-2.857504278646959,"169":7.433784208923592,"170":10.031647586925269,"171":9.927728468580792,"172":3.4815832613863757,"173":3.6483020684759815,"174":1.073173079717037,"175":6.9488376650585195,"176":-3.2890636436582095,"177":-4.377623081868477,"178":-1.7063009363422847,"179":6.284803295349614,"180":7.632234359979336,"181":-4.5970235918006255,"182":3.5808119755941066,"183":1.744551935476715,"184":-6.619524401718189,"185":3.0448481777185643,"186":4.457332335641761,"187":6.281058639485139,"188":0.45628385593678944,"189":-1.1489060333673515,"190":-2.2160333872047384,"191":-8.080639757081064,"192":9.53651587075181,"193":4.262178539099115,"194":3.2453580400965434,"195":3.923599497293055,"196":2.272367217727729,"197":-3.8357627729296664,"198":2.4897468887100396,"199":-8.597419734103987,"200":5.1999771482416035,"201":-4.383863509657739,"202":-2.6724815566796405,"203":5.125340810346764,"204":-3.4323970680715186,"205":3.169886083761774,"206":-0.8838779447788924,"207":2.016410624998643,"208":-2.9849897787154713,"209":4.8891758220931765,"210":7.688820810614852,"211":-1.1123608225112338,"212":-5.793551174490035,"213":-2.785204551717951,"214":-16.713401086134937,"215":3.4637905392597332,"216":-4.381047633716745,"217":-6.130112942745945,"218":-11.600394295008186,"219":14.312499206819714,"220":1.4689828700415435,"221":4.106547947524466,"222":-2.826104853166849,"223":-4.9511566429216,"224":-3.285877213768343,"225":-2.348951581110475,"226":-4.348177480008795,"227":0.45641945134719963,"228":-1.9728820145591996,"229":-0.013913328986188207,"230":4.968588305880402,"231":13.932724679600451,"232":1.4103083121729159,"233":-3.1828800872825247,"234":-2.9627815784881566,"235":1.8367599127445187,"236":-4.556830783058848,"237":-2.447038892443356,"238":-0.23875773339309503,"239":-2.6098510247205913,"240":-7.945531659516577,"241":-3.688792088789205,"242":-0.09237742998707893,"243":-2.3838931399713665,"244":6.018296448472997,"245":-6.31568442293998,"246":-4.558711724974591,"247":3.005186594003163,"248":2.8470724603215887,"249":5.791760202534953,"250":-1.2327569354601795,"251":-6.793149786068418,"252":1.0054846311687438,"253":-4.477381117286092,"254":3.4718341354410103,"255":-2.636313707920076,"256":6.691216901904444,"257":1.8504277935294946,"258":-5.008683389037512,"259":0.8170111893591656,"260":-2.1628336822746914,"261":-1.8849572658368987,"262":-0.033734148804819536,"263":-4.935532948021154,"264":1.1050980803029555,"265":8.959473120103839,"266":-5.0617576705629785,"267":-4.9444728884017985,"268":-4.630176585857027,"269":4.729483176691477,"270":1.2277393961982677,"271":0.762820828186471,"272":1.226913422180318,"273":-10.250145789671084,"274":5.472630738718925,"275":-1.8609497829698511,"276":5.1708251844356266,"277":4.924115613514285,"278":0.6005167890541973,"279":-1.3204947598341357,"280":-4.494848775059229,"281":-4.229429850054977,"282":-1.4333719098827267,"283":-0.5683455963586889,"284":2.861428449205727,"285":-2.3964888388283416,"286":-3.905785376724028,"287":2.21095007679858,"288":8.69655254874661,"289":6.137291854766256,"290":-1.3908513570332581,"291":4.3864770824580885,"292":0.48507715714542426,"293":2.238130520559543,"294":-9.259383527107667,"295":7.880521060256747,"296":2.021783998119689,"297":1.079747508780526,"298":-0.7014103127428984,"299":0.7349461366104939,"300":5.010177898067491,"301":-12.241035041069425,"302":13.574027978360233,"303":-2.430161054964557,"304":-5.603415030536089,"305":-3.3148052919635114,"306":-0.008250573214910642,"307":0.732561848756842,"308":-2.886400148190432,"309":-3.872113215040859,"310":-1.2036577012313516,"311":1.256271996846149,"312":5.232248872616829,"313":8.125928258726915,"314":-3.479292348079308,"315":1.396675458131474,"316":-0.3909195523635593,"317":2.048987238777213,"318":-2.8711718035614906,"319":-3.0877349127975915,"320":-0.06358206827349071,"321":1.302007995605913,"322":0.7107868097016864,"323":4.983439123552025,"324":3.721138039634315,"325":-2.1083136966455203,"326":-2.765596990458421,"327":2.5340256939861288,"328":-1.6550190608099187,"329":-1.4289155259270858,"330":-1.016656269357745,"331":8.31357486807297,"332":-5.100229319715176,"333":-12.72104529135656,"334":2.9997134876786022,"335":0.5334386776990134,"336":-2.0306700493654755,"337":-1.7432883609165444,"338":-1.7186829820228027,"339":8.830045765126263,"340":4.725470009548955,"341":-0.3754802541505331,"342":-0.14193986443393236,"343":9.931059182184766,"344":-3.8776209221618565,"345":-2.639688809836539,"346":-7.821183147703586,"347":0.6322335073472274,"348":-1.8632325364593663,"349":-1.2138755215083625,"350":-2.317810009919257,"351":-5.38741924218446,"352":-1.2112066681861489,"353":-4.950133957628176,"354":3.9931925850826446,"355":0.3794159399456972,"356":2.960318489498594,"357":1.0321650342886024,"358":-2.693511082441573,"359":-16.746278146920353,"360":4.831197193376876,"361":-3.460082865407549,"362":-4.376526033818812,"363":-0.022156108711965296,"364":-5.414871455533558,"365":-5.43132356761805,"366":-6.29217598733308,"367":0.8263155688504891,"368":4.891221139596905,"369":2.3021328370972096,"370":3.697996219458219,"371":-2.5674018169202304,"372":11.904103893422786,"373":-7.053657267775844,"374":5.5214128424717055,"375":0.2336641386695824,"376":1.7045640101881783,"377":12.19626775972847,"378":-5.334288965183807,"379":-7.1229719520898716,"380":3.1457706646976913,"381":-5.275842873450379,"382":1.554320635614208,"383":0.5569653676758042,"384":-9.220995467492493,"385":3.9756494945838883,"386":-8.001063269361806,"387":7.693027823354783,"388":3.4758948522660846,"389":-1.043250164292218,"390":0.847126763195509,"391":-2.8953468774445454,"392":-1.068399036464787,"393":-3.589957295962252,"394":2.9219204500363944,"395":-13.920745984173577,"396":-2.4674267101492737,"397":5.443718596800199,"398":4.602470116452278,"399":-3.6670935003056266}},"bf0":{"n":20,"d":1,"w":{"0":-1.479202201477049,"1":-0.2616266206868689,"2":-5.437718305783182,"3":-1.4391231258248902,"4":2.169131049569374,"5":1.181331562025511,"6":-1.1126984869270697,"7":-3.191890234907487,"8":5.902230989934634,"9":-3.8295472246291986,"10":9.379588430245855,"11":2.0618639157767173,"12":-2.00453601783762,"13":-1.4731739649970033,"14":-0.9783919468409537,"15":-2.184713968601506,"16":-3.4734492617796544,"17":-4.783520739946377,"18":-1.2198934419589562,"19":-5.775864690785261}},"Wox0":{"n":20,"d":5,"w":{"0":4.017892260425891,"1":-3.3168729800735823,"2":4.641244881994627,"3":-0.5359758624914217,"4":1.5726253266691708,"5":-2.2645737306924847,"6":-5.0674934558596325,"7":0.8247198414372575,"8":3.301936858142244,"9":-0.31391533739326155,"10":-3.337804484814324,"11":0.9715021435133134,"12":-0.9180194669505806,"13":-1.1017433057641044,"14":-5.325545459889127,"15":3.9967807245356863,"16":-6.338791292927026,"17":1.0110249232567354,"18":0.1734801854870573,"19":1.592427019659175,"20":-0.45517341649255455,"21":-3.9619797616532177,"22":0.715353237319012,"23":0.73980447793777,"24":4.112890328098469,"25":1.580728225194593,"26":-0.1616914093911423,"27":2.579296316032594,"28":0.16550029901917254,"29":3.0205621590215395,"30":10.276527912252302,"31":-4.577254904997312,"32":3.7668176331792855,"33":1.1095894593174525,"34":10.183070359054437,"35":-3.239691713555361,"36":-1.7474806513025245,"37":-0.2704283968272697,"38":0.595957380824861,"39":-2.9842066757632377,"40":0.39975226990993745,"41":-4.433335732323672,"42":-5.949913148892359,"43":0.6701352997985557,"44":7.015677525108641,"45":-6.292180972807301,"46":0.1766204027284033,"47":-1.5683209901914228,"48":-2.7011642227272765,"49":-3.158404478966579,"50":0.8418372317688902,"51":0.8875668029410704,"52":-1.236096703623179,"53":-3.5532115059866323,"54":-1.8140770603044483,"55":3.8689291824883063,"56":6.5595193632481115,"57":2.4396634502397085,"58":-3.608561665421355,"59":-2.7460577068861696,"60":-0.04213732412290301,"61":-2.2058636949453585,"62":0.1352938980908649,"63":0.2543819446432976,"64":-3.3534945633623767,"65":6.268839287960745,"66":-3.0343794575594463,"67":0.11248799499767156,"68":-0.10378892650964197,"69":6.010014820501661,"70":-3.4737520387469005,"71":-1.7962008103425589,"72":0.6967169411710904,"73":3.159888027055135,"74":-5.484182528723809,"75":-1.50147758803962,"76":-3.179252052672438,"77":-3.290461195847742,"78":0.5328197798944246,"79":-3.467083932393705,"80":1.9288297052197951,"81":0.5058463096694191,"82":3.2755004788504625,"83":-0.9370567611401345,"84":4.671324756755061,"85":0.5252846317505256,"86":0.17726055798783366,"87":-0.44058429628467743,"88":0.5165635238256989,"89":-1.4660210503513642,"90":3.168758620356582,"91":-2.5189006977599178,"92":-1.2801127713558083,"93":2.0890576667350502,"94":-0.08517965627574928,"95":4.929353514952998,"96":0.6592755952724447,"97":1.7805047396683105,"98":0.650053880159643,"99":2.1816376738233023}},"Woh0":{"n":20,"d":20,"w":{"0":1.3170362553423476,"1":-0.9286903340254737,"2":1.4653819416755498,"3":-2.996787160984711,"4":-4.686035395914844,"5":-9.171648569626017,"6":-3.002577713530502,"7":-2.62965358608438,"8":-1.19707680349641,"9":5.085505073593632,"10":-5.117496365049819,"11":-2.052078228863415,"12":1.3837295906714284,"13":-4.527288673800136,"14":-0.24094574039303468,"15":3.558772352302518,"16":0.5150656711807039,"17":-5.0742168048255705,"18":-2.8504778939935576,"19":-2.977001433938345,"20":1.6116985110928483,"21":0.016101840708667856,"22":2.26180695703405,"23":-1.2883962925632177,"24":-2.5063825470434704,"25":-2.9254633843556164,"26":-3.2716791439916912,"27":-15.507857179998085,"28":-0.09215218175058897,"29":-3.009427059634759,"30":-0.3138908451562809,"31":-1.3013358005087352,"32":-2.4570338289707014,"33":-2.5950995228706146,"34":3.196836685938135,"35":7.923891696673869,"36":1.3544479562896012,"37":-5.391791170951939,"38":3.0036622293740014,"39":-1.0058447548102336,"40":6.633283953905939,"41":-2.2403161596669023,"42":-0.8930641973055996,"43":-8.439775559707101,"44":3.742700265398187,"45":0.75017808622739,"46":5.538790399024228,"47":-9.453176577494908,"48":-1.8189683330912487,"49":-5.244665415570315,"50":0.7450849043484393,"51":4.328464330318291,"52":-6.736395852729497,"53":-2.1012499859509868,"54":3.3954755272520147,"55":9.236384706725316,"56":-0.774173027746548,"57":-1.2359849108795675,"58":-3.605180216370328,"59":4.845867390399996,"60":-3.146767250022327,"61":0.6781204312559826,"62":4.229049094915289,"63":5.573550967530701,"64":1.7802857370466305,"65":1.226684969410816,"66":-1.4990620107600439,"67":3.7864383552510814,"68":2.905869796483032,"69":2.7853696682506732,"70":-2.441739437726526,"71":0.1042518404983665,"72":3.094861249427364,"73":-2.5650602711646844,"74":-1.0459878269783438,"75":-2.089403578827843,"76":0.4070823901315987,"77":-6.313756534007321,"78":-2.151257062459752,"79":2.178924029199728,"80":2.111319253015822,"81":-1.4691010684680483,"82":-0.3711326661230449,"83":3.590666767995198,"84":-2.893423352913696,"85":-7.531454929510796,"86":-6.463055233926565,"87":-7.209154104015589,"88":0.6456563480686908,"89":-0.5530777069798403,"90":-2.7299557198105204,"91":-6.691386011469516,"92":0.09765193457472861,"93":-4.439912659498251,"94":-0.5093950884016842,"95":3.6496336003120695,"96":1.142281553370733,"97":1.2197363489112856,"98":1.4785386374502327,"99":-3.5565033377176323,"100":2.6964188455473965,"101":-4.248437698928811,"102":2.7376476616034755,"103":0.31815031056618714,"104":-0.2347918950646774,"105":2.72477329216125,"106":0.11138483285208735,"107":0.16906409989920576,"108":1.9816148768472677,"109":1.9905555738094363,"110":-0.07065733512837609,"111":3.462678924646705,"112":-4.0794650043855345,"113":-0.5525102560946837,"114":-0.7669212905569975,"115":-3.2203738388246244,"116":-1.1651004203359125,"117":0.22258088151111005,"118":-0.6953095750806024,"119":-0.3191063802829999,"120":-0.5930282206738803,"121":0.16778229742045417,"122":0.1406037334013515,"123":-0.6492178810263637,"124":-0.9244358225634944,"125":0.8564266528656638,"126":-0.6993474828709446,"127":0.08713288082022358,"128":0.681960684105129,"129":2.0467000723884774,"130":-1.0449091031531095,"131":2.071166689189318,"132":-0.6182841003049753,"133":0.12256925705650284,"134":0.86213390058049,"135":-1.9515063304596663,"136":0.10729476426988024,"137":-0.13260383581570925,"138":1.027026657940414,"139":-0.011365178698455285,"140":0.7339941487715727,"141":2.385911296202926,"142":9.549558134626361,"143":-5.677953205171613,"144":-0.6327120946839351,"145":5.102971188714235,"146":0.251796313530617,"147":-2.8161798625009413,"148":3.680843226534581,"149":4.155457146058659,"150":-1.2006673316175869,"151":-5.308032936237571,"152":7.573714944216309,"153":0.9710934088116906,"154":2.635522547524164,"155":-0.867471274026203,"156":-8.29999109613735,"157":2.4315230769307994,"158":4.754393090027726,"159":-5.444385701774408,"160":8.157031615309984,"161":-0.21323103166664115,"162":2.8373802303995035,"163":-9.600705509910675,"164":-7.863650962826996,"165":-3.9384790228972664,"166":-7.3502816163302285,"167":-4.469535683491461,"168":4.999359671925684,"169":-4.670487573768709,"170":-4.5545870856002635,"171":0.9266648337990507,"172":-2.1132403015346157,"173":-1.068628039319727,"174":-1.145616336061938,"175":0.3865970527307493,"176":0.5311332858843366,"177":-2.2406293783823936,"178":-13.604771533177297,"179":-2.8427077851154023,"180":3.2087592703154524,"181":-2.175635285656509,"182":-2.143969875585543,"183":-2.0746279472010296,"184":-2.9349473868606872,"185":-0.7153676288162231,"186":-2.0385118269473925,"187":0.3986859582772568,"188":-2.22868819997685,"189":-3.094632666929134,"190":1.4216778632172675,"191":-1.557699013089271,"192":0.8931364302728568,"193":-2.1754088101871236,"194":-3.8492653503419922,"195":1.8687715315473135,"196":3.5320558414449565,"197":0.21170970137338926,"198":1.7676843972439595,"199":0.09111044303196192,"200":-11.937901698052313,"201":1.3788921904876945,"202":-0.9886889640052474,"203":0.5118288253954578,"204":11.05196874280779,"205":0.9386878880302357,"206":3.6511501301492175,"207":0.02501266730888188,"208":-2.9657717777996027,"209":-1.9368998556405732,"210":0.9623075984511457,"211":-1.7622963863872505,"212":4.752085348801643,"213":2.6368779185247138,"214":-1.0098209737389048,"215":-0.6631861869843387,"216":-1.2055637293705652,"217":2.1428954250880796,"218":-0.6766282721591885,"219":-4.020204557028573,"220":0.48751433611413914,"221":4.51226452452901,"222":-0.6329503180581149,"223":0.29856830823339553,"224":1.93709580614457,"225":4.169018381279657,"226":3.4227696598621797,"227":3.697054031396922,"228":-0.6545646835150943,"229":0.10674337230633327,"230":3.19296168342982,"231":11.076656093650787,"232":-1.2449480726914877,"233":-1.072448464978429,"234":-5.429495439940144,"235":0.26216721727339615,"236":-5.999310903251456,"237":-5.7284552149298404,"238":-4.496050201610415,"239":-1.1318680301605175,"240":0.5997419266507722,"241":-3.990355327504355,"242":1.4752644526573255,"243":-9.218883181808039,"244":-1.6736454298151258,"245":-3.0698118899786815,"246":-1.317252926874681,"247":7.143812128627807,"248":-1.4802391183774062,"249":2.654818581422568,"250":4.068623367905656,"251":-0.9045845589221401,"252":3.4526603909014226,"253":0.5885906342821112,"254":1.8328086107742383,"255":2.5452671628069146,"256":4.7138880654977156,"257":1.3499495222424538,"258":-0.8814496477178332,"259":-3.284217278841267,"260":5.394846322919603,"261":1.8537594482929174,"262":-0.2641074555678168,"263":8.197972884671353,"264":-2.2789387375348418,"265":0.11722663163716535,"266":0.6786956610753261,"267":2.670371147559657,"268":1.5549102529147119,"269":-3.7771795129293357,"270":1.7830168695156758,"271":2.509509694316966,"272":2.956702119460748,"273":3.3667262935896454,"274":-1.331406998279409,"275":-2.3177637444922032,"276":3.784584808845484,"277":-3.058422566566834,"278":-2.8202175785307455,"279":-2.0501201659475456,"280":3.809497616734215,"281":-4.24604076668314,"282":0.3890700718199264,"283":-0.6669884987039688,"284":-9.535963657740975,"285":-3.5643231042634094,"286":-8.335363949671386,"287":4.070423847790201,"288":1.6590280300958233,"289":-0.12914428786397697,"290":0.9128399069334561,"291":-1.1103164426319487,"292":3.5409836049990986,"293":-1.2766083909981834,"294":-4.709923141561753,"295":-1.2662146088086725,"296":3.204317977554041,"297":-3.7319089190887174,"298":-3.194725558369713,"299":0.7968409011262463,"300":4.123935553834296,"301":-4.523641789423665,"302":0.13990425899374925,"303":0.9539576759762086,"304":-4.132375712157516,"305":-6.1038013246322596,"306":-12.033171945760177,"307":-0.9992914236770588,"308":0.6586736918305708,"309":-3.10524197283287,"310":-0.5184107734496732,"311":0.6488833326481273,"312":-0.3708443567803798,"313":3.2682712194637205,"314":0.7443618112582185,"315":-6.176602390457896,"316":-2.335245738843546,"317":0.821776617232283,"318":9.028665435701987,"319":-3.55223293080515,"320":-0.7757057987884762,"321":-4.178130363855257,"322":-3.3396206857833404,"323":-3.5016502506317457,"324":0.0029339381542844564,"325":0.6331836137155912,"326":-2.7682992199209937,"327":-9.285001646596086,"328":-0.0804645340591155,"329":-2.5892643844788026,"330":-0.7861525692485074,"331":0.2859584347046254,"332":-5.80327792856218,"333":4.450073967007208,"334":-1.3378096827111055,"335":0.3737874646594753,"336":0.24461134335423193,"337":-3.7082474383282222,"338":-4.982723536974747,"339":-2.013269423175776,"340":4.914428106790473,"341":-4.607866057529007,"342":-1.8775540693987176,"343":0.9394222274456545,"344":-4.329377573113956,"345":0.8447737775426553,"346":-3.296535095257842,"347":0.4480991519983054,"348":-1.3589772444836445,"349":-2.5605397360711817,"350":1.762796641154058,"351":-1.5842968084013465,"352":-0.5303756617445319,"353":-2.433630971593053,"354":-2.356844174018304,"355":3.407235106474053,"356":-1.155744560945999,"357":0.41119579484236435,"358":-2.6518200238240572,"359":-3.3521911262506507,"360":-2.4976318750880173,"361":0.814973422156871,"362":1.657875069429164,"363":-4.462542771248892,"364":-4.504153902612367,"365":-1.596766614090923,"366":-2.259374274812103,"367":-2.361801859811813,"368":1.5162532865394382,"369":-2.67802332986721,"370":3.8267849752713263,"371":1.221890816771221,"372":1.1451239347959745,"373":-1.688993509012373,"374":-0.3382117274804515,"375":6.480506885731923,"376":3.1951273215999567,"377":-1.2242211427383145,"378":4.489783361738165,"379":-3.3532964212896195,"380":6.371120623655006,"381":2.4957789225800635,"382":4.693824016543917,"383":7.789330038940508,"384":-0.7393021456396767,"385":-2.6865509899553515,"386":0.5416827083027252,"387":1.4671658281136257,"388":-2.951586897760077,"389":-4.8185101843658895,"390":0.43564072476197363,"391":0.6285060030983458,"392":0.33889422749697,"393":6.210413779049313,"394":0.870828555332997,"395":1.279188358780304,"396":0.25531014625127524,"397":-0.06622040411935053,"398":-2.801615072523336,"399":-0.8609488958721784}},"bo0":{"n":20,"d":1,"w":{"0":-3.2909045954097116,"1":-5.375295655137487,"2":-0.4997712704337474,"3":-4.9716327003536644,"4":-9.356477828067128,"5":-3.961224668799108,"6":-0.9084835037758224,"7":-8.857017597898567,"8":-13.674951802358041,"9":-5.250866210173536,"10":6.631232777305045,"11":9.604222435649644,"12":-4.502272756891629,"13":-0.06748727218761781,"14":2.8861799999305626,"15":-0.757018599965257,"16":1.9892794397722122,"17":2.150719984520883,"18":-2.950814437907473,"19":1.481882792089245}},"Wcx0":{"n":20,"d":5,"w":{"0":0.7859713023142522,"1":1.7958309161911499,"2":1.8589321583568659,"3":0.1755686167899062,"4":-0.48190361482700156,"5":0.6355985530438167,"6":-3.2380796972305066,"7":2.188644687795977,"8":0.2617487681498169,"9":3.3259962669950736,"10":3.1162445743180114,"11":0.5215535246343181,"12":-0.5166945486347067,"13":0.14474341667088333,"14":1.1266620639424156,"15":-2.994350925248934,"16":0.862594113874307,"17":-1.876868367097233,"18":2.4239075641456167,"19":0.8261476623806568,"20":1.8464802147936155,"21":1.551372592655162,"22":1.1513259338289765,"23":4.319615994474738,"24":1.263081863999758,"25":-0.4869424156989728,"26":1.2678938345389164,"27":2.0482402887843913,"28":1.5408974074738564,"29":-1.3070888975961241,"30":-0.5947978038659104,"31":0.9716890146823252,"32":2.074827371595985,"33":-1.1596951988333968,"34":-0.08550465768220107,"35":1.1015958494759936,"36":-0.4356749556603896,"37":0.715329639862709,"38":0.6943392178693445,"39":-0.9469242517521982,"40":1.08388322940883,"41":0.05686028474352693,"42":-0.27806068391349714,"43":0.0517325662389677,"44":-0.9448178998849549,"45":-2.369115943804501,"46":-0.06067773865382322,"47":0.6869388314880122,"48":-2.635044664192474,"49":0.6476640937558279,"50":1.3068930963784462,"51":-0.08993341412790128,"52":-2.995727728701294,"53":-2.724305555721449,"54":0.04073779634664176,"55":-1.183432045686515,"56":1.1854280171447629,"57":-4.778337689078752,"58":-2.0399013991025616,"59":-0.8232572601541264,"60":6.8504312699812395,"61":-1.5268316082270674,"62":3.127573866722532,"63":1.035879953420885,"64":3.5793929323259768,"65":-0.6086022534763462,"66":0.10332986170113317,"67":-1.7524378167569972,"68":-0.7497831842612392,"69":0.19522389199697227,"70":4.320359859451779,"71":-3.402647105119523,"72":-0.2968995510899599,"73":0.7319008750310662,"74":0.530700438528222,"75":-1.1697433601425886,"76":1.5811147080509247,"77":0.8166162778442853,"78":-1.4756855568528073,"79":-0.44986557174380293,"80":-0.016716081511591267,"81":4.207493619586635,"82":-0.501672723667559,"83":-0.7762540897296435,"84":3.0708287743851197,"85":2.6426635451616614,"86":-2.833800977376065,"87":1.245712419271733,"88":0.9306529056087781,"89":5.3113484664505854,"90":-0.6998177216132837,"91":-0.7602328190904719,"92":-0.3137052465918318,"93":1.596350955845594,"94":-0.7867073154749016,"95":1.475094280500293,"96":-0.39732820793045404,"97":3.6402402091997614,"98":2.2104125510316504,"99":4.470453415634093}},"Wch0":{"n":20,"d":20,"w":{"0":-1.9388443549171006,"1":-6.877016524446604,"2":3.450767526691443,"3":-5.851940996788582,"4":-5.049942411316176,"5":-7.578142455292639,"6":-8.466206362295733,"7":8.680728811190582,"8":1.0519162509839337,"9":-0.2181884815324983,"10":-6.54768675602141,"11":-5.609737231854065,"12":2.7764803345019455,"13":-3.595720702791662,"14":1.9823387247464423,"15":0.9891902318069898,"16":2.8421255350079755,"17":9.218574944116174,"18":-0.5842537153659015,"19":-1.332399134668408,"20":1.0150470313162772,"21":-1.9887583631077552,"22":1.2522363768514044,"23":-5.951063316723015,"24":-0.7646497860930769,"25":8.078118842875895,"26":0.29322400129601783,"27":5.1606232806817935,"28":-2.4833401707750937,"29":1.753422855401728,"30":1.572098429361091,"31":0.34302438297967947,"32":0.17051866269530294,"33":0.9454111619909218,"34":-1.62818442210849,"35":-1.1368979986598005,"36":2.158762275139754,"37":0.20462918463797983,"38":-2.842043762757265,"39":-6.093029716151168,"40":4.519533012204019,"41":1.13200791017413,"42":-2.6732311311738672,"43":-3.8548992542223295,"44":-2.8481800213501036,"45":-0.5415525357919033,"46":-3.331356613911552,"47":-4.230833785176665,"48":3.9185167094665374,"49":2.2992851089084225,"50":-0.550886467324077,"51":1.0844832531668136,"52":-3.0375859300716934,"53":-6.185771144704312,"54":-1.7241295623085269,"55":3.483995624788169,"56":-1.0509640915156189,"57":-8.126865318671737,"58":3.8455488860833626,"59":-1.9548030902776974,"60":2.050703889744236,"61":3.8121011539207648,"62":0.9624122665804965,"63":2.7907434582102404,"64":9.04822382983406,"65":2.5184900671048736,"66":5.8683318471393395,"67":0.8604561401693119,"68":-0.6409792382344789,"69":1.2382855379173143,"70":-2.8990304130900615,"71":-0.9659857819032542,"72":2.5567333248583908,"73":3.0378911455246334,"74":3.1267104366608223,"75":-0.3224442507612356,"76":-0.2907652084084884,"77":5.109091400466399,"78":3.752100490238859,"79":-0.666049081262636,"80":-9.649478713155535,"81":1.7519366387731448,"82":-4.619067892994139,"83":2.0184644542070247,"84":0.4335113886958169,"85":0.3299647268214827,"86":5.110269894581791,"87":-3.7464036624847346,"88":-2.9796766987998837,"89":4.986712275388149,"90":3.9276319838745013,"91":-0.08561620899146949,"92":-4.795188260117307,"93":1.5839927660554571,"94":-3.110072865064007,"95":4.386103895860181,"96":-1.5886228922674739,"97":-5.242607305549704,"98":-2.6627974128379948,"99":-0.6041035183403081,"100":-3.026417430039349,"101":5.916970805941448,"102":0.6171209802953453,"103":0.23326060503347337,"104":7.815560537302644,"105":-2.0182416125984735,"106":4.994879422151038,"107":4.3970446272942025,"108":-10.51405170567157,"109":-1.4243655077003774,"110":3.0179090866116454,"111":8.345908077360743,"112":1.203351148437857,"113":2.4348904219886713,"114":0.1156193688862635,"115":-1.3411235294339967,"116":-4.340969108796458,"117":1.4573810626563193,"118":-0.8392348044292323,"119":0.17929876142669213,"120":-2.723202093820245,"121":2.3144661414379275,"122":-2.905261771192882,"123":0.22785431896031336,"124":2.1471076531903774,"125":7.284006155112995,"126":2.3671059949138127,"127":-4.062408634291697,"128":-1.8516901204241365,"129":4.603919160446112,"130":5.140350601735639,"131":2.4424138288763855,"132":-3.0726218310323135,"133":2.830746085617009,"134":-0.47673858062299695,"135":2.054023845415981,"136":-0.18922321638730846,"137":-0.8748003090011353,"138":3.8479035129071812,"139":1.8685005338435947,"140":1.1398070743458322,"141":11.654677534469705,"142":1.9283947650686388,"143":-3.5757954927799678,"144":-4.752462631076749,"145":1.783194184538446,"146":8.619328399776952,"147":2.983167793544812,"148":-3.1184710443222614,"149":4.078712685116391,"150":-1.8849284100096517,"151":-1.7106433234633078,"152":4.2265775504416805,"153":4.6476383794629506,"154":9.238820574901444,"155":-0.9487151273276658,"156":-6.776013257091266,"157":3.772468829485872,"158":2.1207980787875425,"159":8.025110092218041,"160":2.4128721850978647,"161":-3.9297566627697207,"162":1.720650864963805,"163":0.15721651181740529,"164":-3.5100189383625935,"165":-2.3772051628280635,"166":-3.4996946431210625,"167":1.3070591553601134,"168":2.969563406407756,"169":-3.5198938934880513,"170":-2.8696174329889947,"171":-3.6156179965929565,"172":1.6772896753403006,"173":-2.404805225074555,"174":1.4639504151087979,"175":-0.20480108972525943,"176":4.424664749149745,"177":1.9388590557025516,"178":-0.6591166064463067,"179":-0.5994244151567627,"180":-7.004757476587847,"181":4.715033787671384,"182":-1.514939533230239,"183":2.5927266104913715,"184":5.557585958417333,"185":1.4224013504717121,"186":2.047350655395903,"187":5.676888871322317,"188":-5.213183762647958,"189":0.8974675442748139,"190":6.541503818817944,"191":2.2484816460594126,"192":2.5173869063155774,"193":3.674839277100614,"194":1.2345903821147965,"195":-4.280558804467927,"196":-8.107567553244458,"197":0.9667340293002976,"198":-7.284120932937426,"199":-1.0241556499021087,"200":-1.0047078344525664,"201":3.658789603945736,"202":-2.7320563846477373,"203":-2.046413595421466,"204":5.937777088234353,"205":0.7989900135603933,"206":5.667466224842722,"207":0.7068657221770624,"208":-7.691932273793049,"209":-0.7391702483280147,"210":2.264917832333849,"211":-0.004977659258829789,"212":0.19298218996714006,"213":1.097521377533908,"214":-6.756388413127148,"215":0.7805455596303817,"216":-2.4623814036315887,"217":-3.20692354387947,"218":4.0410874505225065,"219":-3.248075090690196,"220":0.24792942694200684,"221":2.0224316405286418,"222":1.3228995355839912,"223":0.5292465407977339,"224":-1.7509359772207924,"225":1.8236092903968704,"226":-0.5472000628120591,"227":-3.9558673022260473,"228":-1.3619299824744304,"229":-1.74255277892408,"230":3.460776303532376,"231":-0.6308117198939467,"232":1.8444402719027182,"233":4.415378439872578,"234":-7.387792664037809,"235":0.314746337927669,"236":-3.1642787724990153,"237":-4.975792839849039,"238":-2.570991704646166,"239":1.0447991167779709,"240":0.6478233061481604,"241":-0.3229977889990993,"242":4.793252881988157,"243":2.07336731180207,"244":1.5125799622682634,"245":-0.1898933059645613,"246":-1.2962868597015325,"247":0.2629743910922098,"248":-1.736742887878765,"249":5.898927674691762,"250":0.28371174977036256,"251":-2.679958775645438,"252":3.6573235323500097,"253":1.098665122941062,"254":-4.125841426813223,"255":1.4740670602828343,"256":1.4409550538140232,"257":-4.558725906047206,"258":9.173329780416578,"259":-0.022792931548817643,"260":-2.0154807202559755,"261":-0.8498028319840382,"262":1.377004154713083,"263":-0.9311489792526667,"264":2.665853643125331,"265":0.576554413354468,"266":0.5322457962659433,"267":-1.4502205489875295,"268":-0.5562601853240975,"269":3.50418918093316,"270":6.663995860297069,"271":-2.454618871017628,"272":-1.3595008701015072,"273":0.6280726560422726,"274":-2.6777547497957346,"275":-2.4665656146170334,"276":1.5024456625569824,"277":-1.1006181783137623,"278":-0.5401930479401611,"279":1.7805064564834234,"280":0.22887262538952546,"281":3.73279375648109,"282":0.07348138775351343,"283":1.3694397705062782,"284":3.9134323367360073,"285":-3.3369287198305058,"286":-2.4601916997468574,"287":10.99246125948018,"288":-2.330993778265278,"289":2.940104085225978,"290":-4.98299002882862,"291":-3.3674829355080713,"292":1.5619463975162775,"293":-1.1662114634297907,"294":-6.172312186635022,"295":3.421827483251279,"296":3.9121849663423265,"297":-1.8315253276088,"298":-1.4333953088338227,"299":-0.9209931431243235,"300":-7.676427217394328,"301":-0.2713114761905011,"302":0.42195808781924155,"303":-0.5215118019034508,"304":1.1226963788525974,"305":3.6802356039348587,"306":5.228871424377683,"307":0.8136674650896508,"308":-0.7061962055383636,"309":2.5628206414482233,"310":2.1542366131908275,"311":2.715508412396828,"312":0.713100557546837,"313":5.138904468891202,"314":0.9901710721484006,"315":-2.632823819362713,"316":-2.0958061571619484,"317":0.7016146376379578,"318":-1.5305176921720829,"319":-0.4780656072513843,"320":4.937297343576106,"321":-4.064191609322921,"322":-0.47846085425794416,"323":-1.180624679760175,"324":-3.890898363879212,"325":-4.5831765889526945,"326":-5.859988214138487,"327":2.256786730381867,"328":2.9645439805992346,"329":-8.075729375557108,"330":-1.6004963977259916,"331":-10.288029378465184,"332":6.631806918485832,"333":-4.907844768377192,"334":10.603516887471834,"335":-4.278358159471299,"336":3.191036296310706,"337":0.6351639481848036,"338":0.28367209538901605,"339":2.6755990114516224,"340":-5.576665248273268,"341":-3.524776282094001,"342":1.9339717248834418,"343":-4.25011911637139,"344":-1.9581795695391213,"345":0.4722448711946495,"346":1.1320117691858758,"347":7.494750932567065,"348":4.632360027073819,"349":-0.3019031758050235,"350":2.544063876303641,"351":1.2857533888309352,"352":1.3647329832724884,"353":-3.270391120320104,"354":8.269165793892888,"355":-6.6108311370358335,"356":4.441805666279507,"357":4.170169020126146,"358":-4.090678906187229,"359":-1.4118362964790958,"360":1.2160822702294072,"361":-3.593605118331932,"362":0.4235977861366836,"363":0.020627423926877112,"364":-0.6535425167476716,"365":-0.2616504355349232,"366":-1.536995350602897,"367":-0.6842486701197761,"368":1.0376247862744328,"369":3.6942435768032604,"370":1.1625742333299571,"371":-0.6527702931423969,"372":2.832988857972655,"373":-1.6856696357167538,"374":0.19539389237903762,"375":-0.7435516859888726,"376":-0.37798371276414877,"377":3.3007512004263257,"378":-3.7184495974065053,"379":-1.465758564937005,"380":2.516073958954471,"381":0.15354079251092662,"382":4.042644832123289,"383":0.8394695804815281,"384":0.4591368940385305,"385":-1.0665772790536832,"386":1.7717360322718494,"387":-4.3648984392673755,"388":-1.5877890478385652,"389":2.6088164232936912,"390":2.84156096566524,"391":1.9620228755397886,"392":-4.863501888147155,"393":-0.7909911617221708,"394":-5.465723632531929,"395":-2.3325512682886664,"396":2.455085245274193,"397":-3.385703005770837,"398":-0.4443819105658523,"399":-2.2270741608048765}},"bc0":{"n":20,"d":1,"w":{"0":-6.600518322056866,"1":0.3341768841199082,"2":-0.8484032885578213,"3":-0.1307945843402799,"4":5.598667813023087,"5":9.660659114990956,"6":6.830139151716498,"7":-4.6207678556430105,"8":-6.303938306259383,"9":4.291511316937161,"10":8.390827380523218,"11":4.611565200763849,"12":0.10900601310639953,"13":3.3112135296676666,"14":-3.932004612724947,"15":3.4815674272166386,"16":-5.944864026650159,"17":-2.8970450199044993,"18":-2.202090291828485,"19":3.4563189726174377}},"Wix1":{"n":10,"d":20,"w":{"0":1.5009714139055867,"1":-5.1998322108686805,"2":-2.303562746083254,"3":-0.5801659324057293,"4":-1.439426625726298,"5":0.5453199927915463,"6":0.5081864296221353,"7":-2.8276208549387873,"8":0.763376715918447,"9":-6.950972915453821,"10":2.7569400264439254,"11":5.559994627694452,"12":-5.13815593511658,"13":1.0686433852673665,"14":-3.9902270221924976,"15":-0.32609405103943456,"16":-0.9571222094144229,"17":-1.6617472466661858,"18":-1.307116617328943,"19":-0.2972142421700997,"20":8.208699431742943,"21":-0.3483898823793109,"22":-0.026179650597604427,"23":-0.24829482326125285,"24":2.4386318331923946,"25":4.28618152724839,"26":-0.3191585733190102,"27":-5.570188148615056,"28":1.8496657526335623,"29":1.790944489574622,"30":-0.3872924387797257,"31":1.7141060947250806,"32":-9.265982794227547,"33":0.3878159789178436,"34":0.19818651102470056,"35":-2.7003575576185366,"36":-2.1161069291854884,"37":-1.699121124665426,"38":-2.6983858509254546,"39":-0.6750015449616282,"40":10.366180134957654,"41":13.764856523072739,"42":1.3370808931495475,"43":-1.840501047190677,"44":-10.935048712335298,"45":-10.103565944874383,"46":-13.209368639283689,"47":-0.7011414953921323,"48":2.130863680482941,"49":3.3786107022144525,"50":-2.134622291045396,"51":0.4107886807322097,"52":5.853482986464297,"53":-0.254524570150656,"54":5.115848067134843,"55":3.1054997513324087,"56":4.301347791546678,"57":-4.468712322325178,"58":5.803468683045636,"59":2.6711461839324198,"60":-1.3494049703378888,"61":0.11230128066882389,"62":-3.9092682001273,"63":2.839960019056472,"64":-0.15340048099482137,"65":0.04656265792897315,"66":-2.0379181307436234,"67":-5.511565057990707,"68":6.219340558819115,"69":-3.7256537610695477,"70":1.2271625299702267,"71":0.6360700119115967,"72":7.028255548718326,"73":-2.5106806324090702,"74":-6.142060008368682,"75":10.233219924566873,"76":-0.5741584619283493,"77":-2.293622832316964,"78":-5.331601860325535,"79":1.805818939010679,"80":-4.959022303164238,"81":-5.957240330406919,"82":-2.745195964433591,"83":-4.259716397564596,"84":-5.211401385525392,"85":-7.15386204718295,"86":-2.1904490531276437,"87":4.841356421009062,"88":-8.026722758839167,"89":14.203372393336428,"90":0.563362045175204,"91":-1.8577535588244767,"92":4.8902356421538435,"93":9.92763135732734,"94":-7.812874053835597,"95":4.743681465708141,"96":-0.0332750332720166,"97":-23.663442725551633,"98":4.055921357312082,"99":-5.589931274644876,"100":0.4117086165854082,"101":-3.5705856623093575,"102":-4.140210587765057,"103":1.6935905350312996,"104":2.0134967755513857,"105":-3.1656191608187187,"106":-3.539202081143356,"107":17.232367463636287,"108":-0.5344922112389797,"109":-4.873675953418288,"110":-0.1863621503492555,"111":-2.3827955925114472,"112":3.561517252463059,"113":11.020666924441503,"114":-0.5232595241833834,"115":10.89716161468004,"116":-0.8343710887677712,"117":-17.921509104459872,"118":-4.633155658632119,"119":3.2389739506801223,"120":2.0812687159934247,"121":3.725108764453244,"122":-3.6441118458991233,"123":1.299519330589986,"124":0.6010696585423796,"125":-10.885168698108373,"126":-5.752865349228097,"127":6.850722244312036,"128":1.618296009635875,"129":9.918946651142546,"130":-0.8551448842890141,"131":-1.775882305747861,"132":1.0672676078331722,"133":3.271480863226838,"134":5.626108801783671,"135":4.187236205655791,"136":4.66707378875016,"137":-0.5380447613986337,"138":5.063672458724343,"139":0.7729988647459969,"140":-1.3181502656739204,"141":-1.9037905346895394,"142":-3.4562405243662493,"143":2.2263987029791075,"144":-6.042359469725227,"145":-0.20234979177872495,"146":-1.940713067835568,"147":-3.1169685657663337,"148":-2.3503238647891966,"149":-2.758897590978662,"150":0.7942552672990205,"151":0.25446417398019877,"152":-3.0619473157402273,"153":-1.1954038712196557,"154":1.002307224633546,"155":5.60624541816572,"156":2.1278906643533344,"157":2.4174677347188465,"158":-2.320043802773379,"159":0.7962348249864303,"160":0.8501889536907904,"161":0.28037167158173365,"162":2.322054076545985,"163":7.302517245635931,"164":-10.1383794158616,"165":-1.390724277311653,"166":3.426987531585083,"167":-7.574826082456557,"168":0.16675790238628263,"169":-4.522348829401217,"170":0.976816918510524,"171":-0.5753678282214745,"172":5.310815936836551,"173":5.922561649568911,"174":-5.763857899582034,"175":10.580521783369797,"176":2.9803275630204236,"177":-7.754703608383379,"178":-0.9764272698635893,"179":3.8289157403164595,"180":-2.1325183172246036,"181":2.5311476255606604,"182":0.16939254599440326,"183":-3.7359071300728344,"184":0.7060737199205356,"185":-5.513783085665237,"186":-1.6450621496046136,"187":-4.58643294926728,"188":-0.3682080929941606,"189":7.035532502356893,"190":-1.266599623130263,"191":2.861526084816849,"192":-2.371647270019382,"193":0.9734384214016537,"194":-3.478743447460418,"195":-6.045798435173437,"196":8.304351053966437,"197":-2.529589051981965,"198":-1.2816459819387416,"199":2.817581410625644}},"Wih1":{"n":10,"d":10,"w":{"0":-0.46063021603508714,"1":0.4269632360299365,"2":0.9067450680900923,"3":0.8025668826021699,"4":0.19820222144937027,"5":0.5683014625410666,"6":1.6492000880442954,"7":-1.3487725531776704,"8":0.5531025579026037,"9":0.5363090426248059,"10":6.61352308623565,"11":6.7091648396781425,"12":4.13825208137901,"13":5.125816713002337,"14":-0.5964293690988403,"15":-1.6602705117112138,"16":0.05167817416726815,"17":13.687698907392045,"18":-2.815143409386823,"19":-6.567391372836342,"20":-0.9900425000275037,"21":-7.556947298300698,"22":1.3935815529965485,"23":-4.972113572695034,"24":1.9669321505365265,"25":5.097591964519471,"26":-2.2380109598094764,"27":3.5207059173947477,"28":3.639228800326384,"29":-8.108688471451563,"30":-5.04850385740529,"31":1.7163832986484018,"32":-2.9286493935480955,"33":2.5122363432205193,"34":4.407205560957135,"35":0.7477552744019467,"36":1.9076163185472843,"37":3.727071797461454,"38":-4.838716983351996,"39":3.4712015520406334,"40":-0.9457417703062645,"41":-2.6674340199308175,"42":-2.974750628692512,"43":-0.0031450973262735684,"44":4.903852185761195,"45":-4.620275694494175,"46":3.639357974479194,"47":4.780566190109914,"48":-0.5274631832142973,"49":-0.13212683218245727,"50":0.7760925626320871,"51":7.912785552727688,"52":-4.788569248164115,"53":5.180908896049799,"54":2.9617875190542557,"55":0.11454649753381031,"56":-1.905107062929977,"57":12.484109448949647,"58":1.2790500733857881,"59":1.5963524107682767,"60":5.458035464988311,"61":7.632306523476678,"62":-1.8348413601360543,"63":-2.670608536279341,"64":3.054953095205993,"65":0.6182817900727131,"66":2.2576380385216592,"67":-2.8199673320455423,"68":3.7765582546238896,"69":1.732339956570216,"70":-0.7730415492710548,"71":2.3306099949193437,"72":-3.052326946361694,"73":4.164175569134108,"74":0.8763468058204551,"75":-0.3827669982461088,"76":1.550565956804359,"77":3.0756920972245227,"78":0.3793575669470647,"79":-1.88641693059742,"80":-1.7864760750574806,"81":0.05512434863667367,"82":-2.074776426602665,"83":2.433291315179435,"84":3.7626268799605054,"85":-5.336611133305579,"86":0.9841474380938546,"87":-1.1252958491111051,"88":1.932752219091271,"89":-1.4246892713330352,"90":3.275255846739034,"91":-3.01488977111576,"92":2.482738922741833,"93":-7.8017180208091075,"94":2.303908886342172,"95":1.858652254549286,"96":-0.5473155559165933,"97":1.7460685214218485,"98":1.3514042918961002,"99":1.0346763024305234}},"bi1":{"n":10,"d":1,"w":{"0":1.7968619537670214,"1":-0.7326436383071023,"2":2.6710988879962265,"3":5.541762098712412,"4":0.9907402550930589,"5":-0.014741149094237165,"6":3.3532510632358363,"7":0.2656065561586411,"8":-0.7547443346390401,"9":1.8947656662813583}},"Wfx1":{"n":10,"d":20,"w":{"0":1.3631376982252117,"1":2.9772990306522744,"2":-8.697568984037622,"3":-1.6294801433851118,"4":-8.546578559585576,"5":0.32415838396546093,"6":-5.109970825954277,"7":3.1417621582481043,"8":4.123887912484135,"9":-2.40357582439144,"10":3.4098245325365757,"11":-0.33498803962654716,"12":-11.162903611748687,"13":-6.183067282487107,"14":-2.168326581778628,"15":-2.7843838719518756,"16":-0.9001153797987259,"17":3.094222631909586,"18":-2.945603533675665,"19":-4.320700690080686,"20":-0.802752742956617,"21":-7.635729597102332,"22":2.1384269873856065,"23":-1.4872458241456117,"24":8.293437601758502,"25":6.331700680901119,"26":-10.35018370530233,"27":10.70089045102284,"28":2.1214719186024946,"29":2.850695934496905,"30":0.019847572676992296,"31":5.222476307313201,"32":-3.383985507968588,"33":1.8576467055410342,"34":-0.2629466069870798,"35":-5.878941978613404,"36":2.42061194868299,"37":-0.9055178366768392,"38":-2.901653554496971,"39":0.29211007878904205,"40":-4.027219570369262,"41":-15.706531663661615,"42":-1.283835252451998,"43":-7.154450806966197,"44":3.1576742506772115,"45":2.7311193960352065,"46":-1.2128066386471732,"47":0.563009975410671,"48":-0.3345530079345323,"49":-6.359131128635859,"50":1.0416607069950339,"51":6.320193921164002,"52":21.047543877948467,"53":-1.7245951146626863,"54":1.7960183706949722,"55":-0.9683627555077772,"56":4.058163719819457,"57":15.758039964328466,"58":7.275391503280928,"59":-8.52428681190808,"60":-0.8899801568420729,"61":-6.938019685040519,"62":7.123075951143156,"63":-0.13366218554550283,"64":3.440650239243616,"65":-5.483022857657661,"66":-0.32407167241403406,"67":13.455604759285597,"68":4.394969762560768,"69":-4.055545108426492,"70":-4.564975376146975,"71":3.901283946502123,"72":-6.592551381799752,"73":-2.6399245863222323,"74":-13.292124756937573,"75":10.182045927734315,"76":3.9709463248533963,"77":-0.7190118948653366,"78":20.27962615936217,"79":-0.8721479246033065,"80":-8.732367805958026,"81":0.32911109299005986,"82":-1.4869507052153597,"83":2.5182570250400023,"84":-9.916076043458807,"85":-8.546112202720446,"86":5.183804901594499,"87":-15.538291123491295,"88":9.01162744233972,"89":5.003343336837001,"90":1.089526445116694,"91":3.909852346597656,"92":8.87902233383047,"93":5.011710717436276,"94":5.4637973766580945,"95":-7.64095335892625,"96":9.598146398796166,"97":1.4337683050200867,"98":5.230250789355985,"99":-2.0174124754201763,"100":7.313204675537509,"101":1.8318401917426275,"102":2.4498039726903804,"103":-4.329410425484765,"104":3.8396109468653643,"105":-16.717192698943332,"106":1.3917546003942864,"107":5.816559965833859,"108":-4.342599126916446,"109":-4.30655184396017,"110":1.4023104790051122,"111":1.4423563127152887,"112":-3.5824965452386865,"113":-5.857116954145169,"114":-0.9527993047399455,"115":-13.69668862119707,"116":2.956273215313551,"117":0.38022751223629914,"118":3.36139165386481,"119":-9.687725476000223,"120":4.275866757032401,"121":4.614328802127544,"122":-4.866836559016048,"123":-4.070467674181245,"124":3.4269194818376425,"125":-6.965789587080337,"126":-1.5691391952890723,"127":2.1274013954948474,"128":-1.6803680386147797,"129":0.11851457791387184,"130":-4.354682308448013,"131":-6.147165797176301,"132":7.012826353850117,"133":7.47431840991746,"134":3.1783544308351415,"135":-0.04307263397838954,"136":6.5318530267157655,"137":0.5825766797115282,"138":3.361226274876012,"139":-3.923336585280015,"140":-4.794229867846659,"141":-1.8082967169053805,"142":7.790293594874174,"143":-2.818439669836094,"144":-4.985644369587716,"145":3.266227516399415,"146":-6.911679917889005,"147":-6.0191638288450395,"148":4.952280999419549,"149":-3.440085553945615,"150":1.334154612930008,"151":-1.4081253486164667,"152":6.788775839225294,"153":1.424471480384914,"154":0.5068272363637226,"155":1.9757919580996435,"156":-0.5222449097969469,"157":-6.890632485599795,"158":-0.9253655437924208,"159":-2.9830789076803534,"160":2.3799106828415297,"161":8.544650167531323,"162":-1.875703340845343,"163":7.416837519353348,"164":-1.309071827583499,"165":3.9057588785938515,"166":-2.102110964953595,"167":5.349620020694034,"168":0.2942746446194492,"169":-4.43463106079568,"170":3.3855401488804846,"171":3.7521758051873717,"172":4.44455361994316,"173":8.448054347019726,"174":1.3007084925662755,"175":4.160368654973377,"176":8.436651524697444,"177":0.9130454101028005,"178":-1.1425249131410777,"179":-9.782198070182424,"180":-9.222525977685141,"181":-6.0858915170786245,"182":1.3304294301898467,"183":-10.45641758615187,"184":10.27300125284104,"185":1.0866404493819197,"186":-2.169663747648884,"187":0.551434740565094,"188":2.4917305978268365,"189":4.669023062042409,"190":-0.7497258058576866,"191":-3.797181353897722,"192":-2.8487564025056296,"193":3.423633703357311,"194":-3.6003657582678557,"195":1.0172986381559936,"196":-2.159378523191548,"197":-5.650174376325229,"198":8.322840745111053,"199":-12.146364394343241}},"Wfh1":{"n":10,"d":10,"w":{"0":-0.9980863836112751,"1":-0.7881922120671243,"2":-2.7148959029406137,"3":2.45105096567518,"4":2.6576098073009433,"5":-1.0854658038032006,"6":0.5790966598766694,"7":2.462913318685068,"8":4.79857055240804,"9":-5.332463905945546,"10":6.260051860380497,"11":-0.5685318094481543,"12":2.2903172888055274,"13":1.3512493794459572,"14":0.9348342926228131,"15":-4.654348164524474,"16":-1.14234811449392,"17":-0.6775356166155667,"18":-2.4770309772228027,"19":2.371931298666075,"20":6.4732437120354,"21":4.230367246805749,"22":4.480627735633521,"23":30.743171431570588,"24":0.405679902383421,"25":4.523011812999168,"26":-2.8609425724745594,"27":3.3095953905108244,"28":0.08441067284388336,"29":16.628010131709875,"30":-1.3776603314202431,"31":-7.188604137521906,"32":6.470749219515209,"33":0.5626407022486979,"34":0.8118575814175263,"35":4.17377161673172,"36":-5.570944956769285,"37":-2.3633909202702394,"38":4.0125319303300975,"39":-0.006997837217271297,"40":2.9433887948801947,"41":5.25625425138314,"42":3.3207538778413155,"43":-3.424259989490165,"44":1.7415853358894569,"45":0.6287089829945375,"46":-0.6703513011178732,"47":9.13062433273185,"48":5.292020720912838,"49":8.064485114805699,"50":-6.627803919133781,"51":-3.576369737587981,"52":-0.7259489478154781,"53":-2.7812082196770227,"54":-2.6136440601174993,"55":0.04493393328268756,"56":-2.165265069169934,"57":3.5678396376176025,"58":2.811376257221997,"59":1.406565179192141,"60":3.9544940427644173,"61":-1.828234194367789,"62":2.2477950243939993,"63":7.674317727853437,"64":-0.38588930663527177,"65":-5.673273144139257,"66":-3.82759241103495,"67":5.450924149257871,"68":0.39144630042215117,"69":6.805572240700005,"70":-0.8040462359241204,"71":-6.085434634223033,"72":1.8260515654399434,"73":-2.6677998494199873,"74":0.6079122664772566,"75":-6.074026573325565,"76":2.6649190816820645,"77":-0.8352297896656953,"78":-1.3861616800455787,"79":0.03377555393959164,"80":-1.1996600999450486,"81":5.837676781119566,"82":-3.936708138346314,"83":-0.5561652059466212,"84":3.4471454946804156,"85":23.48258813704056,"86":-0.4525964730754878,"87":3.331711978584335,"88":-0.8939764288231212,"89":-8.661933667922643,"90":-1.1965513116014086,"91":-12.162005702227534,"92":11.00043656647486,"93":-0.23729136309948515,"94":-15.9859288126859,"95":-4.240860732254966,"96":1.619145113569437,"97":-4.992416530406835,"98":1.6544079023238731,"99":1.4531253314699628}},"bf1":{"n":10,"d":1,"w":{"0":2.911897432620167,"1":-1.0180756624951186,"2":-1.7644093750720917,"3":-3.300460691205257,"4":0.6914457932047291,"5":-1.0290291000042262,"6":3.2393528075552047,"7":0.8192480437766517,"8":-0.9241394404746213,"9":-4.190267765684452}},"Wox1":{"n":10,"d":20,"w":{"0":-1.7537122043901185,"1":-1.141025220894138,"2":-1.0833509316254006,"3":-2.8186819103510596,"4":-0.9173090141518511,"5":-0.7504346990454573,"6":-3.091899195510442,"7":4.370685200147514,"8":1.8801851048723608,"9":-3.202610865602082,"10":0.5386306280807038,"11":0.8566630162213209,"12":-1.159570128722138,"13":-0.9084221622170146,"14":-0.5226023669040465,"15":0.37294818999478685,"16":-2.0951047733220207,"17":-2.445333430256371,"18":-3.213154537661855,"19":1.502858929257121,"20":-5.023954109178509,"21":2.4353614046597327,"22":2.415904872769702,"23":-1.1947488142286211,"24":-5.361855973703188,"25":-2.576885338206095,"26":-1.825997803239026,"27":-3.488668463941909,"28":2.212877636372007,"29":3.831789974248254,"30":-1.9651407984445504,"31":2.9006956431871713,"32":-2.596525664240762,"33":-3.0318190864512076,"34":-1.9269964848325103,"35":-3.7934910442240173,"36":2.0613121169951936,"37":-4.43472573003596,"38":0.3630096407133338,"39":0.4074269625441915,"40":3.1915016757331944,"41":2.338654787780294,"42":1.1747637784266227,"43":-3.3124898217322576,"44":1.3865193281483044,"45":-1.092114295383219,"46":-9.606091171784799,"47":-1.9002887799700592,"48":3.381896877881868,"49":-0.7850172986481638,"50":2.6028279606928875,"51":-0.06780479674770362,"52":3.0941335332823834,"53":3.64713918498534,"54":-4.385559242361105,"55":4.786649670222571,"56":3.951853597378184,"57":-11.585299011131537,"58":-2.219777766470796,"59":-2.8439432996113134,"60":6.176577968184733,"61":-10.90999838848683,"62":3.7208022157775713,"63":4.405166284458597,"64":1.0775065371749308,"65":-1.5534148507194316,"66":-10.991539097399698,"67":6.161773769726875,"68":7.936691099167835,"69":-2.7843328637790083,"70":0.376500422657906,"71":-0.08626738513865025,"72":4.585822759776073,"73":-4.1293433276166285,"74":-5.191788323384307,"75":5.951727497588414,"76":-0.11083280181033411,"77":-2.4924989554333044,"78":2.9065973398826586,"79":-4.229073901093539,"80":16.748048366944815,"81":-1.5763387873458705,"82":-3.6847044484753493,"83":-5.656921812034806,"84":-6.384829900568946,"85":-2.2054499825599874,"86":-9.944955198579928,"87":-1.2090348291383786,"88":-3.586921438730297,"89":8.68430414690105,"90":-2.68030728171848,"91":0.13415061391312172,"92":4.374430942769416,"93":-0.08499223489805804,"94":-0.7522229689166908,"95":7.248962591575954,"96":3.556356523989225,"97":4.163437638661481,"98":4.6860725361100375,"99":-6.307214023377279,"100":-0.16851063405020103,"101":0.31135588006276127,"102":2.4707373645801236,"103":0.09630480083962888,"104":3.4421021791282684,"105":0.6846989674800588,"106":-5.950715663469004,"107":3.9737491358312096,"108":-3.0725976137470163,"109":-0.1338096229857784,"110":2.651298872479912,"111":1.3477681004234001,"112":3.1588244821403584,"113":0.8335245832164845,"114":9.39476434429213,"115":1.1557711968364217,"116":-1.0630917078716275,"117":0.09549319191456376,"118":4.816926811061126,"119":-2.1398834538587077,"120":7.652264488718972,"121":-3.0207689088313696,"122":0.7026974751692898,"123":-4.616125667298465,"124":3.314424115705706,"125":-10.319682196212417,"126":-2.3690159364332923,"127":-1.6761755072734565,"128":-2.209717006515056,"129":9.216205906291364,"130":-3.830638873581508,"131":0.3056195105875869,"132":9.842012089488831,"133":2.606676344583534,"134":-3.2973162753933587,"135":1.0479715505944092,"136":4.065510244314384,"137":2.2681871263997406,"138":3.997923011693902,"139":-1.9422803808745357,"140":-0.46405797164414764,"141":-1.8983587486446907,"142":-1.146923885326248,"143":-0.6426292809298997,"144":-13.578916727349545,"145":0.46889278517575333,"146":-1.5118889963403574,"147":-1.0415709341911223,"148":8.704922038804664,"149":8.357623948166365,"150":-0.47041342675302056,"151":1.3923903522107537,"152":-0.4638633281838427,"153":-3.053445070913653,"154":0.6157141002458991,"155":-1.9649981670407675,"156":-0.27351038562349284,"157":-0.43116155716121807,"158":-0.8855471894052896,"159":-0.5121183817593743,"160":4.959571830768455,"161":2.3959415906534614,"162":-2.1109794676788622,"163":0.14494762473984554,"164":5.985502617872671,"165":-0.2151396234287836,"166":-0.029637126711769407,"167":-6.465337667335454,"168":-1.8973993177153605,"169":4.895827346267413,"170":-2.387814699780861,"171":-2.7943748518157374,"172":4.409505655657993,"173":-0.05946748643527235,"174":-5.563605790817563,"175":3.13915436469723,"176":-4.151505327339378,"177":-8.779819271219457,"178":-1.7912295585652505,"179":-1.0422838627698734,"180":-0.12257051200507048,"181":2.18090175377512,"182":-1.0772084922312,"183":2.1070577784930613,"184":-6.369208978781915,"185":-1.2172348093492362,"186":1.159669817788562,"187":-4.016925855607522,"188":1.3852398399717123,"189":-1.4356151538173998,"190":-0.6056110720835001,"191":-3.3032336411571444,"192":-5.902228184527722,"193":0.1554167498416074,"194":-1.3184133116630086,"195":3.341140999250821,"196":6.260642139039597,"197":-3.8962791320456005,"198":-1.6628259370272727,"199":-3.66822926174708}},"Woh1":{"n":10,"d":10,"w":{"0":0.32154331727817215,"1":-0.30883481197510954,"2":0.7439794887039696,"3":0.6329315655095243,"4":-0.663672529979488,"5":0.7493381302248687,"6":-0.3797086831671432,"7":-0.4866003171815547,"8":0.21161006052369025,"9":0.24099304153669188,"10":2.573761378457273,"11":1.0688838577828073,"12":-8.27645882699136,"13":4.476734476339639,"14":1.9328565377275335,"15":-2.6812239546143166,"16":0.7760802673438204,"17":11.274239901065,"18":-0.24942275230043034,"19":-1.7391839156506155,"20":4.241574053968755,"21":5.38942670610539,"22":-7.507778074047806,"23":-3.501857739180905,"24":-2.6582551155526795,"25":5.292159001972391,"26":-4.999127517178706,"27":3.4443196766304296,"28":-0.8196875774421125,"29":6.519648723095112,"30":-2.5093370350495428,"31":-3.0005939353207554,"32":3.9472965616949067,"33":0.6802118828301001,"34":-0.5717405636193664,"35":-1.2442816386657114,"36":-1.6711668443210086,"37":-1.6485103642099994,"38":-1.1617253524840654,"39":-2.7813688546847457,"40":-0.06180385586990192,"41":-6.18444690650697,"42":5.469478398730036,"43":-2.0525812984738225,"44":2.8991789813313593,"45":-4.576153751885584,"46":2.1952308938243186,"47":-4.461852515638204,"48":-2.8466530914323287,"49":-3.8442956486180875,"50":1.2221659122674768,"51":5.031286078105337,"52":-3.7856434632293423,"53":4.897378790988493,"54":7.738358623374213,"55":2.488714273226342,"56":0.32902333359817354,"57":6.074549060503118,"58":-1.7726718457507957,"59":-1.052716722141121,"60":2.0249962291337615,"61":1.1472682180437843,"62":-2.7620973757605123,"63":2.2990359242756937,"64":0.025973138782313204,"65":-0.48527065749762055,"66":-3.9573697181681253,"67":0.9412518398128534,"68":1.073138161342721,"69":2.7608102205120786,"70":0.37469526240146445,"71":0.04458541643679302,"72":0.08530306777166385,"73":-0.6896246729386905,"74":-0.4417541811787983,"75":-1.287856615865684,"76":-0.8053127844118861,"77":-0.14878218580304664,"78":-0.3229477063020413,"79":0.6013582356116861,"80":-0.1712639219212998,"81":3.4791753485103287,"82":2.1465304541325527,"83":1.4134756775018023,"84":1.229310837084645,"85":2.2918862761664256,"86":1.7911845779317483,"87":4.66458800814193,"88":-0.30943513029310427,"89":3.370994831110668,"90":-0.3353336642272609,"91":1.938089341526373,"92":0.07156322205480747,"93":3.9383805435994965,"94":-2.214091614782733,"95":5.9421739731710845,"96":3.1407761144695545,"97":-2.382122363088277,"98":-0.031356770151304295,"99":6.797550319602193}},"bo1":{"n":10,"d":1,"w":{"0":1.3792697471122581,"1":1.2196229499413653,"2":1.4414304638504094,"3":-0.649571611048803,"4":1.9205600037352906,"5":0.4620681435234429,"6":3.5837197165787664,"7":-0.12700132930101843,"8":0.5737850774188715,"9":-0.04706086593722929}},"Wcx1":{"n":10,"d":20,"w":{"0":2.874824006512537,"1":-0.8550471369908447,"2":-1.476331420647203,"3":2.587031319273982,"4":5.287101994099658,"5":-3.563792713362931,"6":-3.6966490531652587,"7":-0.7094180610046219,"8":3.1796365590295745,"9":-2.8677903639834725,"10":1.743385872406192,"11":0.7766067549979065,"12":-0.8769748328832987,"13":-6.325578200763226,"14":-1.5254051865113822,"15":-3.5855869194024423,"16":3.423745111358428,"17":3.1915508769306657,"18":-0.8150201800260204,"19":0.17275865790689984,"20":1.1981355718422484,"21":1.430926111942293,"22":1.4368665428446474,"23":-0.03963984262744251,"24":-4.369440860079341,"25":5.485106540966868,"26":-7.329138926049365,"27":-6.785541331178006,"28":12.626913647464509,"29":-6.910873665210645,"30":2.423599813054356,"31":-1.0095913775189769,"32":3.40847464898924,"33":3.4984056268154085,"34":5.163800836672171,"35":-8.282849122441181,"36":-5.592558061580396,"37":3.6742207662689843,"38":2.7181026387692477,"39":3.944285549998603,"40":-1.827563443235758,"41":0.868346925374988,"42":2.2939057447972955,"43":-3.974423999901662,"44":7.85325280356143,"45":-12.572582867522424,"46":-6.289828236051149,"47":-3.3114135322922844,"48":-0.5190757832600166,"49":6.680559666925561,"50":4.496804856852972,"51":-0.45401017468936566,"52":-6.684199602378125,"53":1.893077083577738,"54":-0.7731489465040051,"55":7.9560701048359235,"56":-11.196438020205713,"57":-5.865119286085006,"58":3.713671326611934,"59":7.698404260885813,"60":-0.2992200235193804,"61":0.28742990402622715,"62":3.0514575400121653,"63":-7.148048986072719,"64":3.6078045867540935,"65":-3.3887324846002937,"66":-6.5251141002810185,"67":3.514397283370616,"68":-2.862753256964814,"69":-2.9540505772089674,"70":-4.58601426180696,"71":-1.2679606984725444,"72":9.620423109074464,"73":4.728312946102769,"74":2.9680548800606936,"75":2.2853228374025742,"76":-2.541873940322878,"77":3.7812090632763944,"78":-2.414302003352838,"79":-0.3470398073300829,"80":1.1578701140897814,"81":4.841765727024285,"82":3.672325727440137,"83":-0.06537813610529884,"84":-1.5456689517292685,"85":-15.449218577132775,"86":4.329046534627905,"87":-4.259563011419347,"88":2.3205955660517565,"89":-4.820054187894159,"90":-1.3959167576488933,"91":1.1982259855563453,"92":-3.424650548100094,"93":-0.28192937852581207,"94":6.477161876950848,"95":-5.9397462809113035,"96":2.4945439947790007,"97":-1.5679910006108415,"98":-0.43487056656549805,"99":-1.7369660047519098,"100":2.5238950988136475,"101":-7.23394074314447,"102":-1.6997758908491705,"103":4.41707808221106,"104":5.566149631693008,"105":-1.098927125235312,"106":-1.6867331198617315,"107":3.8715279769734696,"108":2.0764223647726348,"109":-0.008919359663760016,"110":-0.8803336512545241,"111":-7.7508871771245085,"112":2.043220858598228,"113":-5.701820279326265,"114":2.8554170532125194,"115":1.498602255704314,"116":-3.873664763763224,"117":-1.7535923818394412,"118":-6.126573566571486,"119":-7.90730207325106,"120":-4.753734745744523,"121":2.286474081800638,"122":-2.795860160965363,"123":-5.346808405300809,"124":-0.6844074798362118,"125":-0.44857985335665784,"126":1.4214486863120406,"127":0.7794232152290823,"128":-0.33534213331849055,"129":-10.530785590847564,"130":-3.623975326375635,"131":1.3702296487089693,"132":-2.5796084717503867,"133":-3.16459071583135,"134":-1.4901483353783613,"135":-3.0774591003117417,"136":-2.1454848447512247,"137":2.8627668669547375,"138":-3.8362600386355172,"139":-3.3132237668899043,"140":-1.6878133762584187,"141":9.695334631678113,"142":6.668224989246417,"143":-1.4613073857948768,"144":12.387894418348356,"145":-3.637706068870489,"146":0.384118292334201,"147":2.3815954281440384,"148":-3.6791586504275995,"149":-1.0525944943607535,"150":-4.299100556089574,"151":-8.585483321467098,"152":4.640637850084587,"153":-2.9396438140343624,"154":-4.647730269535601,"155":-0.9098003760773298,"156":-0.4893018939216045,"157":4.71392049905771,"158":-3.4017421422214364,"159":-0.42757637190222453,"160":-3.0513867526371,"161":-2.5502484045244604,"162":-5.233782962920084,"163":0.4109657284388354,"164":-1.0282573537398458,"165":0.24857620212118525,"166":1.3445753171441015,"167":0.2187530423220548,"168":-1.4336575947346895,"169":4.487995191207581,"170":3.2197203551375284,"171":-0.46183976915607006,"172":2.1461615586747507,"173":-0.14163889658762696,"174":-4.761766869586316,"175":6.3595581975547715,"176":-1.2367373667179942,"177":-6.357149517634636,"178":0.9636146182799723,"179":4.255998890978032,"180":-3.917784787281329,"181":2.7602590337429542,"182":7.331939000085168,"183":-1.6256390661506896,"184":0.8038094384048947,"185":10.444504734817256,"186":0.7275995986247916,"187":8.220033204747883,"188":1.9896342972125136,"189":-2.334620105115602,"190":-3.6396707785219973,"191":-2.876977478832859,"192":-2.5454986761676253,"193":-1.196920379271679,"194":-1.6989114838541148,"195":-3.6667252578903025,"196":3.404981797905282,"197":2.54225966212371,"198":-1.3407159086809288,"199":8.280226435075562}},"Wch1":{"n":10,"d":10,"w":{"0":-1.5329823323130074,"1":1.314263674735579,"2":-1.347824202370441,"3":1.7860308548700234,"4":1.896255856568023,"5":0.4158303098306039,"6":1.2205932702736884,"7":4.290377449170366,"8":0.4928921944332874,"9":0.8082060424294846,"10":-4.862337899216356,"11":0.8913480888306493,"12":-2.690955052965273,"13":11.443895513200518,"14":-3.6325958044513587,"15":2.188727573057244,"16":-2.091007454002348,"17":-3.4755542700182023,"18":2.3556851914566197,"19":2.746146327355962,"20":-1.7273729234527424,"21":-10.210057230686793,"22":7.479303539657256,"23":-4.149084677755992,"24":2.0977995071672866,"25":0.5077363044442255,"26":-2.251299201882676,"27":-16.98200128749631,"28":4.536574530252598,"29":-2.5580158416470122,"30":-0.7384320843014824,"31":-6.39169640417079,"32":2.2316619511589484,"33":-1.9752344707085558,"34":-0.5798779432277194,"35":-0.07412696666461403,"36":1.2766392086408207,"37":-0.7402641926957189,"38":0.875442191942013,"39":-4.2849944205898645,"40":0.6751365967940192,"41":-4.208478085465596,"42":3.6754526721447416,"43":1.1647766148848684,"44":5.031135449073922,"45":-1.6143820149746129,"46":1.532490475868392,"47":1.1721390750631204,"48":-5.175323341877032,"49":-3.7866352334906774,"50":3.694885911210874,"51":-5.5314965808646575,"52":-0.30132473515132974,"53":-6.5969246627274725,"54":-3.833921435963072,"55":9.172319972084578,"56":4.716498310085939,"57":-6.146007858528591,"58":-2.3580164996023503,"59":-2.653853662421524,"60":2.595747577860424,"61":2.340469166925382,"62":-0.1429576242944065,"63":1.3842895305163039,"64":-2.4886309845174175,"65":-0.6103698543616028,"66":-1.145944139445532,"67":-0.79136011673231,"68":-0.06458548005373685,"69":-4.124983941199462,"70":2.7608678782728666,"71":2.4838811209792167,"72":-9.189204366195137,"73":-7.245637074771913,"74":0.2870067061374107,"75":-4.4441467354644715,"76":6.780531359163505,"77":-2.7878314529587205,"78":0.9345445784870331,"79":-1.3066654224636647,"80":0.10220749036873501,"81":7.087669412329893,"82":-0.12787855404998968,"83":-2.1493861267772005,"84":0.2607164138200102,"85":-2.499795897683912,"86":0.45267793444948196,"87":0.20175463257236115,"88":0.39890783715255046,"89":3.60503222416409,"90":1.7680852919801413,"91":0.06360844630803286,"92":4.4314835131908215,"93":-3.805449600758218,"94":-0.0902785674513352,"95":-3.334163316305537,"96":-6.594014102771254,"97":-4.057497474608835,"98":2.0157595539713684,"99":0.33560927672051577}},"bc1":{"n":10,"d":1,"w":{"0":0.9240715363250849,"1":1.043291133269,"2":1.3168263877824586,"3":-3.6547221585096015,"4":-3.070490556172618,"5":-2.360559269477923,"6":-5.62269576475133,"7":-2.9134068394890793,"8":4.6950183699303825,"9":-1.9407608542279597}},"Wix2":{"n":10,"d":10,"w":{"0":-6.755194547293611,"1":-3.577934601261067,"2":-0.3931383078532767,"3":6.235586765543607,"4":-2.165545932665274,"5":1.0640213511776115,"6":-5.5658849843372264,"7":0.6597150435045452,"8":1.0341983103418602,"9":4.383023126039871,"10":-4.167630864620344,"11":-13.122563311725031,"12":-22.18574064890706,"13":7.806811981428515,"14":3.9022134818765424,"15":-3.5931846357156094,"16":20.65380088647648,"17":1.0668835573316886,"18":-4.235752881071112,"19":5.047295763161459,"20":-3.4613295372440085,"21":-6.967750352654402,"22":-1.9577069544848225,"23":2.943397459371497,"24":-3.3939349238756362,"25":-0.853214445522544,"26":-9.300707144277547,"27":5.0846850082410615,"28":0.2948787826554802,"29":-3.991881375588874,"30":-4.087448676712284,"31":-6.024929171394226,"32":-1.7017917576528205,"33":1.303622585566444,"34":0.7516998047284539,"35":-3.30323812633549,"36":0.5216507723136029,"37":1.7194923205558992,"38":-1.4453393437627986,"39":-5.309265816438798,"40":-6.8910698602440235,"41":-0.925695998544005,"42":11.026013486871848,"43":-4.060623049408905,"44":2.8171962845334293,"45":7.946138766314667,"46":-16.771390618535005,"47":3.147693992084454,"48":3.866157219969523,"49":-9.985217466107795,"50":1.5138437966461962,"51":5.325637399508055,"52":-0.16823694661736976,"53":-1.7390122135411423,"54":5.774376334266808,"55":-0.24051402150303014,"56":-1.3918896065250568,"57":-1.5916422583306298,"58":-11.530536786812112,"59":7.242783588634004,"60":0.15761131315473376,"61":-4.635589948112004,"62":-1.2344885284222595,"63":-2.0253588104027007,"64":0.9997773652237747,"65":7.209324785535142,"66":4.61851251263355,"67":1.7982246661991659,"68":0.8497515378649433,"69":1.092824947658961,"70":12.577782310400666,"71":0.8804664960109934,"72":-3.680220896382522,"73":1.097246715420435,"74":-1.1033505788073343,"75":-2.179569067535552,"76":1.0863727236076244,"77":2.3920223403951693,"78":-1.5697499020433685,"79":-0.43598634616802634,"80":0.7203878485929992,"81":2.92349836189913,"82":-1.0574224927034734,"83":1.1209915170926636,"84":-5.347774347543299,"85":0.6396995077478353,"86":-9.464449567560132,"87":0.7884498251039763,"88":25.566162059824915,"89":-1.2273400515476085,"90":-0.15614572871380406,"91":-2.8165893141013627,"92":0.3102041643396384,"93":-0.7936209019339873,"94":1.555207059005458,"95":0.4862201712014804,"96":0.1724945786478757,"97":0.005474014174793751,"98":0.804125682253729,"99":-0.7827560123187266}},"Wih2":{"n":10,"d":10,"w":{"0":1.4200388171075011,"1":0.8600861966121328,"2":0.30857644334210654,"3":1.4064461619879554,"4":-0.9963259964243588,"5":0.57855958192186,"6":-0.3470832197998627,"7":-1.1297660901823883,"8":1.4203108914137963,"9":-0.47887252286997495,"10":2.013234295930282,"11":1.26246820675658,"12":-4.805788452323456,"13":-0.29630088164709983,"14":2.6833628045234383,"15":-2.587795632774753,"16":0.5629086278818918,"17":1.9097704004257958,"18":-1.09132226118727,"19":-0.31461449572327316,"20":-6.15347209022486,"21":0.9688512977204012,"22":-1.9073875099789643,"23":2.3114548969463273,"24":4.5938836718646545,"25":-2.5191382683740917,"26":4.265182535774701,"27":-0.6085916605947158,"28":4.19894428076505,"29":-0.39635045503978805,"30":-0.1701969919090052,"31":-0.11640883778742905,"32":0.8514211017362787,"33":-0.4988445149664802,"34":-0.816228175188332,"35":0.1699351296944933,"36":0.13038792788593578,"37":-0.13685091996403298,"38":0.8235799587242383,"39":0.4214253782401141,"40":3.0888797679164224,"41":0.8787616033771498,"42":0.4397577652696157,"43":-0.7822069560265331,"44":1.2683796044269502,"45":-0.7994195977549029,"46":0.765388301881723,"47":-0.088479430416641,"48":1.6573003831477093,"49":-1.2014246625406477,"50":0.3474650121909208,"51":-1.7102095960595827,"52":-1.6748846391496242,"53":-0.2594719477319698,"54":-0.08705916918748355,"55":-0.023897215752657644,"56":1.3228207637443978,"57":0.8764437522035445,"58":-0.3021967310149871,"59":0.28817868259220747,"60":2.0779615361546218,"61":-0.719828597476451,"62":1.8294855689832281,"63":-0.7424870079292146,"64":3.63718525177424,"65":-1.19056802250047,"66":2.189746317523105,"67":-0.034702191855367256,"68":-2.3828259078780127,"69":-3.738197039417021,"70":-0.7200055467794896,"71":-2.8151227434805537,"72":-3.302759316006489,