window.characterToIndex = {"0":1,"1":2,"2":3,"3":4,"4":5,"5":6,"6":7,"7":8,"8":9,"9":10,"H":11,"i":12,"g":13,"h":14," ":15,"s":16,"p":17,"e":18,"d":19,"a":20,"n":21,"m":22,"u":23,"l":24,"t":25,"c":26,"o":27,"D":28,"r":29,"b":30,"k":31,"w":32,"(":33,"K":34,"W":35,")":36,":":37,"f":38,"y":39,"E":40,"x":41,"S":42,"j":43,",":44,"O":45,"T":46,"v":47,"C":48,"R":49,"-":50,"V":51,"z":52,"q":53,"N":54,"M":55,"A":56,"X":57,".":58,"/":59,"P":60,"I":61,"B":62,"G":63,"F":64,"U":65,"L":66,"\\":67,"'":68,"<":69,">":70,"+":71,"?":72,"Q":73,"Y":74,"â":75,"":76,"¢":77,"J":78,"Z":79,"_":80,"&":81,";":82,"Â":83,"®":84,"*":85,"\"":86,"!":87,"":88,"@":89,"":90,"":91,"":92,"":93,"`":94,"=":95}

window.indexToCharacter = {"1":"0","2":"1","3":"2","4":"3","5":"4","6":"5","7":"6","8":"7","9":"8","10":"9","11":"H","12":"i","13":"g","14":"h","15":" ","16":"s","17":"p","18":"e","19":"d","20":"a","21":"n","22":"m","23":"u","24":"l","25":"t","26":"c","27":"o","28":"D","29":"r","30":"b","31":"k","32":"w","33":"(","34":"K","35":"W","36":")","37":":","38":"f","39":"y","40":"E","41":"x","42":"S","43":"j","44":",","45":"O","46":"T","47":"v","48":"C","49":"R","50":"-","51":"V","52":"z","53":"q","54":"N","55":"M","56":"A","57":"X","58":".","59":"/","60":"P","61":"I","62":"B","63":"G","64":"F","65":"U","66":"L","67":"\\","68":"'","69":"<","70":">","71":"+","72":"?","73":"Q","74":"Y","75":"â","76":"","77":"¢","78":"J","79":"Z","80":"_","81":"&","82":";","83":"Â","84":"®","85":"*","86":"\"","87":"!","88":"","89":"@","90":"","91":"","92":"","93":"","94":"`","95":"="}

window.hidden_sizes = [20,10,10,10]

window.model = {"Wil":{"n":96,"d":5,"w":{"0":-4.725511138851465,"1":-2.2026173965280513,"2":1.7406276252761004,"3":0.04216034126730385,"4":-1.8120496831521133,"5":0.2762349673362488,"6":-2.632671289838254,"7":0.6949815991785036,"8":2.9880796625879236,"9":-0.5807631425967451,"10":1.3785921484118189,"11":-3.3343660141579794,"12":-0.07202604557981572,"13":2.1527293112656984,"14":0.006906006360310324,"15":1.9101494508686632,"16":-2.356382322573441,"17":-0.3146063894203469,"18":1.5884652343664984,"19":-0.014787422935170222,"20":-0.6658453408873302,"21":-0.7547338058483837,"22":-3.019368339305778,"23":-1.9144874908171268,"24":2.6218401512472154,"25":0.8011235612452636,"26":-2.5912720918559193,"27":-1.4172885984460337,"28":0.18378833087549373,"29":3.792196715858811,"30":1.8569402739788445,"31":-1.574565650748133,"32":-0.1731672654959543,"33":3.7683520817077523,"34":0.2305217501294799,"35":-1.595978269016154,"36":7.465317885651111,"37":-1.0993922005368397,"38":-2.129476654440103,"39":-0.6031150503111301,"40":1.715476403892941,"41":1.0611459338685174,"42":-3.0228833586153647,"43":1.1556493015211935,"44":1.9009513625931622,"45":-0.7687255289137799,"46":4.8058199671184685,"47":-0.7810506360569466,"48":-5.372998279467901,"49":1.159668780230901,"50":-0.8734264574639542,"51":6.856331224876215,"52":-1.6328793934993897,"53":-6.362984756914335,"54":1.431095137907328,"55":-2.506763238519729,"56":0.8294925485803013,"57":-0.6512218325071927,"58":0.5957362880299573,"59":-0.8162841225015229,"60":-0.8137832002928073,"61":1.6646427059063336,"62":-0.237505970667387,"63":-0.4676987804378406,"64":1.5316337232415187,"65":-2.8862094763740793,"66":0.32963548119805963,"67":-0.9387950109712109,"68":-1.7702381252117234,"69":-4.819359517055939,"70":-0.6655062085433652,"71":0.018931706595508732,"72":-2.0517182358651818,"73":-0.7349771720224472,"74":-3.0520612354024466,"75":0.005168677223204919,"76":-3.723638862463353,"77":3.057242377610953,"78":8.7253785663512,"79":7.638289417657489,"80":-0.07932445230950486,"81":5.502786678830086,"82":-0.05114830877479586,"83":0.6881202416128599,"84":-1.3005534877617666,"85":0.06497446287777812,"86":0.5457058598795976,"87":-0.30170504375228185,"88":1.6117012230142203,"89":-0.9396997730264811,"90":2.503718954367537,"91":-0.25214089492490915,"92":3.224141619877655,"93":-0.5815463086951032,"94":-0.23210021973468645,"95":-2.1229850877353593,"96":2.919528255944249,"97":-4.025985346919563,"98":-6.641057782501486,"99":-1.1522412975722949,"100":0.7836273690172026,"101":-0.707278948555277,"102":0.4809759214671498,"103":-0.61585721237003,"104":1.2595227085733154,"105":-1.112019482644631,"106":0.23384463697303084,"107":2.349802163798267,"108":0.47792465090135583,"109":-0.19001408057190788,"110":-1.7146389573911123,"111":2.0814650393341805,"112":-0.8224499503600845,"113":-7.6813823643302825,"114":-2.3462239213429954,"115":2.7347067421650477,"116":-1.310105702804816,"117":-0.4470096012703727,"118":0.29089836456058826,"119":-0.5179542764190791,"120":-3.4592251037084116,"121":2.380111272784241,"122":-0.8566963151363443,"123":-2.23919903257318,"124":-0.9879244160968008,"125":-1.2297952616477896,"126":-1.2316355892270943,"127":0.47648046342937217,"128":1.1614084492641266,"129":-4.10401863182123,"130":-0.06036204909076953,"131":-1.1267024899496143,"132":-0.5105626845724438,"133":0.212309583685403,"134":-1.4690097483946953,"135":0.9853737088709273,"136":1.547138893231231,"137":1.9943620011097296,"138":-2.4226970788964417,"139":-0.1344717884850724,"140":-0.7645308333582396,"141":1.9209572317050851,"142":-3.993058527589952,"143":-6.828615092708684,"144":0.6069883514833343,"145":-2.3122526104125716,"146":0.6337655835387637,"147":-0.10853911722774327,"148":-0.6558621298218549,"149":0.4855961453241346,"150":-4.950272317238217,"151":-1.4484115849778765,"152":-2.4827839995961867,"153":-3.214409084405631,"154":1.2129669517061985,"155":-0.3161782588733939,"156":4.070190100146704,"157":0.6038127750168887,"158":1.0117039078214114,"159":-1.156983436596246,"160":-1.236163297924235,"161":1.8234963061714489,"162":-2.975111260615022,"163":-2.3763350571490998,"164":0.4801651167958361,"165":-0.11921075607583016,"166":-3.1213247868614453,"167":-1.2434976956634827,"168":0.9647832046334704,"169":1.7641074210784844,"170":-0.8735490869426605,"171":-2.1796524372060553,"172":-2.4339981819127745,"173":-2.734521534568596,"174":1.3526974354895631,"175":-2.983698156328347,"176":3.0539278592758587,"177":-2.567044502591777,"178":0.44540828988359704,"179":1.8767150509717163,"180":1.059345912078438,"181":5.237618449660489,"182":-0.9091077117108219,"183":-3.1178567522989926,"184":-1.5445501283530396,"185":-2.1609210878077336,"186":5.940842000580856,"187":1.5424127008014195,"188":-17.09756930819641,"189":-0.253103303507116,"190":6.774099256016436,"191":-4.866079054005292,"192":1.823829824726918,"193":0.9000866803175485,"194":4.126933994239322,"195":-1.8772303702749868,"196":1.5681611737196524,"197":2.2817536286751285,"198":-3.016860742249956,"199":1.0868088348330427,"200":0.48173030463886807,"201":-1.7899532347942233,"202":-1.9411243827857096,"203":1.7055392190111782,"204":0.5383499021951684,"205":-0.6996768738812637,"206":-0.6495352878308308,"207":1.4705364433932313,"208":-1.2772631433260184,"209":-0.6993088744361582,"210":-0.5064091602363711,"211":6.95340019267969,"212":-0.8340553069537753,"213":-3.2763099158509723,"214":-1.4659381001128442,"215":-5.008533949186213,"216":1.641170701634268,"217":-4.98777129516969,"218":2.364798872743861,"219":0.41778938126281906,"220":-4.733192174690456,"221":4.432348447300055,"222":0.5245237440030245,"223":-11.857676090420995,"224":0.6866378273237265,"225":3.1933401885341857,"226":-2.0949734177179775,"227":0.8078508200466789,"228":1.7636169968307727,"229":2.0454966365382385,"230":-1.421275837965901,"231":3.069289588193885,"232":-3.103861156238056,"233":1.786817841691557,"234":1.464413915347477,"235":-3.865052324770257,"236":0.6939877670075042,"237":-4.775953906154743,"238":-0.7665044164901658,"239":-2.0461359162623847,"240":1.7647171806823538,"241":-0.09267484120991362,"242":-1.3904943650302701,"243":-0.23291839450726898,"244":-1.8009416865112735,"245":-1.0570815902324124,"246":1.6122000511987902,"247":-3.353760883887947,"248":-3.695914894985124,"249":0.25196291028500584,"250":0.05979550256052277,"251":-5.76157021369077,"252":0.9358648701606199,"253":4.853162229391172,"254":1.5772356430709606,"255":-0.6802357776829712,"256":1.0561886167127277,"257":-5.3776938824165805,"258":-3.671567340712247,"259":0.5224433574009184,"260":-6.315451842276676,"261":1.790317943663024,"262":-4.903523651487742,"263":-6.741710214404499,"264":-0.6088849856259115,"265":-3.1174067880522585,"266":-2.608415004547131,"267":-4.589653462495038,"268":1.2719552640668141,"269":-1.679101385202941,"270":1.0746357939400761,"271":-0.42467862372393267,"272":-2.1423942653513417,"273":2.7616895128750336,"274":2.58122634635688,"275":-2.1961449869888896,"276":1.05310088166255,"277":-4.619554423141339,"278":-3.7790249278377703,"279":-0.18204973205794855,"280":2.041207736135139,"281":-3.4620653951228677,"282":-3.1637209486755093,"283":2.6025452746831874,"284":0.47256776983392096,"285":0.7179386302965803,"286":-2.234934107980717,"287":-1.756355742690096,"288":0.31016305318490756,"289":1.9417099972106253,"290":1.199031503838144,"291":-3.1501355717381836,"292":0.0040415135896191,"293":4.026910244555815,"294":0.4568851595222441,"295":1.0345419662091933,"296":-1.9853902694944914,"297":0.32371130011416277,"298":2.8960258932460787,"299":1.3075158213672167,"300":0.11954285569468381,"301":2.095312054329791,"302":-1.6038391349471395,"303":-0.5424647009422314,"304":-0.08057734248301093,"305":-0.6221814278268442,"306":-1.2551994402475177,"307":-2.949534419730589,"308":2.8170313575878376,"309":1.6720540737849419,"310":1.9139513910542323,"311":-5.081502927643418,"312":-0.2463402822914584,"313":1.338428856642082,"314":1.762656214166377,"315":0.6367618702607939,"316":-1.0500080965975274,"317":-1.9511084443369517,"318":0.45224180978233164,"319":1.0647549619944208,"320":0.7912564665832821,"321":-3.974784857282206,"322":-2.661703738648975,"323":2.5276335240762635,"324":3.048360858562213,"325":-1.369810234370184,"326":0.2613074144341305,"327":-3.0002474189066763,"328":0.0934886520921097,"329":2.596183658385466,"330":-1.5237498422131968,"331":-0.8228377128294128,"332":-1.12531076150163,"333":-4.080054976102102,"334":0.22982028354754291,"335":0.47065097395098315,"336":0.723362544365156,"337":1.544555348125827,"338":-1.134855536192385,"339":-0.33554219204954905,"340":1.489126458291591,"341":-2.0348079482931847,"342":1.3286993175012831,"343":-0.5758010981911401,"344":-1.3289157933729294,"345":0.36171093165619705,"346":-2.10797345257046,"347":1.0495006217706815,"348":1.3670064563257702,"349":3.0940573002640006,"350":1.4829455897133361,"351":0.22854205290740498,"352":-3.3814553042801605,"353":1.3141318477129276,"354":0.587974856646052,"355":2.4709866808216785,"356":-0.028514034778965126,"357":-1.1402043321893207,"358":4.304019769946603,"359":0.58989962409954,"360":-0.18969081618177128,"361":5.703962450762705,"362":1.052265065558287,"363":-0.42414213305582943,"364":-0.09178184415879558,"365":1.4992570326072587,"366":-5.14571163156549,"367":2.695960910051581,"368":2.150983917381695,"369":1.8692258396301584,"370":-3.9062589739602296,"371":-0.44166028350532166,"372":-3.160513571068583,"373":0.011644627800347883,"374":-3.34276045702512,"375":0.575926990969844,"376":-0.8820671706748515,"377":-0.7013070627669011,"378":-0.10327289623302606,"379":-0.3647538531714523,"380":-1.8513312232281387,"381":1.6173589060236455,"382":-2.0164118280535286,"383":0.7623478665520821,"384":1.369986878433306,"385":1.3626676843781784,"386":0.3134014940583834,"387":3.4025481581730337,"388":0.5427975182738861,"389":0.3926473994963352,"390":-2.9342850992153666,"391":-1.5224179195464396,"392":-6.076843691138921,"393":-4.697544403088996,"394":2.153372251814175,"395":-0.8472442289020032,"396":-1.878295169800116,"397":-0.48366953827391646,"398":-0.6175652399233958,"399":3.340290242094925,"400":-0.41696371815963695,"401":0.39328534821358313,"402":-0.8211432455065177,"403":-1.6047591470422276,"404":-1.1661886149167413,"405":-1.2820954966145073,"406":1.969997217254346,"407":-3.917714413420989,"408":-1.7752571892750075,"409":0.14603617182067494,"410":-0.7386527232397095,"411":4.171445282952689,"412":0.7118793264322006,"413":-4.223652216032047,"414":0.045338052110794405,"415":-1.261128922728232,"416":1.9824909878113195,"417":2.5109147649693573,"418":-1.6410568633222722,"419":-0.3814172555281182,"420":-0.21677896646146716,"421":2.3201865144186584,"422":2.5410188128662976,"423":1.9355340143577324,"424":-1.5074799422842162,"425":-0.6801691497822365,"426":0.6567434029044601,"427":-0.5632386285062777,"428":-2.2595514620493975,"429":3.675087164397721,"430":-2.594098853225572,"431":0.1365316683011314,"432":1.0849137853726274,"433":2.6467510012931417,"434":-1.83791846506504,"435":-0.6652294363910767,"436":6.236521935066426,"437":-0.5168875191084298,"438":-0.5778100408705643,"439":-0.3212440004455196,"440":-1.8393150327594878,"441":2.0070160368866805,"442":-1.8906863284835502,"443":-1.815508726563285,"444":-1.843505401956973,"445":-0.9363061767815395,"446":-1.1053617631874806,"447":-1.9355695624991807,"448":1.8397640881365522,"449":-0.6691533532738777,"450":-1.2304950403338237,"451":2.24703767232514,"452":-0.4711448289965053,"453":-3.369644874017572,"454":0.051510170264301554,"455":1.6202304403263772,"456":-0.9696718578278396,"457":-0.46267092454525693,"458":2.7140825586358837,"459":-0.7277274239495634,"460":-0.4729142686826495,"461":-1.7610227621634298,"462":0.6562625566414216,"463":0.20879550812750344,"464":-2.5684527127205423,"465":-0.29775423648924826,"466":3.4249819809869897,"467":1.7768260736763157,"468":1.144621934750028,"469":0.4401069807090999,"470":-0.6229941764131501,"471":1.210406867155335,"472":-1.020081946207899,"473":-1.5017634702698803,"474":0.07459849318940479,"475":1.8375265480495115,"476":-0.36333333470962387,"477":-0.11987458732867429,"478":-2.9029725199806493,"479":1.000548313930274}},"Wix0":{"n":20,"d":5,"w":{"0":1.9122332052952344,"1":-1.155544251929473,"2":1.8329295383545925,"3":2.738707153824198,"4":-2.434606405284189,"5":1.3850282264178508,"6":-3.0851463067066525,"7":-2.936820517980621,"8":5.2576634082282006,"9":2.1476939217521682,"10":-1.6276616239289756,"11":0.1223305819913424,"12":3.6272635898958066,"13":-4.628687658118877,"14":-6.290391951685672,"15":5.720872639095191,"16":1.9944557438736246,"17":1.300598564309355,"18":-1.7712501945669894,"19":0.07010015136437521,"20":1.5212656875829234,"21":-1.8600664462627745,"22":2.000209466511581,"23":0.18927421055720975,"24":9.989567468465296,"25":-2.6510681407446084,"26":-1.6691872876853755,"27":4.269063376950166,"28":1.3037608934311653,"29":-1.6046389193734527,"30":1.3863689211736314,"31":-1.848855163955278,"32":5.109602762312614,"33":1.4174466209764052,"34":3.61787615789637,"35":-0.7187900407708521,"36":0.19791647429536544,"37":0.42946704588156565,"38":1.6160275728227163,"39":-4.000993250600322,"40":-1.3484902208961083,"41":-1.1298229258990087,"42":2.014470434625617,"43":-0.6606287726088557,"44":2.1506471494894934,"45":-1.9486939139547477,"46":-0.5075360687047619,"47":-3.5866222428845282,"48":-0.9777876568611752,"49":-1.5377948687118737,"50":-0.6038414557479357,"51":2.656144012324724,"52":-2.337701549471109,"53":-5.728502954062668,"54":0.8935519423490931,"55":0.9093239730369764,"56":2.106156052363444,"57":-0.1880701598113268,"58":-4.276897272146981,"59":-1.3539729348681413,"60":-2.219357410620691,"61":-4.975553534483466,"62":-1.6977144456906557,"63":2.601287256447554,"64":-2.462444183882333,"65":0.8449135743869157,"66":0.6286537254481331,"67":-2.6977215357916866,"68":0.12043928776288493,"69":-1.7508640078306648,"70":-0.7111830258547946,"71":3.693843854147078,"72":0.45455265421559055,"73":-2.252528625851673,"74":-5.577968727513841,"75":-2.635025844692976,"76":-0.5705336791798641,"77":-2.142359996775063,"78":0.7037631436331537,"79":-2.6925664218438,"80":-1.7707201273016817,"81":-0.7972495844274736,"82":-0.4015660538471369,"83":4.122760373510038,"84":0.9310153872684409,"85":-6.0726705265985546,"86":-2.2323092920516157,"87":-1.2503008343180084,"88":2.9997201102660163,"89":-2.36822171911117,"90":2.20768912372979,"91":-1.845293364130521,"92":-0.17288056816508723,"93":1.875624743006267,"94":0.5618775769887154,"95":2.1431730379873715,"96":0.6331830143931689,"97":0.7256069152894354,"98":1.6233469997142023,"99":3.0555161750749074}},"Wih0":{"n":20,"d":20,"w":{"0":1.980941848581391,"1":-3.851290915358249,"2":-3.314889108686408,"3":2.5396558211924565,"4":8.767918121599006,"5":6.085962447940045,"6":10.18887066384857,"7":-1.9627422657358375,"8":-7.388018862071848,"9":3.461715028342963,"10":1.9453141167756924,"11":0.07953761653625263,"12":-4.978483566252875,"13":-1.6601347911228146,"14":2.1194063311728217,"15":1.4406097525450383,"16":-0.249656144608694,"17":4.023390725865994,"18":-5.5686865871366695,"19":3.217553290922654,"20":-0.07608201958472005,"21":-0.7077200737192169,"22":0.45655392448707105,"23":2.7352893442508184,"24":-1.0158337220062599,"25":-0.7610066453780309,"26":-3.1379137405133317,"27":-0.9600655296088647,"28":-1.5229231046266436,"29":-2.505262176531257,"30":-0.3423012865973225,"31":1.2787572750300455,"32":1.1935345141932174,"33":0.15177129738734918,"34":1.5368472294725402,"35":0.935591070666117,"36":4.671310286508396,"37":1.0398783614470772,"38":0.892991450035383,"39":-3.263291839650846,"40":-1.1669858004721765,"41":-0.9992760659034646,"42":0.8578398922776288,"43":-6.212456603629183,"44":-0.7995013008996971,"45":2.549058175570587,"46":1.3951127092097355,"47":-2.938903301066638,"48":-1.16954585909416,"49":1.2454429720070843,"50":0.8759525321061638,"51":3.4940692434043936,"52":-0.36710966138706147,"53":3.80911493051041,"54":1.225880283322378,"55":3.9400684074891803,"56":-0.9684334084752222,"57":-2.160585831948038,"58":-7.533929649177748,"59":-1.280998397949102,"60":-0.5791352057446719,"61":2.01588055196647,"62":0.05058954530644079,"63":-1.4654922215838053,"64":2.3808377811853627,"65":0.34305195723349274,"66":1.9699341514645683,"67":3.48201317404062,"68":-2.45726518609027,"69":3.2660725589322137,"70":1.4540379220682624,"71":0.0021643447630711092,"72":1.0019971558168839,"73":3.4571193709140253,"74":1.8129939684409802,"75":-2.8021577057463736,"76":0.8773816683119341,"77":1.0544823138588495,"78":-0.5065588199687558,"79":-0.6458428354305629,"80":-4.3842529123799485,"81":-2.4687347175199776,"82":-0.2542289031743315,"83":-3.7156575538560612,"84":1.1902055666986415,"85":3.5133999992821536,"86":0.8080552147685137,"87":-1.0147648560446856,"88":-1.7971123662221808,"89":0.02709672267581422,"90":1.8735129915545496,"91":2.454376767652808,"92":0.9624626895692211,"93":1.0784748677434228,"94":-2.735153776317189,"95":-1.2739746662741516,"96":-4.447378626670356,"97":0.7805698597763512,"98":5.095089820968791,"99":-0.5845755469605532,"100":-1.825104706844763,"101":-0.0714887274698087,"102":1.9721170601381437,"103":-3.588175728014983,"104":-0.8750067662002647,"105":7.5269286931545665,"106":0.7949136170859201,"107":1.8637048275652566,"108":3.3855640603346577,"109":2.1926729064981,"110":2.7576350342011717,"111":0.5788485788732621,"112":3.632701875253112,"113":-4.713396326695635,"114":-2.274522181841176,"115":-3.69514513931839,"116":0.45209039734676404,"117":-1.8066433676789126,"118":0.7582047549435995,"119":0.9770599726330015,"120":3.6009287315880996,"121":1.0863318600443692,"122":-2.3016852556615883,"123":-0.39825693481806196,"124":0.2712704607457421,"125":-2.1227894509659913,"126":-1.2779151332196577,"127":1.6071404571789307,"128":-7.881273107355066,"129":-2.022457666954679,"130":6.118454514365156,"131":3.380899122538464,"132":-0.32340541151018554,"133":6.554376264988771,"134":-1.7682747237721166,"135":0.4854539553598093,"136":-0.3081629689103257,"137":-1.5132919270697207,"138":-2.2997067760319263,"139":-1.784627555926699,"140":7.458766552593027,"141":-4.025715287406634,"142":1.7384239977962261,"143":-0.3820113132575279,"144":-3.6271238851934386,"145":-8.470213929660192,"146":-5.243972507279087,"147":1.4039173001986425,"148":4.15651077970093,"149":-1.756782433764163,"150":-0.6559156373182162,"151":0.7154882770413369,"152":-0.07556092853161532,"153":-0.2532801019037975,"154":2.1659387532416625,"155":-0.4911514598176648,"156":0.6556854241310637,"157":0.523521480703979,"158":4.813371976768283,"159":-14.685611836526194,"160":0.023632312199451107,"161":2.352162952738819,"162":-6.0374401649605,"163":-1.687723929810484,"164":2.045899951452391,"165":2.875998453377356,"166":1.1716301469797825,"167":-0.253369681192869,"168":-1.0861431284079246,"169":-0.7586037480572666,"170":2.0731167593741606,"171":2.6380926412638637,"172":-5.157084266673115,"173":-0.4643812689387763,"174":2.794498390790351,"175":4.86228680726726,"176":-4.790575797515192,"177":-3.2047752870999977,"178":2.0403364078798214,"179":4.190926097790396,"180":0.8587470524896982,"181":-0.2898618923451964,"182":-3.991588272018483,"183":0.6212525589476487,"184":0.23939662232385342,"185":-1.4623824951179365,"186":-0.4168565925572835,"187":3.146309106449108,"188":2.7757408457528,"189":-2.468818151045274,"190":-4.009350443318273,"191":-0.20364977820159802,"192":-0.27387469748242294,"193":-2.9353489052596466,"194":0.9686309594757593,"195":-2.277831749841706,"196":0.89479576932987,"197":1.415192369941721,"198":-3.4812648168859814,"199":-0.5084819204461835,"200":-1.840245589569084,"201":0.29757986778772244,"202":1.1192757186470312,"203":-0.46939212359517984,"204":4.554338868554977,"205":1.861411147668862,"206":1.769091423308419,"207":0.7103497429900614,"208":-3.4485544802062766,"209":0.42352718926681726,"210":-5.958302638684042,"211":-1.1354393588838894,"212":-2.1927953666506714,"213":4.666746814683023,"214":0.2777375363123165,"215":-2.769023384344155,"216":0.13878222987540614,"217":6.531159102150351,"218":0.8453401869707111,"219":-1.9669121587046365,"220":-0.42166959859836817,"221":0.6783132905675011,"222":3.9526087093380666,"223":1.7376932358306874,"224":-1.3589795351297311,"225":3.0248925304450807,"226":2.2880917709378763,"227":2.1804954873404867,"228":-2.4343454481969165,"229":-2.2505537079497397,"230":3.5382350749647316,"231":-0.6619416487395638,"232":-2.853237054922797,"233":0.39974487134422915,"234":-2.231605995065545,"235":-0.2217259593490349,"236":1.3670093435507122,"237":-1.436574110390285,"238":2.853005084105461,"239":-0.6813510344052541,"240":-4.487380091850927,"241":-0.8627117398163775,"242":1.1730245927991538,"243":-9.94943044917635,"244":1.5422816466848546,"245":-0.5860294116049124,"246":-1.4508458515333131,"247":2.390645981575005,"248":2.582688132753349,"249":0.46592950444009745,"250":-2.872325638057945,"251":-3.29275635934307,"252":-2.261016979394354,"253":-1.3710534950953357,"254":-3.8586177713949104,"255":-1.6470471601194938,"256":3.856009136922181,"257":-2.3072175555537067,"258":-0.9861664797277339,"259":5.45021330209583,"260":-2.7496992322049967,"261":3.495837074133304,"262":1.4334973822614325,"263":5.072513952549818,"264":3.978796678352055,"265":2.8266125271200524,"266":-0.7822438150479905,"267":1.5151998310655268,"268":-5.268926281679394,"269":1.8499243457896204,"270":-4.9698041087063345,"271":-1.5653126509504984,"272":1.527026781011494,"273":3.6576078985898457,"274":1.5266659438179802,"275":2.2770660792993764,"276":-0.4951043469088403,"277":2.8766338309717576,"278":2.938801585537054,"279":-2.233900455438995,"280":2.0167469947033583,"281":3.5289986004228555,"282":-3.536422624714162,"283":-1.1357026485997312,"284":-1.7562085538233185,"285":1.4382957339687095,"286":4.085857483025925,"287":0.3990492648233523,"288":-3.2989501714243117,"289":5.797959461144775,"290":3.074235248021162,"291":2.2770992149670315,"292":0.7448147589883184,"293":-0.9298988526424987,"294":-2.681167902121872,"295":0.9921477394887634,"296":0.6745190613317122,"297":1.6336789824792253,"298":0.41382666103917193,"299":2.605585745411272,"300":9.333165974468631,"301":-1.3572777721863498,"302":-1.2257559310708999,"303":6.769944010710286,"304":-5.070896152056724,"305":-2.0514374513125286,"306":-3.6997122531786895,"307":0.7721455290589355,"308":2.0632293570671747,"309":7.512896861096968,"310":2.146129530754171,"311":1.7537744916353668,"312":5.522338980981841,"313":-5.486480694725376,"314":-5.724763317434501,"315":-2.189331546207579,"316":3.2327269688153466,"317":4.712847961212339,"318":-3.9759246025946116,"319":-1.295402840086359,"320":1.4979014461979492,"321":0.16057029888160956,"322":2.563553359318494,"323":-0.9461813608348173,"324":3.2366353671858623,"325":0.8952225168532316,"326":-1.1642633193337957,"327":0.39929773925825096,"328":-10.233157286901537,"329":2.138426253742997,"330":6.143142423041852,"331":-0.5141325837857718,"332":0.15733191790009488,"333":-1.0937012964848112,"334":-1.519209916041328,"335":-1.4513996188283007,"336":-4.163594283967048,"337":0.9143128635322495,"338":-0.7097640014792429,"339":0.6007341877618403,"340":6.682475923665688,"341":-2.4855598187698975,"342":-0.03808364353261684,"343":2.8965265243898575,"344":-8.187944427116959,"345":0.7775775591180251,"346":-6.003132459211287,"347":-0.8637187141667227,"348":2.07479483697956,"349":-0.1289925079375243,"350":-0.2980101372809965,"351":0.4125174234005986,"352":1.7713624508501207,"353":0.4263852470866063,"354":-1.465696923454485,"355":0.5628983210158114,"356":0.596996590637049,"357":0.010163343304819751,"358":-5.64421299605485,"359":-1.9210521589438476,"360":-1.2849715699386426,"361":-1.8655330458933952,"362":1.9940885138868991,"363":-1.0220043515637571,"364":-2.3001196916187774,"365":-0.2916563108205634,"366":-1.0688673450011383,"367":4.666860844952148,"368":4.308610577089394,"369":-1.078575743053485,"370":0.12832590995396947,"371":1.0096862661826769,"372":4.062538858257292,"373":0.23210599098901272,"374":1.6396763932516532,"375":-0.6585593325989813,"376":1.3031420286654722,"377":3.6364295179284354,"378":-2.2322168910154274,"379":-3.792439873891548,"380":-5.430741769803713,"381":1.1391740154654666,"382":-4.280770304056299,"383":-7.989494022252232,"384":7.5151327477228484,"385":-0.6681466282622206,"386":0.649056549369622,"387":5.388291341623125,"388":-4.437574584006207,"389":5.294552853908839,"390":2.7601356359310754,"391":-0.3783855066247734,"392":-6.272649092189138,"393":4.340371342846799,"394":2.6101033511313263,"395":-0.8502497957964771,"396":-0.16473107251408517,"397":3.8382893809372,"398":6.0054975065247715,"399":4.364143878213046}},"bi0":{"n":20,"d":1,"w":{"0":4.297802463976885,"1":-3.167144497925283,"2":0.7353802490306673,"3":1.4470672108013185,"4":2.414725713210306,"5":0.6436368781594833,"6":5.226274484157662,"7":-3.0276556296218895,"8":4.111298698246525,"9":-1.8205514819015485,"10":0.5468684813016366,"11":2.4257503991149063,"12":-4.164026538741233,"13":-2.1550321163157373,"14":0.005508515645254335,"15":-0.24624971189946285,"16":5.305343519894331,"17":-2.5142914416259634,"18":-0.17453122966260645,"19":0.11235237527731914}},"Wfx0":{"n":20,"d":5,"w":{"0":-0.24192168880882084,"1":0.6871102454987056,"2":0.897800814463983,"3":-0.3120789601987503,"4":-2.8825856741354228,"5":-0.5152418323978463,"6":0.9260185133626435,"7":0.7753908223445006,"8":2.514834520403765,"9":-2.1015883283428147,"10":-1.9595434859377414,"11":1.4503264096144939,"12":-0.07092324051428955,"13":1.3623535125506756,"14":-1.9873907722632402,"15":-6.324978685021766,"16":-1.871684319614547,"17":-2.145428873617007,"18":-2.6532760868612106,"19":-4.952408614534397,"20":-0.32316773069269616,"21":0.9689286501194239,"22":2.1352784974138137,"23":0.06749456031353743,"24":-1.5005440615380654,"25":-0.8669957977677151,"26":2.815371405511776,"27":0.6633897775377195,"28":-4.373686527149137,"29":0.1811521107432081,"30":0.5059778945103208,"31":-2.158537485135493,"32":0.7480817197030162,"33":-1.3055494740860594,"34":5.242753238891899,"35":2.9430506764086695,"36":-0.26217613012837804,"37":4.335498664693314,"38":0.9130507648330248,"39":-1.6867291891096186,"40":0.4623038309927167,"41":0.2673234985180938,"42":0.1678416575193485,"43":0.01639151684402225,"44":3.2331912680506534,"45":-0.7090111830347781,"46":-4.921008786292191,"47":-3.8563410940439846,"48":0.4033267005821194,"49":-3.6125786235336568,"50":-1.5207198302125782,"51":3.752553945023927,"52":-0.2700955846843501,"53":-2.2920366898535374,"54":-3.7472952798515413,"55":-1.2326034764238998,"56":1.47463233675058,"57":-1.5206660719040788,"58":-1.2045094709861701,"59":-2.8715689861965514,"60":1.7116282627511794,"61":-0.040039259777425965,"62":1.7733422736498503,"63":1.2263656068036823,"64":3.2951145422371835,"65":1.4242920258324128,"66":0.10210706217720525,"67":-3.84156148904716,"68":-1.402473653169513,"69":-1.8350865289413312,"70":0.22427291820774428,"71":-3.5572292775330103,"72":2.1126903308984315,"73":-1.8933515508963743,"74":-2.7341881098633327,"75":3.4014653207907597,"76":-0.2296902954966327,"77":-0.9638049825207698,"78":0.2140919133283752,"79":0.7873278184275498,"80":-3.610927231565532,"81":1.2416128466523524,"82":-1.0562004557349975,"83":-2.8999181890693846,"84":0.1520436407033417,"85":-4.268080157107613,"86":-1.537494990620295,"87":2.3592723983207473,"88":2.147240407596049,"89":-2.2425260516066303,"90":-1.1472380839166267,"91":-0.5839470628583378,"92":-1.2048924598668662,"93":-2.0709203892964623,"94":1.0933805398846725,"95":3.3316885403019114,"96":-2.7966608010087532,"97":2.7588705469225703,"98":-4.0105023613777355,"99":2.1401517006474973}},"Wfh0":{"n":20,"d":20,"w":{"0":7.110693170530542,"1":-5.378660373954978,"2":2.273843909110544,"3":8.184079660158282,"4":-3.7503908690523726,"5":-10.310980010625421,"6":-6.963197359690218,"7":-0.07647254903270788,"8":3.965480837358793,"9":5.141093582242472,"10":3.8791012932680844,"11":1.2461098010163512,"12":4.489488718951051,"13":-11.426013701411527,"14":2.873261957461881,"15":1.2333616784607782,"16":7.787366465233496,"17":2.8551755155082654,"18":-9.163931587602582,"19":-5.809016261042538,"20":4.846077961045628,"21":-1.4026410963127007,"22":-5.134091934325009,"23":8.011199691221254,"24":-1.327308071531194,"25":-9.115101971707263,"26":-0.4449528553162702,"27":-1.594228083781525,"28":1.85876386478673,"29":-0.7217028974078481,"30":0.22872486077314969,"31":-3.454692517321714,"32":2.48135277428686,"33":1.2640276473782708,"34":-0.21355516112659792,"35":-4.12320295299361,"36":2.240445430346867,"37":-3.0407667612347704,"38":-1.1306096697964518,"39":-1.7443130309670867,"40":-0.36083619983892573,"41":5.042732236075793,"42":3.3444975137874193,"43":-5.924861290787707,"44":1.4298580138165797,"45":-1.981640827511695,"46":-1.359381112023568,"47":2.3182448913377374,"48":1.8535777515815957,"49":-0.682430714231283,"50":-2.8307181784979134,"51":-2.915740476663706,"52":-7.290630150003625,"53":-5.157377904360605,"54":3.3408638033517706,"55":-4.363067589949657,"56":3.1267133576076285,"57":7.078263665786533,"58":-1.0798682334934846,"59":0.3546114267700304,"60":-1.0057297404253125,"61":0.21807560358528308,"62":4.535254829859868,"63":5.7248421274948464,"64":1.1207453688118971,"65":-0.6923978045224326,"66":1.4430839850278665,"67":-1.0559045095412374,"68":1.3342329198497198,"69":-0.6968365449908784,"70":0.06760347339276516,"71":-5.40564334341654,"72":-0.7661552565085276,"73":4.250603856728,"74":1.5341632666390526,"75":-1.7575081368011662,"76":1.971703310115048,"77":-1.86410830443567,"78":-0.6619673433282894,"79":-1.7742616863072145,"80":-3.028511882455931,"81":3.1065756401657407,"82":1.802382939415564,"83":-2.807281895841993,"84":5.719561834285584,"85":4.476945479603053,"86":8.419027170482183,"87":-1.2359030832089606,"88":-0.2433585956472992,"89":-4.273925775951537,"90":0.7507708792506583,"91":0.37816125159611835,"92":-5.16784291249359,"93":-1.9166988561776466,"94":-6.3496665476714895,"95":-0.03697960592524641,"96":-5.720420143078987,"97":-2.9039862288706177,"98":1.347827134925264,"99":5.771619212507467,"100":-1.0324945425120362,"101":0.02644718304186717,"102":-1.693706385930801,"103":-4.654398528587463,"104":-0.4979904028499511,"105":7.654482615166898,"106":1.1378132210717806,"107":-0.3328489346940385,"108":0.5924622439759629,"109":4.205181476557762,"110":0.41066782184247846,"111":-2.1504462936063025,"112":4.804466332811033,"113":-10.809477262096243,"114":-1.0383554817920821,"115":-0.3662213740102324,"116":-5.980932030440228,"117":-2.700057090645694,"118":-1.8698617352086084,"119":1.9290186625332673,"120":2.1808247707899526,"121":3.570031782910089,"122":-4.969905443610547,"123":4.160264368990017,"124":4.749630824074482,"125":2.3978468593625433,"126":5.586539595185393,"127":-0.5231970786294825,"128":-2.204154549187559,"129":3.0700149560085364,"130":5.88691201649491,"131":2.1684583153438832,"132":3.2975091742859792,"133":5.050954171603327,"134":2.4444537507767654,"135":-3.04770153698866,"136":-1.967662637605067,"137":2.4044827924970713,"138":-5.614456373449721,"139":0.3268615484016541,"140":0.8766537098037295,"141":-1.2492721813988183,"142":3.277108785777676,"143":3.1741817921032776,"144":-2.5642885231555645,"145":-2.6513665520231404,"146":-1.7463058690529136,"147":-0.8736189905841881,"148":4.276928142871389,"149":-2.050345938869425,"150":-0.127661815683251,"151":0.0447440920710973,"152":2.1739600019281466,"153":-2.7352267996655697,"154":1.6446185239791549,"155":-3.2302456365912064,"156":3.64034850720422,"157":4.554490445895491,"158":2.6395290591113896,"159":-4.482679692088494,"160":-2.952636024444306,"161":0.8389888160109147,"162":-3.0242846218873085,"163":-1.6189886062668608,"164":0.2829518992285272,"165":3.5050959223475155,"166":3.3104286279260045,"167":0.7673421357648161,"168":-3.116652026292371,"169":3.52341324055724,"170":1.513434013855929,"171":3.9641930223417843,"172":1.4856479785013934,"173":1.2790049698453214,"174":-0.21332623004732873,"175":6.228660527770792,"176":-4.010139912209732,"177":-2.7712226357845213,"178":1.740149189939731,"179":8.865198847705079,"180":1.167428247573792,"181":-1.7074040899025051,"182":1.898289844396492,"183":-2.125186092776065,"184":0.33389117060243567,"185":3.027651857575965,"186":3.6400783263992715,"187":3.2354985719760845,"188":1.8428499945137131,"189":-1.3901390189818215,"190":-2.038005873775818,"191":-2.6655380234551873,"192":2.376705108501006,"193":-3.3097352483323856,"194":-0.09869645008726628,"195":2.6179565835569205,"196":0.9274558052675038,"197":-0.6283188724903502,"198":1.4028796886213895,"199":-3.8081216206281066,"200":1.1628002855267068,"201":-4.030753264056082,"202":-2.325371343684802,"203":3.363335220121623,"204":3.8961190626249946,"205":1.337694491172389,"206":-1.6266550950097933,"207":-4.824266479593601,"208":-0.08242112985460459,"209":3.896537251709196,"210":3.9250334171558205,"211":-0.9102303295530265,"212":-1.1822144358990423,"213":0.44415926796938665,"214":-9.437414343394158,"215":2.0590137228352097,"216":-3.615500276764456,"217":-2.2320190494408183,"218":-6.366677152929456,"219":9.59273854107716,"220":1.2253230052443873,"221":9.49876463573975,"222":-0.5283892780556341,"223":-5.041790385193249,"224":-1.2830266114890048,"225":-0.14525421055644436,"226":-1.8863287149050743,"227":2.691005059349059,"228":-1.7695799205577807,"229":3.4647606643642836,"230":2.8586725834802693,"231":10.175949292774524,"232":-1.494201212166993,"233":-2.0143651279936314,"234":-3.904712223348251,"235":0.9423937107407968,"236":0.4402408626000107,"237":0.1684944914995625,"238":0.8811030339952851,"239":-2.2330351679361113,"240":1.883267901414393,"241":-2.574500753401883,"242":-0.5194662062000609,"243":-3.18088944194888,"244":2.193604159852853,"245":-6.694726014636035,"246":-3.625705702521412,"247":-2.046851859597899,"248":1.1059869041756036,"249":5.812140350497239,"250":-0.8943922444526025,"251":-3.769359390787876,"252":1.244458134275914,"253":-1.3163294183581782,"254":3.201784137939035,"255":-1.2323778433081487,"256":6.370542134850019,"257":3.043269720364774,"258":-3.374844831317129,"259":-1.2870853748486992,"260":-1.7085646216828343,"261":-3.7970175480997352,"262":-1.4154406566696949,"263":-2.971339068198404,"264":2.4674963051752745,"265":5.895033880083897,"266":-3.4852159162568936,"267":-4.072345032703378,"268":-6.886169476583178,"269":4.4073662361426535,"270":0.375911954108846,"271":1.3042939457008487,"272":1.369790903933742,"273":-6.033844481844453,"274":2.138941619440697,"275":-3.5548466069816116,"276":5.08234762123082,"277":3.0202525005232785,"278":3.4882450138525494,"279":-1.820666328826113,"280":-2.03850640933751,"281":-4.064647546516076,"282":0.5515292045097486,"283":-5.860435162592907,"284":-1.0630385587941071,"285":-1.1893300019224706,"286":-1.9583937368853235,"287":-3.7215774650108955,"288":6.181080728910434,"289":1.9406274374236536,"290":-0.11803219524822556,"291":4.33156168769672,"292":2.8686491622178014,"293":-0.5084519863962464,"294":-3.5461738503040956,"295":5.442441795585611,"296":-0.13537955040166585,"297":-0.6947450879188828,"298":1.9702923529212184,"299":-2.425991120072408,"300":0.9039120239938021,"301":-5.520763737001514,"302":7.882580550671149,"303":0.6959760609656791,"304":0.587387322601463,"305":-6.080236639523696,"306":-0.945754916174593,"307":-0.2301631813263705,"308":-3.0195409963214157,"309":-4.381814348743806,"310":-1.0269694766028525,"311":-1.3540853762874123,"312":3.1277783715873935,"313":5.261474435550791,"314":0.8606716864127575,"315":-0.6564848283627831,"316":-0.611113086094263,"317":2.4648083064972806,"318":0.7069824994562517,"319":-7.82598415672875,"320":4.421368461441801,"321":0.4317857758482106,"322":0.13914365543367938,"323":-1.768111966889786,"324":3.522902354931902,"325":1.0375038708368898,"326":-3.928663695403143,"327":0.13679459581688275,"328":-0.0003951693096587378,"329":0.8200667890107706,"330":0.7542235235859669,"331":4.132423868430995,"332":-6.199442568294683,"333":-8.55069590361578,"334":-0.3953973139769381,"335":-4.719976570577758,"336":-0.2485986829979116,"337":-0.16389415021835024,"338":-2.3615205399261363,"339":5.704435471749582,"340":2.017938510572741,"341":0.17846348180165666,"342":0.9501673403225992,"343":1.4227321227720549,"344":0.03023032821386987,"345":-6.059657025166188,"346":-3.66227014756969,"347":7.730794149215468,"348":-1.069833811975177,"349":-0.42005203540531033,"350":-0.08657811351922845,"351":-4.653545946786317,"352":1.3741441123334879,"353":0.9400739382537086,"354":4.34532565014106,"355":-1.423578958721916,"356":6.522369137818674,"357":1.1951238807360125,"358":-0.10326143149422883,"359":-6.590315481202468,"360":1.8513098198118574,"361":-0.3406799542914705,"362":-4.907252495879026,"363":-1.21594447701975,"364":-1.275172461796196,"365":-3.2925473888859575,"366":-3.741543888046218,"367":-4.983029260723154,"368":2.0088940740906978,"369":2.7818542050868986,"370":1.2641203094527727,"371":-1.2850716879275987,"372":3.6063609183623253,"373":-3.348384958928784,"374":2.1223386819000765,"375":-3.3403536652323282,"376":0.6038413745953378,"377":9.36837623505532,"378":-0.31885528259087015,"379":-3.561163553200051,"380":3.4210206848695153,"381":-5.816072692806542,"382":0.4290240255736019,"383":0.2754136124991693,"384":-4.509579867369771,"385":2.3594784286988193,"386":-2.262036574443,"387":-7.925720687405981,"388":2.608099129007418,"389":-3.4716823691757237,"390":-0.09437136433426442,"391":-4.610548103107106,"392":0.5942604433795312,"393":-2.1117565372164413,"394":0.20084165164375617,"395":-7.48539504398949,"396":-0.4065112293636476,"397":6.192858335971408,"398":2.8302050365778393,"399":-4.185063056982777}},"bf0":{"n":20,"d":1,"w":{"0":-2.1116081270439504,"1":0.38849051332152884,"2":-4.03613397556738,"3":-0.6427054095192594,"4":0.692137385373785,"5":0.325861069263355,"6":0.37774868488330055,"7":-1.7826478177804508,"8":2.5411603715503213,"9":-3.9581957504811114,"10":3.0749374275765966,"11":0.18849936060899655,"12":-1.7202760166159439,"13":-1.4415637467948061,"14":0.17309286039969057,"15":-0.7106787162453547,"16":-2.5379964543271196,"17":-3.259838819306007,"18":-0.4485286338835257,"19":-2.472458994411352}},"Wox0":{"n":20,"d":5,"w":{"0":4.605852520062776,"1":-3.3063602140591217,"2":3.706755594016531,"3":0.15947247926181565,"4":2.1978245360416064,"5":-1.6411269535559467,"6":-5.058916035264747,"7":-1.2805810778682567,"8":2.8227483972031484,"9":0.7984389547449788,"10":-4.1070403260309405,"11":1.0241809447624846,"12":-0.31636378246768343,"13":-1.1048883075219011,"14":-5.964861617709392,"15":6.039475511650882,"16":-6.255620407198557,"17":0.6860649015439394,"18":0.4552653551986325,"19":1.9194097127029546,"20":-0.40561227015294504,"21":-4.9371101898758605,"22":-0.19778901318154332,"23":1.222666299970961,"24":5.018039389965076,"25":2.234253412779173,"26":-1.4429138093850604,"27":2.5130285634970337,"28":0.07755847272543662,"29":5.315178819982295,"30":9.732171714654584,"31":-3.7612719946341198,"32":1.5904325525983245,"33":-0.09085028473251923,"34":12.582080382891014,"35":-2.5400546146051908,"36":-1.6206690013631564,"37":-0.5017272900724274,"38":0.6101514700410742,"39":-3.5200125889883567,"40":0.7004836571965936,"41":-1.772282311206402,"42":-3.423603255016725,"43":0.30851805179443226,"44":4.88070568911698,"45":-6.645680313494628,"46":0.6571063204399665,"47":-1.7639993918836885,"48":-2.1959568588339824,"49":-3.302214943806587,"50":0.48371102645507874,"51":0.9277696909821901,"52":-0.6682278474458879,"53":-4.719862636008689,"54":-3.169913139573604,"55":2.8272985964011577,"56":5.405991233150431,"57":3.610381390249111,"58":-4.342878767214111,"59":-4.008437302839259,"60":0.0965403622671854,"61":-1.8763060744119349,"62":0.18841993842958576,"63":0.6750234688970513,"64":-3.8496462810985994,"65":3.8498683122948187,"66":-1.231255342269008,"67":-0.41782138262185303,"68":-0.15653032085906843,"69":4.770536005738893,"70":-3.5104401070496984,"71":-1.5105496523815727,"72":-0.06513992115969089,"73":3.571478511041367,"74":-6.110422604160603,"75":-1.9474651947098853,"76":-2.0563051710079643,"77":-3.111584634790021,"78":0.15271035455983567,"79":-3.5182758790064157,"80":3.0637096298345967,"81":0.23284916432370062,"82":3.733250513953105,"83":-1.7553985572715685,"84":5.949499899055866,"85":-0.8346106783102797,"86":0.38786764888417435,"87":0.03059132428065086,"88":1.0276906293263364,"89":-2.892152158999095,"90":3.779714710992398,"91":-2.3497650337782425,"92":-0.1905431156671425,"93":2.572620978815034,"94":1.5853828310480624,"95":5.288932140930694,"96":0.6025221275050325,"97":2.126269482940701,"98":0.2891150029349563,"99":2.1723138854877746}},"Woh0":{"n":20,"d":20,"w":{"0":2.863996887821395,"1":-0.776544401004784,"2":-0.053985381434477675,"3":-4.771681050639567,"4":0.262283753394675,"5":-5.9234161941641394,"6":-4.053766872553499,"7":-0.9700846633439205,"8":-2.2810923700315087,"9":4.854502019678789,"10":-5.3973747682041395,"11":-1.6500026263316685,"12":0.6749304518922973,"13":-1.6382124398622924,"14":-0.4440979567079111,"15":2.865497035989624,"16":0.9355010495842107,"17":-2.815339843784251,"18":-2.0238938659674344,"19":-2.737130996760571,"20":1.9804953818863382,"21":-0.07280497110922535,"22":0.9611402022180393,"23":-1.259246943653653,"24":-1.1794069766154376,"25":-2.9639234208791136,"26":-2.4867153446334958,"27":-7.039765898077352,"28":0.37483610529123906,"29":-2.3785097919704126,"30":0.9346084197787028,"31":-1.5329204943751926,"32":-5.42641544343863,"33":-0.1217125694339195,"34":1.5903525703283328,"35":5.0614217789057045,"36":1.0310647954616732,"37":-2.7421872501348017,"38":0.9068367794194024,"39":0.8103365545337945,"40":6.615561139143552,"41":-1.8463086368877035,"42":-0.10922383474134656,"43":-6.543882454766491,"44":3.1330100572371253,"45":2.8553255392044345,"46":3.9234397369579472,"47":-8.026485223035372,"48":-2.813292541408503,"49":-3.77927071610586,"50":-0.5841250624269023,"51":3.1723789768782398,"52":-5.322485822810894,"53":-3.883825041607476,"54":1.3902258298554975,"55":4.650513961664268,"56":0.8676282333019857,"57":-2.0394570145915742,"58":-3.76395512385372,"59":3.0753707637196617,"60":-1.564095324324309,"61":1.7208299675735519,"62":5.194972409509817,"63":3.079996311440339,"64":1.0611218859416023,"65":0.16506681140573357,"66":-1.6262799132375259,"67":-1.966786478175235,"68":1.0507548232144106,"69":0.3122027068563984,"70":-1.998170301965641,"71":0.8090309577673579,"72":2.5268155897613878,"73":-0.25685716684753107,"74":-0.7002262521011209,"75":-1.8301460062982409,"76":0.40304181050518234,"77":-7.024188571435926,"78":-2.059577736815686,"79":3.8566955613213936,"80":5.369141974692557,"81":-3.459433352152947,"82":0.18465436288806608,"83":2.5199883266098957,"84":-4.630987765535774,"85":-7.582345897526447,"86":-5.3267029093428775,"87":-4.759526675921662,"88":1.9008365513194867,"89":2.594731099367798,"90":-2.538296670971733,"91":-1.520780990523181,"92":0.9555988252931437,"93":-2.3696472221840628,"94":0.39273752858229816,"95":1.0896842821981447,"96":1.2335161274330568,"97":-0.29961526304414554,"98":1.875836417115456,"99":-1.6761659547383716,"100":2.216488412165745,"101":-6.066878607356034,"102":2.8731991001180845,"103":0.21150571968988457,"104":0.22153433973898784,"105":1.9052678861325403,"106":0.21262349967387514,"107":-0.6977141622301954,"108":1.7588048263795968,"109":0.5276404632698671,"110":-0.0019838251901822083,"111":2.281605224432616,"112":-4.409982126948008,"113":-1.2182391932826202,"114":0.2706800549900675,"115":-2.054417165192093,"116":-0.2644593293613958,"117":0.3385000119552027,"118":-0.3694192148780777,"119":-0.20857968598679075,"120":0.31357828973990787,"121":-0.9953622998779112,"122":0.06486993307872187,"123":-1.6030430299803355,"124":-0.33465562285927175,"125":0.2781468208901652,"126":0.07060001925463044,"127":0.20257630282713132,"128":0.6480251991486617,"129":0.8697532321575332,"130":0.662697965015938,"131":0.7144438988192959,"132":0.5175103362548666,"133":0.3453558948398889,"134":-1.2903909174448476,"135":0.41100463679539034,"136":0.022677228604905897,"137":1.1067685600970074,"138":-0.631586395592988,"139":-0.014350708081494225,"140":3.7823426005596676,"141":-0.06360442082245384,"142":5.752102316926863,"143":0.17853476097880638,"144":1.4889144219414752,"145":4.244711623930739,"146":-2.5711824721266394,"147":3.783857758356568,"148":2.8097514102831775,"149":2.3954409175225466,"150":-4.039271391815404,"151":-2.7960966521904256,"152":7.901770538201789,"153":0.9195903277754072,"154":3.886393759155527,"155":1.504306421115605,"156":-6.783413587363869,"157":1.3817344882188516,"158":2.606421727523633,"159":-2.5805505914389473,"160":2.668869929001195,"161":1.3088508686974594,"162":0.14966725257708494,"163":-3.561413256635437,"164":-2.7448429633581406,"165":-1.0626017640756094,"166":-3.200321567272964,"167":-0.9559167575436777,"168":1.5373607160432683,"169":-1.562845885446995,"170":0.03542965479643703,"171":0.9434418656146868,"172":-0.17883227807121296,"173":-0.9350789039368429,"174":-0.006933522285438867,"175":-0.43022280655611017,"176":0.94254161440069,"177":-1.6892602841832791,"178":-5.286779519635089,"179":-1.6752855755911775,"180":5.28117991301152,"181":-2.7372426473462017,"182":0.7319423803054321,"183":-1.9665705839450554,"184":-2.709367206255932,"185":0.6159916337532165,"186":-2.4737461329908754,"187":-1.850650012933809,"188":0.05027995007513954,"189":0.10210856602454103,"190":2.116914413644677,"191":0.4994403116516601,"192":-0.9621050216976098,"193":-3.321010751955614,"194":-2.3045364613380284,"195":-0.4392384897000864,"196":0.45159370080182576,"197":-1.1056736704949044,"198":2.5063712791554855,"199":1.161461428323551,"200":-5.935213617364489,"201":2.863443941062967,"202":-0.44759102429996933,"203":1.2143574490183586,"204":8.414274099779034,"205":-0.22443786083200973,"206":3.728637861375563,"207":-0.08481998255301534,"208":-5.597640476518705,"209":-3.054972890184223,"210":0.7966390157064459,"211":-0.8079927287790748,"212":2.894339898580352,"213":2.1976205619896434,"214":0.016609066506200677,"215":1.410200820391266,"216":-0.8097260523440298,"217":2.696703682472907,"218":-2.089423328720748,"219":-2.336816401762339,"220":-0.13530182637090835,"221":1.563925307874263,"222":-0.7253935863659408,"223":0.4948320882388404,"224":1.2876733925451551,"225":1.2223774237466531,"226":0.46001166984921926,"227":0.7436379428597621,"228":-1.4657001809647598,"229":-1.8611687386830087,"230":1.0487067699822723,"231":7.085506683263174,"232":-0.8357451727488414,"233":-1.3096892770182043,"234":-2.6238606727235565,"235":0.7561543717981053,"236":-3.8075784224007068,"237":-5.629141059054075,"238":-2.038541571465085,"239":-1.3009877998516557,"240":0.4621768219066316,"241":-4.021022224583366,"242":-0.38275675366075285,"243":-7.548782278984691,"244":-2.465166048604086,"245":-2.055684366794546,"246":-1.4010534494391762,"247":5.6143635483663905,"248":-0.9268693102031442,"249":1.3483536529576405,"250":2.010980789407191,"251":0.34618295984816494,"252":2.864296476431969,"253":1.7939469167791393,"254":2.4440408363536736,"255":0.9134942643997789,"256":2.329046279161737,"257":0.25552253531815255,"258":0.4806811357465247,"259":-3.925201333188501,"260":2.305600516309258,"261":0.8775116189960432,"262":-0.3002149626315593,"263":4.317399723553843,"264":-0.2471216646505351,"265":-0.9468230046565421,"266":0.6404218722914512,"267":2.5653740979596815,"268":1.4774200706269605,"269":-1.5480283839313531,"270":1.2950657500556355,"271":2.522569989139474,"272":0.45856191628954057,"273":3.170231073130337,"274":2.166999399633054,"275":-2.478109053204309,"276":2.7861348442856837,"277":-4.371088105772382,"278":-1.8749542446994005,"279":-1.7639976897007321,"280":4.237407627901476,"281":-5.729335684894008,"282":0.7814474614970917,"283":0.47641875593986704,"284":-3.914281545192317,"285":-2.949770970573392,"286":-7.1135121315483705,"287":3.071963859203577,"288":2.476631708338076,"289":-1.0976958211395544,"290":0.8270284592732364,"291":-1.4852858694644127,"292":1.4841260105994114,"293":-1.5929614313086142,"294":-2.1960467748724466,"295":1.372023954287974,"296":1.8843232320803478,"297":-3.12982987619807,"298":-3.7344295380708283,"299":-0.9678866363913525,"300":8.585781774173977,"301":-5.308521511677986,"302":0.1927186287981608,"303":0.553262883039206,"304":-5.686901235074971,"305":-4.23502871635081,"306":-9.867155877786178,"307":-3.2643771209202455,"308":-0.3769213891787081,"309":-2.071732764981499,"310":1.3293636924343433,"311":1.0777896579915665,"312":-0.8784385129541928,"313":1.2037691063023779,"314":0.6400903021236636,"315":-5.076752014349873,"316":-1.1801628562095072,"317":-0.1429895602152322,"318":6.567550706534289,"319":-0.8727698427589398,"320":-0.08801516220044896,"321":-4.3244702731074725,"322":-3.895607425025079,"323":-4.155486153208182,"324":-1.1601873194901622,"325":1.9642060098633713,"326":-2.1013953643650742,"327":-6.076849903676685,"328":-0.8687309605941981,"329":-2.612417877218892,"330":-1.7345896581605125,"331":0.17499260503647407,"332":-4.211824860244019,"333":4.988826183207714,"334":-1.4215029594388489,"335":1.3693208003065251,"336":0.7693173066645995,"337":-2.9002883452851886,"338":-5.3154155835844445,"339":-2.9164664000866765,"340":4.708257047790947,"341":-5.123346322720782,"342":-3.096944020316596,"343":0.9230930020172692,"344":-3.467758933915475,"345":0.16154094228237514,"346":-4.937676882395193,"347":-0.3587490314575763,"348":1.0390089202750141,"349":-1.3587628194834978,"350":1.137617899633097,"351":-2.1686139692652757,"352":1.3808416824559213,"353":-2.4884337004834625,"354":-3.5991616483343387,"355":3.8837529364635293,"356":-1.1266020415520581,"357":-2.581910389875229,"358":-0.6322399718674131,"359":-5.078702929050438,"360":-0.8045663517886915,"361":-4.561608931809577,"362":1.6466816714315469,"363":-6.129478249250226,"364":-6.124067413003757,"365":-0.5092328287640963,"366":-3.291025134452803,"367":5.660268498608346,"368":4.064323450126713,"369":-3.0153647589658084,"370":3.9718380839692893,"371":1.6253077308767143,"372":5.583084552219834,"373":0.86537362845687,"374":-0.6663198490499829,"375":6.934644265385525,"376":3.07428433813267,"377":-3.8142140533629334,"378":4.2718498294621,"379":-2.082185941465197,"380":5.8688406831059305,"381":1.6063400555747922,"382":4.747735897433811,"383":6.559209169701798,"384":-0.8596671472951687,"385":-1.7075579523765148,"386":1.6755000324460128,"387":0.9603085456220894,"388":-0.7545726425741,"389":-2.095018489788549,"390":-0.0434363261176431,"391":1.7671195702055276,"392":0.03498463775907578,"393":5.2104211033277466,"394":1.4285762531562989,"395":-2.1932542881487094,"396":0.2763279582924266,"397":-0.7169406972262807,"398":-2.1771412507357657,"399":-1.1565264518645388}},"bo0":{"n":20,"d":1,"w":{"0":-1.1351297645492333,"1":-1.36161677413317,"2":-1.3764830732703635,"3":-2.248947635989718,"4":-3.2685282174236696,"5":-1.8207829230715014,"6":1.6598349174816711,"7":-6.32931952139387,"8":-1.709049498712027,"9":-3.833995583908817,"10":3.7271603527043666,"11":0.8426907286266042,"12":-3.5718435089633447,"13":0.7648866730506902,"14":1.9640789092229185,"15":-0.5888188530985736,"16":1.1517592823314713,"17":0.10624842099629257,"18":1.0336170493452612,"19":0.7963971924145846}},"Wcx0":{"n":20,"d":5,"w":{"0":-1.3651978327859604,"1":0.05805702709847524,"2":1.438124152199535,"3":-0.4593756884089944,"4":0.2662734317976397,"5":1.380348054277954,"6":-2.1894810099184148,"7":0.9209979063461537,"8":-0.18683331016972687,"9":3.662560799520842,"10":3.327990587772619,"11":0.576565016270299,"12":0.2571455528908416,"13":0.6611329788122112,"14":1.6261053233740144,"15":-2.6576180163925622,"16":0.20464325637270178,"17":-1.694872034801286,"18":2.237774420563788,"19":0.11969486678400507,"20":1.751101552768662,"21":0.924546693597495,"22":0.6569442551448224,"23":2.110874403992082,"24":0.9295128864371823,"25":-0.18346283325230212,"26":-0.4691885171357382,"27":0.8760541767256809,"28":0.4111261995339235,"29":-0.7327999896468974,"30":-0.0969783571110997,"31":0.10585947099872872,"32":3.1330832148906693,"33":-0.7765104614137813,"34":-0.6226518887635446,"35":1.6268196121433403,"36":-0.9163875263421924,"37":0.9391807760052551,"38":1.2525552560592774,"39":-0.7777426072622574,"40":1.0374208182971056,"41":-0.5551254041096244,"42":-0.3024579877770259,"43":-0.500823109654967,"44":-0.17741139005867662,"45":-1.1866291356127485,"46":-0.21921883956163601,"47":-0.32807639537363786,"48":-3.0679977367096,"49":-0.3667396899408652,"50":1.1505910615768615,"51":0.5272116746864257,"52":-1.5872576256402868,"53":-3.422186475919872,"54":0.5789663583451623,"55":-0.8592836671380639,"56":1.46466175621144,"57":-4.198070186326885,"58":-1.3858729389767879,"59":-0.6647830014788885,"60":5.259513584962734,"61":0.5590979172109526,"62":3.327626525515117,"63":2.566542960175417,"64":1.8703651549069686,"65":-2.7890501744520018,"66":0.4409651928309868,"67":-0.45217696708023386,"68":0.13553240647183107,"69":0.4639640017164723,"70":4.922290686141326,"71":-4.388815880083978,"72":-1.4393033630865384,"73":0.541470247714072,"74":0.5235643071123285,"75":-1.507620190057314,"76":3.3242502629955784,"77":0.46730527994217663,"78":-2.8763028619395636,"79":-2.5032051808950357,"80":-1.6103354970362442,"81":2.5992402796603034,"82":0.4095482036993968,"83":-1.2122671239994132,"84":1.3617751418248394,"85":4.873297596980175,"86":-1.8152535549881934,"87":0.11873097742333254,"88":1.380130051326956,"89":2.408273387231158,"90":-1.1562747887676772,"91":-0.7505865303092877,"92":-1.0277076855309495,"93":3.0186454711467228,"94":-1.054099954916948,"95":2.2734869678262086,"96":-1.0136688042290665,"97":3.493403830672654,"98":2.2806762478584144,"99":4.024426984657266}},"Wch0":{"n":20,"d":20,"w":{"0":3.1689649841341887,"1":-6.023310936558287,"2":1.032267900058269,"3":-1.8452066098543634,"4":-2.2354213299988053,"5":-4.775831578942847,"6":-4.050813126129049,"7":3.791019440374932,"8":2.3446268522998346,"9":1.3906531058448774,"10":-4.250908882790255,"11":-3.4503733213852983,"12":2.639037801401364,"13":-0.5957500039168362,"14":2.2857292673831355,"15":-1.2781265549002676,"16":3.9863392274998795,"17":3.8610679531853784,"18":2.08876706646648,"19":-2.555959821924079,"20":0.7388581696007392,"21":-2.127733277298686,"22":2.8584739830062795,"23":-3.8136397036360523,"24":-0.5248715237904643,"25":8.81180575722164,"26":-0.49417814335418947,"27":2.148536016429044,"28":0.0822065827441732,"29":2.2848220676185673,"30":1.9813089214232036,"31":2.0047118106907216,"32":-1.193141681433029,"33":0.6598754693837646,"34":-1.3080513853343232,"35":-0.7842720986619145,"36":1.853393251573111,"37":-0.5795076734582358,"38":-2.0571683347557688,"39":-3.329247275187351,"40":2.84032091947379,"41":-0.018424277387879225,"42":-1.8875436232012681,"43":-2.8586687661859194,"44":0.22451062668460847,"45":-0.006142177467114168,"46":-4.336345842090354,"47":-0.5941197179027418,"48":3.117078814055052,"49":3.0605998485661274,"50":0.19416689217408228,"51":0.6297748347376956,"52":-2.0670360062968474,"53":-3.9622217416451346,"54":-1.4860548680545391,"55":4.266442424750879,"56":-0.5078471076086082,"57":-6.068114048390522,"58":3.7786096454622426,"59":-0.9191167335608439,"60":0.4343387937622339,"61":2.0017427737069013,"62":0.17423078439250037,"63":2.896251349122067,"64":4.331745614071777,"65":2.345899970197842,"66":4.310633478127202,"67":6.6889668905515975,"68":-2.822408938707271,"69":2.854063111159287,"70":-2.44648487244056,"71":-0.4898279481404882,"72":-1.1229682989356637,"73":1.8941029679103782,"74":-0.36332050263555543,"75":-1.6436703562400883,"76":-0.2707827934467941,"77":4.816060495451988,"78":3.321502887265462,"79":1.1328531211418937,"80":-3.3474069748985613,"81":3.7701756063666347,"82":-1.568700725504481,"83":-0.28973430713003495,"84":2.1379713088717023,"85":2.5831388414971292,"86":4.009376871140123,"87":-1.1914410966649687,"88":-5.9634212309063015,"89":1.131566382873511,"90":0.4892159486716723,"91":-1.3923493957045765,"92":-2.204202507485046,"93":1.6425588784271368,"94":-2.9904423426802818,"95":3.131205554423569,"96":-1.8491479943488005,"97":-2.646168770753528,"98":1.4155363268342671,"99":0.02701184277493289,"100":-1.6554632087438121,"101":0.6804862087871767,"102":-0.7186377938679411,"103":-1.103789245901972,"104":1.944459173812836,"105":1.1386111498206413,"106":0.8356940011176761,"107":-0.06036902611762756,"108":-1.7496438675215324,"109":1.149779095678601,"110":3.355058411394024,"111":3.1808225867811326,"112":-0.01761163054877296,"113":0.19541784583378144,"114":-1.4080604082365848,"115":-0.31613335638014256,"116":-2.200843485393751,"117":-1.022527533978159,"118":0.24877657831135416,"119":0.6426875835847138,"120":-2.8078653675416967,"121":2.9087452742703745,"122":-3.984702903165364,"123":-0.24761812074836878,"124":1.5464742234776205,"125":3.517660025216893,"126":2.533035186016811,"127":-3.659230654601673,"128":-1.383346944933261,"129":2.22549537301598,"130":1.459301960569911,"131":0.8053952860733108,"132":-3.8471788047339044,"133":2.552034951041712,"134":-2.2655693856708896,"135":1.3436781438437195,"136":0.17600004691771914,"137":-1.082699602330466,"138":1.685720140782458,"139":1.189561549883329,"140":-0.09086316975748128,"141":7.116176217667469,"142":1.171960241752381,"143":2.2544602137167695,"144":-0.2406481356941822,"145":3.132598884980036,"146":7.153924630214624,"147":-0.17664038126508605,"148":-2.2613096744020784,"149":-0.7692259066375038,"150":-1.1347419528174154,"151":-3.716943920432612,"152":2.2360046443313375,"153":1.0903638323177185,"154":3.210744980919658,"155":-0.175914970591832,"156":-6.3627467357963985,"157":1.119289427367837,"158":2.1856061840997403,"159":5.890606901925807,"160":1.5878351240047905,"161":-3.7656147811706706,"162":2.053569080724969,"163":2.1430590720643314,"164":-3.159786228291208,"165":-2.1895191784601606,"166":-3.3047921228578416,"167":2.150234969418813,"168":1.3485159441216463,"169":-4.587103045778219,"170":-3.7696135847754677,"171":-2.545876820187784,"172":2.7434752434875236,"173":0.12218343259105642,"174":2.217431714230879,"175":-1.830798480890541,"176":3.285593547584895,"177":2.2548620696613035,"178":-0.5333782946705165,"179":-1.9819703970862783,"180":-3.372225587299284,"181":2.486741817553559,"182":-0.5950948102294658,"183":-0.8759292596354938,"184":3.9280861085534124,"185":2.819718024729958,"186":2.612945078272745,"187":2.2761218853559044,"188":-3.8252013088482544,"189":0.13068923638895735,"190":3.047994475518599,"191":4.24816231262351,"192":1.3718380824009597,"193":2.941306788450622,"194":0.8282415941834966,"195":-2.0264687423721677,"196":-2.1396799752421463,"197":1.4363155226056152,"198":-1.3585736404057047,"199":1.5299176807921633,"200":0.5533403521765834,"201":1.5223041511325055,"202":-0.5429854142047552,"203":-2.1250225132898763,"204":6.5451156744991765,"205":-0.06874472600016533,"206":2.757647992348168,"207":1.57881786700726,"208":-5.4086834963176305,"209":-2.994101157948645,"210":3.2691961523236412,"211":-1.5526301730470604,"212":2.800774389098595,"213":0.46550609032233115,"214":-4.303753586234158,"215":1.0018636115727737,"216":-0.3933912475695288,"217":-1.2338752311400325,"218":1.8483950897395334,"219":-2.236794914103709,"220":-0.40017657972849674,"221":2.120907049331919,"222":0.6146968376613114,"223":-0.29335126165256,"224":-1.4326725319913658,"225":1.4762917274060274,"226":0.5842337006726305,"227":-3.1929824647738796,"228":-0.9101570996209019,"229":-0.4279491461277796,"230":4.223117833031839,"231":-0.24751695103461127,"232":1.6004832679387446,"233":4.58500842410599,"234":-4.851737812991846,"235":0.058987136236806396,"236":-2.6065323986663054,"237":-4.018980875970361,"238":-1.4175469481273042,"239":-0.2825030345565093,"240":1.2770990910108204,"241":-2.802576538002489,"242":2.625895565202191,"243":3.0271868447246675,"244":-0.034404318043883976,"245":0.31014216173845083,"246":-2.089188729948649,"247":-1.010720406590696,"248":-0.508328712598067,"249":5.607821297827358,"250":0.37317846626315243,"251":-0.38342213552125987,"252":-0.5513819305737111,"253":3.179885828572848,"254":-0.8799986649058729,"255":2.719037188792652,"256":0.9561771844121262,"257":-0.8955470112943397,"258":5.424801574248996,"259":-1.4721021277970305,"260":-1.5467650983481056,"261":0.6302698045029059,"262":0.31726835811149867,"263":-1.027012808016337,"264":2.6475289266618844,"265":0.818238138508869,"266":2.0693285887442125,"267":1.686425504421516,"268":-1.882177225519999,"269":2.409937012532803,"270":6.9284572962952025,"271":6.213070286175208,"272":1.4259960414784865,"273":0.7346030002939832,"274":1.619382669805759,"275":-0.13226306589577122,"276":-0.9294572475818146,"277":-0.05785057901829377,"278":2.4555817117984686,"279":2.3048268014983404,"280":0.8903684875561136,"281":2.4501079799230836,"282":-0.5262983971801196,"283":0.3568585027658882,"284":2.4842054184673517,"285":-0.8151926451021108,"286":-1.9215544234502289,"287":5.803043248578763,"288":-2.2080726183236385,"289":2.172857779887152,"290":-2.455222203656929,"291":-2.2504829232806505,"292":3.795710837368738,"293":-1.0353635419707954,"294":-0.577147986795909,"295":2.8042736807016397,"296":3.691823355517273,"297":-4.4727568526586445,"298":0.39404977625638166,"299":1.5607005648779573,"300":-3.080200177747862,"301":-0.4880138616025208,"302":-0.4941529080351148,"303":0.2211099823920442,"304":-0.6051143839018098,"305":4.48573955111997,"306":1.893181012070615,"307":-0.4013036014933185,"308":-1.5049870968731491,"309":1.60864405959266,"310":1.0438752864760148,"311":2.197620975861769,"312":0.4193958495640361,"313":3.3209622804516337,"314":0.40646434908726464,"315":-2.172158230787882,"316":-1.9363061853589218,"317":1.0777244270913975,"318":1.5390864603425742,"319":0.4601072126212217,"320":5.906844689490679,"321":-2.0931783783554248,"322":0.6678446533269817,"323":2.3533316609224784,"324":-8.43438198268464,"325":-6.198993249582177,"326":-7.77896802673346,"327":1.4808634625067207,"328":6.493905370001257,"329":-5.5286547230686605,"330":-0.2862159417918975,"331":-7.153014538506486,"332":-1.5338412099274499,"333":-4.545365098630446,"334":5.0330587128248006,"335":-2.4738596338291616,"336":2.9265146692064876,"337":1.7719668015129453,"338":-0.06934962353800565,"339":3.420278571697624,"340":-2.129334199907361,"341":0.12124281398850532,"342":1.21990503056684,"343":-0.7139808639490495,"344":1.935541336414167,"345":1.195559461237183,"346":0.5365369325299959,"347":3.8926582537185603,"348":2.5026895574098313,"349":-0.2091873501979529,"350":0.9024427367957831,"351":0.2573714565986495,"352":1.9769299615555909,"353":-1.882374738881157,"354":4.243671364098288,"355":-3.8179699569041055,"356":1.9956723360298707,"357":4.524194553148314,"358":1.774618000830423,"359":-1.1693305392773838,"360":-0.4242841117877485,"361":-2.9728506550290605,"362":1.4941826063702235,"363":-0.14769771465074236,"364":-1.7394953467586756,"365":-0.4616762180099303,"366":-3.299587309066171,"367":-0.8194770083516556,"368":-0.2144606239278845,"369":5.864623594339489,"370":1.7191940648469348,"371":-0.7553359705751356,"372":2.2652047251917766,"373":-0.8155371237823796,"374":0.11847242049873664,"375":-1.9689856036231623,"376":0.6322318078058512,"377":3.8860889182251506,"378":-4.60601006237713,"379":-2.7156967059312342,"380":2.062296114856092,"381":0.9048830438850425,"382":1.4816927375968743,"383":0.6289829313298634,"384":0.6017321420637645,"385":0.05600820366447519,"386":0.9409285817576644,"387":-4.144198309449469,"388":-1.8502065334104703,"389":2.3034465996714193,"390":2.0090061422248393,"391":3.293667357588336,"392":-4.8060980185381945,"393":-0.5184733192581137,"394":-2.4300235732979885,"395":0.9564174668427906,"396":1.862147369773171,"397":-3.2492132303039787,"398":-0.8403871262808722,"399":-2.765363416708509}},"bc0":{"n":20,"d":1,"w":{"0":-4.061428299245479,"1":2.3363026950139303,"2":-0.47696033427910245,"3":0.09836767573787357,"4":3.4437219486354858,"5":5.429704155587049,"6":4.246945316831577,"7":-2.5272770486039384,"8":-4.947665605992018,"9":3.144579032758732,"10":3.973769812790286,"11":3.7529759292364915,"12":0.6280138146453521,"13":4.096123860903506,"14":-1.990990365158176,"15":2.925569811516293,"16":-3.964750632328087,"17":-2.4006294162143487,"18":-0.7951404261758913,"19":2.7544632142667744}},"Wix1":{"n":10,"d":20,"w":{"0":0.9852761425035288,"1":-3.7906348354953794,"2":-1.950846432344001,"3":-0.21755140507738935,"4":-1.2242906682406696,"5":0.0954278650033716,"6":0.06929295146740813,"7":-0.20186776942591864,"8":1.1862886672179542,"9":-3.600292558072074,"10":2.3111504139328187,"11":4.1276519675076875,"12":-2.688861484177361,"13":0.9078964914049372,"14":-0.9594515180394354,"15":-0.512207153268829,"16":-1.1892443541985245,"17":-4.581007675522524,"18":-1.28586970954105,"19":-0.01883578996589295,"20":4.095104790663765,"21":-3.5799657694201468,"22":-0.01804237625973513,"23":-0.45896918296305617,"24":2.915479966442222,"25":1.84500339775956,"26":0.10058932734307295,"27":-5.587557905511006,"28":0.16861665292349604,"29":1.649530830030567,"30":-1.0263649813816775,"31":0.7188377919511157,"32":-7.5328590885276405,"33":0.40892723246542223,"34":0.2765286663703487,"35":-2.6958948739174082,"36":0.3911998063486237,"37":-2.6040720669331687,"38":-1.0907438062875927,"39":-0.4844235591679702,"40":5.919225136455492,"41":11.443798400036407,"42":1.399417423704009,"43":-4.490487989167612,"44":-8.79362937451384,"45":-5.917119532740065,"46":-9.263752481127792,"47":-0.16409130528985197,"48":3.0277189380454628,"49":3.3904857606953227,"50":-0.33566333046987135,"51":0.6694079343508181,"52":4.791609036232267,"53":-3.84865875754662,"54":4.053476391179525,"55":2.3652066691291833,"56":4.788520485780652,"57":-3.4985208397356575,"58":5.010058295331219,"59":2.2988639303876894,"60":-0.8603298348903515,"61":2.868563830853774,"62":-3.969949819772203,"63":1.9792183648279806,"64":2.9602428529248432,"65":0.14866083294360272,"66":-1.4942331065891317,"67":-5.9864898848241594,"68":4.163952837983362,"69":-2.463324116759008,"70":1.5063444157485617,"71":0.8830516820284172,"72":3.873698268872678,"73":-2.5905484350747234,"74":-3.9010536256108685,"75":4.796640926681927,"76":-2.133914150076067,"77":-6.103762759273399,"78":-2.783699233364027,"79":1.7608782002750918,"80":-1.1412857491067285,"81":-1.3595093048040643,"82":-4.0463391262968464,"83":-5.860761656864941,"84":-2.095032477057463,"85":-5.878357895394034,"86":-1.8423680328891907,"87":-8.028543976371216,"88":-4.0922752524757975,"89":8.367193598676371,"90":0.20306274913572525,"91":-0.8665172494091701,"92":2.2272753024636867,"93":7.069777576843185,"94":-7.109720490875311,"95":6.564147263029056,"96":-1.30243193578338,"97":-12.197383702975403,"98":1.8739506353149953,"99":-5.938952577314795,"100":-0.085403242966525,"101":-2.313332731742786,"102":-3.4186342255113575,"103":1.3947480214149828,"104":-0.1520740947436773,"105":-2.3950301328829107,"106":-3.4513340191680104,"107":13.951373109834961,"108":-1.2604495945849152,"109":-4.075645945010909,"110":0.3425661232444591,"111":-2.0026827627297163,"112":3.3013732103137388,"113":8.189551579401721,"114":2.2705223305674784,"115":8.576903054118445,"116":-0.15282935522424482,"117":-8.583681804518461,"118":-2.4596685508024714,"119":2.2113058518265283,"120":1.73038327335256,"121":0.1214878327990058,"122":-2.671815797949761,"123":0.21292756824709935,"124":1.7018339396452766,"125":-12.342694113806512,"126":-6.0738234419834685,"127":2.4582011193982156,"128":0.39673816186779076,"129":8.836447252419603,"130":0.4204462052038425,"131":-0.9845583292466887,"132":0.8593622710365028,"133":3.9694423730355157,"134":3.996367808877905,"135":3.181691347221486,"136":2.1991586869629827,"137":-1.0800749631975037,"138":3.093757322754368,"139":0.9845830087759988,"140":-0.33787414908387825,"141":-1.651779033870277,"142":-2.9464582584202663,"143":1.1679002602914652,"144":-0.30774953294902485,"145":-0.7214350638412108,"146":-2.363953108319893,"147":-2.9546796633219863,"148":0.1900522651039189,"149":-1.7610727554057815,"150":1.5754594237039898,"151":0.3790008617898996,"152":-3.644966466531806,"153":0.19088015543308706,"154":1.3316092269150686,"155":5.289842893645527,"156":-0.05619622234731608,"157":1.8836273712306362,"158":-2.903372093226095,"159":0.18974073605064734,"160":1.2014084612384752,"161":-1.03447278059188,"162":2.5611102778924155,"163":6.821818996536353,"164":-7.137500429058294,"165":-0.9173739893960368,"166":3.5161415305285666,"167":-3.4152284487974516,"168":0.0006575106315106112,"169":-3.2994297140444715,"170":0.4479579607541769,"171":0.05510882840131332,"172":2.9735387602949097,"173":4.798746313973616,"174":-4.734268395602461,"175":8.292693069547314,"176":3.015488154120237,"177":-4.45529644815883,"178":-3.225508754754214,"179":3.238855021122774,"180":-2.374468568310548,"181":2.210608332754113,"182":-0.9817131134818784,"183":-1.603095821436597,"184":1.9488285532214566,"185":-6.793421121815735,"186":-0.6545633213564765,"187":-3.189279392416399,"188":0.09198303969280343,"189":4.717223295413625,"190":0.09991000907675926,"191":2.775914757655213,"192":0.7320778011033504,"193":-0.6106985001538103,"194":-6.484349049501473,"195":-5.349254067757034,"196":6.519894393888504,"197":-2.3501866958280293,"198":-2.979304600755869,"199":1.1521133780075365}},"Wih1":{"n":10,"d":10,"w":{"0":-0.07089486173917461,"1":0.15584917025425551,"2":-0.020145391050485323,"3":0.3822805670891122,"4":0.23716588672870356,"5":2.5114225350529202,"6":1.0540868275093185,"7":-1.9409184437348381,"8":0.2081850908630529,"9":0.5853676652342701,"10":5.049650002702969,"11":6.713383616969851,"12":2.641821004217386,"13":5.465674623127364,"14":-0.7930370953133921,"15":-3.9179934517329036,"16":0.5001580728842394,"17":13.611102902697446,"18":-2.4678883977043578,"19":-3.9997490217535003,"20":-0.7396552639857006,"21":-4.883731547283495,"22":-0.07107443570831312,"23":-5.5279918576534435,"24":1.060340876663641,"25":3.0888254099385404,"26":-2.701482648259493,"27":4.526268017017899,"28":1.1053413725637742,"29":-5.19708917830658,"30":-2.9076923768600107,"31":6.289328382544199,"32":1.7261216489970361,"33":3.543819328143809,"34":3.3158812833529616,"35":1.1615736321381662,"36":2.4904705849732642,"37":2.5345001650255456,"38":-3.023780590789316,"39":2.8819451933752678,"40":1.1979555173192273,"41":-4.029604030840161,"42":-1.9684102681821691,"43":-1.331265295756483,"44":0.6281915195858052,"45":-2.750290244890569,"46":3.473605669046481,"47":4.409270696360178,"48":-0.016686097070068275,"49":2.2548720940058162,"50":2.1026442365967033,"51":7.7837304600342065,"52":-2.3339183654259026,"53":1.9038835671329761,"54":2.3290628235604665,"55":-2.4022723978457923,"56":-0.6457896897871431,"57":10.405148236464898,"58":0.4822578208108266,"59":1.51643534169458,"60":4.989386052009914,"61":7.556370286086697,"62":-1.3131525677924618,"63":-1.7584244412940462,"64":1.2733485093156776,"65":-1.3552887460886383,"66":0.9543271009161157,"67":-0.43992990168472224,"68":2.0018785200490186,"69":1.419930466722924,"70":-1.146603185153698,"71":2.1918071328285684,"72":-2.2293947485403827,"73":5.142721145582698,"74":1.2033302181402123,"75":-0.4669940001983762,"76":0.9877396695655309,"77":2.667582412659796,"78":-0.06167981946763639,"79":0.919570224907514,"80":-1.1815514397689753,"81":0.6847706556474834,"82":0.3067911354263505,"83":3.769990314023276,"84":2.609511148489759,"85":-4.4565736259301305,"86":-0.029561368541094278,"87":0.32914301949270847,"88":2.041412672610427,"89":0.9370257402864296,"90":3.9530754283134297,"91":1.3119121443831758,"92":1.3355088565045181,"93":-5.57419444044851,"94":0.4244869618003372,"95":1.8757021489333394,"96":0.5771019097302423,"97":1.3653971088079473,"98":1.7771620413249056,"99":0.35496890478457216}},"bi1":{"n":10,"d":1,"w":{"0":1.4841362469508488,"1":0.19550855242243578,"2":0.7829106096415139,"3":2.2454068224605295,"4":0.44059804069429326,"5":0.7551299462141842,"6":1.475831985731221,"7":-0.6228045706309754,"8":-0.15324932299669294,"9":0.7976256657606605}},"Wfx1":{"n":10,"d":20,"w":{"0":0.5151031430678481,"1":1.8942110609778773,"2":-7.957432599440302,"3":-1.1634775048901924,"4":-3.2052381588526466,"5":0.3148397817070546,"6":-4.7904367967708055,"7":-2.10179180514523,"8":2.319086564451704,"9":-1.43133836200935,"10":3.482859321543372,"11":0.41531104416919273,"12":-6.773716780277495,"13":-5.149343317044437,"14":-1.1530458728424058,"15":-3.9118002563830654,"16":0.549756409606116,"17":4.050590919000108,"18":-2.263551331902183,"19":-2.9637493656738267,"20":-0.4204220505700614,"21":-8.811259387083851,"22":0.41108067576953317,"23":-0.8745927870409445,"24":8.583358421144153,"25":1.038238131675125,"26":-6.316738866447399,"27":4.927565997105533,"28":4.777046475867172,"29":-0.49125599156733757,"30":0.0028815385875088344,"31":2.143245803910242,"32":-1.246947582851472,"33":0.9720748725845069,"34":-1.3283459832110878,"35":-1.7863518736216342,"36":0.0035894549780661946,"37":-2.266681519938684,"38":-2.5180462609458774,"39":-5.418433230440122,"40":-3.195776878017489,"41":-6.696049615269315,"42":0.08838788008243752,"43":-10.82736732786474,"44":1.730554277997829,"45":1.0654754066007373,"46":-2.485956559049242,"47":2.2571103296846933,"48":0.9138733197878968,"49":-3.9712899816495524,"50":0.8359654990522216,"51":6.720688788068882,"52":8.505647473813912,"53":-3.359226585842648,"54":4.543717411563681,"55":-0.2066263269634466,"56":3.326093079062872,"57":8.590361356607739,"58":6.231482587032094,"59":-7.396404774668095,"60":1.3258624268896848,"61":-6.72574921997421,"62":6.576598975362429,"63":0.6912441813981928,"64":4.3570943208562305,"65":-3.42283103955009,"66":-2.494665067965742,"67":9.079931431940807,"68":2.9408947618868404,"69":-2.1802170012577777,"70":-3.182925821969239,"71":2.1318494695431154,"72":-1.7204377402759148,"73":-1.6382704939616508,"74":-10.461212467446037,"75":8.834987201207726,"76":3.7292224308163138,"77":1.7109161915325461,"78":11.01124542011656,"79":-0.2820926793242933,"80":-2.0108423779548494,"81":3.299614241313592,"82":-3.366992230678888,"83":-0.8478171893925323,"84":-2.5555145403545123,"85":-7.003868751118062,"86":2.809753843314276,"87":-7.822150976210827,"88":6.888121721831005,"89":-2.2446286482568802,"90":0.18210027433995643,"91":1.6061864977320215,"92":14.81426496970808,"93":6.832465664791427,"94":5.076730325718299,"95":-3.859684236040116,"96":3.546003923064106,"97":1.0337003806014478,"98":2.0636722310891655,"99":-4.0469949345282465,"100":2.938815264345092,"101":-0.3498688374879111,"102":1.7577766339414218,"103":-6.664519137662569,"104":1.5433760299957768,"105":-9.119436257583104,"106":0.6936286773153854,"107":7.337662091494728,"108":-1.176871120979936,"109":-0.758096826727447,"110":2.156433695313048,"111":1.7934904517614871,"112":0.659463672629931,"113":-2.147351358804401,"114":-0.9284113228379544,"115":-9.638274072698652,"116":6.125953484554115,"117":-1.808806471642677,"118":3.791542501750483,"119":-8.452856659301414,"120":3.8146559220638943,"121":2.2386522195945533,"122":-2.7066869709812766,"123":-2.5252386049789894,"124":1.9256594290971083,"125":-4.435011137470221,"126":-1.1172868777667193,"127":4.361596944277635,"128":-3.2244535441114857,"129":2.1674847300929607,"130":-1.0305073543819578,"131":-4.279247877121358,"132":5.306975460039437,"133":4.845036885899374,"134":4.706889207820503,"135":-1.0141662608293405,"136":5.712472753457063,"137":2.7857826219391164,"138":5.180399581318117,"139":-2.6477532586901265,"140":-2.74827490858331,"141":-2.3679437961624727,"142":6.148498215356373,"143":-2.9149727099827025,"144":-4.598499331127102,"145":1.3212456847414897,"146":-2.5929960805371675,"147":-5.281942582212109,"148":3.984427649944662,"149":-2.51104066262629,"150":1.3682337264845967,"151":0.5201582655764267,"152":3.4368867844106044,"153":1.6796612371868518,"154":-0.5146034733463436,"155":2.3380407955096776,"156":-0.8138004777036151,"157":-4.06917611813572,"158":-0.41617188379610137,"159":-3.1570930828605417,"160":3.897933979378777,"161":1.9259824768500466,"162":-2.514848059721483,"163":0.14237338899184185,"164":0.9227079798424135,"165":2.492900451999134,"166":-1.5456189142302643,"167":0.07277103097997527,"168":1.7576225466641728,"169":-3.592673186807568,"170":3.4983168568909297,"171":0.823261670508259,"172":-0.33192327467149085,"173":6.2108791121626465,"174":0.18813796319670462,"175":1.6154059625800132,"176":5.5152004258437515,"177":-0.25830170277940784,"178":-1.4943817861334752,"179":-12.48719915500156,"180":-6.428789552406081,"181":1.2249168171279619,"182":-0.7931260550864284,"183":-5.374345119872437,"184":1.3924144712199003,"185":1.7605066228959785,"186":-1.3974183277683425,"187":-0.05618540809470048,"188":-0.7877990660888796,"189":1.528326484690737,"190":-0.6473099104385213,"191":-2.3953050500759994,"192":-0.23984278581180035,"193":-1.5616309504954138,"194":-1.4159656752122887,"195":2.273853218574491,"196":0.5105413625537223,"197":-8.239578119879168,"198":8.83671028714712,"199":-5.509869161239957}},"Wfh1":{"n":10,"d":10,"w":{"0":-0.2872270617829342,"1":-0.7071222825811389,"2":-2.614248424389487,"3":-0.4394910195153767,"4":2.7300174782265403,"5":-1.5899884983342882,"6":-0.4150217577949026,"7":0.9279341363774664,"8":1.89966321272151,"9":-4.992587783555187,"10":3.6410403957536595,"11":0.0020947129232744164,"12":4.314836806942519,"13":1.8270938104657657,"14":0.5359606759805386,"15":0.9848032958622591,"16":-5.5186557694561404,"17":1.4620268323867147,"18":2.5802690687026635,"19":5.218504697107736,"20":8.302439179188832,"21":0.09224120868416773,"22":0.20189856878195106,"23":24.979415872659125,"24":-0.6027515977668833,"25":1.3609795667831206,"26":-2.0530386766777595,"27":4.302556457224403,"28":-1.93467372937722,"29":10.255849481272636,"30":-0.9342781412798112,"31":-2.678785360397807,"32":2.145963384352477,"33":-0.7633813935095712,"34":-0.6355331738848411,"35":4.724831003536755,"36":-6.490037178993062,"37":-1.2427882047993914,"38":3.8107716961590166,"39":0.27018268796293915,"40":0.4738774328283392,"41":0.7703908537999739,"42":2.8372339723695372,"43":0.35586812226347786,"44":-0.1613909028033092,"45":-1.138141947174043,"46":-3.0446391606369954,"47":3.925272242123629,"48":-1.3725596595849365,"49":1.214120198621279,"50":-5.0673244099187915,"51":-2.9144275664015775,"52":-4.476002856910918,"53":-2.0714028044780632,"54":0.47088876999189333,"55":-1.3549159154517154,"56":-1.4949032310759205,"57":1.7668331451314194,"58":2.9499673562787168,"59":1.771313057325191,"60":3.404917358668089,"61":-0.7423624665377758,"62":1.4608011504250111,"63":2.2708039446166675,"64":0.8262411650830331,"65":-0.6017209830346406,"66":-1.3770558297213777,"67":3.6692685992611644,"68":-3.8581562266810163,"69":8.591507968192134,"70":0.0283847109280691,"71":-6.707596019606391,"72":0.8554204961933349,"73":-2.3082261729093085,"74":0.5893115982325849,"75":-3.225260486024166,"76":2.4526452763654834,"77":0.5740654007174402,"78":0.08566368255785121,"79":-0.41364667307462133,"80":-1.2310733103474272,"81":3.694260486531274,"82":-3.9110181324224564,"83":0.14530754219273095,"84":3.4751318675286478,"85":17.301630617656027,"86":0.06255079929867564,"87":2.6801101731638033,"88":-1.137306588224622,"89":-6.891480009123311,"90":-1.1224188030831377,"91":-1.6128887388706408,"92":6.763979081679596,"93":3.1977216806744035,"94":-10.446850981209865,"95":-8.280066651920716,"96":-1.5437661461767045,"97":-3.6333854785716486,"98":2.194082892391958,"99":1.2914632737252414}},"bf1":{"n":10,"d":1,"w":{"0":1.4457870003909663,"1":1.0255814057605415,"2":0.26324421509309454,"3":-2.991462800189304,"4":1.8306358511894087,"5":0.18990821915558856,"6":1.768381063806058,"7":-0.42083680530383216,"8":0.9283408087915258,"9":-2.327845709129346}},"Wox1":{"n":10,"d":20,"w":{"0":-1.2141141265197841,"1":-1.2001279066350263,"2":-0.9517572814885357,"3":-2.3070041370585255,"4":-0.7225871223056396,"5":-0.6686350374696141,"6":-2.8201599113941462,"7":2.985866036473753,"8":1.7918126848317715,"9":-2.5573783481227825,"10":0.39865057687468985,"11":0.9023289891082403,"12":-0.5585225655467478,"13":-1.0990638124569672,"14":-2.0788993177789177,"15":0.4678727523295877,"16":-2.4160835486320185,"17":-0.36526308581475114,"18":-2.3207317463479304,"19":1.2093560108594767,"20":-3.2750760544575144,"21":2.4111772752454366,"22":2.4481964054918497,"23":-1.4862676965304322,"24":-7.166386491649493,"25":-1.6540076041037222,"26":-1.6615374872133322,"27":-4.64332116030433,"28":3.392785192434822,"29":2.369557396863144,"30":-1.436263849366537,"31":2.7274617326774884,"32":-1.3245791734326378,"33":-3.601772422480932,"34":-1.5849574084602223,"35":-3.1177142569433047,"36":2.5722426640226734,"37":-4.46252062372719,"38":0.05232198316127198,"39":1.2090178334752024,"40":7.1053969657693195,"41":3.9208059316277053,"42":0.28171049493985006,"43":-1.6338928774719954,"44":-0.93182921674634,"45":-1.162193630156841,"46":-7.242620167780919,"47":-1.3034964656062016,"48":2.1407126009395125,"49":-0.17838848679800362,"50":0.2651218485940233,"51":-0.3633677618403745,"52":3.608848738452825,"53":0.8778721125593272,"54":-2.978870660896749,"55":3.0055480010161437,"56":3.770636550053286,"57":-7.556880838105981,"58":-1.6202099248689164,"59":-4.199842031792175,"60":4.39363678270796,"61":-6.065892370043536,"62":3.9568531889756864,"63":4.6293323555336015,"64":0.6202530191955178,"65":-1.088215668642009,"66":-7.515291690019866,"67":4.456226422774468,"68":7.14429100155261,"69":-1.2596632055899561,"70":-0.022362680281155598,"71":0.5488182901323515,"72":3.9426540490575928,"73":-6.276951810050006,"74":-4.225895097995224,"75":5.581958626041689,"76":-0.1343315262796932,"77":-2.8603896782632416,"78":2.46244581519474,"79":-4.188156326481058,"80":6.8576669584913,"81":-0.5467604072419062,"82":-2.8222776256977116,"83":-3.045523976033019,"84":-0.057693252172416755,"85":-7.4259775081474455,"86":-7.263626549444008,"87":1.0274912226238728,"88":-1.296480588652975,"89":9.340688491966477,"90":-0.9465080377611906,"91":-0.4414148304896418,"92":4.78348269184711,"93":-1.3340507309581429,"94":-1.0286027142621506,"95":8.52258019123514,"96":2.9846550537307563,"97":4.486782144162363,"98":5.540529078694096,"99":-5.6256778159189755,"100":-1.6905012733184124,"101":-1.3753365798050017,"102":0.5170266421552878,"103":-0.169802555766824,"104":0.3859558373393499,"105":2.138470996224425,"106":-6.316561794947161,"107":3.564197474730516,"108":-3.5117030530042355,"109":-2.683600524994939,"110":2.137814695785304,"111":0.8968605520112307,"112":2.791874432614639,"113":0.07390395384911386,"114":9.442124080279397,"115":2.9369238385400576,"116":0.17468964401344642,"117":-0.3134027836645829,"118":5.066867325264738,"119":-1.6575514059981038,"120":4.03198023142782,"121":-1.3239722863016696,"122":0.20683571715755836,"123":-4.338133313706854,"124":1.818958913200784,"125":-8.363985964274944,"126":-3.5105891428733984,"127":-0.7412616463769562,"128":-3.135081072654596,"129":7.130237860840459,"130":-1.6312017102495366,"131":-0.03818724098256636,"132":8.4497906340492,"133":2.5208398489468133,"134":-2.1804247822984095,"135":1.5654562038471946,"136":3.3559591583330546,"137":2.1317555760797413,"138":2.935845281988395,"139":-2.1340090449224602,"140":-0.802901406213153,"141":-2.811075957858897,"142":-1.058393291064647,"143":-0.9193197379396578,"144":-5.30597552881112,"145":0.4195537888298519,"146":-2.1117246108998073,"147":1.475716707642765,"148":8.72032443176987,"149":7.382251394736109,"150":-0.2759551647342467,"151":1.6402907251251744,"152":0.9604330830856695,"153":-2.985096328862583,"154":0.792424616813528,"155":-2.7999204474532626,"156":-0.14053268813812653,"157":-1.1264766728712916,"158":-0.47277053086617293,"159":-0.4931176096866261,"160":3.7740522687898825,"161":3.295197348593043,"162":-1.3180735386371814,"163":0.35211303943515515,"164":7.410268524583731,"165":-0.23018515061768388,"166":-0.07529950772876265,"167":-4.29068749636731,"168":-1.8802706445866433,"169":2.7246867071431504,"170":-1.4589115399478945,"171":-1.8471550013083926,"172":3.949411405880275,"173":0.9265594182841405,"174":-4.72118920471852,"175":3.3701437393512084,"176":-3.0624009301291024,"177":-7.275102169429298,"178":-0.7998506442275668,"179":-1.3287828029868451,"180":-0.6641762406486282,"181":1.755780419506316,"182":-1.0576946779377863,"183":-0.04043484097435759,"184":-4.675914882596421,"185":-4.104529812162565,"186":1.9651480015670777,"187":-3.8351500860975336,"188":0.5683509600308703,"189":-0.03583283339594701,"190":-0.8383927061953576,"191":-2.7413770874064443,"192":-6.161667467822742,"193":-1.3274771803388037,"194":-2.2077580028319552,"195":2.0046072722333723,"196":4.757292959766224,"197":-3.607470509562216,"198":-0.9067193632441639,"199":-3.013720037850992}},"Woh1":{"n":10,"d":10,"w":{"0":0.43916406377250594,"1":-0.18450139905702878,"2":0.6299151635737299,"3":0.8803673590857669,"4":-0.17116634262310562,"5":0.9708918866137923,"6":-0.5210214137004672,"7":-0.26329180669036156,"8":0.35469950219362456,"9":0.11488493492280567,"10":1.7150916696222704,"11":-0.42013134312272726,"12":-9.135371867068772,"13":3.7524063613603444,"14":3.34221290595459,"15":-3.50820614801823,"16":1.1075373005215405,"17":7.905280572982921,"18":0.16062600809603478,"19":-1.979186984958223,"20":3.424274702888245,"21":4.225723187815711,"22":-4.105263804040872,"23":-2.963955515800449,"24":-2.165079543004072,"25":5.46560966200977,"26":-3.157858760836475,"27":2.5613782101665987,"28":-0.07184432130916839,"29":2.3404274211117095,"30":-2.1756865597587423,"31":-1.6324815821902876,"32":1.7365449732887972,"33":1.3820021949946328,"34":-2.155685300337237,"35":-0.19112838758142464,"36":0.12303035145815017,"37":-1.6631288875596937,"38":-0.4207982685814868,"39":-2.4834053192760313,"40":-0.19294517659825178,"41":-4.874104043102165,"42":3.290895094594457,"43":0.8999776240602364,"44":0.4795673939977805,"45":-1.9751741240502336,"46":0.3255628657259523,"47":-2.751437244423845,"48":-1.8840061143221654,"49":-0.4327825754735702,"50":0.7452224331375542,"51":3.014747909390456,"52":-3.5234638916857777,"53":7.2682828980741085,"54":6.927467488905982,"55":4.050245607663452,"56":1.6158757610761092,"57":4.322925339532433,"58":-1.5850732191903467,"59":-1.2735388025803325,"60":0.939873149474888,"61":1.88113850400212,"62":-3.9190109880397985,"63":2.287605939271521,"64":-1.2744859092341407,"65":-0.03493462725952372,"66":-3.886630251580937,"67":-0.47647328277006223,"68":2.36222183382521,"69":3.2399722971729648,"70":1.0166163655370823,"71":0.6866612559189095,"72":-0.1527590642767391,"73":-0.8767891878313842,"74":-0.0675125898383266,"75":-1.3823498700668124,"76":-0.5769172992745315,"77":-0.2796733203928231,"78":0.07147312297056657,"79":0.5863272035757663,"80":-0.09856854327379876,"81":3.337182823968892,"82":1.3933674701614835,"83":0.13768956149400513,"84":2.128948772427752,"85":2.2290314487177723,"86":1.018551456386794,"87":2.9464122536054895,"88":-0.3790171849490638,"89":3.5540889253676,"90":-0.1429763830527616,"91":1.390089063839557,"92":-1.0672852923133676,"93":2.5091034198993842,"94":-1.6210128920184286,"95":4.687597087309242,"96":2.6507917134521986,"97":-1.8542293718477965,"98":-0.1518971233696932,"99":7.399296550138}},"bo1":{"n":10,"d":1,"w":{"0":1.1674089102410266,"1":0.7575740068880898,"2":2.1626989688816076,"3":-0.5680812348150365,"4":0.9726941384312614,"5":0.5360704675158366,"6":1.415735677255689,"7":0.38773253675306746,"8":0.12669306902603622,"9":-0.6539649887305836}},"Wcx1":{"n":10,"d":20,"w":{"0":2.554246132200489,"1":-1.385044470050833,"2":-0.8602123749019038,"3":1.8082419003157715,"4":5.784180220529573,"5":-2.3457927305284993,"6":-2.805324268769001,"7":0.4903379477148681,"8":5.1254763767791545,"9":-1.7154531967990252,"10":0.8125956885516411,"11":0.5948012646060301,"12":-0.9539650473205491,"13":-4.211093486510941,"14":-0.7794873698503603,"15":-2.2639309922924427,"16":2.2210052502366198,"17":1.8896073812551504,"18":-0.38937999836529774,"19":0.2767491179420406,"20":0.8143172626452067,"21":-2.260104967511263,"22":0.9381553361886961,"23":-0.7890041537968625,"24":0.27321900604957006,"25":2.97112643822174,"26":-5.90702550393249,"27":0.27267387482558103,"28":10.345093562379015,"29":-5.024501963226937,"30":1.2399644204042626,"31":-1.258793858714848,"32":2.564792326372797,"33":2.7211960355604137,"34":4.154165704691834,"35":-6.295225797334495,"36":-4.913072462427752,"37":3.7268504512513037,"38":4.526763078944768,"39":6.412106162912614,"40":2.61887702539284,"41":-0.3360368095808042,"42":1.7187512256760615,"43":-5.81856481538082,"44":0.9379174807872235,"45":-10.971626833191134,"46":-2.8529960233574023,"47":-0.9038343889244739,"48":-2.4896929727655803,"49":1.3547636392752083,"50":5.62882822340853,"51":-0.1296092417754649,"52":-0.8562199916420129,"53":-0.6619876346185964,"54":-0.1596005101165957,"55":1.9875333813516831,"56":-7.940483174876351,"57":-1.2790276127010423,"58":5.831152517922024,"59":5.764539064648653,"60":-0.6456003964065526,"61":3.7711765148915966,"62":2.2225107981995986,"63":-4.89217273517646,"64":1.8434259074924404,"65":-1.669865164034262,"66":-3.458641314194469,"67":1.5865389394410703,"68":-2.291253296337304,"69":-1.8611228729817157,"70":-3.7700523694940387,"71":-2.36515172901494,"72":6.715245817215086,"73":-0.7235606767204629,"74":0.581243154500866,"75":0.9951241537578,"76":0.10993012098348943,"77":2.255363595745803,"78":-3.3645794697886724,"79":0.03457996517249625,"80":1.9474545832187333,"81":3.4031889630134353,"82":1.283585031735794,"83":-1.5305399790456862,"84":0.030245368502617907,"85":-4.644628314500265,"86":2.2372445655382207,"87":-1.3154421657178057,"88":0.6935229928670388,"89":-2.8237869997662743,"90":-2.866652575289499,"91":0.1080063239925303,"92":-1.5572189576151487,"93":1.683846325243491,"94":6.211963610429725,"95":-3.6911043934921675,"96":1.583805858273728,"97":-3.77344025883094,"98":-3.2823804054785675,"99":-0.12778365143508974,"100":1.5333144717388263,"101":-6.757986932001669,"102":-0.7740327891655202,"103":-0.6668283255041375,"104":0.8750424241110608,"105":-1.1519624965836295,"106":-0.9937539798572298,"107":-0.6002990952798791,"108":0.0382421185126924,"109":-0.4607068628204622,"110":-1.860480596491179,"111":-7.083162971099802,"112":-1.0989519749424472,"113":-5.666435497146557,"114":1.614806756158347,"115":0.2739388183778429,"116":-0.1133470228760085,"117":-4.304419840980703,"118":-5.68501468630477,"119":-5.217896866949886,"120":-4.235699596765091,"121":-0.13032579742182007,"122":-1.1995596617645887,"123":-3.511708345188254,"124":-0.7964240175843,"125":-0.9296636118567063,"126":0.3976156947492603,"127":-1.654158031593373,"128":0.38815838594111235,"129":-1.613859189834565,"130":-3.8366430405121577,"131":-0.40300982426921833,"132":1.1564493008428183,"133":-1.2762291206886132,"134":-0.10537748146648328,"135":-2.6308738229901567,"136":-2.4960625871947513,"137":-0.055221284402370674,"138":-3.6665132120776462,"139":-1.151812775766975,"140":-2.978855606145235,"141":6.081196980650801,"142":7.1923988154631635,"143":-0.1568919331445066,"144":8.97796631446638,"145":-1.1184282207052443,"146":1.9366191806820796,"147":1.014388506671864,"148":-0.6389198985345563,"149":-1.870361611533834,"150":-3.580668932232984,"151":-3.4717329351426534,"152":2.609452621363896,"153":-0.7060159855290042,"154":-0.10457532979907183,"155":2.173934760330862,"156":-0.5128020993381612,"157":0.10027296987614093,"158":-3.5907063581800225,"159":2.1195374433501573,"160":-0.5675171209018521,"161":-1.5950722246302098,"162":-4.261083754787203,"163":-1.2055019168102907,"164":1.5316993997574537,"165":4.415082473401673,"166":3.849725390615342,"167":-0.7042438128017968,"168":-3.0857241666532813,"169":5.53203654985921,"170":3.7293116029888194,"171":1.6874539367653563,"172":-0.4737669432600847,"173":3.62237547124889,"174":-0.08104645987425078,"175":-0.2264552227876937,"176":-2.610541598243889,"177":-1.3984786449616593,"178":-2.416736956143874,"179":3.8648715208384123,"180":-6.516722879803629,"181":0.023109009889241326,"182":3.9034716120343966,"183":1.0492227144605484,"184":-1.6158679688927795,"185":5.81466553056245,"186":0.4504249099678878,"187":3.3253692767101666,"188":3.716244215010694,"189":-2.3104491037277257,"190":-3.922185889424556,"191":-2.785877443298839,"192":2.878957671144597,"193":-0.10172148246000931,"194":-0.657990958078089,"195":-3.344337308396258,"196":-0.9764859827161987,"197":1.810005810142685,"198":-0.591469211612873,"199":3.1677070431658234}},"Wch1":{"n":10,"d":10,"w":{"0":-1.2576162336546277,"1":0.5896379741610128,"2":-1.0953728234344886,"3":0.7161631034182347,"4":0.6929087257491902,"5":-0.5398752609184857,"6":0.6917577341356326,"7":2.607255527799169,"8":0.5416284807435389,"9":1.1359386194531433,"10":-2.9116026448150576,"11":-0.3933413580935458,"12":1.136255607338713,"13":5.062234258036876,"14":-3.3874469272928827,"15":1.2323401185741003,"16":-0.9029025481423436,"17":-2.398613327771075,"18":1.1570494597842653,"19":0.5990249594908084,"20":1.3864333076100863,"21":-7.868294522854882,"22":4.0956700539553355,"23":-1.6374532940769144,"24":4.318172971140448,"25":0.03302612680884027,"26":-7.3344874848367025,"27":-4.522051537749177,"28":0.4602581097817227,"29":-6.737738232738899,"30":-1.21413105965654,"31":-3.9429857175180665,"32":1.8784556576059108,"33":-1.2029389850169505,"34":-1.9237450575645327,"35":0.46562227514725985,"36":2.189992836248134,"37":1.7820303744429895,"38":2.2055496275695683,"39":-6.7104270046030825,"40":2.027177794796925,"41":-1.4295494228760857,"42":0.8528839357413981,"43":1.3261734410451473,"44":4.476363767258057,"45":-1.1936425508893809,"46":-0.08022333271480596,"47":1.3846968683772451,"48":-1.2171334799929387,"49":-0.86956251112223,"50":3.687263362193305,"51":-5.0382575926679705,"52":-2.9278214150617936,"53":-7.045821810018183,"54":-3.4898150933598675,"55":11.238102947072779,"56":-2.007737285515835,"57":-4.746363047652661,"58":-3.1203433581198112,"59":0.2696400782245522,"60":1.7233046578284363,"61":2.4513875821238624,"62":0.7358263743405102,"63":2.77011208236041,"64":-0.5806246155660667,"65":0.7578045801534579,"66":-0.649359703960385,"67":0.10788373613593666,"68":-2.031230016106042,"69":-0.8708877137959818,"70":1.166764225090609,"71":1.9935739218518302,"72":-1.0297116946554803,"73":-5.703501104496438,"74":5.196566265997222,"75":3.497935016928487,"76":6.817893244126609,"77":-1.0870586388807781,"78":1.3449866840430487,"79":-1.5232882415363875,"80":-0.130928660264427,"81":3.498702716427936,"82":0.10584015136102927,"83":0.7432582251590916,"84":-0.6363625313424861,"85":-0.4517491532068784,"86":-0.42230083102698635,"87":-0.6033653819240488,"88":0.9995265659980437,"89":1.7097542177915113,"90":-0.17481067000943634,"91":-5.01121314608713,"92":3.3213041020928395,"93":-3.8854360579453413,"94":-2.6742916032330273,"95":-1.127083843186264,"96":-4.379607586692037,"97":-2.694808921247757,"98":0.5409538999606778,"99":-1.4970604156776859}},"bc1":{"n":10,"d":1,"w":{"0":0.8585582213495822,"1":2.074433535169008,"2":0.3296725249974523,"3":-3.0554229303199603,"4":-0.8072873109935884,"5":-0.652962479012098,"6":-4.583680997457395,"7":-2.217953075414343,"8":2.117693126268358,"9":-1.2517986749663153}},"Wix2":{"n":10,"d":10,"w":{"0":-6.757696243750629,"1":-1.7757199827592258,"2":0.17203477722112087,"3":5.813488987809032,"4":-1.7268923414418975,"5":1.496181299578969,"6":-4.787166123058423,"7":-0.23736415026976412,"8":0.6860351099789684,"9":3.2572144157503224,"10":-3.7020709448798956,"11":-11.843883247436015,"12":-10.875939864956061,"13":6.996591199390903,"14":4.546945900485046,"15":-2.078036533911121,"16":11.71187430222359,"17":1.1901491599912317,"18":-4.512667597803482,"19":3.1011821957344945,"20":-2.351172229686155,"21":-4.958464570080214,"22":-0.9385094130150455,"23":2.365760017747539,"24":-2.7549686659708437,"25":-0.880187083781278,"26":-6.422404985047139,"27":3.3861185523991986,"28":0.8491594318451595,"29":0.3306053528556476,"30":-4.5717703050797605,"31":-6.313726533054809,"32":-1.6389437791811674,"33":0.5360739563844581,"34":1.229382217328534,"35":-3.4154082534077554,"36":0.20308459771889378,"37":2.020267745103538,"38":-2.358550835415311,"39":-6.137129406249399,"40":-5.69563642685282,"41":-0.27002692056659017,"42":14.618425514287697,"43":-3.9372451329245504,"44":3.598167640893315,"45":6.496129940311012,"46":-14.089216003948186,"47":1.4509111653979656,"48":2.375702340020987,"49":-9.364242105948488,"50":1.8616746703708884,"51":4.804651851725177,"52":-1.1402151328597003,"53":-1.3922648154738033,"54":5.158062387639673,"55":-0.07376867984986009,"56":-0.9716663258822348,"57":-1.2109249769923554,"58":-5.982243335167944,"59":6.590274911424032,"60":-0.296127911641315,"61":-4.160815448925978,"62":-1.0632175088508478,"63":-0.8853828269066717,"64":0.12712878315670917,"65":3.4083955115788256,"66":4.499428445395628,"67":2.0431703206518463,"68":0.42584386776805555,"69":1.6623312345122543,"70":12.621758397671217,"71":2.5349461475581476,"72":-1.4460132783981958,"73":1.5514576189211036,"74":1.2827119982824673,"75":-0.27250519896928804,"76":-0.8766347774755021,"77":1.5479995354553757,"78":-2.5008281993176507,"79":-1.8350843129692112,"80":0.9447105208913406,"81":0.5304767488430793,"82":-2.7752452910353926,"83":-0.7710138307038981,"84":-3.0477277256000583,"85":-1.1585679322408522,"86":0.6887880954590143,"87":0.5039795725844491,"88":9.944323126640295,"89":-0.8807458017570868,"90":-0.15140609608740016,"91":-4.980368438779328,"92":-0.5016700300310184,"93":-0.47637597719210095,"94":2.219779957584952,"95":-0.29208563704624735,"96":0.011323960189301263,"97":0.29847261682099785,"98":0.872701061768861,"99":-1.7694161265953026}},"Wih2":{"n":10,"d":10,"w":{"0":1.1189944831381733,"1":1.1232082727197101,"2":0.5708919870049463,"3":1.3336956431102518,"4":-1.836165245043709,"5":1.0878849556756944,"6":-0.6837347617238917,"7":-0.5328455787926621,"8":0.7562260589656551,"9":-1.1241276774426132,"10":1.873151567779471,"11":1.191920372790928,"12":-5.356031274814044,"13":-0.963143389975129,"14":1.7265328225334873,"15":-3.677038860493515,"16":0.27484181133677177,"17":1.0268543279433149,"18":-0.9124407166256219,"19":-0.7416488918759937,"20":-5.023916176722595,"21":1.245008454294231,"22":-1.0466606825897204,"23":1.5014453838609203,"24":3.6149843192961737,"25":-1.985290200230553,"26":2.641408497501163,"27":-0.9315202292456207,"28":2.669169917047967,"29":-0.48374311051733776,"30":-0.3359674192283072,"31":-0.4882753264287458,"32":0.5195163508771367,"33":-0.5698039181575978,"34":-0.7168708959643859,"35":0.011890747000597762,"36":0.32832341113000396,"37":-0.27499788563581257,"38":1.3695586261299126,"39":0.3277567892179863,"40":3.0376779587569374,"41":0.975708988808608,"42":0.5460927958944359,"43":-0.7336533640010587,"44":1.4059664978852544,"45":0.25116520345326576,"46":0.8620519120002874,"47":0.2926403411481668,"48":1.7940292324294016,"49":-0.9502257845260446,"50":1.9207412706430225,"51":-1.3639350993762038,"52":-1.5997079909094585,"53":-0.46043540458182025,"54":0.34615960199108736,"55":0.6360358956608284,"56":2.314286383041387,"57":0.8241314082343922,"58":-1.1179854535634393,"59":-0.18237564150269778,